4933 64
3286 0.091317594 -0.040453974 0.27874285 0.45995834 -0.052051205 0.012571267 0.3410696 -0.19311473 -0.0833471 -0.025480717 0.29315728 -0.28032053 -0.38338622 0.22015531 0.12109954 0.17882708 0.22945909 -0.2292633 0.49878174 0.33871898 -0.03130593 -0.19134249 0.12593944 0.8977241 -0.45369866 0.64154106 0.049612332 0.42879933 -0.32483968 -0.06567188 0.42341784 0.17095068 0.13223284 0.084037274 -0.106548294 0.68489534 0.20716612 -0.24145587 0.32362545 0.031324185 0.11623964 0.08267383 0.049582113 0.098944 0.012803732 -0.22343692 -0.08871679 -0.184412 -0.6598513 0.08851898 0.17999826 0.2952482 0.008362639 -0.19710898 0.5733093 -0.035831198 -0.017223816 -0.030559374 0.25794446 0.08140804 0.1452861 -0.074195206 0.12757991 -0.11077459
3220 -0.099619135 -0.22979082 0.37472355 -0.33034426 -0.089417726 0.1051188 0.15331173 0.12954733 -0.11873765 -0.17738932 0.058237247 -0.043135397 0.15898387 0.24985775 -0.19111033 0.03446324 0.6046498 -0.7566568 0.14608003 0.21217152 0.2267781 0.11689126 0.19483045 0.09534617 -0.75879455 -0.3666811 0.18076372 -0.07200797 -0.5689815 -0.0097202305 0.10686713 0.5142984 0.07781914 0.22731838 -0.5068698 -0.039359134 0.0037164325 -0.17287248 -0.20523885 0.43048465 0.059031744 0.082215674 -0.26818115 -0.24815379 0.12659933 0.0005619413 -0.20191836 -0.15613134 0.19031401 -0.14758834 0.080761656 -0.17159684 0.0638267 -0.041391455 0.2834026 0.45246896 0.5368866 -0.29414 -0.35581213 0.31708056 0.023240909 0.18187815 -0.0767416 -0.043188494
1282 -0.048755072 0.11682045 0.14473598 0.328452 -0.07553279 0.3008036 -0.118478104 -0.25343767 -0.257797 0.11601152 0.24011289 0.12372236 -0.63093954 0.24740116 -0.50868595 0.05778245 0.5763541 -0.08388425 -0.0716555 -0.15574701 0.1230184 0.14600398 -0.11608425 -0.5899285 -0.023052413 0.4202139 0.112598516 -0.23118158 -0.33628163 -0.1134346 0.000507424 0.5374089 -0.21977948 -0.1548272 -0.6251454 0.43017605 0.1838416 0.029333908 0.19677135 -0.08118797 -0.22462796 -0.1961123 0.30742034 -0.067539066 -0.08428737 0.2178207 0.11120742 -0.05526352 -0.14420155 -0.29966506 -0.2540453 -0.14228956 0.19061457 -0.004513451 0.3542735 0.24987638 -0.08654403 0.15153468 -0.29875916 -0.22927533 0.0548611 0.31797466 -0.45001906 0.19853838
248 -0.21984334 -0.37770873 0.14200838 -0.11589082 0.11046478 0.31890112 -0.070706405 0.08196259 -0.12692197 0.12290652 0.07326999 0.270386 -0.114130706 0.045881588 -0.2142652 0.1975822 0.03858352 -0.54217035 0.05320041 -0.22959182 0.13852344 -0.020280723 0.22611952 -0.107645236 -0.15086764 0.32137993 -0.11203902 -0.08094835 0.09992665 -0.045520853 -0.14834602 0.20799454 0.218104 -0.13665141 -0.19477631 -0.0031827465 -0.03297865 0.18937427 0.51013166 0.22798102 -0.22474658 0.0422257 -0.23620573 -0.051136553 -0.024730707 -0.14982806 0.027790071 -0.4112894 0.17719652 0.025616657 -0.08100556 -0.10055653 -0.021539718 -0.08662521 0.063202724 0.073556475 0.11524505 -0.17632651 0.16930631 0.43145573 -0.07975192 0.1869732 0.038168736 -0.56245255
332 0.21527214 0.34249967 0.06567765 0.17683472 0.80639297 0.587858 0.5171072 -0.31008023 0.081140846 -0.078620575 -0.69301295 -0.08052193 -0.28496084 0.16020797 0.04310312 -0.030714026 -0.107417114 -0.5876001 -0.16639933 0.603422 -0.02077366 -0.20791322 0.78418356 0.004520323 -0.18067743 0.33147714 0.18502934 0.4068515 -0.06391109 0.15302542 -0.096973546 0.57707185 -0.35775387 0.66448534 -0.5156822 -0.047792673 0.50772893 -0.12084671 0.16300541 -0.35806513 -0.24584784 -0.19168904 0.14805147 -0.19155866 -0.26121542 -0.32914695 0.35828993 -0.3345425 0.030985337 0.053790253 -0.12312532 -0.11889831 0.081088506 -0.05374402 -0.35704407 0.15060069 -0.025443267 -0.06423873 -0.06323032 -0.10524876 0.14678901 0.40199676 -0.13903773 0.25596914
460 -0.050530713 -0.24968101 0.48089716 0.21168005 0.05717071 0.2580062 -0.29066342 -0.22144242 0.2732753 0.44435304 0.15687692 0.00216668 -0.5087769 -0.20302384 -0.32901365 0.42395562 0.07973289 -0.32426682 0.09678511 -0.23675746 0.047474023 -0.025186831 -0.11787431 -0.57460344 -0.14514466 0.37430388 -0.19329566 -0.17052305 -0.18198057 -0.037700374 -0.41562557 0.4346002 -0.34298548 -0.2434528 -0.26779538 0.30911022 0.17838958 -0.28227344 0.3452357 -0.0014471869 -0.15511025 -0.10042883 0.06421102 0.06160746 -0.12939146 0.15623038 -0.11763873 -0.028133404 -0.5614359 -0.21430425 0.16091824 -0.055408064 0.16024227 0.0055712136 -0.09590505 0.07520651 0.17494059 0.08518391 -0.4197386 0.20447573 -0.14159492 0.16203126 -0.20691584 0.01846965
3360 -0.008801807 -0.59180826 0.35648522 0.03816914 -0.061540276 0.4798687 0.030442275 -0.09093301 -0.014383524 -0.11911028 0.01883018 -0.19058083 0.111823946 0.015253144 -0.21764639 0.2542978 -0.13560897 -0.27809578 0.07517962 0.14111868 0.12227347 -0.08421343 -0.11918061 -0.3903131 -0.24398524 0.08289388 -0.1394721 0.09327976 0.22020483 0.16613358 0.07257439 0.2715981 0.19656064 -0.2743556 -0.19880004 -0.1304268 -0.20409338 0.3638265 0.44098482 0.07748252 -0.20213296 -0.07719524 -0.04299132 -0.056931168 0.01850678 -0.25848836 0.21806982 -0.08347889 -0.016514726 0.10015084 -0.13243084 -0.02085308 0.075224265 0.06997322 0.07393663 0.023554098 -0.06305015 0.021228982 0.19629173 0.25768796 -0.032363918 -0.113266066 -0.02597416 -0.6263264
1998 -0.44871953 0.0014484391 -0.1557286 0.17677951 0.38038865 0.4915957 0.10340612 -0.0015216299 0.071722284 -0.09698495 0.37826553 0.063625805 -0.06580726 -0.41082057 0.115771756 -0.42710248 -0.1839294 -0.034574404 -0.49361244 0.803472 0.31721103 -0.20743161 0.6094831 -0.20678109 -0.31391096 -0.029887632 -0.9018164 0.5965688 -0.2819073 -0.08226458 -0.05289728 0.6923125 0.44729352 -0.05341506 0.36130294 0.516775 0.25837946 -0.40066946 0.07375136 0.05721352 0.0030466998 -0.4408943 0.511406 -0.32811972 0.54824245 0.43064085 -0.20597906 -0.14952025 -0.39813688 -0.2723542 0.03485436 -0.021936074 0.014823148 -0.22522978 0.1432746 0.18129441 0.17956041 0.35373282 0.21290027 -0.019618822 -0.1704742 0.4824792 -1.0276303 0.14279117
3457 -0.32389495 0.18125707 -0.17280284 0.105664924 -0.1263076 0.30556688 0.15254122 -0.23335613 0.26277298 0.097357884 -0.28438038 0.1968302 0.084123336 0.35444042 -0.12242045 0.010920144 -0.73894274 -0.25849736 0.06656697 0.33225688 0.10164159 -0.045585245 0.04442889 0.39551035 -0.7376536 -0.07483952 0.23814851 -0.013181513 -0.9912909 0.7735179 0.43942165 0.12688324 -0.40798867 0.2728023 -0.05469504 0.104482934 -0.24724737 0.046270847 0.3302668 -0.03001677 0.05651692 -0.1941712 -0.4731942 -0.879136 0.27754182 0.10285216 0.39626816 -0.27661818 -0.29326063 -0.14867105 -0.26753366 0.0287301 0.26433262 -0.70146984 0.18332422 0.20735936 0.44942167 0.36060715 0.44081956 -0.2608948 -0.35308447 0.16484642 -0.7448137 -0.06697241
3781 -0.19773628 -0.4552962 0.3189615 0.44363776 0.31745633 0.33928806 -0.06392806 0.3086374 -0.1697041 -0.06266883 -0.13646498 -0.090260684 0.31030396 -0.00907255 0.12735978 0.19298153 -0.2220046 -0.42368424 0.3427055 -0.103837825 0.044424538 0.1194038 0.022274354 -0.31524095 -0.111034654 0.30920652 -0.2913418 0.1004295 -0.09111269 -0.3830601 -0.027147694 0.27060044 0.23805374 -0.061157323 -0.1671685 0.048551332 0.058129817 -0.04485861 0.070824064 -0.021111757 0.30378667 0.31305552 -0.14361526 -0.22463286 -0.00022105018 -0.25740185 -0.051775947 -0.09634184 -0.090903945 0.37668002 -0.32051373 0.044000417 -0.026478393 0.04244722 0.17303859 0.053962916 -0.2298955 0.12077976 0.22068594 0.22396658 -0.36692026 -0.0782886 -0.75650877 -0.20775308
4125 -0.33959734 -0.2700536 0.36857164 0.16210791 0.02327092 0.2354357 0.48783472 -0.0460746 -0.31018075 0.5568959 -0.02063122 -0.062019963 0.03386907 0.348807 -0.07363831 0.22151336 -0.3959231 -0.40972942 -0.19930027 0.20378596 0.114940815 0.045798853 -0.3651783 -0.3586788 -0.33690077 0.045088645 -0.12164216 -0.007375528 -0.1377774 0.2343075 0.20559663 0.12891932 -0.10199972 -0.6099354 -0.057905704 0.5524319 0.18584575 0.34986663 0.26567015 -0.20789108 -0.0061699864 0.49576443 -0.09651333 0.16516851 0.23070937 0.035825927 0.06808115 0.07184956 0.17258649 -0.03833913 -0.36505476 0.44147354 -0.2342936 0.13998888 -0.027638204 0.12544107 0.08379436 0.0072451136 -0.040687956 0.4069544 0.08646807 0.17649153 -0.26383966 0.11617892
2167 -0.036435287 -0.5234383 0.5307735 0.17304985 0.22008206 0.3790202 -0.27694428 -0.114722855 -0.21347934 -0.1260849 -0.16781716 -0.55178934 -0.27662674 -0.23918141 -0.1916415 0.5052989 0.41432443 -0.37785274 0.16782385 -0.04378615 0.12970556 -0.09957411 0.31422457 0.046687324 -0.20324531 -0.26199198 0.15708025 -0.12553294 0.067394376 0.2703693 -0.1130397 0.2742866 0.1107539 -0.40867692 0.13943434 0.37983546 -0.11987108 0.30645275 0.16777566 -0.07925803 -0.13700064 0.09820449 0.24822815 -0.22610407 -0.040077392 -0.5815373 0.06697236 0.07315031 -0.030374957 0.30394036 -0.109777175 0.051898174 0.08027331 -0.060050648 -0.39544043 0.16467671 -0.14344315 0.051688217 0.07698367 0.33287504 -0.09365985 -0.22271693 -0.085217886 -0.2673151
515 -0.3899143 0.20959936 0.089108944 0.1539691 -0.11409239 0.014054064 0.4261384 -0.08886178 -0.1636531 -0.18489248 0.080027394 0.17310444 -0.09557559 0.4706547 -0.47765976 -0.16093512 -0.09550792 0.16340472 0.107621804 0.47557014 0.026178401 0.14646949 0.07902432 -0.27540216 0.082300186 0.2685425 -0.68578243 -0.041264612 -0.47846937 0.8911537 0.09036359 0.36644602 -0.33758068 -0.21718514 0.18424585 0.3185247 -0.5223715 -0.3352526 -0.21939352 -0.45808378 0.5288806 0.5370565 -0.060811274 -0.057447024 0.07560601 -0.025636083 0.81942964 -0.36006296 -0.5074233 0.72834 0.5747116 -0.62520355 0.05204677 0.18699174 0.102045655 0.23618354 -0.27513912 -0.22973242 -0.42127007 -0.16892824 0.015561907 0.05314906 -0.39170408 -0.4329715
60 -0.5255815 -0.103583775 0.3055812 0.46218735 0.33819032 -0.29957297 0.46886444 -0.5004123 -0.20665316 -0.24920554 -0.18524359 -0.50397116 0.14495721 0.19042091 -0.42918953 -0.22692607 0.118835725 -0.46603054 -0.6757617 0.65796 -0.083479226 0.21075958 -0.04892775 0.281376 -0.102576695 0.12962885 0.25392374 -0.24501194 -0.10923884 0.7152571 -0.08970167 0.056829795 0.44347784 -0.14446951 0.15005846 0.15120766 0.67700726 -0.37133154 0.23290588 -0.4784679 0.6448625 -0.15515752 0.3279136 0.16618612 -0.13435034 0.058313727 -0.48343876 -0.54871154 -0.3076636 -0.08945794 0.29213023 -0.100623 0.07059975 -0.12410273 0.14053673 -0.3960366 0.18232071 -0.032484565 -0.43243644 0.36997122 -0.10019579 0.43801 -0.507374 -0.20809944
2360 -0.29403052 -0.6649801 -0.37032238 0.22092676 0.30164245 0.25826368 -0.07946786 0.2398709 -0.13981731 0.440103 0.24158953 -0.05264993 0.031325597 0.15637596 -0.34288478 0.28363273 0.013480545 -0.39985085 0.09100287 -0.05320801 -0.2336552 -0.017168729 0.15383673 0.039207336 -0.2102136 0.11917692 -0.161754 -0.20833555 0.19015439 -0.08055973 -0.022379965 0.25036004 0.2567604 -0.25626504 -0.3453015 -0.037080005 -0.24428143 0.12998223 0.24535896 -0.20781304 -0.22068097 0.026226947 0.021645673 -0.009413295 -0.07826368 -0.31286767 -0.0021424384 -0.18556145 -0.07656413 0.07824789 -0.14897193 -0.12910934 -0.6214343 0.10862569 0.057992946 0.059785627 0.21336298 -0.09997773 -0.31686556 0.2911006 -0.48641306 0.09034635 -0.23506743 -0.3191452
3442 -0.15490943 0.16677639 0.4933371 0.024584392 -0.36858484 0.65466255 -0.13401188 -0.21757975 -0.10491026 0.44573456 -0.1502762 -0.018777233 0.24730267 -0.14322694 0.0301931 0.20871478 -0.19770855 0.1241321 0.010695025 0.12042388 0.22691835 -0.3360578 -0.06929607 -0.42694992 -0.827847 0.054276768 -0.28761497 -0.060290452 0.36532494 0.27738747 -0.1985611 -0.020838572 -0.13095804 -0.2754806 -0.2829967 0.25685346 -0.12401121 0.21332857 0.24520408 0.19003323 -0.12825395 -0.0047779023 0.22394022 -0.4017606 0.31344494 -0.30500498 0.2425894 -0.11872838 -0.12107484 -0.02425577 0.08307695 -0.017492393 -0.08541442 -0.27772632 -0.28849506 0.28435192 -0.089421846 -0.026495526 0.10029314 0.23243213 0.029152323 0.32341367 -0.17591985 -0.18069033
804 0.15350005 0.18648557 0.13463886 0.8675125 0.09445775 0.75046694 0.3663769 -0.26659235 -0.17848463 -0.22516191 -0.41761717 -0.43032384 0.20933014 0.05847331 0.19724269 -0.14967863 -0.123587236 -0.097436205 0.06963788 -0.2034944 0.29316288 0.2706171 0.2055158 0.2000041 -0.117141746 -0.0767911 -0.118721955 -0.35704088 -0.1076939 0.07931981 0.033319395 0.4694443 0.16855612 -0.6058524 -0.25033063 -0.041273158 -0.07161819 -0.531951 0.030085076 -0.4420016 0.57337844 0.024858369 -0.1570937 -0.47097012 0.08909097 0.7438703 -0.07789204 -0.45336622 -0.43518767 -0.01828857 0.45288303 0.3314485 -0.7923258 -0.26539928 0.0601026 0.24082881 0.0009325917 0.063376896 0.3189981 -0.06284958 0.30459014 0.13532665 0.5228184 -0.1261552
238 -0.030056193 -0.2214684 0.18057898 0.30450088 0.19972573 0.056728408 -0.44520974 -0.020130666 -0.21369882 0.19943179 -0.1050056 -0.34654564 0.1656633 0.0035586474 -0.117700264 0.12576069 -0.4283598 -0.23528989 0.025462849 -0.14001733 0.45284274 0.23520112 0.0071613817 -0.17974445 -0.33541608 0.13632447 -0.13349456 -0.020095045 0.28191975 -0.010649263 0.10842972 0.39491925 -0.22340465 -0.10633702 -0.033134416 0.2018371 0.32733896 0.087910205 0.43274215 0.3048273 -0.2362399 0.3605936 0.31272823 -0.19726676 0.33709878 -0.13458414 0.1894586 -0.36311087 -0.31672806 -0.20065548 0.29246506 -0.45333293 -0.11875585 -0.24426474 -0.08566848 0.07928782 -0.08604642 -0.22597195 -0.12634423 0.49739337 -0.18061747 -0.48257434 -0.28575 -0.037465803
590 0.04879138 -0.17626947 0.14932165 0.012324718 0.031650603 0.3071886 0.034981817 0.059882905 -0.12797275 0.19339356 -0.008609765 -0.2746841 0.21825966 0.2546072 0.021918233 0.4689615 -0.002244178 -0.35774994 0.041334573 -0.105161026 0.34514892 -0.07399401 -0.11240596 -0.5704378 -0.3165824 -0.009158726 -0.11202141 0.18789253 0.13519445 -0.12978683 -0.14234966 0.16587101 0.2793092 -0.0026506395 -0.24881032 -0.114176504 -0.21362938 0.03274497 0.2338301 0.07581812 -0.045485184 0.09735514 -0.076045305 -0.051266503 0.12204943 -0.1694323 0.21273677 -0.43146476 -0.10427138 -0.082132705 -0.16911897 -0.041168 0.09374241 0.12237087 -0.02832906 0.4944859 -0.33215272 0.01712988 0.202571 0.32369533 0.09914242 0.11092416 -0.20840333 -0.509671
4341 -0.24684003 -0.2446777 0.3023746 0.4600451 -0.045567766 -0.00046829693 -0.14712836 -0.1219586 -0.12935294 0.41871968 0.151719 -0.22577076 0.3152386 -0.119014084 0.047300853 0.43133527 -0.12065166 -0.2999384 0.010790271 -0.15964842 -0.07814338 0.20726676 0.25559115 -0.30571926 -0.24536374 -0.12404374 -0.41001073 -0.17442048 0.14487359 0.061939325 0.04205215 -0.105413914 0.114028946 -0.06639092 -0.28605595 0.22310351 -0.103084385 -0.137701 0.4193636 0.062285725 -0.30861548 0.16271815 -0.26908723 0.03969193 0.3120325 -0.22076316 0.15553431 -0.2721768 0.15135124 0.07450797 -0.2876034 0.031792723 -0.42921627 0.013468554 0.19418675 -0.13753179 -0.13287152 0.04424747 -0.3388502 0.49387783 -0.15267651 -0.030433571 -0.29726213 -0.3350349
4701 -0.26234338 -0.38135406 0.19708757 0.3340195 0.14497493 0.26945436 -0.1774669 0.20471348 -0.051220562 0.09368193 -0.21338847 0.11766516 0.2559552 -0.11740101 0.096859 -0.04021521 -0.14630796 -0.5244175 0.45403707 -0.029052492 0.18678854 0.12665412 -0.1252404 -0.24617183 0.0982227 0.3192641 -0.4065548 0.087173104 -0.06021308 -0.33308583 -0.020879509 0.27943277 0.34319553 -0.23507176 0.03323507 0.23845153 0.020822806 -0.25784463 0.12383034 -0.22078413 0.099291384 0.37869176 -0.2255431 -0.21836081 0.13141803 -0.4530508 0.015749669 -0.07898828 -0.17323086 -0.03967672 -0.31090817 0.0143539095 -0.27478755 -0.13949355 -0.018644677 0.3915777 -0.20895164 0.19742933 0.14614083 0.26154014 -0.5482392 0.10972448 -0.7342346 -0.14473152
1891 0.17261308 0.23249047 0.41397744 0.298135 -0.04414304 -0.626751 0.08837486 -0.27271363 0.038675617 0.2541357 -0.057165883 -0.24864751 -0.007183424 0.38192227 -0.59657794 0.050019193 0.011113934 -0.40769196 0.33988094 0.18618348 0.117779024 -0.3341432 1.0266256 -0.21662724 0.19416349 -0.042307768 -0.5958346 -0.82940084 -0.43647644 -0.38907456 0.115822926 0.2593745 0.20993146 0.2733481 -0.19417998 0.24911752 -0.27141166 0.26134652 -0.2719013 -0.10690622 0.4127857 -0.07521393 -0.5157726 -0.3271924 -0.1034167 -0.077172734 0.104758754 -0.6546143 -0.23953249 0.11426685 -0.0349042 0.29390892 -0.54319715 -0.27126646 0.2510764 -0.17631184 0.2613767 -0.45385483 -0.04891071 -0.1323702 0.26474574 0.5794125 0.10064011 -0.7283536
3321 0.24872829 -0.17683706 -0.3559271 0.21600291 -0.5632427 -0.098074004 0.13778348 -0.21694438 -0.44088286 0.584601 -0.66146356 -0.48589322 0.27966884 -0.5695324 0.19367535 0.13996749 -0.14679708 0.2907192 0.7648627 0.7048962 0.11415656 0.96801317 0.19361125 -0.20664875 -0.01956591 0.89147824 -0.35612047 0.25328547 -0.4339037 0.13876422 -0.054380786 0.6165039 0.27536395 0.08585113 -0.20040637 0.7661314 -0.2988702 -0.02844428 -0.09166161 0.30267558 0.31799254 -0.6977438 -0.27835125 -0.19362521 -0.16116603 -0.24273609 0.10716423 -0.60406435 -0.041641727 0.13623363 -0.018866064 -0.32361397 -0.10134309 0.11382153 -0.036544867 -0.13156544 0.23860607 0.15738364 -0.30306697 0.3237643 0.45413992 0.3279413 0.10234014 -0.069939345
3539 -0.6598217 -0.13588966 -0.18818718 0.11203028 -0.347449 0.3723778 -0.104857 0.058206372 -0.30216882 0.19856781 0.5078581 -0.3012746 -0.3043122 0.5584627 0.12115722 0.11736511 -0.38620785 -0.09223426 0.20488401 0.31772444 0.322481 0.030586911 0.408191 0.07187013 0.1334968 0.06691165 -0.21602754 0.1172888 0.43520993 0.1320205 0.05406601 0.2542682 -0.120008506 -0.5192217 -0.4255702 -0.14963877 0.038244188 0.29546863 0.63773835 -0.08440126 -0.14881325 -0.2161652 0.04873648 0.115216725 -0.084174655 -0.09563527 0.14437763 -0.08075648 -0.04380886 -0.08576531 -0.0919569 0.42220584 0.034310784 -0.03187556 -0.22367626 -0.013219025 0.28273585 -0.05598524 -0.5624013 0.43676382 0.19623956 0.04498938 -0.26944947 -0.7531305
1618 -0.42389938 0.3356698 0.25905728 0.8892961 0.18676914 0.59938014 -0.36756384 -0.04854346 -0.24303456 0.6739744 0.6458292 -0.298837 0.005235368 0.14779261 0.48243076 0.12977055 -0.33618262 -0.41763547 -0.16279139 -0.20460257 -0.0846857 0.110968724 0.16376297 0.2504205 -0.15854429 -0.12581493 -0.4397227 0.2545136 -0.5558046 0.27006245 0.022498867 0.58301735 0.47053763 0.7406495 -0.16225515 0.48387018 0.2859305 -0.24137683 -0.5095047 0.330073 0.31858844 -0.047557905 0.24670249 -0.3324681 -0.120146826 -0.22843707 0.48680606 -0.27786326 0.10952954 -0.23319373 0.19750531 -0.08106423 -0.3678126 0.22904651 0.051241163 0.023043286 -0.23985702 0.35025138 -0.22412248 0.19039644 0.055062443 0.14809285 0.26927778 -0.16013385
44 0.106940895 -0.30611983 0.3366526 0.291397 -0.07663699 0.5496811 0.056406215 0.17361064 -0.29086822 0.39278337 -0.11650651 0.3368045 -0.36338523 0.05893324 -0.24737991 0.16436313 -0.03632025 -0.5369243 0.051889725 0.10919019 0.060657404 0.15393722 0.31059232 -0.56898737 -0.2948313 0.36681384 0.03903997 -0.16511312 0.11191172 -0.27147448 -0.08652988 0.16037467 -0.26678312 -0.108457305 -0.0015856486 0.2572187 0.332102 0.1184569 -0.05135019 -0.0847346 0.2786557 -0.11670455 -0.24523658 0.2829924 -0.18143828 -0.27647248 0.17554134 -0.020814467 -0.20204885 0.12318856 -0.011467451 -0.12498326 0.0764181 -0.03896636 -0.073710166 -0.03607181 -0.08345853 0.04972686 0.36257672 0.7087497 -0.028954191 -0.25900275 -0.102762364 -0.059789296
1473 -0.17695084 -0.17914073 0.116948456 0.47297475 0.49190533 0.014574274 -0.05796061 -0.07254893 -0.32972112 0.18810014 0.049398422 -0.18609266 0.4528828 0.20581524 -0.31053597 0.19184904 -0.015055841 -0.539885 0.14705189 0.12579492 0.21422428 0.09515823 0.18555804 -0.40377325 -0.14074147 0.24334428 -0.37258172 -0.093161605 0.19511455 0.8555356 -0.44044262 0.31301874 -0.06586998 -0.14988628 -0.30124635 0.091611214 0.044053897 0.6958133 -0.09861309 -0.16838813 0.046864472 -0.004484813 0.38729495 -0.12829691 0.14515176 -0.014897677 -0.40320197 0.0110144755 0.06629968 0.1638354 -0.07988758 0.3111742 0.20404485 -0.42918417 -0.36593387 -0.20294371 0.07648387 0.07665862 -0.29236022 0.3952623 0.20168252 -0.11474204 0.006129053 -0.079284854
1907 -0.08159913 0.03643534 0.00876832 0.63263047 0.30296308 0.95561296 0.38098583 -0.22972079 -0.20290592 0.0065268627 -0.32401055 -0.43802354 0.14536881 -0.21534461 0.43200108 -0.09245674 -0.12776263 -0.22587045 0.31672105 -0.27622807 0.17120612 0.1494736 0.27524993 0.14562675 -0.36032408 -0.033472475 0.16410774 -0.31756237 0.0651732 0.09016762 0.05924275 0.5502583 -0.15910152 -0.46780628 0.052728627 -0.022853708 0.068533786 -0.231462 0.08443462 -0.25300804 0.52006716 -0.14863244 0.00068150804 -0.18534136 0.28123844 0.79091954 0.0108064655 -0.5424936 -0.6771304 -0.065384604 0.74216455 0.10109334 -0.7372373 -0.13955984 0.36988804 0.32933855 0.22523378 0.28729802 0.2174468 -0.21025886 0.11339023 0.045867257 0.5444727 -0.11647676
4093 0.03428583 -0.42262948 0.28354615 0.2223376 0.115857564 0.22374585 -0.046386626 0.11718064 -0.27131718 0.1639383 -0.07425306 0.12688294 0.3673445 -0.15132444 -0.17231809 0.017905807 0.0106885005 -0.39004 0.17412077 -0.3424257 0.092644975 -0.04850263 0.4923025 -0.4828671 -0.22380772 0.16769405 -0.15392587 -0.07871983 0.025248935 -0.2752851 -0.048375145 0.24695134 -0.045685638 -0.07313429 -0.2039167 0.07755047 -0.19438322 -0.045294195 0.21138504 0.28788745 -0.010570848 0.33593565 -0.028024731 -0.023656897 0.22700629 -0.21841252 0.15103298 -0.12855522 0.17098466 0.24366032 -0.2209831 0.028486691 0.20375389 -0.10315176 0.267505 0.23298675 -0.09255164 -0.30931067 0.19194952 0.36893612 -0.04338056 0.12192673 -0.08400608 -0.55106634
43 -0.28222567 -0.38710704 0.3261795 -0.27962735 0.016695531 0.28543305 -0.16084673 0.16517024 -0.32554898 0.1543198 -0.009366645 0.10689525 0.033114746 0.00021428382 -0.045605924 0.14878738 -0.17263658 -0.4921195 -0.112654395 0.25117603 -0.36163998 0.23063724 0.081103705 -0.2914512 0.029450359 0.5466369 -0.11389581 -0.27643046 0.5413159 0.09095231 0.20762528 0.4399408 -0.39240518 -0.23550177 -0.15141736 0.15122375 -0.008249448 0.23236811 0.47995186 -0.02767236 0.24183036 -0.017841157 -0.0564632 0.073319405 0.15211897 -0.3797166 0.18047498 -0.44546777 -0.056822635 -0.26418725 0.13561176 0.23792583 0.46149674 -0.26763135 -0.07546386 0.52481025 0.20183598 0.08233529 0.3631961 0.30722195 -0.12417601 -0.19883281 -0.045740906 -0.08761747
3449 -0.078565575 -0.37183428 0.28492907 0.38834968 -0.111276485 -0.09713328 -0.041911878 -0.13209043 -0.123923644 0.39473107 0.026262136 -0.2005921 0.27563098 -0.12380079 0.022823425 0.4478194 -0.32718807 -0.34376046 0.24881327 -0.11724961 -0.005718214 -0.04758593 0.10958261 -0.25638357 -0.3665128 0.09870181 -0.3105456 -0.124373406 0.13153838 -0.16238737 -0.20792842 0.12895285 0.022169534 -0.2814831 -0.19709295 0.10021984 -0.2652983 0.2682061 0.2696366 -0.12432372 -0.26776016 0.009736517 -0.3786993 -0.22253698 0.15189482 -0.46095505 0.14541794 -0.15667014 0.028746229 0.28254542 -0.06714316 -0.11408303 -0.2629253 0.0062271883 0.17217813 -0.1406999 0.052648127 -0.1583789 -0.22551365 0.24918215 -0.3441077 0.03217473 -0.31536108 -0.26623887
3459 -0.1442658 -0.3404734 -0.24830975 0.111526996 -0.22798088 0.08365003 0.07628785 0.28933972 -0.12947375 0.44824862 -0.15204898 -0.07240756 -0.06754085 -0.04190427 0.04188004 -0.12877457 0.12728487 -0.7217224 0.53110784 0.2727478 0.114411466 0.2948757 -0.025823355 -0.14573942 -0.22998396 0.35363954 -0.21194303 0.013907026 0.08353438 -0.104076214 -0.10071096 -0.024197638 0.217319 -0.29934704 0.023143353 0.08384745 0.1247456 -0.045755018 0.18445121 -0.20732696 0.024961568 -0.13060983 -0.17128322 0.10489572 0.002519414 -0.4851558 0.38649878 -0.19858442 -0.13332063 -0.30027694 -0.05299217 -0.14251009 -0.15845373 -0.08639572 -0.3623555 0.32607228 -0.41262498 -0.046998505 -0.04617288 0.3923751 -0.37242794 0.098820426 -0.24377878 -0.20610562
2469 -0.13415545 -0.16182086 0.23335019 0.41604623 0.17160392 0.091483556 -0.1922289 0.122773625 -0.3430915 0.48037955 0.21985656 -0.19235882 0.32461736 0.17411055 0.04939021 0.14089273 0.18952475 -0.59578776 0.17428711 -0.20409591 -0.2898276 0.0644121 0.09870174 0.14717665 -0.07461134 0.114372574 -0.25825465 -0.40107694 0.008790136 -0.25078467 0.21214911 0.18277822 0.09600515 -0.36007792 -0.020595219 0.015707357 -0.36799958 0.12899554 0.3524527 -0.051462933 0.043173745 -0.029637754 -0.13706812 -0.082027666 0.013713228 -0.3774071 -0.13521385 -0.14895639 -0.094164066 0.063866496 -0.3144161 -0.4596597 -0.5586213 -0.04276122 -0.18823718 -0.02047444 0.19827437 -0.36562926 -0.17769055 0.18977772 -0.72625744 -0.00629663 -0.18606345 -0.295726
4363 -0.14420462 0.052341357 -0.24861236 0.56466496 0.19969568 0.48112497 -0.2338126 -0.24883692 -0.05554996 -0.14380422 -0.02659882 -0.5593914 0.15309641 0.09348083 -0.29840913 0.0821774 -0.058839362 -0.20543809 -0.27178773 0.44576252 0.20574357 -0.16360699 -0.20946331 -0.4292069 -0.52065027 0.0007257827 -0.17004994 0.12712646 0.21158881 0.019032633 -0.0948688 -0.018801598 -0.019517899 0.016868198 -0.2644982 -0.03539578 0.2556688 -0.14028642 0.45939222 -0.2076967 -0.3064184 0.0651619 -0.2527807 0.19026282 0.1702253 -0.62443036 0.43631715 -0.26172554 0.37420645 -0.6126837 -0.14291519 0.11755982 -0.23344721 -0.07640747 -0.04151892 0.17705734 -0.0017283576 -0.19972874 -0.15714286 -0.20495227 0.010755844 0.048667975 -0.123480976 -0.19464898
624 0.09459379 -0.42945606 0.012243094 0.15417649 0.14031588 0.33288142 -0.34911972 0.13447732 -0.11817532 0.462762 -0.007926494 0.35298473 -0.38589296 0.30521694 0.33812353 -0.24063167 0.2313744 -0.8927095 -0.1192128 0.48622566 -0.24612737 0.09727044 0.015471131 -0.15659826 0.06155533 -0.1464129 0.21823205 0.16598728 0.0016294677 0.04929402 -0.4963479 0.07342942 0.4823059 -0.19943193 -0.5079021 0.08914872 -0.0859351 0.31266752 0.09539539 -0.30064076 0.50640845 -0.18757443 -0.17084517 -0.06360662 0.31181094 0.056612764 0.057761174 -0.7340876 0.32241625 -0.38275638 -0.35214645 -0.32380763 -0.12470325 0.05665104 -0.123711325 0.18482453 0.11652938 -0.2030663 -0.11234328 0.3756173 0.30843395 -0.21314347 -0.31506786 -0.52003497
4039 0.15161808 0.2050279 0.3512612 0.3505855 -0.13690107 0.67369944 0.057209134 0.13695252 0.11419414 0.0044917795 -0.26110426 -0.58393955 0.0070573026 0.40470663 -0.41991946 0.02496078 -0.45472565 -0.6003797 0.11233939 0.14765085 -0.033580974 -0.26594144 0.026075268 -0.5514965 -0.061545618 0.28711584 -0.10317717 0.039632913 -0.14768247 0.27435187 -0.102723695 -0.19321705 -0.17422727 -0.22393948 -0.19210152 0.24148239 0.07528309 0.04812826 0.47932371 -0.06736892 -0.06456638 0.21114278 -0.18230279 -0.3547066 -0.0056938617 -0.52156144 -0.1794168 -0.0067071416 -0.044667494 0.23510104 0.06875507 0.07584926 -0.08712001 -0.15601534 -0.0778386 -0.046400633 -0.119776376 -0.026981566 -0.060016755 0.4602315 -0.05673974 0.31684345 0.012200082 0.33000422
4452 -0.12603386 -0.4005883 0.31404114 0.06492119 -0.054166723 0.2385834 -0.056640457 0.1092238 -0.5820948 0.44039738 0.0355377 -0.05481526 0.43362486 -0.03666967 -0.33965543 -0.06721085 0.012561108 -0.23020402 0.33587292 -0.08491958 0.014739899 -0.30266747 0.19333205 -0.65401226 -0.1665673 0.17038594 -0.01649187 0.014882366 0.15427671 -0.04638914 0.05157913 0.31707463 -0.29878756 -0.32135096 -0.030544464 0.040510643 0.07745963 0.049741603 0.1189798 0.3360039 0.073640585 0.29902917 -0.0012107453 -0.043843634 0.11724794 -0.37912205 0.066281505 -0.078655384 -0.048579767 0.07681994 -0.05926825 0.083622254 0.054242354 -0.23845033 0.4159219 0.13906497 -0.18932287 -0.39865527 0.45883235 0.4663362 -0.007502294 0.14004795 -0.11238319 -0.34644085
2946 -0.23000666 -0.28212094 -0.0658152 0.12733358 -0.13175978 0.249677 -0.18746562 0.5123439 -0.25101256 0.034781575 -0.4286903 0.06415542 -0.16285609 -0.20840512 -0.103020586 0.00451305 0.071059555 -0.7873761 0.19011487 0.43271443 -0.32905436 -0.50812674 0.32788306 -0.04825933 0.20607376 -0.0005199892 -0.35540578 0.65444016 -0.05719871 -0.029553778 -0.13940226 0.32808504 -0.29807317 -0.2777223 -0.35618168 -0.31252357 -0.10863869 -0.31593978 0.111765854 -0.11033053 0.034025628 0.24958107 0.18544166 -0.35566768 0.15816222 -0.31135505 0.09125903 -0.2328647 -0.09488615 -0.26391438 -0.0663106 0.22715272 -0.44335973 0.2151577 -0.48883453 0.34699574 -0.106728405 0.0663815 -0.16617227 0.38115215 0.06594865 -0.029721465 -0.14883755 -0.42182708
1929 -0.16459401 0.111846395 0.071617685 0.23264651 0.33198994 0.45833367 -0.059977617 0.7223847 -0.38007048 0.32634777 0.190904 -0.18229084 -0.32908133 0.25976512 -0.27769914 0.49911875 0.27577305 -0.11595001 -0.19069849 -0.16596079 0.114747055 0.667061 0.5992539 -0.061440274 -0.48848158 -0.4440207 0.51510936 0.08797862 -0.30280298 0.18833967 -0.22477718 -0.17478177 -7.6380915e-05 -0.15467961 0.21310335 0.49569976 0.17683965 -0.3214239 0.39915118 -0.90501577 -0.117559865 -0.21471184 0.2599792 -0.13265388 -0.3035517 -0.41820568 0.050792743 -0.059949037 -0.42210743 -0.06148476 -0.26948795 0.32318658 -0.25326094 0.024371827 -0.040420424 0.15548384 -0.2358243 0.07903958 -0.048593365 0.58159894 0.29066962 0.17591986 -0.5384517 -0.4140982
979 -0.19154043 -0.28992775 0.25722322 -0.10539366 0.16735254 0.08653428 0.08269299 0.49780068 -0.20790572 0.18945298 -0.051054914 -0.22162075 0.2047709 0.5877506 -0.25853685 0.5040082 0.013320152 -0.44589025 0.22383462 -0.047149654 0.63032085 0.22838172 0.06749603 -0.37025496 -0.17510922 0.0022598354 -0.2496971 -0.11474044 0.07948476 -0.26518285 -0.04370057 0.09763425 -0.06162052 -0.10175934 -0.006106774 -0.045042392 -0.08085139 -0.06095083 0.23128153 -0.048515722 0.009951747 0.09585767 0.1721265 -0.07183806 -0.2558368 -0.25203708 0.18856089 -0.4403875 -0.61667985 -0.21862745 0.030783972 -0.0013546529 -0.3476054 0.13017856 -0.09641305 0.22898577 -0.2074318 0.047120314 0.24544755 0.6057408 0.041924447 -0.05411073 -0.2806571 -0.45746338
176 -0.2160132 -0.16729218 -0.043610968 -0.49100024 0.22282918 0.21005964 -0.2512081 0.4036882 -0.519298 0.23827873 -0.10920008 -0.29676133 0.05178977 -0.057261292 0.2821752 0.51266396 0.31171632 -0.13419428 -0.16014576 0.7750921 0.24666955 0.070069045 0.05582905 -0.05164731 -0.9019898 0.295096 0.317511 -0.52101177 -0.8108218 -0.35021046 0.25493556 0.5607424 0.17997429 0.09208099 0.22996016 0.09567953 0.058573633 0.37271655 -0.33190352 -0.29990172 0.18850009 0.6111381 0.53923416 -0.20239785 0.06310782 0.23803565 0.39055243 -0.53132427 -0.6405219 0.59859854 0.37863827 -0.23075041 -0.4510619 -0.02301681 -0.21832256 -0.27371544 0.38858923 -0.040347002 -0.41073313 -0.3981354 0.28485075 0.25591698 -0.70370436 0.039127745
3170 -0.13094798 -0.39373562 0.15977208 0.68511915 -0.07405826 0.39604527 -0.5069164 -0.31482226 0.10844724 0.1807127 0.2514193 -0.5512178 0.16025178 -0.1305166 -0.13195874 0.40645933 -0.19760196 -0.09128677 -0.14422637 0.042994283 0.13979979 -0.56660014 -0.049680628 -0.1512654 -0.058681697 0.16376181 0.06462953 -0.038475767 0.13321877 0.10196338 -0.48789793 0.28635213 0.2601107 0.17087063 -0.11650288 0.07405402 0.18707581 -0.045712166 0.08207455 -0.12158139 -0.38789332 0.4681707 -0.3332566 0.29624534 0.2789605 -0.45313504 0.6764735 -0.6250061 0.13972394 -0.3496516 -0.05359353 0.51311094 -0.18959305 0.029120075 0.078069076 0.3134164 0.17339805 0.097890615 -0.26403633 0.18540406 -0.07176686 0.09702926 -0.14171463 -0.30750743
829 -0.7712281 -0.20702744 0.20033981 0.095253095 0.21016198 0.16611646 -0.22975598 0.09163287 0.020786509 -0.29973 -0.13911726 -0.34930113 -0.027286695 0.015266692 -0.2920624 0.24549778 -0.41214073 -0.33875394 0.05854326 0.33405858 0.4366048 0.13360891 -0.049361464 -0.70164186 -0.35534236 0.17580727 0.10061321 -0.22899994 -0.027893534 -0.06586111 -0.24531579 0.04340335 0.051904544 0.06058878 -0.2869964 0.225181 0.08208269 0.1922571 0.20702201 -0.20043384 -0.22557385 0.516037 -0.32027704 -0.19221982 0.35646808 -0.49752617 -0.059755314 -0.36145285 -0.025422864 0.088040106 -0.013840155 0.10249855 0.13433804 -0.2555086 0.03703019 0.09756671 0.08325953 0.18736668 -0.101487234 0.22246167 0.03731579 -0.28604472 -0.18220215 -0.34235308
3907 -0.089337945 -0.620903 0.0003149866 0.20991859 0.1460956 0.61581254 -0.16965532 0.17668381 0.058489367 0.14176208 0.019364934 0.13218625 -0.039936487 0.32781357 -0.0013998817 0.024730757 0.11656242 -0.45339596 -0.06551789 0.10288149 0.10440968 -0.31171608 0.18064111 -0.12554054 -0.27194184 0.06992723 0.23301569 0.16021238 0.033606503 0.016611006 -0.083827764 0.25314975 0.26395112 -0.7697525 -0.17377318 0.39275536 0.005305736 0.007925138 9.393686e-05 -0.058949288 0.1905346 -0.30826527 -0.10252098 0.31267214 -0.092130475 -0.4160079 0.07088294 -0.66909665 0.20212282 -0.42857024 -0.2972412 -0.17720048 0.18187188 0.10455083 -0.15888296 0.22059858 -0.12199213 -0.39974675 -0.14491396 0.14038642 0.160702 -0.38468528 -0.4259457 -0.24900126
2341 -0.032344315 -0.19121516 -0.019547816 0.26061276 -0.30885825 0.36696786 -0.08110184 0.05529075 -0.020644376 -0.04496939 -0.13944897 -0.32972512 0.23671871 0.31249514 -0.08788133 0.12653834 -0.06459763 -0.26920426 -0.16579945 0.194183 0.19704597 0.29192546 0.11171397 -0.5252729 -0.2754344 0.31662816 -0.19083627 0.027018694 0.13165936 -0.27182573 0.06177916 -0.008112126 0.12535006 -0.14772178 -0.40369123 0.35374263 0.06405352 -0.050203912 0.22605324 0.15160434 -0.5392464 0.47852498 -0.13324092 -0.6350449 0.15929289 -0.33274055 0.28954342 -0.20733985 0.0005496381 0.32465157 0.19084631 -0.18563187 -0.06743011 0.16226937 0.10767343 -0.061123136 -0.13682203 -0.059914 0.42201114 0.6039938 -0.5366726 0.2547973 -0.06629099 -0.11319397
4907 0.022631953 -0.4568633 0.44911465 0.18366282 -0.20630865 0.039802853 -0.25386983 0.019824132 -0.1241758 0.23445682 -0.13224113 0.05799381 0.16819677 0.035713125 -0.1454995 0.2253883 -0.28665313 -0.7165881 0.47153315 0.07150202 0.2635498 0.0432972 0.12234957 -0.26945087 -0.15422498 0.09220332 -0.18441127 0.03882674 -0.23175174 -0.021972146 0.050878253 0.11801188 0.3140196 -0.1273881 0.16030113 0.11510187 0.016512416 -0.19924456 0.3528081 0.26704764 -0.38302195 0.32210016 -0.51761615 0.16892035 0.28288424 -0.44768828 0.08636768 -0.22502376 -0.093951516 -0.09341199 -0.14599049 -0.026310222 -0.17196128 -0.14285764 0.1603564 0.38811377 -0.19093166 0.15362014 -0.20082034 0.41600123 -0.35118198 0.065093294 -0.1632187 -0.24172814
3336 -0.28510788 0.08854488 -0.00058029196 0.6485744 0.24257758 1.0361291 0.30730236 -0.1280777 -0.055540726 -0.1237834 -0.32288823 -0.5637162 0.12271749 -0.21239755 0.21107092 -0.045945317 -0.13108274 -0.4207084 0.15116744 -0.2193727 -0.024117514 0.38350448 0.23343454 -0.017380876 -0.26013243 0.13643168 0.15493517 -0.23727335 0.16056535 0.045049507 -0.11725405 0.4511698 -0.24518874 -0.5463816 -0.032006335 -0.10754087 -0.13367721 -0.38549897 0.2000546 -0.22781913 0.44651318 -0.13735087 -0.11423942 -0.33000696 0.18637407 0.80203044 0.014930717 -0.5630894 -0.3176088 -0.046761297 0.7365525 0.26316255 -0.5661288 -0.42999244 0.2635688 0.23608437 0.039089628 0.21627977 0.13446496 -0.311131 0.1150188 -0.1474657 0.60305524 -0.2252751
3044 -0.13590813 -0.20997986 -0.37752134 0.5274906 -0.3818804 0.29192728 0.40187967 -0.10904534 -0.21793011 -0.15212797 0.028558407 -0.051382218 -0.052632917 0.044962738 -0.3834928 -0.19794947 -0.23847966 -0.35500285 0.44599134 0.3016649 -0.06568332 0.0580813 -0.10996162 0.092128284 0.23999336 0.10891077 0.24422787 -0.17105235 -0.22906627 -0.41781744 0.11751942 0.45509055 -0.13556342 0.22842415 0.3056191 -0.122428946 0.15218347 0.7487568 0.54288024 0.1608639 -0.33383736 0.023073208 0.107379265 -0.74181867 0.14698209 -0.17346433 0.30195084 -0.32633635 -0.26152813 0.060780615 0.48723692 0.08864716 0.36358237 0.13312067 0.039827272 0.30841795 0.18547544 0.4793545 -0.4491105 0.6063254 0.8956357 -0.47778407 -0.23077062 -0.2733404
2252 0.019024918 -0.4172501 -0.05896686 0.0004556127 0.20670848 0.3156629 -0.23455633 -0.48502138 -0.43688348 0.33196217 -0.17922358 0.30225718 -0.2251876 0.09953413 -0.27083302 -0.09649615 0.66549337 -0.70864135 -0.19167039 0.01741568 0.53277445 -0.053549785 0.15672731 -0.44932863 -0.14720882 -0.007925746 0.019614344 0.46710235 -0.24123037 0.19787018 0.4750032 0.14139724 0.23338524 -0.10469971 -0.08284016 -0.056536097 -0.64183056 -0.05308544 0.3194589 0.29660177 0.55550575 0.015336217 0.16416419 -0.11642489 0.19264801 0.16595745 0.35701624 -0.20385087 -0.14535603 -0.14390315 0.098488525 0.43280053 -0.071487315 0.6354473 -0.30833778 -0.22589049 -0.16785683 0.10477546 0.13934591 0.026072342 0.047827125 -0.15128776 -0.043810166 -0.19588718
825 -0.27102926 -0.17196353 -0.09284395 -0.13256916 0.053109217 0.24859843 -0.0007010301 -0.27762678 -0.036668494 0.038420163 0.074618176 -0.36568066 0.32330737 -0.19141497 -0.032971315 0.34887013 -0.55395794 -0.36857757 0.08613336 0.23467988 -0.13171184 -0.33095834 0.21017338 -0.5711997 -0.58624613 0.53188354 -0.46627477 0.27145773 0.118995994 0.115239225 -0.06095613 0.03997185 0.50449294 -0.3913663 -0.5177865 0.025324462 0.26840615 -0.1828262 0.354729 -0.041042637 -0.07506676 0.30617434 0.06344428 -0.24612665 0.39106777 -0.37092462 0.20275782 -0.16606033 0.33112195 -0.11558533 -0.08396623 0.17999102 0.10082443 -0.007342997 0.031852875 0.26764622 -0.15071316 -0.061382625 -0.07944362 0.006311814 0.3053334 -0.2244766 0.10621023 -0.24212682
2835 -0.11547082 -0.286488 0.5410618 0.10437765 -0.0434671 0.15631306 -0.040704783 -0.2416002 0.14121097 0.25491202 -0.18570784 0.08212121 0.3051288 -0.15261938 -0.06749324 0.17917126 -0.13658091 -0.6679506 0.26112404 0.26587525 0.3508284 0.3005219 0.009062999 -0.46054345 -0.13891079 0.015144513 -0.118095286 -0.055435654 0.005621543 0.20265488 -0.07002013 0.03887417 0.11788219 0.045387294 0.23453577 0.21768156 0.16253673 -0.04674434 0.4367557 0.25851917 -0.3089577 0.3201982 -0.34946156 0.18784237 0.30827358 -0.42483726 0.19354923 -0.17480487 -0.16071974 0.009394732 -0.13910168 -0.083304465 -0.14249897 -0.34916404 -0.02597457 0.46675873 -0.19913486 0.13742256 0.046327356 0.32532507 -0.28660852 0.27318445 -0.16615084 -0.1654539
1458 -0.12400967 0.5656444 -0.22202487 0.24230973 0.031983122 -0.032147918 0.13797645 -0.068450086 -0.6702251 -0.5290187 -0.08831629 -0.08034118 0.17095268 -0.11842929 -0.01464757 -0.23908639 0.030381205 -0.2968038 0.1173936 -0.01367213 -0.089428 0.22791973 0.17724532 0.04929461 -0.16448465 0.602395 0.068008415 0.1657059 -0.008030553 0.6476827 -0.1667277 0.62642574 -0.18099475 0.5909978 -0.44347808 0.4796363 0.18291415 -0.14631885 0.23305736 0.21623252 -0.43632543 0.16405885 -0.5515277 -0.3622406 -0.307975 0.23779833 0.157338 -0.17580068 -0.45998693 0.3496945 0.5693035 0.2809397 -0.21033737 0.9314046 -0.09368151 0.09064719 -0.26472953 -0.376405 -0.468386 -0.15585835 -0.08700117 -0.3952862 -0.8226292 -0.1109995
2509 -0.32724646 -0.31050363 0.1133042 -0.16307859 -0.08658936 0.47691628 -0.20826198 0.29427055 -0.43070897 0.7378168 -0.30092907 -0.5387398 -0.14499073 0.16581403 -0.15454146 0.22367975 -0.00701027 -0.23038186 0.11542264 0.15582524 -0.11449459 -0.09545385 0.16242202 -0.1331825 -0.1591882 0.0046012336 -0.38232338 0.029762812 -0.09559523 0.07857149 -0.36744365 0.4831261 -0.26722026 -0.7010515 -0.15478934 0.011753153 0.34158325 -0.058445465 -0.0756286 -0.16804916 0.15131903 0.079873584 0.15521352 0.1770634 -0.0065233307 -0.23426193 -0.09948841 0.14488114 -0.3357767 0.059665203 -0.17548326 0.36567527 -0.28384757 0.260757 -0.20077972 -0.010280502 -0.2426834 -0.24081916 -0.24115652 0.35685718 -0.12529162 0.048014015 -0.26456636 -0.4318829
3131 -0.13709314 -0.15497777 0.00954053 0.18936978 -0.044315506 0.032784957 -0.22003862 0.14509696 -0.44492912 0.58128864 -0.55685675 -0.3066445 -0.3959991 -0.10300188 0.07411399 -0.07669477 0.56543946 -0.4134955 -0.5379873 -0.21219486 0.27668986 -0.029280838 0.21247299 -0.5226058 0.38280654 0.09412801 0.40097117 0.41445738 -0.13815723 0.16676319 0.74944395 0.43531078 -0.011571022 -0.23634723 -0.13171133 0.37742585 -0.09603865 0.06078375 -0.1800896 0.22544293 0.35247484 0.15943347 -0.17654078 -0.17701134 0.1532084 -0.28161415 0.74421734 0.06391121 -0.11594203 0.19130024 -0.18872769 0.7979966 0.12293689 -0.16429982 0.30470818 0.49816063 0.28158438 -0.020153264 0.15867579 0.19724017 -0.118648164 0.16083618 -0.22900872 -0.21228082
173 -0.044240136 -0.2278379 0.25218228 0.059484225 0.06132476 0.16968326 0.15337741 -0.034418866 -0.20136765 0.045550987 -0.414609 0.13143076 -0.10592245 -0.020076115 -0.026469018 0.17226239 -0.09708859 -0.5095859 -0.07434831 -0.50314087 0.35729784 -0.0568715 -0.22866358 -0.4957172 -0.42967808 0.049417246 -0.04818611 -0.13054714 0.109858066 -0.10494049 0.027166098 0.39675564 0.27570122 -0.05464274 -0.28290558 0.25200376 -0.081258744 -0.060830604 0.3348179 -0.08178798 -0.09994779 0.13650556 -0.22307432 -0.37119475 0.53755593 -0.50755286 0.18699212 -0.030400574 0.009875798 0.21008171 -0.07150303 -0.1232374 0.15159929 0.13700543 0.06246224 -0.32694447 -0.22409116 -0.19506918 0.07833389 0.35915315 -0.2682183 0.09035027 -0.19000101 -0.48784524
2263 -0.20391904 -0.5404471 0.31803545 0.63994616 -0.7550288 0.096445404 0.3429432 -0.24601811 0.14161341 -0.057405725 -0.40400642 -0.06877873 -0.13003272 -0.0051562707 -0.09772541 0.030177852 -0.12326035 -0.5260438 0.13410278 -0.11814565 0.03753468 -0.1605692 -0.3706999 -0.39702794 0.29586056 0.14703478 0.18586206 -0.24284822 0.06437066 0.10435092 0.5674087 0.7024556 -0.12713045 0.265368 0.35006145 -0.090383574 0.07967537 0.26389083 0.5916061 0.046363186 -0.124953404 0.19854106 0.05177352 -0.47297025 0.036098856 -0.28703064 0.103784636 -0.041592326 -0.1753023 0.21046755 0.047729146 -0.2414814 0.18581527 0.24622655 -0.3669455 0.1443854 0.015442759 0.38282025 -0.21565828 0.34381762 0.5711007 0.13462074 -0.40695935 -0.2239305
1624 -0.4901332 -0.2874143 0.21815176 0.2718282 -0.27650234 0.43853527 -0.017020185 0.015191092 -0.35544106 0.18289101 -0.17418443 -0.15200873 -0.5602323 -0.09972789 -0.29258984 -0.16673407 -0.030089391 -0.57583714 0.10272643 -0.3276105 0.27741215 -0.053523894 0.33776495 -0.08426294 -0.11427917 0.012958146 -0.41548276 -0.2598627 -0.10731588 0.5588979 0.071760036 -0.07434969 0.2740188 -0.26771328 -0.7410244 -0.10564456 0.49133542 0.0394226 0.13026404 -0.32561952 -0.0841739 0.0795108 0.2115068 0.1190664 -0.32661656 -0.067604 0.011745256 -0.23701438 -0.01794054 -0.0074626706 -0.29982686 -0.17337658 -0.47064313 0.28293926 -0.14641273 -0.08275444 0.004185636 -0.10917981 0.45681158 0.6600483 -0.3508645 -0.07543212 -0.34424704 -0.2214368
2986 -0.19025047 -0.52151376 0.26640177 0.5157105 -0.4003906 0.58182865 -0.060474265 0.34227848 0.2247191 0.3542843 0.3254168 0.18718864 -0.16284782 0.3309146 0.2688747 0.26873976 0.5721814 -0.36325777 -0.18037997 0.35328287 0.11449896 -0.39742205 -0.06318949 -0.30127883 -0.46473032 -0.29342502 0.46437085 0.07465558 0.07249838 0.021812897 0.11798784 0.24839807 0.195106 -0.75255454 -0.15767473 0.19727865 -0.3326794 -0.19300804 0.14049168 0.07732315 0.22983392 -0.20835485 0.038030434 0.21672185 -0.2195886 -0.32596424 0.11352823 -0.43479654 0.015343636 -0.25376907 -0.21098226 -0.13166933 -0.11431277 -0.003129695 -0.32813966 0.12560211 -0.18343352 -0.723183 -0.29045638 -0.11876483 -0.076516286 0.058749072 -0.49246228 -0.35343847
3833 0.07077427 -0.09340961 0.30694997 0.2715919 -0.07776993 0.36178184 0.12598419 -0.09456574 -0.24398667 -0.23592259 0.5204217 -0.6271812 0.03259933 0.36324406 0.38272744 0.15755008 0.10018356 -0.8530664 0.04307789 0.04606516 -0.1991397 0.072955094 0.15789531 -0.09950986 0.17411618 0.5910176 -0.18561636 -0.2809131 -0.13122658 0.6333193 -0.5730382 0.1556137 -0.15459715 0.4244242 0.2238819 0.049956154 -0.7741952 -0.20092316 0.23401697 0.32375854 0.021425461 -0.107014656 0.033416424 -0.17651139 0.06879622 -0.06360319 0.21782684 0.2824265 -0.7083556 -0.2524928 -0.071690105 -0.11013479 -0.0016663681 0.14918573 0.13938181 -0.00911114 0.101008184 -0.34011602 -0.33224848 -0.16161974 0.29551408 0.056378942 -0.11451409 0.56072646
3384 -0.34984797 -0.1770445 0.046407238 0.16336502 0.18130507 0.75496954 -0.21670754 0.34534508 -0.2675569 0.039938085 0.10318396 -0.2761447 0.51661444 0.005209566 0.09853062 0.41712913 0.1222812 -0.17172062 0.44002888 0.082284376 0.2582235 -0.1664923 -0.11169173 -0.025139978 -0.18739374 0.23790966 -0.07792003 -0.029277878 0.2691104 -0.11935258 -0.038751062 0.0900201 -0.14812952 -0.10707293 -0.2496524 0.04181648 0.06689141 0.30616885 0.06914162 0.1528241 -0.09408007 0.37891784 0.4048443 -0.6268952 0.19210581 -0.26285046 0.03174821 -0.12644446 -0.12724783 -0.10962265 0.22015661 -0.15220818 -0.05008041 0.15165117 -0.039289724 0.41759357 -0.020332696 -0.3367783 -0.13336882 0.5451126 -0.15141274 -0.017240398 -0.4825685 -0.15239552
2573 -0.017656395 -0.4705925 0.31614882 0.24809806 0.0989873 0.3278931 -0.51974493 -0.46686023 -0.6370437 0.10713404 0.13517132 0.43503842 -0.5905724 0.3367164 0.022406904 -0.031218333 0.03728916 -0.57587296 0.25100178 0.32104656 0.17732395 -0.046221424 -0.5954292 -0.21955346 -0.41859514 0.44203642 -0.12540436 0.4240965 0.017862763 -0.42544362 -0.09241813 -0.11782548 0.1028248 -0.05534114 -0.43493032 -0.29448357 -0.20874067 -0.17748168 0.20045577 -0.06806091 0.033781804 -0.14888991 -0.19939888 -0.32332826 0.4429706 0.4163294 0.115332335 -0.24430673 -0.40414476 0.016149612 -0.30728292 0.15086007 -0.3728068 0.22432736 -0.2363801 -0.06800882 0.100627325 -0.13496207 0.27005124 0.3196027 0.19111669 0.0696606 -0.19546004 -0.295219
2622 -0.28137958 -0.25601324 0.38069212 0.20996344 0.025021167 0.44177517 -0.29041913 0.13347857 0.023258075 0.5104496 -0.16858588 -0.047693208 0.09501692 -0.1824704 -0.37234583 -0.048736762 0.4059619 -0.42539373 0.38052318 0.06409784 -0.1810548 -0.0013301345 -0.07447087 -0.18392308 -0.2812712 0.20942852 -0.35076806 -0.2138015 0.22051474 -0.17799269 -0.15420738 0.1532512 0.41027012 -0.32370993 0.18863443 -0.18011087 -0.035641678 0.120491885 0.30736464 0.05009841 -0.16661155 0.44909078 -0.3368324 -0.008652521 0.31120223 -0.1867499 0.18221574 -0.11230783 0.00025655972 0.085264124 0.51802486 0.0062187216 0.1768135 0.2035313 0.34019583 0.44225517 0.13894771 -0.1962123 -0.22380541 0.47982103 -0.39461038 -0.027180722 -0.24547635 0.13987443
4406 -0.17496796 -0.008953048 0.3270178 0.22481766 0.32000184 -0.16266361 -0.6719561 -0.20515178 0.09855162 -0.04458543 -0.32405648 -0.062427565 -0.048994534 -0.16434862 -0.03641609 0.3184418 0.12301603 -0.5632909 0.18550852 0.031109208 0.3638152 0.12881683 -0.16321777 -0.35749248 -0.18160067 -0.3647809 -0.17236398 -0.08592342 0.009158406 0.22775708 -0.00045684638 0.4359425 0.16401035 -0.4500971 0.0064643444 0.49517033 -0.4349011 0.116701335 0.3524225 0.29466558 -0.17536505 0.1398552 -0.3094412 -0.16412237 0.38665634 -0.40699273 0.03747343 0.112120815 -0.4860023 0.17120834 0.2594049 0.3374484 -0.015507222 0.11353078 0.16374722 0.39956954 -0.1365372 -0.16444771 0.18077475 0.33513656 -0.20161839 0.31642625 -0.34206992 0.118481286
4461 -0.4598259 -0.29951432 0.21302651 0.42725265 -0.33009896 0.07257117 -0.006498589 -0.081898905 -0.4108626 0.01939791 -0.06266093 0.1030639 0.26287082 -0.07308361 0.1351553 0.27995673 -0.04013615 -0.16833957 -0.19546019 0.14910571 0.08115962 0.10694362 0.02209546 -0.46502626 -0.12823609 0.07716922 -0.18980372 -0.36760616 0.10560745 0.07642297 0.19583936 0.305971 -0.49082902 -0.16323769 0.24191107 0.14491166 0.45269284 0.23357671 -0.023929138 -0.22291328 0.058443576 -0.23213562 0.062422533 -0.32830185 0.45596492 -0.6840325 0.19702098 -0.44123256 0.21943034 0.22199947 -0.11363658 0.1542985 -0.07585551 0.10396232 0.47403926 0.6170791 -0.12408221 -0.0619268 0.20017369 1.0489658 -0.43615064 0.28879708 -0.15658054 -0.014340785
4163 -0.079080924 -0.19817635 -1.0167233 -0.012327286 -0.14952442 0.36359146 -0.4463131 -0.08906305 0.09154406 0.4485108 0.24962609 0.1672877 0.21541415 0.07739673 -0.3607897 0.37432483 0.7416603 -0.43377712 0.41522697 0.21156059 -0.25486797 0.33306172 0.13617852 -0.24515556 -0.25386733 0.1411592 -0.6729867 -0.20242746 0.041195706 0.22341093 0.16749819 0.50602233 0.16310693 0.10912289 -0.3637034 -0.230969 -0.048374698 -0.59564924 0.8612404 0.07672613 -0.243372 0.012144454 0.2829615 -0.32186574 0.06694656 -0.046058908 0.28803197 0.06804143 0.06156084 0.26589897 0.09991767 0.12709956 0.23004982 -0.0905269 0.025892666 -0.23417164 0.12440645 0.46376738 0.16407217 0.08835471 0.4080454 0.03196401 0.09034687 -0.75863785
2438 0.12688014 0.16318843 0.13240746 0.35251883 0.2276188 0.15191807 0.629577 0.4055977 -0.7293191 0.3664532 0.011257479 -0.66250104 0.0711969 -0.51811635 0.10761099 -0.38020203 0.08085191 -0.3411893 0.2499196 0.3068256 -0.19776529 0.018199513 -0.28561696 0.8321376 -0.08138637 -0.009094638 -0.34265366 0.29910898 -0.1341017 0.38582718 -0.26596636 0.91235024 0.021272374 0.09016133 -0.652214 -0.15480565 -0.06848996 -0.067192204 0.09894022 0.03358687 0.06015847 0.11207583 -0.27059734 -1.0125104 -0.36860317 0.11873437 0.39128286 -0.3056725 0.07373497 -0.10663226 -1.0218594 -0.15470223 0.29400945 0.050831076 0.36185592 -0.54962194 -0.041294675 0.47318572 -0.3193391 0.1560603 0.017075077 -0.069700636 0.23638035 -0.24632196
900 -0.42537063 -0.1794836 0.1650908 0.08606903 -0.31594026 0.55841583 -0.38023567 0.042051636 0.09428176 0.40336108 0.03740725 -0.32880005 -0.2208294 0.5866666 0.2633978 -0.15204622 -0.054320816 0.015594498 -0.19810557 0.12880121 0.3949876 0.09169782 0.30446008 -0.19715695 -0.19503856 0.30595118 -0.032699678 0.37011537 -0.20492344 0.52955085 -0.016626101 -0.07531683 -0.26586786 -0.6361327 -0.57915115 0.2527076 -0.1435564 0.3232959 0.5199874 -0.1837978 -0.26490697 -0.34667656 -0.1920938 -0.23737444 -0.3635404 0.20288782 0.32652298 0.045290295 0.1472099 -0.030605247 -0.31504014 0.34653968 -0.13024585 -0.14435668 -0.20044792 -0.20132366 0.2574433 0.19987752 -0.3254332 0.33207795 -0.31403634 0.13098614 -0.39505434 -0.5664483
3822 -0.27579963 -0.554394 0.12181712 0.4287866 -0.5985912 0.26267758 -0.33456242 -0.12597331 0.12991539 0.1733776 0.26260984 -0.38897088 -0.40920544 -0.14930075 -0.060393296 0.14863573 -0.021600142 -0.30992788 0.017324528 0.3376521 -0.30603814 -0.122491986 -0.009584125 -0.75242215 -0.1819058 0.45621124 0.15210645 -0.42404157 -0.27265793 0.47126326 -0.81766933 0.181542 0.049732823 0.13961521 -0.6071354 0.29959774 -0.21861935 -0.18481548 0.09500168 -0.08185843 -0.10009137 0.27035707 -0.4391338 0.23435715 0.27102667 -0.23476017 0.25931594 -0.104949914 0.09307607 -0.23671216 -0.24662486 0.21278836 0.1582873 0.103512935 0.04195609 0.2259789 -0.005468572 0.02593875 -0.01657658 -0.116319984 -0.04831936 0.20288864 0.05287717 0.10272405
1031 -0.029536385 0.5066262 0.20142035 1.0660335 -0.34062958 0.23408268 0.15674603 0.16838859 -0.103166126 0.017668776 -0.6156201 -0.41681105 0.3545531 -0.029759107 -0.19622377 -0.03543488 0.34904802 -0.6629335 0.1938844 0.744352 -0.2846316 -0.2823026 0.42011195 -0.1744597 -0.2105678 -0.24480551 -0.2923586 0.1444747 -0.60626364 0.12604474 0.1835063 0.60726595 -0.5010732 0.43515125 -0.13237752 -0.3687771 -0.36831483 0.18732011 0.10520768 -0.13351642 0.094889574 -0.57477385 0.28570628 0.28953782 0.4041467 -0.30733323 0.040639568 -0.325883 0.36066478 0.1609009 0.015265092 -0.29214835 0.2913062 0.02354246 -0.1784546 -0.012375735 -0.56612796 0.00026825035 0.17934567 -0.030346466 -0.15692088 0.47106293 -0.2990504 0.002472617
3795 -0.5081274 -0.26801512 0.27186692 0.7706003 0.026884856 -0.13156095 -0.14456427 -0.24708274 0.124802284 -0.13348746 0.027063077 -0.13610908 0.4535547 0.09690796 -0.038849786 0.23927909 0.5223191 -0.6487439 0.18609917 0.08299108 0.0053717736 0.1363101 0.24574982 -0.1756123 -0.35045117 -0.08174096 -0.22627747 -0.20968908 -0.09507033 0.20368664 -0.5844143 -0.016100492 0.11956429 -0.11410719 0.3878609 0.22165462 0.12705147 0.15590344 -0.13297401 -0.23845378 -0.089873075 0.084487975 -0.2789011 -0.4623365 0.08100128 -0.086924255 -0.36555576 -0.45129284 0.005581885 0.027846348 0.09840726 0.3344347 0.25497535 -0.42795792 -0.4725061 -0.056638986 -0.1204477 0.42389095 -0.2636556 0.33737952 -0.5081846 -0.28888226 -0.091250725 -0.13945797
3403 -0.40522033 -0.2879008 0.06444116 0.33156827 0.42290625 -0.09113252 -0.4117343 -0.9339276 -1.0678054 0.24047981 -0.23476186 -0.04171157 -0.55784446 0.1499056 -0.1514615 -0.0045666634 0.3376409 -0.44144678 -0.19912624 0.30580223 0.8068639 -0.3331575 -0.03798062 -0.2807933 0.022694714 0.3267046 0.08080657 0.13367479 -0.116843134 -0.28731117 0.20815717 0.20546633 -0.10151291 -0.2851138 0.07517951 -0.3895936 -0.07753821 -0.17438762 0.27245396 -0.21691576 0.5195453 -0.54318494 -0.094558254 -0.20891479 0.093650006 -0.18296884 0.24277176 0.20398104 -0.08658339 -0.022366121 -0.07198556 -0.07716088 -0.17628194 0.09610852 0.074133016 -0.036029063 0.12948221 0.10773481 0.00936834 0.199312 0.18314193 0.14334954 -0.16045874 -0.045934536
387 -0.32489833 -0.0027342327 0.043062408 0.35314012 -0.025007587 0.1698302 0.16883892 -0.13066924 -0.4030703 0.47878844 0.065312445 0.008712534 0.1455437 0.48788142 0.1046744 0.2605897 0.2325485 -0.2317384 -0.058896415 -0.109786436 -0.1026865 0.17645699 0.083106756 -0.43584076 -0.32085574 0.31489977 -0.26086625 -0.17271486 0.49197447 -0.2956018 0.08039642 0.083367586 -0.04513362 -0.36870047 -0.5416749 0.0005371792 -0.13159396 -0.23036811 0.6349173 0.35248393 0.3636441 -0.09679806 0.24546792 0.37510622 -0.2381077 -0.1791656 0.3461491 -0.13218501 0.18183388 0.4840374 0.19746895 0.21526264 -0.20507632 -0.58571273 -0.15302359 -0.061768997 0.53265536 0.2188801 0.08398306 0.50017005 0.0456556 -0.3657262 -0.4704266 -0.1461176
4388 -0.19366044 -0.3606925 0.2883687 0.15639605 -0.18910915 0.2040655 -0.29202318 0.073767036 -0.26635388 0.124162786 -0.28079373 -0.32895187 0.16273394 0.008518283 -0.28788877 0.19877498 -0.5037331 -0.7557453 0.088466085 -0.023148678 0.0006213834 -0.067955025 0.2362246 -0.30139753 -0.17290246 -0.27812076 -0.41745475 -0.15709832 -0.21720873 -0.09489714 -0.18621258 -0.16322353 -0.16652878 -0.2040345 -0.30469972 0.65425587 0.22350526 -0.025885088 0.38451803 0.2256736 -0.13982834 0.001612348 0.17556626 -0.20076847 0.29498607 0.13907881 -0.16564305 -0.21549067 -0.1766974 -0.05741485 -0.016101697 -0.19162643 -0.082543895 0.07018181 -0.10392731 0.22777484 -0.37171176 -0.18835382 0.11900342 0.41569299 0.0396777 0.12196613 -0.3492964 -0.2670012
1545 -0.0739131 -0.44832888 0.04819958 -0.019005729 -0.27724865 0.06215228 -0.247629 -0.012450182 -0.098454975 -0.06486164 0.15896118 -0.38042212 0.069649085 0.04398271 -0.33384162 0.25914115 -0.25106785 -0.5216753 0.092543624 0.071001135 -0.091355376 0.109192744 -6.4846754e-05 -0.1733198 0.009621327 0.32418478 -0.08771557 0.22897477 0.05101947 -0.22326022 0.16852014 -0.004573697 0.40873402 -0.47539908 -0.39681128 0.20683217 -0.15249707 0.14287323 0.6435048 -0.14002915 -0.06608778 0.1902314 -0.5542215 0.037936535 0.18011524 0.23460661 -0.13295753 -0.44293255 -0.1812581 0.015056335 -0.14610077 0.19556446 0.09856716 -0.3647811 -0.089195594 -0.11590414 -0.01306419 -0.17902069 -0.05257754 -0.17041405 0.08022326 0.2903106 -0.16119899 -0.7604138
2055 -0.34860727 0.082172886 -0.14089596 0.57741237 0.20003423 1.0918356 0.34063026 -0.27091128 0.006420526 -0.23618695 -0.31754467 -0.69270664 0.13060772 -0.02602261 0.30846506 -0.07071348 -0.34851813 -0.26155588 0.24815963 -0.29804984 0.095419616 0.37316078 0.4752177 0.059031125 -0.14313196 0.023268549 0.29654303 -0.38195345 -0.1911332 0.2088914 0.013776616 0.64759576 -0.30596003 -0.64502466 0.05847619 -0.18309276 -0.3120284 -0.70649636 0.028402638 -0.05537804 0.45000583 -0.12712279 -0.24178855 -0.4763134 0.21355817 0.7756976 0.012481924 -0.79824275 -0.3209681 -0.1474611 0.5698708 0.3094338 -0.31242067 -0.29500806 0.5429354 0.23652464 -0.066399075 0.18106891 0.11793839 -0.28605124 0.1814303 -0.116684474 0.4518223 -0.07381023
4852 -0.47739348 -0.62121475 0.0052000755 0.56983906 0.62429863 -0.0048029395 -0.03182575 -0.39192876 -0.8357819 0.08926236 -0.44995248 -0.43189782 0.042652454 -0.39852184 0.26155284 -0.80725634 0.24701431 0.10268925 -0.11604978 -0.046084862 0.09654042 -0.10350656 0.14527465 -0.24893515 -0.060850646 0.4250422 0.45177558 0.21443918 -0.26993185 0.12799025 0.07668948 -0.05167188 -0.19223185 -0.03942899 -0.25758424 0.0239904 -0.45341483 -0.2340297 0.5768566 0.4715486 0.2072229 -0.07062587 -0.19618243 -0.2779211 -0.48290142 -0.111498535 -0.07972198 -0.07639562 -0.29541337 -0.1346186 -0.69400394 -0.19664384 0.019027477 0.032434955 -0.0054438934 0.35613254 -0.10869882 0.12903193 0.15540802 0.4452036 -0.22645983 0.20344643 -0.061375286 -0.89883465
822 -0.31324613 -0.15855303 0.16310702 0.089498386 -0.053213555 0.7475956 0.036202393 -0.13621801 -0.12483295 0.099993944 0.11226953 -0.24367863 0.024629254 0.24074525 0.08566162 0.29730684 -0.0076751756 -0.15008627 -0.17925802 0.3344833 0.15704301 -0.24912055 -0.20849246 -0.5111663 -0.2837241 0.14398505 -0.23526391 0.18280092 0.22896191 0.1762544 -0.122181684 -0.029376697 0.541261 -0.20919414 -0.5663629 0.1687828 -0.25964263 0.37467557 0.3070439 0.009989758 -0.22086847 0.03948843 -0.3700934 0.27401805 -0.19510953 0.30694944 0.28965038 -0.4371146 0.17588611 0.12802489 -0.21783157 0.09670389 0.105772 0.0006790742 -0.20819838 0.06914638 0.2467931 0.048864026 0.04048891 0.046608258 0.25127894 -0.1345385 -0.23383604 -0.6282053
3724 -0.13080688 0.18496348 -0.19244543 0.10949845 0.1686354 0.5057711 0.32724738 -0.36593792 -0.6665902 0.10251534 0.16923092 -0.107526444 -0.23367639 -0.015229196 -0.1313466 0.20479582 0.4925395 -0.6327266 0.08602356 0.2559035 0.63288105 -0.2226831 0.17077221 -0.40682676 -0.14005025 0.3646501 0.09328539 0.52196085 -0.040347546 -0.25724462 0.295661 0.049746487 -0.51155895 -0.14150979 0.035485037 -0.3605366 -0.2025787 0.2297577 0.31611934 -0.015295248 0.13673587 -0.3735917 -0.32642397 -0.34032607 -0.06449191 -0.48038942 0.09932297 -0.34255934 0.42236787 -0.09636165 -0.26369742 0.06571749 -0.25687808 0.16716613 -0.56132 -0.16702698 0.10990602 0.1777988 -0.08876521 -0.234509 -0.21803343 0.045093585 0.05997512 -0.017214872
4902 -0.13535354 0.110625446 -0.0011183197 0.44935355 0.2694971 0.8826358 0.20475613 -0.42047685 -0.16695656 -0.21536478 -0.16525693 -0.783644 0.30110762 -0.0022156825 0.3412484 -0.010859039 -0.42855412 -0.30797562 0.17031895 -0.121440254 0.07476196 0.21311004 0.32915097 -0.22530423 -0.27343974 0.22111756 0.11774425 -0.26914075 0.038953375 0.25063142 -0.14605092 0.42363566 0.02662245 -0.6912929 0.034792148 -0.08064905 0.10528311 -0.52654696 0.06494423 -0.44315985 0.5463909 -0.1265349 0.09971275 -0.29724818 0.19593771 0.58471453 0.048708245 -0.6500855 -0.21805301 0.09211685 0.55919087 0.21259335 -0.31484511 -0.35211667 0.45336464 -0.05985251 -0.31637856 0.24096727 0.089170985 -0.47603855 0.33323324 0.029491682 0.45983893 -0.101525
1678 -0.463137 -0.2139034 -0.1090158 0.17909087 -0.080498144 0.491537 -0.1533663 -0.26892 -0.17006856 0.36795965 0.32620132 -0.15251455 0.030556584 0.16443415 -0.13718395 0.36868355 -0.37015754 -0.11481463 -0.1060094 0.29521933 -0.12400123 -0.10478845 -0.12916385 -0.5486439 -0.1596411 0.17823856 -0.23328471 -0.21283196 0.1469504 0.14613388 -0.14563528 0.06720341 0.5699305 -0.23149075 -0.6261441 0.047894217 0.0113810375 0.7170781 0.18955009 -0.18099375 -0.18882672 -0.15214653 -0.14509353 0.19162513 0.022387125 0.03855915 0.42561865 -0.35118362 0.08569776 0.17160183 -0.050312866 0.12791756 0.009637603 -0.17364721 0.02275426 0.1739605 0.30558246 0.010023231 -0.011199668 0.017089078 0.047551546 0.08129869 -0.33618706 -0.3607856
4287 0.00498799 -0.24934901 0.5880485 0.55291086 0.2798681 -0.4079464 1.2813125 -0.11878358 -0.689922 -0.26588568 0.0756506 -0.08853569 0.33373287 0.056509122 -0.07220195 0.18684024 0.042646382 0.3592286 0.43311098 0.6494085 -0.051738635 0.661534 -0.25117716 -0.050386768 -0.42064428 -0.062100653 -0.37951437 -0.42317605 -0.5944486 0.032993738 -0.7104624 -0.013956349 -0.04499139 -0.6925212 -0.34348208 0.7168634 -0.02547224 0.1112804 0.38683212 -0.7676749 0.0048334072 -0.10695776 -0.1320833 -0.77286947 0.2521569 -0.3652769 0.2038422 0.11930234 0.063356616 -0.2874045 0.06681119 0.26994774 -0.45322663 0.56870854 0.020939311 -0.08297686 0.5854372 0.17102727 0.67494434 -0.3348319 0.22772272 0.13503942 -0.33689746 -0.3546916
4580 -0.469522 -0.21484773 0.44430205 -0.07782735 0.04516832 0.34317467 -0.011142982 0.2928265 -0.26518527 0.23206362 -0.219358 -0.043740038 0.010284197 0.023608994 0.17629541 0.06217471 -0.16155961 -0.47542602 0.35963547 -0.0033413481 0.042053383 0.043929804 0.15340224 -0.50287884 -0.07775677 0.26865858 -0.034574542 -0.039821155 -0.092998356 -0.073738605 -0.1348873 0.10034807 -0.18078098 -0.29431397 -0.1408682 0.2744528 0.047363527 -0.109161474 0.3376741 0.26927182 -0.04977123 0.07446802 0.007620003 -0.16279815 0.09402238 -0.25470042 0.110929154 -0.17056888 0.09893355 0.06976095 0.06146964 -0.102533646 0.31381452 0.069790214 -0.11588651 0.100369796 0.19711263 -0.14770329 0.33317095 0.76141 -0.36914846 -0.13231158 -0.057955295 -0.46182314
19 0.15144177 -0.09016776 0.11445014 0.7060656 0.20528904 0.72209716 0.45064446 -0.4659203 0.10723627 -0.31220222 -0.3028939 -0.21262212 -0.22353193 -0.4665278 0.5144654 -0.22646059 0.04798866 -0.37114134 0.50292754 -0.04635412 0.114888854 0.52898073 0.43537283 -0.27749062 -0.11370698 0.45800182 0.3773793 -0.4441362 -0.01401777 -0.13491787 -0.025910847 0.5575493 -0.033420373 -0.797303 -0.24466959 -0.26518863 0.03445924 -0.62907976 0.08426283 -0.49052113 0.07767029 -0.093108706 -0.15687382 -0.31771496 0.21878478 0.7490288 0.05475501 -0.4944817 -0.29404768 0.06784864 0.4987979 -0.017483858 -0.5119326 -0.35037974 -0.014558203 0.12348648 0.02113723 0.17956819 -0.053191207 -0.43049178 -0.00094530545 -0.12387253 0.37865162 -0.17703527
4457 -0.10869622 -0.19282018 -0.043004088 0.20047277 -0.47831437 0.6689867 -0.22420228 -0.4448386 -0.27188691 0.06696788 0.1523222 -0.17386192 0.43435994 -0.014175847 0.110998005 0.27997395 -0.20770337 -0.15599415 0.011761746 0.4252922 0.09169025 0.3916396 0.54014605 0.18886481 -0.31366542 0.18111348 -0.17336115 -0.11357701 0.8986183 -0.34349674 0.11309321 0.17895977 -0.08405913 -0.051240552 -0.36572012 0.27958614 -0.11214241 -0.03330446 0.35586447 -0.21883993 -0.20477735 0.20287608 -0.21513523 0.10105302 0.12730877 -0.4741636 0.2413345 0.008595665 -0.042659283 -0.3424027 -0.06833255 -0.34028092 0.28100812 0.16129412 0.27672437 0.4448725 -0.065291315 -0.2773862 0.037600916 0.40125957 -0.11885117 0.02006467 -0.25562084 -0.14902294
4903 0.01005033 -0.37026274 0.2721712 0.57071394 0.005506207 0.394514 -0.095512256 0.090115875 0.012266849 0.114248164 0.48073238 -0.07690559 0.28464913 0.20800269 -0.0960453 0.273645 0.096745014 -0.18327126 -0.008382905 -0.21087253 0.24989074 -0.19100748 0.14739619 -0.12461453 -0.62131363 0.17950861 -0.0017149609 0.34417665 0.22356717 -0.4456409 -0.11670165 0.22414508 -0.3154718 -0.04980437 0.083160065 0.32878357 -0.31484622 0.4025806 0.3947359 -0.29521495 0.16849083 0.27439836 -0.29069293 0.09358686 -0.011030071 -0.28194308 0.15965357 0.013412007 -0.14596824 0.08920749 0.05061707 0.12142745 0.14719601 -0.3761869 -0.32865408 0.18855649 0.07199678 0.22120038 -0.30931687 0.452482 -0.041839 0.025869021 -0.27080932 -0.35689873
4841 -0.093110636 0.05560185 0.11184851 0.5335898 0.38530266 0.690218 0.5085811 -0.2794251 -0.23388425 -0.24619442 -0.16486406 -0.556982 0.228327 -0.47853225 0.44201475 -0.29847008 0.050172444 -0.25025484 0.12517339 0.1910679 0.23143928 0.33671734 0.23957637 -0.32783422 -0.17223762 0.31131947 0.078674935 -0.46952417 -0.0025282507 0.16646174 0.20490918 0.46471977 0.07616653 -0.66304785 -0.22338 -0.070168994 -0.05904644 -0.5158813 0.1148471 -0.42379808 0.18037884 -0.16828623 -0.079675235 -0.09206712 0.5902909 0.8215963 -0.21124527 -0.4096822 -0.18800795 0.15281425 0.72098535 0.010472641 -0.3702012 -0.2374758 0.6621843 -0.052128572 0.07895728 0.3322448 -0.08600848 -0.46884963 -0.012802694 -0.10962494 0.31707063 -0.12751678
3496 -0.2663716 -0.5356783 -0.13351692 0.3393491 0.021869292 0.36773998 -0.34921652 0.28235227 -0.26743641 0.11146248 -0.09506232 -0.36670068 0.34271058 0.29164973 -0.21430214 0.13534205 -0.3542068 -0.43452996 0.062906936 -0.12880972 0.25669053 0.29057547 0.0069041387 -0.21271472 -0.004237758 0.24409315 -0.3762436 -0.039760917 -0.05898735 -0.100101694 -0.07172938 -0.010008451 -0.08932813 -0.32935974 0.21031408 0.62713 -0.118625276 -0.21484466 0.3030694 -0.04756302 -0.518702 0.23624468 -0.39480692 -0.11854819 0.20157124 -0.2838161 -0.084662296 -0.5699097 0.1568991 -0.08311563 0.06787184 -0.2755812 -0.0032842383 -0.20264797 0.22755961 -0.29843575 -0.13058734 -0.41053912 0.048498373 0.5294515 -0.00027300924 0.1879207 -0.06649131 -0.32144737
4128 -0.2352868 -0.4040371 0.31649426 0.29330352 0.2444956 0.5378762 -0.31557962 -0.6710423 -0.73795414 0.43634605 -0.33230707 0.01523334 -0.38110787 0.07952673 -0.43448594 0.11456508 0.23434569 -0.42976755 -0.12720405 0.40496317 0.036332406 0.18100962 -0.35918358 -0.04042029 0.32742774 0.17515516 0.17484665 0.40504006 -0.028832933 -0.03537712 0.42449006 0.40341988 -0.205247 0.0021554653 0.32893097 0.031091947 0.30936918 -0.28499717 -0.044528656 0.09425126 0.23664314 -0.6151762 -0.14124492 -0.6687025 -0.23515308 -0.4239861 0.28584126 0.15124543 -0.5306626 0.32699794 0.0062785572 0.37902868 -0.36164075 0.068818845 -0.25407788 -0.21217962 0.30249724 -0.6268148 -0.057868443 0.490345 0.20816648 -0.10822721 0.18944336 -0.022279859
4116 -0.13238673 -0.019591942 -0.31567037 0.5585719 0.021651383 0.8276988 0.44185823 -0.3539129 -0.18668534 -0.27950004 -0.4215386 -0.54852855 0.16662537 -0.46495855 0.19080342 -0.110373825 -0.10389212 -0.27001703 0.5068217 0.1163882 0.19844392 0.53635174 0.4478648 -0.30794004 -0.24973916 0.3392442 0.44083 -0.4382043 -0.09014237 0.20485842 0.12732504 0.49057442 0.0778667 -0.7319803 0.1993771 0.042138908 -0.17971927 -0.6525805 -0.030580707 -0.21161632 0.5369833 -0.14834866 -0.31329972 -0.1436179 0.3819134 0.5311928 -0.13069248 -0.32671186 0.068155766 0.0687721 0.53220105 0.08746253 -0.41407964 -0.21086401 0.5415566 -0.07415892 0.059340205 0.22007701 -0.40670338 -0.28993958 -0.24400495 -0.037144337 0.40217084 -0.2283559
4720 -0.13592954 -0.344593 0.6918887 0.09798256 0.14371298 0.077103846 -0.09492191 -0.34930083 0.10708591 0.14424473 7.175362e-05 0.017736197 0.40490547 0.16781913 0.3962961 0.40700984 0.060273834 -0.005497139 0.16656713 0.39923576 0.18314089 0.0069848793 0.06624236 -0.59873605 -0.5860322 0.0044342065 -0.27681017 -0.26578546 -0.021693384 -0.15713114 -0.25663298 0.25898576 0.11426317 -0.123177916 -0.18179905 -0.058024168 0.018650575 0.30325288 0.16010965 0.2511867 0.08328015 0.2777695 0.12071269 -0.22629967 -0.10905828 -0.028821655 0.46328822 -0.5799388 -0.08812937 0.0060137203 -0.11765789 0.0011601545 0.42043734 -0.10118674 -0.15311132 0.21575396 -0.13538381 -0.3695837 0.063900255 0.15118586 -0.1520064 -0.10569472 0.1039189 -0.5554605
1284 0.3952615 0.2306942 0.015635649 0.6370123 0.6091413 0.199935 0.14488335 -0.106885195 -0.30167937 0.12277338 0.47838348 -0.3468787 -0.034415662 -0.10778986 -0.049268704 -0.2835577 0.29209226 -0.13857016 -0.08554931 0.0998906 0.30272356 0.16166958 0.5832229 -0.59430665 -0.10364159 0.8658348 -0.28812775 0.29595563 -0.51352715 0.0016441768 0.21917605 0.0328388 -0.15924984 -0.0882361 -0.3581994 -0.19697562 0.08522481 0.10409985 -0.053448915 -0.12580796 -0.20764399 -0.13545403 0.28344956 -0.41804272 0.45177582 -0.46575236 0.21427166 -0.17894332 0.1286162 0.06068776 0.028576417 0.0193146 0.71419394 0.0029929066 0.14877607 0.014531054 0.072552405 -0.56340384 -0.14435042 -0.15637074 -0.3872214 0.31233498 -0.13502961 0.14809272
3808 -0.03944766 -0.23785092 0.24491785 0.1317725 0.2039024 0.17432317 -0.12341279 -0.0134779215 -0.36209935 -0.066970974 0.117885694 -0.3851208 0.25440586 0.15678994 -0.604694 0.2500056 0.012691177 -0.82964885 -0.09876673 -0.32669187 -0.089521885 -0.03324954 0.6236431 0.17883275 -0.025013734 0.10790249 0.18988873 0.14254475 0.01137292 -0.5569784 0.2884211 0.18221469 0.026547806 -0.40744337 -0.03539058 0.4542395 -0.117850035 0.16255186 0.16947837 0.61621344 0.023336228 0.20667018 -0.41813615 0.0054236334 0.07849512 -0.16735946 -0.08432604 -0.2847183 -0.2652438 -0.080189 -0.11241131 -0.68112123 -0.03906255 -0.24126787 -0.45864284 0.21856962 -0.0631857 0.17638102 -0.16118692 0.013070194 -0.11543767 0.023712981 -0.3715116 -0.42394072
1719 0.028434392 -0.53600705 0.10778757 0.5481078 0.4329068 0.20628162 -0.73858386 -0.3335334 -0.5867283 0.42340016 -0.096098885 0.40093097 -0.50654846 -0.175634 -0.3176988 -0.17150216 -0.017359516 -0.6103235 0.29612222 0.34200183 0.27038687 0.0021967753 -0.04564326 -0.2237463 -0.42620558 0.19831179 -0.022176955 0.2737462 -0.24709968 -0.4283752 0.2639465 -0.090180315 0.17815287 0.14696413 0.1367304 -0.33359593 -0.37791514 -0.35912 0.1259739 -0.058410235 0.032554112 -0.14142221 -0.51881427 -0.5104262 0.355012 0.17167643 0.036560345 -0.081659175 -0.2983283 0.24062523 -0.041756324 0.18317164 -0.41915253 0.35273778 -0.09097709 -0.26867008 -0.026506951 -0.17070971 -0.008737668 0.350652 0.4160748 -0.02516279 -0.14581692 -0.25668213
9 -0.4216184 -0.0066142934 0.6335747 -0.03109284 -0.25132996 0.6725265 0.10897858 -0.29801193 -0.3298748 0.3318967 -0.11918003 -0.27521202 -0.43959168 -0.084476635 -0.25529203 0.3821065 -0.055067975 0.07427241 0.10761206 -0.17743003 -0.26357678 0.057561096 0.15913007 -0.38817188 -0.42798722 0.19847915 -0.16464718 -0.16340232 0.35058567 0.13022517 -0.15510915 0.0027364308 0.39910847 -0.008853974 -0.3813805 -0.12879927 0.06897553 0.16742378 0.39945444 -0.24111192 -0.34793496 0.27324304 -0.17183016 -0.030041033 0.31250897 -0.08347007 -0.025775574 -0.24389514 0.07299926 0.19018593 -0.11366526 -0.0055705053 -0.08091107 0.49655148 0.19996086 -0.19633676 0.17423074 -0.33058923 -0.09021064 0.22515427 -0.11485321 0.024052799 -0.15478314 -0.45074937
3774 0.17319477 0.5357235 0.09366823 0.5056991 0.12722081 0.5494316 0.30875537 0.022021612 -0.53310674 0.08661636 -0.20493916 0.036990337 -0.3776051 0.14443927 -0.7810337 0.28421387 0.23479849 -0.42242396 -0.075405136 -0.10352031 0.39746213 0.27379555 0.095754534 -0.43086857 -0.097871706 0.41791216 -0.20997405 -0.28033447 -0.73007095 0.002899899 0.05786345 0.38609615 -0.12709224 0.10435708 -0.47004256 -0.05108837 0.03284598 -0.15366495 0.057913285 -0.23184283 -0.41299632 -0.56642133 -0.00044906596 0.07064674 -0.034719855 -0.3001499 -0.036283888 -0.009623207 -0.15800531 -0.55613995 -0.18696079 0.18593386 0.71201617 0.2850757 0.259998 0.012927446 0.111363955 0.004499101 -0.3196738 -0.20860274 -0.46694222 0.2851313 -0.18816781 0.029153684
127 0.09711128 -0.27010456 0.010263632 0.47285923 0.14946397 0.32544357 0.0019376704 0.036773644 -0.9078606 -0.037440453 -0.33150136 0.06715344 -0.1297436 0.2282857 -0.5254549 0.078992255 0.311955 -0.3271684 -0.28502086 -0.08636365 0.60843664 -0.38602978 -0.459853 -0.18756929 -0.04382914 0.239421 0.0355422 -0.0034959128 -0.091629095 -0.25664356 0.15454702 0.23273903 -0.24066554 -0.1998867 -0.35115567 0.1430251 -0.27884218 -0.07074194 0.12146001 0.26628244 0.5531154 0.1473256 -0.09448527 -0.13238594 0.55111176 -0.3536203 -0.09102303 -0.061334554 -0.08128715 0.14344281 -0.07954843 0.07559069 -0.21341261 -0.21016222 -0.09343302 0.018105518 -0.11233446 0.02390133 0.26289678 0.48118976 0.1420001 -0.35541442 -0.32858837 -0.081675656
267 0.259466 -0.49308094 -0.039842755 0.6501719 0.22372057 0.28161186 -0.38945073 0.31662175 -0.5673415 0.23589748 0.44565493 -0.31362462 0.11310317 -0.0108033195 -0.15780719 0.2173796 -0.26334435 -0.7937304 0.39263484 -0.27974397 0.56246406 0.17810948 -0.013430348 -0.22955033 -0.046717167 -0.13116555 -0.43998688 0.51176435 -0.43857613 0.13882853 -0.16006376 -0.39067188 0.103669785 -0.22853293 -0.48623598 -0.04823361 0.054160148 -0.3893842 0.19100703 -0.17876172 -0.14792734 -0.45428306 0.35307142 -0.6254225 -0.004848031 -0.1950328 0.37829223 -0.1711084 0.028735764 -0.040119093 -0.109111995 0.17548461 0.04655014 0.34067553 0.11408735 -0.07438272 0.21964942 -0.51904213 -0.28929487 0.09156787 0.028605029 0.012392194 -0.093082584 0.035180267
3956 0.06443126 -0.5465637 -0.10506757 0.21747199 0.20332304 -0.11969001 -0.2487003 0.26495677 -0.30225503 0.18495113 -0.2633611 -0.033910662 -0.3051283 0.15099207 0.18800361 -0.015883109 0.32484695 -0.5973031 0.69322056 0.10496599 0.08990937 0.1381987 -0.13562045 -0.004820001 0.26083872 0.18788595 -0.49620366 0.027616598 -0.00020074841 -0.28546163 -0.25252584 0.31193092 0.24037942 -0.38173273 -0.5532325 0.13930377 0.005093491 0.034760803 0.34168857 -0.39620027 0.17842668 0.39196247 0.30725363 0.07343985 0.18044789 -0.10458698 0.2324698 -0.3910987 -0.50656646 -0.25184312 -0.11832261 -0.35988635 -0.23822856 0.0040988442 -0.25770423 0.36587682 -0.22705485 -0.2126379 -0.21672326 0.3981036 -0.33939478 0.010678662 -0.33153817 -0.123543695
1923 0.14276193 0.29124632 0.47951218 0.08989052 -0.17470711 0.30059898 -0.24452947 0.07680658 -0.2610964 -0.07153077 -0.31351626 -0.3273687 0.27160576 0.15519686 -0.40413895 0.065656476 0.28524145 -0.7372919 0.25006166 0.12703161 0.27595496 -0.24620783 0.088510655 -0.2840501 -0.339882 0.5787795 -0.51480013 -0.05365305 -0.10341592 -0.0070172558 0.07379265 0.088689774 0.06461643 -0.39519715 -0.045931593 0.11653716 -0.086564794 -0.12627842 0.29402122 0.23199326 -0.14262299 0.35846418 0.3870124 -0.46623212 0.11358508 -0.2807024 -0.1313826 -0.12808935 -0.028143266 -0.041481405 -0.12705134 -0.21039733 0.1560262 -0.07345945 -0.07158163 0.23632066 0.052711803 0.2527189 0.6139594 0.4395389 -0.8290323 -0.050638054 0.2887233 0.080379225
3558 -0.3159234 -0.10777153 -0.08859896 0.11722574 -0.3327421 0.6011822 0.019566396 -0.51410705 -0.38200048 0.047371674 0.11864974 -0.4498716 -0.5185225 0.084606655 0.19290628 0.14650892 0.12620072 -0.101084836 0.050060716 0.40705422 -0.24177933 0.25654778 0.18668437 -0.21663591 -0.026454657 0.26379228 -0.19159259 -0.038235165 0.6165767 -0.04489043 0.050101936 -0.04307845 0.075998306 -0.29762298 -0.66625977 0.39545506 -0.23003395 0.18693058 0.19904943 -0.17544508 -0.47854576 0.02779183 0.01675931 0.31724072 -0.10919914 -0.05320089 0.30552432 -0.19301425 0.027080914 -0.2887373 -0.22188097 -0.41540644 0.18104105 -0.35078645 0.2025134 0.2046209 0.40874314 -0.35832655 -0.03519481 0.51248944 0.03703889 -0.13932846 -0.27841038 -0.27293816
2370 -0.4376297 -0.13240795 0.34740832 -0.13385417 -0.15992117 0.68147373 0.009675115 0.16943674 -0.277513 0.18519542 0.3903547 -0.063002266 -0.24695489 0.36966306 -0.50812936 -0.242653 -0.33271602 -0.28424087 0.1834767 0.07885776 0.0515621 0.42149863 0.44649357 -0.16679978 0.13702835 0.22491372 -0.44965872 -0.25783893 0.1370429 0.17547958 -0.3499909 0.14546302 -0.29963255 -0.29423788 -0.14617084 -0.06359983 -0.03451861 0.16917245 0.02966731 -0.34304667 -0.14698915 -0.23961256 -0.30012438 0.12529017 -0.30657867 -0.057702865 0.74788624 -0.28317034 0.088482946 -0.32038742 -0.26526165 0.53710395 0.024270426 -0.15854472 0.14169832 0.17619628 0.2650776 -0.016608657 -0.2624378 0.4180862 -0.17963454 -0.36738184 -0.33152285 -0.37014058
114 -0.22628643 0.03122078 0.29181975 0.093642995 -0.25509188 0.4394765 -0.17625767 -0.04588146 0.08218207 0.12027589 -0.011070047 -0.33597514 0.21237817 0.59636074 -0.19649933 -0.21956886 -0.18820605 -0.046143908 -0.061897125 0.058588598 0.33812392 0.049779214 0.35230008 -0.5074441 -0.36974266 -0.058830876 -0.09857404 0.119160265 0.1400148 0.09831976 -0.06129909 -0.08414566 0.059235614 -0.28425935 0.072886944 0.47787344 0.080406845 0.009752883 0.45747316 0.044676777 -0.3465351 0.29131767 -0.08198047 -1.0518409 0.5559264 -0.053383615 0.07066762 -0.15975483 -0.034017116 0.26580575 0.10129923 -0.3304154 0.29620692 -0.04492313 0.023416754 0.25500566 -0.120617695 0.07892853 0.23131308 0.6499864 -0.5709988 0.1738312 -0.06728638 0.017538294
1621 -0.40195918 0.42732897 -0.06289079 -0.38670403 0.20479873 0.08909765 0.10227747 -0.42913762 -0.10942776 0.0018828853 0.35247326 -0.2790831 0.04351397 -0.5873094 -0.17576459 -0.14982732 0.23361374 -0.50042784 0.43163607 0.18189356 -0.15159674 0.27096868 0.53731376 -0.47074565 -0.23220907 -0.122461595 0.21295899 0.23078325 0.3077035 -0.74116147 0.4511401 0.7220734 -0.17276257 0.24064371 -0.3811213 0.712065 0.133827 -0.010181629 0.521107 0.27635887 0.28657976 0.095230356 -0.47983682 -0.007941985 0.022631494 -0.033930577 0.35028422 -0.044221263 -0.5012143 -0.4452674 0.10790199 -0.2232906 0.05968672 0.029611519 -0.23495314 -0.1423664 0.22560781 -0.316897 -0.38436016 0.23246348 -0.53185755 0.16129348 -0.5458441 -0.036214028
3601 0.15618671 -0.13833657 0.032671347 0.20219056 -0.20390102 0.2064062 -0.36501977 -0.26940477 -0.6036608 0.14306304 0.053723518 -0.1641575 0.20749708 0.13032916 -0.19569656 0.5841016 -0.01114391 -0.10033254 0.38322565 0.16696814 0.4263424 -0.40851095 0.15784593 -0.54723674 0.121229194 0.3182847 -0.024303302 0.06951235 -0.042601574 0.32506406 0.18345326 0.22180998 0.18335804 -0.3324509 -0.69659966 -0.46567637 0.2355183 0.40072066 0.40207627 -0.10103819 0.3952001 0.019315869 -0.075375006 0.031171784 0.1759928 -0.20754056 0.1070279 -0.09822887 0.19368339 -0.09095823 0.1989341 0.07202929 -0.15427151 0.21352535 -0.02547902 -0.47088015 0.2956383 0.1852406 -0.069177285 0.051657647 -0.0838697 0.0015323575 -0.28861272 -0.4552866
4563 -0.6210714 0.033516787 0.05659706 0.22871433 0.12089174 0.5591123 -0.27585506 -0.4370266 -0.31940863 0.061026264 -0.059719983 -0.10823861 -0.5295955 0.20906964 -0.11362905 -0.13231479 -0.22494729 -0.08797398 -0.2861127 0.2611432 0.38274053 -0.1613152 0.035118908 -0.5457114 -0.09792641 0.48490775 0.19817409 0.23077928 0.037166547 0.035993163 -0.14993535 -0.00936253 -0.27853304 -0.044999108 -0.2566404 -0.22706865 -0.33846653 -0.2048014 0.28563774 -0.33013484 0.33977303 0.24341545 -0.088875994 -0.12793985 -0.098303914 -0.029658845 0.6144715 -0.13924041 0.44407475 -0.17334306 -0.3537545 -0.24906181 0.1745962 0.013557377 0.026802389 0.10391595 0.40112153 -0.1604082 0.03789061 0.1927234 -0.0031352462 -0.031224897 -0.2602121 -0.5789874
2632 -0.54892534 0.09317631 -0.36706978 1.1135446 0.082289405 0.5659183 0.860827 -0.1939871 -0.6051689 -0.17371409 1.098783 0.9022808 0.07822942 0.03379187 0.21889734 0.068908595 -0.1251871 0.21408014 -0.18533416 0.16862725 0.52285635 0.42228803 0.78937083 0.033605307 0.20395988 0.24954934 0.067241445 0.037669316 -0.8526276 -0.94917506 -0.31633255 0.31637263 0.55905545 -0.7117102 -0.68012506 0.92159414 -1.1016726 -0.068127334 -0.007272598 0.16537435 -0.28694025 -0.2423853 0.05003009 -0.3932039 -0.43030775 -0.16440575 0.015743861 -0.38608813 -0.50431603 0.40053797 0.7862189 -0.46775156 -0.008208998 0.9826913 0.7705121 -0.010090217 0.16316591 0.3770528 0.33795577 -0.026287999 0.43712756 0.08652138 -0.63798684 -0.08575527
2140 -0.2668468 -0.12251442 0.9338324 0.27555826 -0.002618738 0.34072658 -0.14164467 -0.5248227 0.2857616 0.23340157 0.2380396 0.35967723 0.13938993 -0.23507413 0.015523935 -0.063741274 -0.6264477 -0.24512403 0.11153841 0.56029856 0.22838186 0.15832858 0.5049598 -0.06289952 -0.17822194 0.16652952 -0.25917506 -0.6633975 -0.10065034 0.034470588 0.2233361 0.36459285 -0.17410946 -0.020074472 -0.06422773 0.2663617 -0.2872971 0.119124405 0.5302725 0.2919231 0.058603518 0.39473566 -0.323726 -0.10128774 -0.1520633 -0.35262132 0.092300326 0.14848591 -0.31031752 -0.009473244 -0.054504663 -0.6759582 -0.20874684 0.3055644 -0.2318444 0.70372623 -0.10016866 0.02258499 -0.0060240724 0.3723633 -0.5382662 -0.40357092 -0.046021014 -0.42761287
4324 -0.1084916 0.1872572 0.16821794 0.6924359 0.26411834 0.9948479 0.23788634 -0.24406067 -0.05728557 -0.12622824 -0.3770744 -0.6652439 0.065287985 -0.34001657 0.35933742 0.027320452 -0.06258069 -0.41177848 0.095460765 -0.31202784 0.22050366 0.3398527 0.30678177 -0.16861051 -0.25186104 0.18482636 0.35031712 -0.33034825 -0.12422429 0.19761802 -0.01562654 0.5210368 -0.19289854 -0.82918364 0.15856168 -0.08547496 0.025832092 -0.5787355 0.007941168 -0.080839135 0.3649926 -0.06781526 -0.0006917468 -0.26525652 0.23725213 0.71606284 0.09765306 -0.6070891 -0.068866275 0.15545017 0.8453014 0.30472782 -0.5879683 -0.40136018 0.34240907 0.30314267 0.068319656 0.16903009 -0.050538216 -0.24246423 0.3594561 -0.06688408 0.5886262 -0.2655637
1121 0.2666005 -0.0513129 -0.37184545 0.9151543 0.36877805 0.50258523 0.0146459425 0.009109465 -0.65418893 -0.103038795 -0.17899847 -0.14743593 -0.048084293 0.26451564 -0.19934057 0.3454422 -0.008159144 -0.24276832 -0.021314982 0.10001759 -0.04452114 -0.14069739 -0.19455759 -0.70052725 -0.21050823 -0.023088384 0.10096417 0.1003964 0.07911118 0.028993748 0.19436479 0.27243742 -0.5012177 0.09523735 -0.2338093 0.2804879 0.10316561 -0.027527226 -0.10933181 0.24730791 -0.20561334 -0.15733603 0.09916925 0.005644087 -0.12066903 -0.26327002 0.27557123 -0.4614494 0.16756381 -0.008777404 -0.0650503 0.09200584 0.041497696 -0.60478604 0.020416321 -0.09245287 0.0879144 -0.13975799 0.033465732 0.1721985 -0.7075859 0.32444835 -0.13938887 0.11433575
3334 -0.035841763 0.1330217 -0.14845861 0.3595805 0.2399044 0.89760524 0.17407365 -0.51122123 0.3927839 -0.2513654 -0.27305427 -0.47211942 0.0864937 -0.40276763 0.40559915 -0.045241985 0.095981814 -0.5066526 0.28286424 0.09427298 0.019347256 0.1443735 0.39860672 -0.07242132 -0.5738316 0.14757751 0.116329335 -0.63944536 0.034723766 -0.30955058 0.15032576 0.7658078 -0.055098966 -0.618015 -0.16133626 0.22225933 0.05592003 -0.40663236 -0.13782896 -0.4921639 0.34030935 -0.13758567 -0.3976301 -0.39559412 0.60990375 0.82980984 -0.11576049 -0.5191927 -0.04632672 0.27780986 0.6656047 -0.3028842 -0.28237677 -0.2630852 0.021576948 0.34267282 0.086865716 0.0053035943 -0.3583977 -0.37617716 0.095012195 0.031960167 0.68993634 -0.47153074
1733 -0.51299435 -0.6131711 0.06038838 0.314158 0.5297082 -0.06854492 -0.30154034 -0.3324071 -1.0498734 0.32690468 -0.47199148 -0.38639337 -0.09532544 -0.17807482 -0.19238883 -0.47025394 0.54884154 0.011201314 -0.33788845 0.3709231 0.3578795 -0.28809732 0.22933574 -0.30606365 0.01914813 0.6834487 0.18174003 0.16996889 -0.5582819 0.1788114 0.36193672 0.011439763 -0.19265051 0.09363464 0.09839239 0.21096602 -0.8332518 -0.14105977 0.66089493 0.29008377 0.15574081 0.30357894 0.059257273 -0.14219715 -0.23621202 0.31422812 -0.13534304 0.06426906 -0.050593227 0.1794541 -0.36012822 -0.20856072 -0.41115642 0.178117 0.16377631 0.03884505 -0.08924844 0.4106126 0.1153632 0.053065244 0.26247367 0.22830419 -0.28022337 -0.6256245
4914 -0.23835222 -0.30461204 0.6178764 0.12272343 -0.255877 -0.047416497 -0.1744446 -0.10678421 -0.43513134 0.020564374 -0.4252536 -0.46575913 -0.23576039 -0.103172794 0.004747756 0.25646892 0.06241896 -0.014793934 0.08807461 -0.0032787756 -0.10929475 0.28762573 0.07595644 -0.22147833 -0.3632551 0.09563239 -0.74991614 0.23017961 0.4216117 0.17902867 -0.1409279 0.46735847 0.15121031 0.08520259 -0.091207534 0.026563449 0.032138173 0.5141673 0.25277603 0.30021 -0.50178 0.14317176 -0.0052461573 0.0803521 0.32974195 0.11024784 0.4653016 -0.4674361 -0.16455507 0.26749045 -0.3970687 -0.30456793 -0.14356379 -0.28918934 0.36882406 0.14711738 -0.32267562 0.045549475 -0.4043323 0.33712697 -0.042504765 0.23991783 -0.034478676 -0.52077454
2114 -0.051789973 -0.32317516 0.4938591 0.12459646 -0.21409313 0.2989435 -0.14578141 0.12970671 -0.30987465 0.41160926 -0.34056526 -0.12887083 0.3930661 0.0633639 -0.09372627 0.10147698 0.081317 -0.7039952 0.30965385 -0.32480606 0.27757502 0.367773 0.1493259 -0.31467953 -0.028091915 -0.013696046 -0.29375947 -0.044162232 0.38282084 0.023075532 0.012518882 0.095340624 -0.25271744 -0.13687451 0.017371176 0.31293264 0.16671386 0.09211861 0.28452092 0.025918964 -0.012816836 0.32260567 -0.18737336 -0.33756223 0.019633915 -0.24933515 0.18155898 -0.077870004 0.08001786 0.37139854 0.2283584 -0.38366735 0.11324238 -0.34510928 -0.22267967 -0.10110186 -0.21528599 -0.18999796 0.1341188 0.30231795 -0.047656264 0.16746521 -0.34867972 -0.15663978
949 -0.03323106 0.038641967 -0.21697633 0.55209154 0.3503615 0.9934451 0.49664107 -0.54324883 -0.1452482 -0.14646493 -0.34271827 -0.19274987 -0.10587124 -0.24959837 0.69951296 -0.27997246 0.017389454 -0.49985564 0.2955844 -0.04921445 -0.06501962 0.52217585 0.37661177 -0.25320262 -0.19394751 -0.07581965 0.5294431 -0.47935718 -0.06783432 0.05432238 0.21471466 0.53378975 0.18409753 -0.41638884 -0.3404633 0.02671988 -0.36157236 -0.4327146 0.014024412 -0.31589818 -0.19646583 0.149072 -0.3046159 -0.2643413 0.3702788 0.8801669 -0.35199267 -0.61025935 -0.37767822 0.2639638 0.4452315 -0.10366815 -0.29855296 -0.40147975 0.24938522 0.024891356 0.16403408 -0.08123672 0.22419891 -0.35896417 0.19611587 0.070758075 0.5775998 -0.2607887
3730 -0.16117163 -0.11303462 0.39514884 0.0985563 -0.3561941 0.6150539 -0.17240258 -0.022665491 -0.37966627 -0.14774755 0.048813652 0.15316167 0.20476654 -0.2675433 -0.047399774 0.3796337 -0.298981 -0.0022198185 -0.19011869 0.0100512495 0.24271612 -0.6541115 0.11016979 -0.48421487 -0.6107801 -0.21363723 -0.06019235 -0.11333536 0.60950905 0.39963508 -0.015910808 0.06636982 -0.29133376 -0.2929538 -0.334488 0.10769994 -0.2205518 -0.13620457 0.27791852 0.39497784 0.12559481 0.23140985 0.21327905 -0.55260134 0.20021339 -0.5119106 0.49553403 -0.37925127 -0.111310095 -0.09765154 0.20859525 0.056982204 0.13219506 -0.5411889 -0.19919625 0.45598954 0.057917405 -0.12245554 0.019279703 -0.2051442 0.19967909 -0.086018056 -0.1649563 -0.17796277
4392 -0.882614 -0.25060976 0.27098927 0.20548768 0.43166038 -0.07178882 -0.24781625 -0.37889835 -0.87707454 0.40229693 -0.46400127 -0.3826771 -0.17085336 -0.46200213 0.28807864 -0.21142174 0.62463355 -0.102553226 -0.04439869 0.09733723 0.43091956 -0.1940498 -0.016469931 -0.47214824 -0.49257421 0.4337952 0.01931606 0.32024214 -0.48420873 -0.20958047 0.003770503 0.1273716 -0.10815935 -0.018006725 0.10183541 -0.26486623 -0.42292517 -0.22933933 0.6939845 0.46287817 0.032709267 0.024948353 -0.2836951 -0.12955657 -0.035029642 -0.21766779 0.01759723 0.23795351 0.045128565 0.21375136 -0.045542315 -0.33712417 -0.22021472 -0.039952647 0.23295623 -0.14045122 -0.0057457257 0.15007576 -0.0034237942 0.2333909 -0.27152747 0.01292993 0.18390143 -0.63233495
1476 0.013161234 -0.6864646 -0.0036746233 0.53901553 0.056076396 0.371054 -0.53223675 -0.69450915 -0.35650995 0.49265882 0.09992475 0.4706782 -0.28138044 -0.07026878 -0.004250087 -0.12053861 0.01517093 -0.5633815 0.22632483 0.5257218 0.34125632 0.3171183 -0.16833633 -0.18796718 0.16600306 0.3415824 0.07130694 0.4303505 -0.41345322 -0.091062024 0.28496653 -0.15011474 -0.19782959 0.019289171 0.106570736 -0.1555586 -0.4168412 -0.28282136 0.14845358 -0.11040384 0.06444118 -0.32971352 -0.45039758 -0.6504858 0.1486532 0.18573722 0.6332454 -0.10179883 -0.43856066 0.006095783 -0.13025306 0.23969817 -0.11001831 0.18028323 -0.15275261 -0.37206444 0.2264777 -0.6181948 -0.23930229 0.6970104 0.68368167 0.1313384 -0.07974151 0.079927206
3614 -0.7107246 -0.49749258 -0.60736305 0.57136977 -0.33421323 -0.23665479 0.13207383 -0.38365453 0.055436984 0.94942224 0.028463239 -0.045700945 -0.3165869 -0.10927343 -0.123302974 -0.39612907 0.4424756 -0.2746611 -0.012280413 0.3095351 0.11540506 0.20367286 0.29154193 0.089413986 -0.29763666 0.31001243 -0.6596016 0.16856627 0.043316375 0.6487912 -0.6001549 0.71813667 -0.11192247 0.5252467 -0.3311497 0.32476097 0.20849268 -0.35920817 -0.019137554 0.46723714 0.5640727 0.23440436 -0.121771954 -0.66298324 0.16962075 -0.4004175 -0.17265798 -0.5215338 0.34178275 0.5373353 -0.17654966 -0.04344185 0.054073494 -0.5970142 0.19143559 -0.15617955 0.2838971 -0.23249713 -0.3457591 0.007528316 -0.07478148 -0.32617307 0.31848028 0.3629965
1626 0.006960322 -0.19035201 0.06443594 0.43628585 0.20944363 0.48376122 0.23682585 0.14988196 -0.18887125 0.11259371 -0.12988128 0.007512149 0.4465484 -0.022161508 -0.29928696 0.071357585 -0.03219301 -0.48667693 -0.019792797 -0.29618296 0.45927387 0.23676021 -0.17684911 -0.45946243 -0.03295092 0.2506991 -0.18103562 -0.006743076 -0.12175267 -0.05453753 0.12330279 0.11124101 -0.034550834 -0.16931957 -0.31503657 0.018222159 0.012373681 0.3209493 0.4425702 -0.060668953 -0.13041306 0.36292112 0.5458281 -0.1652846 0.13008173 -0.46559316 0.08958356 -0.28249773 -0.108510286 0.04646729 -0.34166396 -0.111750886 -0.00493546 0.34031913 -0.07118062 0.1236824 0.21636973 -0.17307436 0.006985371 0.66141355 -0.12736516 0.26359606 0.08501078 0.093867935
1729 -0.008020988 -0.19521682 0.22084475 0.47416812 0.33901486 -0.048999332 -0.49845225 -0.22001952 0.03788823 0.16541 -0.14868666 -0.18724097 -0.15966076 -0.09621768 -0.19321898 0.10058184 0.15071042 -0.5778633 0.2661269 0.2261105 -0.25383577 0.36739987 0.10089676 -0.16531964 0.28207132 0.28482142 -0.23298365 0.08082805 0.05762667 -0.017324302 -0.0074101863 0.14590569 0.4462464 -0.6431274 -0.2061571 -0.142 -0.0562874 -0.04530278 0.477239 -0.30947176 0.39439476 0.27667356 0.39764512 0.052700374 0.08130323 -0.4341646 0.011167172 -0.4168118 -0.28297964 0.11127009 -0.4575684 -0.1375463 -0.10350454 -0.047001656 0.07808869 0.36287904 0.116033345 -0.20777239 0.08315813 0.48103705 -0.47581735 0.085229725 -0.31259933 0.26358527
601 -0.24012882 -0.08411015 0.30670875 0.055355594 -0.10324785 0.30155656 -0.03036889 0.35406852 -0.020686619 0.45349792 -0.45709825 0.075388364 0.12514475 -0.22120753 -0.26088053 0.16049497 -0.041765176 -0.6209309 0.11350975 -0.3820649 0.21837084 -0.016707236 0.26085055 -0.4261439 -0.48459756 0.077477425 -0.21388678 0.059118003 0.12369431 -0.08315623 -0.10624505 0.1596849 -0.10152222 -0.34792477 0.008519367 0.40719032 -0.29975766 0.3599052 0.51877624 0.22541264 0.15330015 0.19224468 0.04802126 -0.20626071 0.10622923 -0.39735904 -0.05423268 -0.058381617 -0.10215185 0.13144411 0.20461 0.0052110334 -0.3064629 -0.0045873644 -0.34000468 0.29901624 -0.09261937 -0.16083063 0.20650785 0.39425462 -0.43978658 0.3887981 -0.30181438 -0.37382397
423 -0.2057893 0.017970216 0.6813277 0.68845516 -0.027508924 0.30107626 -0.35633203 0.071676195 0.06273778 0.45489705 0.11964119 0.1545316 0.2992443 -0.15654422 -0.21263845 -0.2568274 0.09270857 -0.63226855 -0.22344291 -0.3330004 0.3224996 -0.15211849 0.12627672 -0.075521 0.026236204 -0.43230706 -0.13104981 0.056489114 -0.16663945 -0.29690677 -0.14623557 0.2929822 0.030062411 -0.40714934 -0.2664818 0.22118922 -0.15028311 0.15406671 0.35273495 -0.13562387 0.33144066 -0.027638055 -0.23181058 0.16995294 0.14277847 -0.68226856 0.34907493 -0.097051166 0.009858856 0.14926596 0.25072664 -0.32176748 0.040615544 0.22738288 -0.21727312 -0.07488565 -0.09414367 0.09838018 0.1610718 0.20914592 -0.0828076 0.21726543 -0.07225688 -0.5468221
2345 -0.13673449 -0.13378276 0.042601243 0.48177788 -0.8277128 0.128578 0.33771533 -0.07941769 -0.383449 0.0770083 -0.18720755 0.09974075 0.20791225 -0.16491802 0.018554483 -0.35775468 0.32185388 -0.16813931 -0.036827184 0.13578762 0.07154013 -0.21128263 -0.24492759 0.23427156 -0.056210488 -0.068732165 0.2274918 -0.39863747 -0.2087835 -0.09407038 0.59046394 0.8034131 -0.1409073 -0.19868118 -0.34497437 -0.033286832 -0.37250367 0.12573713 0.92442644 0.19413593 0.042238843 -0.104712255 0.3529699 -0.19163412 -0.22013688 -0.312244 0.60653657 -0.0033945418 -0.23608601 0.040721223 0.57982296 0.3284237 0.6178845 -0.32631788 -0.4381636 0.22449397 0.20285262 0.32182935 -0.028977085 0.32512876 0.7444186 -0.36238113 -0.37107766 -0.082920894
3416 -0.024763273 0.6790509 0.36655366 0.41726688 -0.30038518 -0.055917937 0.10176856 -0.29132307 -0.65077764 0.021038473 0.48111627 -0.33338264 0.29436487 0.01341339 0.26308963 -0.20854625 -0.33348736 -0.5659868 0.044568136 -0.27245095 0.8867505 -0.32760215 0.59197384 0.464705 -0.41551697 0.40056136 -0.5754887 -0.2949988 -0.18253647 0.2326532 -0.55420864 0.29439592 0.72841895 0.11098809 -0.4270335 0.5399068 -0.9626694 0.031770032 0.04043156 -0.041896157 0.5983271 -0.49606395 0.03485251 -0.45601192 -0.04167908 0.2302933 -0.35570547 -0.52841526 -0.57043874 -0.28412467 0.40768382 0.38569465 0.026195157 0.7163903 -0.0053643067 -0.25144115 0.031929344 0.27413234 0.6283481 0.21388316 0.26440984 -0.044980753 -0.89383847 0.7098135
1344 -0.5199073 -0.3096427 -0.08988237 0.92429817 -0.5923624 0.2717859 0.09578483 0.10329005 -0.014955388 0.15488172 -0.24594866 -0.14225602 0.6068706 -0.16714975 -0.5659905 -0.54722536 0.33091065 -0.4540206 0.46035585 -0.018051391 -0.18622677 -0.08982254 0.10816485 0.112267286 0.062199496 0.18013838 0.3010321 -0.25393382 -0.09379183 -0.23702379 0.45522028 0.5010787 0.15503134 0.23658143 0.27289715 0.31028023 -0.17703709 0.38935092 0.65041625 -0.5589518 -0.34901625 0.08908614 0.71114314 0.082936615 0.3946445 -0.290921 0.43468547 -0.20946667 0.28121692 -0.32205313 0.28162402 0.11617254 0.047611736 0.32258192 -0.21795748 -0.04408634 0.5283329 0.6193287 -0.043244485 0.03008128 0.81173414 0.28605464 -0.2669271 -0.054132223
3198 -0.5588234 0.03166481 0.10201491 0.5767224 -0.058324162 0.26694882 0.012362487 -0.1194665 -0.42415082 0.19446906 0.14302996 -0.10568172 0.29410702 -0.30969462 0.5564128 0.4839267 0.20479716 -0.05640057 -0.42324135 0.0051497254 -0.31673473 0.056641944 0.5636292 -0.07221335 -0.47297102 -0.23629113 -0.1896958 -0.894303 0.062320303 -0.07509098 0.37387708 0.05447437 -0.31915385 -0.29310873 -0.4139182 0.66422164 0.086077064 -0.0889881 -0.14592646 -0.21546625 -0.006209679 -0.40072018 -0.44555894 -0.3013917 0.23063113 -0.97875756 0.05834125 -0.25367713 0.23521417 0.2500426 -0.46473745 -0.5915807 -0.5022292 0.7884482 0.44885966 0.38696906 -0.097010046 0.316659 -0.34818324 0.7293187 0.6269433 0.121675804 -0.30362263 0.028806621
3081 0.03714361 -0.18085021 0.055233628 0.17388584 -0.15663803 0.43470562 -0.21440056 -0.13679175 -0.29391462 0.06393353 0.21457136 -0.28400376 -0.38549787 -0.022878656 -0.13955532 0.19781102 -0.1995565 -0.21522628 -0.22059326 0.018588677 0.117074594 -0.19317515 0.28641525 -0.48995945 -0.6800735 0.50726354 -0.22356303 -0.047012635 -0.0038107834 0.1594504 0.037155278 0.08102472 0.43410555 -0.16370368 -0.5986817 -0.16636838 0.09863055 0.5754765 0.53490096 -0.21568967 -0.24360795 0.17763816 -0.32134712 0.5262654 0.07573514 0.00030371652 0.34868568 -0.4483043 0.51337624 0.10965753 -0.27954134 0.15255442 0.0729257 -0.023601187 0.005500037 -0.005242344 0.045578342 0.05750166 -0.04653101 -0.01590303 0.15250064 0.22889107 -0.24724317 -0.2617628
2404 -0.08570033 0.01802803 0.29079154 0.51816195 0.20447266 -0.054001465 0.33047798 -0.1688239 -0.32818124 0.08702237 0.04337685 -0.17000964 -0.46264488 0.31425443 0.0077050696 0.26175153 0.44589442 -0.6280957 -0.20344041 0.1581221 -0.19678088 0.049227823 0.5176479 -0.007580524 -0.79483026 0.44331622 -0.17676462 -0.17705598 -0.19428854 -0.076169215 0.16131532 0.25290257 -0.5607841 0.12983829 -0.24619715 -0.25281557 0.0016261137 0.20410155 0.2840154 -0.18765311 -0.52604085 -0.49430957 -0.052022118 0.026843507 0.28619167 0.1254643 0.3337269 -0.24740918 0.47170153 -0.84942377 0.20919108 0.83039016 0.30636844 0.21026693 -0.063212655 0.09316717 -0.40346196 -0.11252725 -0.40188247 -0.31518745 -0.51880693 0.4403267 -0.3692515 0.24035725
783 -0.2542224 -0.63905376 0.14812633 -0.058605123 0.1102461 0.24036708 -0.25113496 0.0088038985 -0.22613467 0.12279649 -0.14337316 -0.4217735 -0.37413517 -0.01478063 -0.05072611 0.2193682 -0.04375135 -0.30879533 -0.4694078 0.09370498 -0.35195935 -0.22719891 0.12357295 0.6034316 -0.28157178 0.52794516 -0.35200432 -0.5302619 -0.38227245 0.5157232 0.2732185 0.5180849 0.018211141 -0.5021015 -0.37141776 -0.022318762 0.2139612 0.89601624 0.13097878 0.2506803 0.105695926 -0.22298016 -0.7454621 -0.11555233 0.24915235 -0.41562697 -0.02393281 0.18268514 -0.38055074 -0.22354952 0.44353688 -0.47387934 0.03950287 0.16113985 -0.3302982 0.4294113 0.09804763 -0.15050268 -0.2771751 0.16393799 0.022361564 0.2287775 0.357297 -0.5595238
2336 -0.16092332 -0.18019082 -0.04257643 -0.056168064 -0.117187776 0.3256236 -0.09424072 0.19776633 -0.4279895 0.418173 -0.07718998 -0.2646262 -0.0040677385 0.2947313 0.16552836 0.3523605 -0.21675149 -0.59914696 -0.09123917 -0.10027884 0.33070236 -0.13632484 -0.05061832 -0.2495542 -0.12380901 0.27481794 -0.09378342 -0.23514701 0.23876068 -0.058479957 0.05090068 0.25580728 -0.034890745 -0.569639 -0.27561113 0.40388548 0.37488082 0.35349935 0.014718893 0.09621321 0.51098573 -0.005741253 -0.093477696 -0.39611387 0.48512796 -0.21152724 0.044757593 0.12118124 -0.24869949 0.24380983 -0.26650044 -0.18202831 -0.035991225 -0.14682372 -0.19173978 -0.18943335 -0.28656107 -0.15361686 -0.059305236 0.34761763 -0.37281102 0.1252583 -0.2301134 0.0032740666
545 -0.07764491 -0.14215598 0.21117978 0.48766422 0.02226499 0.27118802 -0.26571026 0.3419405 -0.013266852 -0.06251569 -0.19371405 -0.08593214 0.3604422 0.12689243 -0.398412 0.23824534 0.0042007864 -0.45544818 0.24730287 0.0032948523 0.29358688 -0.436185 -0.29349706 -0.59997654 -0.2020122 0.06898888 -0.17291091 -0.18001342 0.1451389 -0.045090165 -0.08904024 0.2752817 0.17592053 -0.2544478 0.31000075 0.16727802 -0.033388108 0.47540164 0.20929192 0.11412305 0.009725435 0.4570717 -0.17026688 -0.11723427 0.15194477 -0.20506771 0.22442433 -0.3644059 -0.17847879 0.048312124 0.18424243 0.21190044 0.015360153 -0.573744 -0.07442499 0.16648158 -0.25810906 -0.07756747 -0.08228161 0.2746541 0.056028474 -0.0027420612 -0.08174635 -0.26665375
2661 -0.34720984 -0.26687315 0.1610617 0.15850258 0.018655492 0.010034941 0.06559515 -0.45456672 -0.35566592 0.28835356 0.04758223 0.15618834 0.29415503 -0.01914546 -0.2245686 -0.070311315 0.3865148 -0.7747991 -0.07337964 0.04424422 0.5486781 -0.16806751 -0.093418114 -0.28702077 -0.0034996467 0.082360394 0.14862417 0.24910432 -0.08835329 -0.5309855 0.31091788 0.35381767 -0.41550237 -0.49038953 0.03582524 -0.35234022 -0.29948738 0.26650754 0.5557364 0.15350223 0.2330023 -0.048580118 -0.304072 -0.16642731 -0.07018732 -0.33586213 0.04989469 -0.026942909 0.01577826 0.26079667 0.24864955 -0.08624295 -0.28231838 -0.029825645 -0.15514192 -0.12734686 0.0042229155 0.5298493 0.031627852 0.43109092 0.5553201 -0.008947375 -0.1885599 0.07114375
2021 -0.37404838 0.1887134 -0.7174933 0.48667648 -0.26248413 0.3653591 0.30712405 0.23561813 -0.41360956 0.35533687 0.15331194 -0.19898418 0.08523348 0.44605073 0.54156613 0.0067138798 0.17516156 -0.025996095 0.67730474 0.18203682 0.039217476 0.2960367 0.24462083 0.11414693 0.24130917 -0.09027956 -0.27403572 -0.6833963 -0.043383706 -0.26939675 0.093103014 0.41617 0.192678 -0.047196418 -0.087012015 -0.33351696 0.29136047 0.2671314 0.71009564 0.4528975 0.13822831 0.3453288 0.09195049 -0.5337883 0.3475884 -0.23060891 0.028966106 0.13616647 -0.29102105 0.109410025 0.16582137 0.38398147 0.73069245 -0.21366076 -0.14036396 0.18087313 0.4969319 0.17768975 -0.35875455 0.19629374 0.9278451 -0.1184789 -0.8382041 -0.66876984
3417 0.19881977 0.55289394 -0.041225255 0.44889536 0.30316365 0.7809779 0.48249882 0.19906813 0.08086103 -0.13106498 -0.51413375 -0.55916977 -0.08365757 -0.24657074 0.3542304 -0.23665123 0.50524 -0.6608968 0.094637915 -0.033558175 0.38085935 0.035614394 0.46432516 -0.17118098 -0.20940539 -0.08022824 0.08847999 -0.47634682 0.56040245 -0.028891211 0.49744338 -0.04744173 -0.23740092 -0.57673025 -0.09823473 0.28892785 -0.16660547 -0.24476098 0.13532934 -0.35650623 0.20366736 0.008086609 -0.32768765 -0.1767984 0.28526133 0.57457674 0.07309078 -0.6353083 -0.32110023 0.26488835 0.56348974 0.5798082 -0.57609594 -0.35220167 0.107714504 0.13354728 -0.051370796 0.42619956 -0.098006725 -0.21983056 0.11112306 0.36258858 0.44042066 -0.4509481
4539 -0.004553748 0.32673854 0.11605782 -0.10017396 0.4245021 0.4152637 -0.33084702 -0.35583952 0.031300273 -0.014998475 0.28886956 0.009304862 -0.3125437 0.3995664 0.05378026 -0.18244979 -0.22250904 -0.27953213 0.073743545 0.074790254 0.27509302 -0.16949444 -0.19133297 -0.22538702 -0.63813573 0.45578468 -0.45591393 0.09448984 0.17667525 0.46231356 0.65069026 0.2915174 0.18322258 -0.2736036 -0.6994949 0.58502567 0.16884024 0.32095906 0.519433 -0.21344803 -0.36432427 -0.46746793 0.23896125 0.2378451 0.18245795 -0.04473386 0.07628027 -0.3431686 0.1483991 -0.22850165 0.24867342 -0.3317667 0.068052076 -0.24956755 0.043192755 0.29983795 0.4498574 -0.18232451 -0.20208448 0.6895098 0.5119361 -0.29336524 -0.394763 -0.19379604
