4933 64
145 -0.45852724 -0.299497 0.21933039 0.29255372 0.6501674 0.0239371 -0.032700364 -0.28334692 -0.103993304 0.52354825 -0.17088343 0.035036236 -0.1724742 -0.27865744 -0.30852672 0.3365906 -0.013756239 -0.07304493 -0.010387998 0.07524155 -0.359442 0.42818627 0.068255275 0.6176078 -0.14096561 0.038881894 0.41972736 0.4747903 0.2507465 0.045572434 0.71211714 -0.056412686 0.10022297 -0.10301126 0.08814583 -0.3587632 -0.3537873 0.47181037 -0.14609346 0.070093215 -0.09984218 0.08137746 0.382695 0.096847296 -0.17927179 -0.13843675 0.31156632 -0.14259717 -0.10580083 -0.55427796 0.2908633 -0.1567851 -0.056133483 -0.17343555 0.5790976 -0.45916864 -0.28725964 0.093022086 0.055660985 0.25850907 0.2742295 -0.1254997 0.18291472 -0.10841165
39 0.02647549 0.050123177 -0.3023835 0.14312723 0.33382097 0.2314037 -0.39491418 -0.17553079 -0.12663129 0.15847296 0.0974902 -0.44680583 0.61085904 -0.19965827 -0.38517657 -0.21739012 -0.82481426 0.37603322 -0.08307632 -0.060708344 -0.26756546 0.14401709 -0.25908205 0.08588362 -0.19248681 -0.26398817 -0.30167782 -0.26570755 -0.040516157 -0.14512838 0.43039748 -0.23884468 0.5060988 -0.110138685 0.085891806 -0.37061968 0.3174423 0.73061883 -0.09198754 0.49519897 0.07537072 0.05141087 -0.18425654 0.16079922 0.37679818 0.26756924 0.27210063 0.05647587 0.23996304 0.085601054 -0.010163587 -0.34743974 0.32554835 -0.29492074 -0.42907766 0.009532937 0.10303848 -0.016244067 -0.3311233 0.18992065 -0.04132515 0.010257633 0.115499854 -0.17445438
4287 -0.18805356 -0.10997654 -0.068499885 -0.06781341 -0.20039527 0.4860655 0.2314821 -0.43810925 -0.28582266 0.09553409 -0.08015114 0.16545613 0.13350934 0.055330824 -0.16549024 0.09194146 -0.10918424 -0.052966546 0.0021617182 -0.44024488 -0.4782229 0.4351947 0.1485896 -0.3359468 0.31630903 0.10940299 -0.32392883 -0.10837447 0.36656946 -0.04754806 -0.051311918 -0.21284692 -0.040155232 0.21571173 -0.40206337 -0.2170887 0.08294915 -0.0798439 -0.03503807 0.016233036 -0.29296616 0.036138806 -0.13298817 -0.119777255 0.12325026 -0.5550288 0.7961401 0.10330539 -0.060521826 0.4055596 0.22584598 0.08405544 0.3796779 -0.3292247 0.33284852 -0.19537441 -0.29771674 0.23860355 -0.4712031 0.15059626 0.07364689 -0.44358632 0.22570008 0.28625473
1303 0.270781 -0.0020005503 -0.054814935 0.13679272 0.16041408 0.12556984 -0.25176013 0.0646795 0.25024933 -0.2518773 -0.11186437 0.27411148 0.270024 -0.10700927 -0.05368047 -0.4169645 -0.04031759 0.21206121 0.094247535 -0.26612064 -0.084757075 -0.056581948 0.06788179 0.072297886 0.27964047 -0.32814184 -0.2435459 0.17292684 0.35970885 -0.32591978 0.49230745 0.32334986 0.1744597 -0.012830481 0.2821685 0.2668273 0.07438108 0.17216726 -0.07103978 0.11527713 -0.3107386 -0.12507717 -0.27215174 -0.20470335 0.15143713 0.04678391 0.38659295 0.42181936 0.32023954 -0.047703512 -0.15701592 0.18929152 0.4373752 -0.1686716 0.017734338 -0.18594696 -0.11083661 0.07575087 -0.10288849 0.30801165 0.01975052 0.14974688 0.18004617 0.022716844
1520 -0.26738432 -0.23554513 -0.27209574 -0.12081369 0.24608487 -0.08751028 -0.12754807 -0.6864344 0.38600394 0.5730499 0.16966422 -0.3641919 0.4230257 -0.28464076 -0.0056509413 -0.10592076 -0.08651399 0.19776382 -0.1297097 -0.2762105 0.119965345 0.30368263 -0.00508659 -0.013895079 -0.05627802 -0.6198891 0.18347006 0.07092882 0.4620423 0.12562713 0.39591268 0.266147 0.17770311 0.9166167 -0.03882671 -0.7233324 -0.23881151 -0.56690055 0.050022166 -0.094646186 0.02804719 -0.08051988 0.17922713 -0.42723262 -0.15022145 -0.21637726 0.07911889 -0.0030981398 0.1045257 0.45295325 0.34732887 -0.06297533 0.22714604 -0.5519147 -0.2808556 -0.2189325 -0.4157711 0.04529109 -0.030209124 0.0680182 -0.5292166 -0.0923159 -0.2362919 0.006181932
3000 0.24723141 -0.2516432 -0.15819745 0.10658685 -0.097140215 0.02552125 0.34666976 -0.648948 -0.2100585 0.082311384 -0.025196303 -0.015628038 -0.1904411 -0.040969525 -0.005085989 -0.14512138 0.40710676 0.04926682 0.20664406 -0.07492601 -0.08176362 0.060540643 0.0010492819 -0.06823071 0.11542587 0.28528303 -0.419037 0.10612958 0.30242506 -0.17087299 -0.0024921864 -0.04336556 0.041325286 0.21736325 -0.10439977 -0.108819805 0.10321361 0.27009213 -0.08303171 0.017197026 0.12568231 -0.19487534 -0.23923238 0.14962767 -0.025458325 -0.17004597 0.7705455 0.17374016 -0.094434924 0.60572755 -0.36156392 0.10553622 0.5270544 -0.27683014 0.45176142 -0.12877072 -0.47934017 0.21699397 0.027189314 0.02795733 0.09107487 0.057103578 0.03903819 0.3468063
2976 0.20444174 0.16184118 -0.30349046 0.23760821 0.058331072 0.08697006 0.022011306 -0.16043887 0.39240313 -0.23263134 -0.19645442 0.33773822 0.38932592 -0.118917584 -0.30200198 -0.22406958 -0.16570023 -0.037421122 -0.010562935 -0.0041736295 -0.05691667 0.10111609 0.31584644 0.00133148 0.13338423 -0.070765555 0.16420881 0.04270308 0.43316525 -0.25663343 0.41054052 0.3207178 -0.28703088 -0.145351 0.14125234 0.2349201 0.12192786 0.2064167 -0.28692985 -0.11421552 -0.169153 0.1402535 -0.15865576 0.047717232 -0.13375719 -0.0999981 0.22278206 0.14853744 0.17156042 0.2620858 -0.14961967 0.13040927 0.07641759 -0.123147435 0.3369079 -0.011535222 -0.0057151592 0.43690684 0.09099432 0.20951259 -0.077664144 0.29415092 0.1642086 -0.0061454386
2497 -0.29882765 -0.015007818 -0.45612678 0.06189618 0.5191747 0.41609755 -0.19533277 -0.49611056 0.025133707 -0.56097054 -0.0112425415 -0.15371042 -0.39454985 0.26389527 0.20545097 0.061545774 0.41940692 0.40218502 0.09355611 -0.5411195 -0.24155486 -0.15006632 -0.15750603 0.097095504 -0.3715525 -0.50501895 0.06407077 -0.3349667 0.38460037 0.08052924 0.38342875 -0.24920209 0.0044313413 0.09794541 0.7017316 -0.39328226 -0.21972556 -0.06261103 -0.33781543 -0.21599329 0.42210197 -0.347518 0.65624416 0.5650765 0.11965386 0.05601938 0.6959539 0.20591404 -0.66342825 0.1254666 0.48738465 0.2713474 0.24418339 -0.4396919 -0.13785847 -0.08702422 -0.18061517 -0.10999097 0.05360289 0.51554006 -0.31826642 -0.65052116 -0.6190172 0.07909375
1511 0.15408032 -0.23645708 -0.46992838 -0.37530985 0.4419793 0.0075702392 -0.085818246 -0.53001696 0.8896263 -0.2825279 -0.3816809 -0.012912633 0.08788233 0.33618742 -0.1586177 0.15444359 0.24284758 1.0691618 0.064281955 0.57703394 -0.34583277 0.43472072 0.17414634 0.34178573 -0.015038146 0.19467153 0.17479603 -0.21429762 0.39974624 -0.47390625 0.13304591 0.12284615 -0.15512414 -0.03437969 -0.40128174 -0.5959568 0.19599655 -0.111774735 0.18146048 0.25585857 0.10016276 -0.12712139 0.50782365 -0.109125234 0.5719531 0.0054965485 0.3889416 -0.47195828 0.0061736666 -0.1125256 0.37651613 -0.4298124 -0.27857986 -0.5916942 -0.15692456 0.014320271 -0.19766502 0.23008892 0.0141693745 0.2386267 0.0014030946 -0.179814 -0.4958023 -0.3162896
1858 -0.008187533 0.1709482 -0.15890825 0.5956348 0.2907935 0.08469685 -0.17005804 -0.31986615 0.44455668 -0.08649797 -0.098360926 -0.07514621 0.22821279 -0.17165911 -0.23420207 -0.4053525 0.38451138 0.2820388 0.048592422 -0.05045204 0.15983565 -0.29107028 0.2401466 -0.0062214215 0.030057348 -0.12797998 0.03181129 0.55529183 0.30614796 -0.47036567 0.3370002 0.028215885 -0.08193076 -0.5695049 0.12557688 0.15220918 -0.088576965 0.08890918 -0.098204754 0.19098292 0.14476493 0.086121686 -0.21163985 -0.37526605 0.24675535 0.1758303 0.40587848 0.022793433 -0.51226324 0.07968473 0.064483255 0.27886522 -0.115346566 -0.3658803 0.3461254 0.08199458 0.061075237 0.17968345 0.035043746 0.033441097 -0.03583027 -0.02464595 0.07061055 0.106215894
3333 0.31861734 -0.48534864 -0.13322473 -0.03496238 0.28382716 0.40448228 -0.24000867 0.14148724 -0.3342017 -0.16403984 0.30670872 -0.072033904 -0.65599024 0.09337819 -0.45963132 -0.42349058 0.057278603 0.034780554 -0.08419685 0.5976486 0.21587095 0.39922395 0.24360242 -0.11694628 0.15168235 0.4136251 0.04492531 -0.05605519 0.73770833 -0.339709 0.49801105 -0.27156097 0.2714556 -0.08255054 -0.22868973 0.22879641 -1.1265619 -0.15784346 -0.17432475 0.33703262 0.29663607 0.4158226 0.6963504 -0.188436 -0.049599525 -0.22093369 0.4000471 -0.13278526 -0.09340504 0.005597369 0.318153 -0.013674858 0.43242538 -0.3585066 0.17214383 -0.12160414 0.18990257 0.13108234 -0.022251919 -0.19454347 -0.77082956 -0.0805127 -0.809657 -0.4267106
2233 0.29856148 0.10323088 -0.1776076 0.6285946 -0.044086527 0.099300876 -0.10662137 -0.62639934 0.06686999 0.104539685 -0.17572589 -0.37534514 0.19078557 0.040709328 -0.20433864 -0.27322993 0.1008379 -0.2161477 -0.4757063 0.0022356678 -0.057386585 0.026298268 0.10554219 0.05933634 0.14088134 -0.07877029 0.2972797 0.08445184 0.31523976 -0.14714816 0.24045292 0.46090004 0.1068369 0.11770574 0.22467388 -0.1240535 0.5382645 0.3560218 -0.14749864 0.23812926 -0.43316683 -0.020765228 0.014559771 0.1830528 0.28139618 0.006766695 -0.021723144 0.22630799 0.25128126 -0.019847967 -0.1649459 -0.02096912 -0.051455926 -0.39927587 0.56096977 -0.07899323 0.06591963 0.4046697 -0.16032042 0.27508473 -0.2137834 0.6004592 0.23771225 -0.055289965
2042 0.2433616 -0.033492744 0.7006393 -0.14801759 0.080338895 0.0006471226 0.00925529 -0.04017736 0.06935392 0.50591534 0.24615017 -0.088689096 -0.062035847 0.5400539 -0.3844395 -0.35507035 -0.37600404 -0.11520243 -0.6059899 -0.22915527 0.11192214 0.4641253 -0.087858036 -0.23448254 -0.36894447 -0.13993968 0.14137225 -0.11684914 0.29372233 0.26550782 -0.020603636 0.3267975 -0.09317614 0.09438354 -0.04269774 -0.24417713 -0.5592465 0.7153947 0.20249549 0.27102396 0.16111799 0.2695912 -0.086893864 0.41629204 0.23955144 -0.18629149 1.0027945 0.31951374 -0.81549716 0.38152975 0.023688374 -0.18324924 -0.057739746 -0.42669526 0.063451484 -0.09887444 0.23149107 0.08109648 0.76041585 0.24603473 0.1396947 -0.21621026 -0.31976107 -0.13083391
3629 0.16852947 -0.20302323 -0.22180924 0.05424761 0.10624398 0.09393046 -0.14588173 0.2448676 0.00069728214 0.18421322 0.0117785605 -0.17440301 0.24868903 0.26670927 -0.049910378 0.12700886 0.16807412 0.2738334 -0.43113723 -0.112359375 -0.0038485313 -0.14336498 0.24495867 0.21135607 0.107736215 -0.30752295 -0.007087866 -0.013393983 0.28612256 0.067561276 0.40881193 -0.072400846 -0.1677254 -0.608673 -0.29102394 0.30944386 0.25754878 -0.24362555 -0.28365237 0.27247408 -0.117377006 -0.2237919 -0.31854823 -0.19679365 -0.0070673935 -0.32854685 0.6740467 0.0678155 -0.10963705 0.2451083 0.09426303 -0.17215511 0.35493886 -0.49139136 0.29645678 0.3447055 0.12386663 0.5030958 0.35173693 0.35362875 0.31356022 0.18028113 -0.097424544 -0.10641707
2588 0.13819337 0.08244687 -0.015686328 0.23862354 0.079554334 0.038968872 -0.27635115 -0.0523793 0.15193492 -0.013718402 -0.13758826 -0.091793485 0.03441025 -0.3227878 -0.3622009 -0.36852401 0.016216887 -0.5061848 -0.12625968 0.14462249 -0.22569126 0.0890397 0.20873204 0.08859137 0.014246366 -0.51399153 -0.058250282 0.0907644 0.30585727 -0.37746197 0.22277077 0.030221438 0.098289415 -0.29841766 0.13302241 0.0598346 0.23027551 -0.0721523 0.3346299 0.24012779 -0.0075052963 -0.26716113 -0.1542973 -0.4255272 0.19085476 0.12524219 0.37633443 0.41150883 -0.002484204 0.18132275 0.18591397 0.48422956 0.31877407 -0.26667625 0.094296716 0.1392695 -0.18822972 0.0687003 -0.030717392 0.5610095 0.3028055 0.1440939 0.074748196 0.17416367
2822 0.32546064 0.06502232 -0.46322095 -0.03917131 -0.1017824 -0.30058262 0.21025582 -0.31941512 -0.12834397 -0.25120375 0.15049338 0.18462516 0.2713459 -0.029134694 -0.18498573 -0.053939905 0.2235412 0.2785804 0.38373682 -0.06387956 -0.008771078 -0.02256418 -0.25375152 -0.28116214 0.020663584 -0.34319085 0.15417497 -0.071187265 0.6109197 -0.049385328 0.34228086 0.08059844 0.08522484 -0.27503553 0.12198451 -0.019161694 0.36866692 0.16768181 -0.07135283 -0.18856524 -0.15310161 -0.15980507 0.3068363 0.26335338 0.008785874 -0.112419285 0.45485422 0.17457654 0.023970561 0.12637064 0.0040433183 -0.25354847 0.24135908 -0.39625254 -0.057606705 -0.015034157 0.290735 0.67585444 0.34499457 0.060648907 0.107629664 0.6744539 -0.2624845 0.08577521
2829 -0.13415115 0.15211342 -0.2360146 0.19678162 0.057698745 -0.055307698 -0.047493268 0.09454981 -0.11385901 -0.015609171 -0.37160704 -0.14401099 0.022601563 -0.10459571 -0.2693549 -0.47294107 0.2911563 -0.06086079 0.12937263 0.121674724 -0.11844996 -0.1361586 0.08903243 -0.11319049 0.14448622 -0.3405317 0.049144186 -0.026496308 0.6462863 -0.24387279 0.42329285 0.09438537 -0.04143043 -0.4897356 0.0010301216 0.36338422 0.15715964 0.19272012 0.050411545 0.28315607 -0.27586433 -0.25017828 -0.068329304 0.00027070259 -0.05330882 0.017800894 0.32078212 -0.018078666 0.13058098 0.37132064 -0.12854859 0.12518474 0.047835834 -0.13385081 0.11730999 0.26666915 -0.20582166 0.15579918 0.2606874 0.21934325 0.1565938 0.17410156 -0.14784843 0.3852269
1267 -0.036883324 0.15417281 0.03790925 0.37186533 -0.12415203 -0.12471365 -0.38946202 0.014651623 -0.45057556 0.3439394 -0.3564117 -0.5801286 -0.13473497 0.44546503 -0.6249062 -0.11367494 -0.29262552 0.2244891 0.13177152 0.69596773 -0.49183306 0.29987967 0.05573518 -0.1286306 0.43258184 -0.2471141 0.6629404 -0.2641758 0.10950973 -0.17462857 -0.09094428 0.096388005 0.50976104 0.29845953 -0.2813103 -0.11235661 0.027557774 0.09807265 -0.3336662 0.50875515 -0.29769167 -0.41567862 0.24407849 -0.4635721 0.12720706 0.5839546 0.8454633 0.46300745 0.39674 -0.344807 0.017904744 0.36617523 0.29978982 0.19628698 -0.14696607 -0.7990833 -0.111126855 -0.2476918 0.20088653 0.40461102 -0.19650951 -0.054431155 -0.4774732 0.064510584
23 -0.6899682 0.30743033 -0.02134881 -0.564168 -0.006951442 0.35169128 -0.4300628 -0.103269756 0.64968306 0.075667255 -0.16623077 -0.3868973 -0.40527534 0.033393286 -0.27089277 0.14291222 -0.057996772 0.09901161 -0.23431315 0.16225709 0.4287038 0.25436103 -0.6291341 -0.50520146 0.1821238 0.24232939 0.094377644 0.075088605 0.27850968 0.3484332 0.0299133 -0.16814077 -0.17507535 -0.14357157 0.43932304 -0.19416222 0.06905638 0.79924655 -0.096186794 0.24300149 0.07351169 -0.30450827 0.47367063 -0.6686833 0.16592358 -0.18675704 0.7150143 0.02186166 -0.09816763 -0.38228497 0.35616758 0.16447116 0.3536664 0.34038198 0.21505101 -0.019514458 -0.16340569 0.24243379 0.28094515 0.18241915 -0.05901046 0.31108403 -0.03700418 0.10203327
2495 -0.25907078 0.0849706 0.10498588 0.017820843 -0.08196998 -0.040360387 0.2383419 -0.1476251 0.2048112 -0.25864354 0.20193039 0.20912768 -0.28368306 -0.25559917 -0.23377587 -0.4842025 -0.2756589 0.110227674 -0.3453582 0.26590404 -0.011294766 -0.16560999 0.7433057 0.18355764 -0.04667385 -0.32898602 0.30229056 -0.15442394 0.54213244 -0.24564143 0.5113227 -0.12888685 -0.12532052 -0.26183426 0.18764053 0.21762909 0.37708706 0.041789424 0.03346807 -0.11238469 0.1358335 0.30186796 0.046481635 -0.19335039 -0.0054616053 -0.6028183 0.31038696 0.7250783 -0.07653816 -0.029014267 -0.043795086 -0.01556193 0.6883375 -0.19580531 0.12150667 -0.2629088 -0.07977399 0.13081689 -0.03855686 0.15905996 0.3090544 -0.02840745 -0.1772782 -0.019096026
2996 0.01702822 0.30279672 0.1466916 0.09966027 -0.40939733 -0.13783748 0.2383411 -0.020498268 -0.27003685 0.35080323 -0.06598646 0.51538026 0.025298685 -0.14188488 -0.091673195 0.020370929 -0.15174542 0.5588671 0.5420955 -0.43206647 0.67946774 0.05736367 -0.63367265 -0.066214964 -0.43623734 -0.1087256 0.6394313 -0.002710807 0.3987272 0.087887876 0.6809167 0.022278575 0.39194283 -0.13458447 -0.4094819 -0.14314269 0.3608092 0.78407776 0.22023304 0.0128488755 -0.024910346 -0.6379284 -0.23471768 -0.7348484 -0.31683114 -0.73505586 0.39363596 -0.20475936 -0.05478162 0.083102934 1.2826126 -0.14726377 0.0190638 -0.10826354 0.5031896 -0.26381814 0.16332413 0.14296073 0.06206821 0.2251312 -0.68717897 -0.26924622 -0.050240185 -0.6864096
4346 -0.5146694 -0.08126677 -0.008173258 -0.024929587 0.20840487 0.07738504 0.014266548 -0.3430375 -0.7392388 -0.028119363 -0.11393563 -0.349566 -0.3855422 -0.66187185 -0.063305676 -0.27117866 0.12606616 -0.0029164003 0.29422665 -0.64883703 0.539779 0.06398373 -0.29751456 0.46226615 0.41952848 -0.5008608 0.023487564 0.16784762 0.21939401 -0.052139938 0.09047669 0.2281047 -0.41502622 0.034473676 -0.43734303 -0.011330553 0.37128863 0.55501324 -0.42665416 0.81318766 0.2558304 -0.24895903 -0.05381434 0.03956438 0.595647 -0.067632034 0.48982936 0.124056235 0.46181992 0.2884466 0.25682503 0.1320154 -0.3602466 -0.4000307 -0.24600136 -0.31394342 -0.014572462 0.17410852 0.37003383 0.17153895 -0.32270095 -0.21650724 -0.9849737 -0.2772617
2051 0.23485783 -0.09202659 -0.32465467 0.39696372 0.07762472 0.043867815 0.061582144 -0.46220472 0.17505689 -0.1607932 0.05101311 0.095022544 0.18961559 -0.28381696 -0.15419301 -0.1346224 -0.2096477 0.22178991 0.17859213 -0.109800994 0.13439654 -0.08799807 -0.053148065 -0.074019834 0.39962643 -0.33378926 0.24977794 -0.019467253 0.23773092 -0.19552861 0.43846992 0.024806652 -0.22825545 -0.25765666 0.2561206 0.4457178 -0.046374686 0.4036607 -0.11781684 -0.0780244 -0.27194268 0.07110078 -0.21459259 -0.19817667 -0.03481338 0.11960037 0.38626686 0.18705237 0.108246356 0.43156013 -0.22032286 0.18748337 0.092003174 -0.25534633 0.05090191 0.025540037 -0.07187117 0.23324788 -0.12011203 0.16290462 -0.21419472 0.11318721 0.12405507 0.19515668
4060 -0.024060141 -0.41922364 -0.4708612 -0.050549563 -0.04621579 0.20302683 -0.096564054 -0.11957862 -0.32353023 0.16840199 0.046649057 -0.26715127 -0.010038384 0.20860456 -0.1708339 -0.15466695 0.32842425 0.22952919 0.30831328 0.23826076 0.0012796292 -0.34243482 0.2584864 0.1305981 0.05207447 -0.23204105 0.14526244 0.0619193 0.23258173 -0.20857455 0.12904176 0.06190734 0.009087047 -0.13501823 0.07143673 0.069194764 0.019183218 0.42271054 0.025250444 0.046540942 -0.37429586 -0.067564175 -0.0067827725 -0.11263164 -0.18790178 0.11097687 0.45580086 0.21447441 0.048679292 0.19002748 -0.47522664 0.22583453 -0.09900843 -0.33527923 -0.21609718 0.2112204 -0.103203736 0.70657897 -0.00041343793 0.61502 -0.12292106 0.1447952 0.12122525 0.28013623
1918 0.19499046 -0.114859916 -0.22681512 0.41603985 0.005075476 -0.22680293 0.16338459 -0.1453311 0.25374633 0.42500523 -0.056104947 -0.085728556 -0.106457196 0.17739098 -0.2962037 -0.35593367 0.58682907 0.3322555 -0.104225904 -0.07788987 -0.2895678 -0.12161899 0.08740565 0.0021647683 0.21317206 -0.3091555 -0.5136599 0.34675547 0.4554894 -0.21237274 -0.017742341 0.41487458 0.17771234 -0.043961443 -0.07082222 0.53672135 0.28912574 0.067005925 -0.113371 -0.32693434 -0.07713521 -0.2096677 -0.254113 -0.13418368 0.081798024 -0.27183315 0.43710726 0.10140582 -0.14175706 -0.16118377 -0.15872902 -0.106588036 0.5503722 -0.055304755 0.25010946 -0.23695678 0.053392652 0.21051866 0.15531702 0.20293923 -0.12138333 -0.12919872 0.08993417 -0.27496958
968 0.28590307 -0.1602549 0.1449429 0.20773083 0.117859185 0.17569546 0.06503661 -0.022461759 0.25540337 -0.048733573 0.0036220835 -0.4761138 0.18155245 -0.19787222 0.23623669 -0.6018171 -0.006909652 -0.1654667 -0.33744523 0.11432563 -0.180684 -0.110278845 -0.0032985485 -0.16971079 -0.02262034 -0.41111204 0.21423882 0.15004854 0.4098592 0.18406096 -0.06404114 -0.2874932 0.035148155 0.273839 -0.224843 0.2259976 0.2603121 0.5201445 0.15477823 0.109377235 -0.36176243 -0.33788565 -0.021546377 -0.09961338 -0.072345756 -0.2290859 0.26049682 0.20819025 -0.49750933 -0.010145677 -0.019324467 0.294991 0.36060366 -0.7691763 0.34531346 0.12803432 0.25192177 0.50466967 0.24157119 -0.054825965 0.0839282 0.2693955 -0.27879003 -0.04413874
3387 0.07687134 -0.16147636 -0.26445934 0.41903815 0.19458275 0.077457584 -0.049548462 -0.530745 0.10611704 -0.31793103 -0.08898538 -0.15222324 0.12125926 -0.050616406 -0.37680283 -0.3492847 0.35470897 0.2715537 -0.07358839 -0.060311116 0.011397825 -0.45630386 0.21763703 -0.016330136 0.06586857 -0.027475419 -0.058883533 0.3475859 0.3047379 -0.2426085 0.4410508 0.088922635 -0.007534556 -0.7361318 0.053841908 -0.030967114 -0.11838697 0.15165639 -0.04527924 0.14973232 0.4541566 -0.3093822 -0.19019775 -0.5364435 0.03203137 0.3036194 0.4394017 0.00033866966 -0.26376224 0.039012518 0.13419761 0.18447122 -0.08130837 -0.30012226 0.27526402 -0.093471326 0.015982503 0.25800323 0.28662038 -0.030529222 -0.09108492 -0.051469862 0.34688595 0.262457
3392 -0.7253964 0.56284827 -0.097870894 -0.7737813 0.03949971 0.48756433 -0.31803912 -0.40585497 0.4782897 0.23266853 -0.007887037 -0.39930087 -0.59347963 -0.12391894 -0.3517099 -0.09072378 0.20866515 0.31582257 -0.290009 0.024918808 0.40144244 0.07294992 -0.6039563 -0.21778105 0.19462155 0.36315954 -0.09305798 0.13428333 0.12866516 0.2151714 -0.036734235 -0.27224687 -0.24446079 -0.020290412 0.48730543 -0.11272455 -0.22089902 0.691311 -0.1804593 0.06498252 -0.01787859 -0.37966293 0.652093 -0.592877 0.11473412 -0.19666155 0.74876434 -0.114048466 -0.28907037 -0.087451406 0.26061365 0.00568437 0.31192613 0.1271476 0.32833052 0.072845675 -0.1295026 0.29929295 0.124044634 0.08363076 -0.025269931 0.37364239 0.16720037 -0.11515013
2533 0.17402622 0.0807747 0.06848539 0.3074924 -0.115728624 0.066738114 -0.025111804 -0.14059705 0.07442164 0.031567615 -0.18833633 -0.05663727 0.14922866 0.013907869 -0.25724614 -0.6779581 -0.015758576 0.10009725 0.2796573 0.17744558 -0.21371232 -0.043750435 0.031631023 -0.1341484 0.29743645 -0.30729303 0.15871745 0.2305434 0.71994996 -0.4587666 0.46764126 0.23166272 0.0009655508 -0.43822762 0.015238028 0.028661018 0.09957746 0.13774438 0.06302768 0.20469992 -0.038141713 -0.24829713 0.08497337 -0.20464154 -0.022832477 -0.017394628 0.032709662 -0.05438874 -0.09589787 0.1837722 -0.21068376 0.24969563 0.108189665 0.0016216558 0.21871662 0.0137230335 0.02131469 0.2127977 0.4159673 0.3510632 0.1170863 0.2931532 -0.12307503 0.31657228
1011 0.38472795 -0.41688895 -0.3156642 0.058660798 -0.006268063 -0.14176026 0.00183372 0.16540268 0.34201854 0.031164749 -0.3087091 -0.0085969325 0.33531418 0.12844947 -0.5230921 -0.33253148 0.22803165 0.06703992 0.058658093 -0.1805544 -0.21712753 -0.33297327 0.37806678 0.24620098 0.10800672 0.07450399 0.0867459 -0.07235335 0.49669462 -0.049403757 0.32996264 -0.19678426 0.05901915 0.3478876 0.31817174 0.19045964 0.2352223 0.27224684 -0.39021644 -0.1067542 0.16857536 -0.34037992 -0.15333152 -0.2809676 -0.14106774 -0.31008062 0.29760277 0.23178566 -0.060076736 0.20173804 -0.49600193 0.020450957 0.30547076 0.11290192 -0.107670456 -0.35496566 -0.18121478 0.3311915 0.2244428 0.23720309 0.19459614 0.10962022 0.16467132 -0.41287702
3043 0.14943086 0.31927422 -0.41544658 0.53594184 0.32223958 -0.0253073 -0.11227857 -0.18428846 -0.083844125 -0.08421748 -0.08174125 -0.086765945 0.58520997 -0.023768635 -0.3547623 -0.2580338 0.26897842 0.28598094 0.20184138 0.0037227399 -0.040271644 -0.18804625 0.0729128 -0.17953889 0.39382833 -0.11574168 -0.017627295 0.22644019 0.23753886 -0.12294644 0.19522911 -0.07329517 0.19624911 -0.12991099 -0.019499425 0.33694616 -0.015227633 0.30870572 -0.19720577 -0.094983414 -0.18909012 0.06397225 -0.17401612 -0.20308 -0.018465996 0.046899714 0.67565 0.128014 0.05066194 -0.2648974 -0.2189856 0.1697053 0.029040366 -0.14713132 0.08102968 -0.09330053 -0.008209269 0.1918534 -0.06697734 0.13217413 0.0021753467 0.16748278 0.10815873 0.010747536
2426 0.36167097 -0.16729598 0.04042185 0.3847197 0.114708856 -0.109613664 0.06714383 -0.50943214 0.00038160558 -0.12946458 -0.119461685 -0.1419675 -0.14094493 0.055008344 -0.6130177 -0.53536093 -0.11385248 0.10345604 -0.107028835 -0.08641128 -0.065043464 -0.11546642 0.15535365 -0.02211929 0.15191987 -0.4848669 -0.21647769 -0.1283412 0.30702084 0.034789946 0.4530396 0.35556158 -0.16489692 -0.4736717 0.15775287 -0.00021544617 0.2087439 0.10381841 0.05346176 -0.25237393 0.19465674 -0.17696069 -0.38424948 -0.63088727 -0.1586271 -0.26770514 0.10426006 0.13524371 -0.14026153 -0.1491394 0.23800161 0.14652216 0.2097435 -0.2139611 -0.09560755 -0.088154204 -0.06654527 0.060397055 0.14878279 0.21627219 0.037714295 -0.12257244 0.2797894 -0.13875237
2295 -0.3221405 -0.26648435 -0.55566543 0.12734663 -0.26486653 0.12104846 0.035061643 -0.37303624 0.009237466 -0.29469532 -0.09596202 -0.013977501 -0.19139516 -0.1316789 -0.1658609 -0.3140283 -0.24317564 0.017662425 -0.20935377 0.090785794 -0.22463262 0.17739087 0.31705913 -0.17390364 0.27555823 -0.50167316 0.2978626 -0.054034967 0.40477034 -0.21627602 -0.14914335 0.20877536 0.18102288 0.064915106 0.36910868 -0.29350683 0.13961442 -0.033753093 -0.005037173 0.07412941 0.068076484 0.0023283595 -0.32531247 -0.048081428 -0.3342026 -0.5656841 0.092241645 0.12726414 0.32458147 0.08442987 0.63344634 0.053993046 0.055933144 -0.27360842 0.04994937 0.4344094 0.022503156 0.7801935 0.4362086 -0.11271488 0.11790454 0.061088 -0.14015241 0.3892326
1558 0.16679533 0.1492725 0.046506774 0.112475745 0.18735996 -0.085749395 0.029842371 -0.1546124 -0.34191114 0.2337542 -0.14377593 -0.32880887 0.37289393 -0.17866316 -0.5330884 -0.516408 0.11817695 -0.045410108 -0.0705161 -0.0121034635 -0.20765893 0.015779542 0.14772335 2.4679352e-05 0.0043478506 -0.2843511 -0.11491907 0.3954677 0.48084486 -0.24045044 0.10169933 0.22501077 0.31445906 -0.33789563 0.056527194 0.02912723 0.31847006 0.04071348 0.25028917 0.5146997 0.45935574 -0.23511946 -0.098406956 -0.44579777 0.15998067 0.18825485 0.29446584 0.33806023 0.023048056 0.024793547 -0.14295176 0.34834462 0.05855584 -0.06246626 0.053545177 0.07291685 -0.14703627 0.09449539 0.12380904 0.57359755 0.20648395 0.22213438 -0.06015732 0.25485495
3393 0.528045 0.18594499 -0.41081998 -0.60718554 -0.14680757 -0.4967919 0.07312198 -0.122049935 -0.31597665 -0.3694313 0.32983962 -0.39422083 0.1205374 -0.437598 -0.55256915 -0.21011797 -0.4554064 0.11177856 -0.63111955 -0.40165025 -0.38531643 -0.36064577 0.19097409 0.2743373 0.3534665 -0.43270588 -0.07663905 0.037153777 0.21047106 -0.05344629 0.13061938 0.12675667 0.054172587 -0.10093089 0.26959684 0.34135357 -0.013423006 0.17246345 0.03879746 0.34350243 -0.04061838 -0.7777589 -0.20172733 0.11575993 0.012945431 0.1309294 0.40716612 0.23146756 0.29928917 0.01773573 0.031177169 -0.024922872 0.43232548 -0.545736 0.38187134 -0.17807646 -0.37552872 0.23974448 -0.14456207 0.057436846 -0.19306724 -0.21452226 0.2094272 -0.08627124
4491 0.33619753 -0.19678114 -0.3712256 0.2984164 0.39716554 -0.20443298 -0.04716187 -0.408969 -0.148202 -0.2931491 -0.12953955 0.04501067 -0.039522085 -0.3806051 -0.9313021 -0.1507056 -0.08675852 0.03496358 -0.5212087 0.033222888 0.3493613 -0.35150042 0.30832115 -0.11959019 -0.11092915 -0.07513633 0.18073504 0.16217501 0.539198 0.05987931 0.083387345 0.3151264 -0.33518934 0.02298509 0.16688882 -0.23054686 -0.06347934 0.19250919 0.005086152 -0.17265588 0.06952242 -0.12651859 -0.38817555 0.13851063 -0.1219376 0.19634415 0.122106075 0.23905352 -0.15162255 0.1026311 0.25402847 0.3585611 0.56746256 -0.47604382 0.020412853 -0.23896796 -0.15766355 0.03412715 0.007964242 -0.4410742 -0.114380196 0.14080442 0.22614877 -0.4508859
2417 0.9175041 0.09207753 -0.17288 -0.2497669 0.631349 0.55479896 -0.17071986 0.14131711 0.025150837 0.18150567 -0.18817635 -0.10457958 -0.1304396 0.103970505 -0.65711826 0.07210671 0.21810721 0.14596355 0.06690148 -0.027424162 0.58921295 0.24752893 -0.43806863 0.22741026 -0.22495657 -0.08247828 0.079536155 0.50731444 0.093741566 -0.6446694 -0.009295819 -0.3620652 -0.21566983 0.44254667 0.42159486 0.20370749 -0.34560645 0.1261808 0.25942695 0.88254905 0.30533302 -0.008037609 0.17557186 -0.062474113 -0.023220746 -0.37547457 0.3400269 0.4377964 0.05507952 -0.14301746 0.80706006 -0.047973115 0.7600381 -0.34580582 -0.17973842 -0.7368117 -0.16081387 0.31320634 -0.12555167 0.09385072 0.23632717 -0.41983753 -0.00027692784 -0.21386844
317 0.16218507 0.05975155 -0.3408833 0.32493114 0.03355299 -0.001823362 -0.2722768 -0.21612206 -0.112585396 0.22300541 -0.04344395 0.035242677 0.50396353 0.07276246 -0.33186355 -0.15253998 0.30284092 0.23409578 0.40808848 0.038821097 -0.024189338 -0.44079745 0.23210669 -0.36086008 0.34193134 -0.19094361 0.194475 0.19381589 0.2384535 -0.045189314 0.101943724 -0.35520905 0.095426336 -0.19137383 -0.08626301 0.20839944 -0.066454485 0.29592413 -0.17344403 -0.19161578 -0.1019073 -0.012536968 -0.17229156 -0.21337478 -0.060761664 -0.116178714 0.57949513 0.04176727 0.083883315 -0.21495855 -0.31464228 0.17363465 0.042366307 -0.42389336 0.095694855 -0.19207436 0.0061844043 0.31048393 -0.03751135 0.21896888 0.068960704 0.6078814 0.06720533 0.05512982
13 0.1821459 -0.41828823 -0.035046708 -0.16424876 0.17352231 0.0044854023 -0.36732617 -0.2485357 -0.07465122 0.17224465 -0.013277395 -0.07527174 0.08036852 -0.009023412 -0.15978517 -0.37321013 0.37681457 0.31958807 0.009579728 0.08040083 -0.09680916 -0.092654504 0.033223048 -0.36402574 0.23887573 0.03316242 0.24700056 0.18861707 -0.08088031 -0.08073324 0.4093162 0.6177492 0.18895875 -0.04726634 -0.22733286 -0.07172939 0.39712542 0.09488342 -0.21523266 -0.3700489 0.26717094 0.0627972 -0.31110606 -0.45063886 -0.15363514 -0.18237488 0.5247618 0.106278315 0.13433066 0.1415779 -0.23356193 -0.13170968 0.042419836 -0.5218417 0.2028619 0.19185814 0.15625489 0.4188359 0.5218281 -0.07117789 -0.109404586 0.11227027 -0.27498582 0.44581673
2318 0.19381507 -0.32431245 -0.1665803 -0.11275985 0.013652208 -0.08786457 0.14347126 -0.3652135 0.15271665 0.00053591677 0.032093078 -0.0820945 0.046381548 -0.47771275 -0.41337004 -0.15688269 -0.23385222 -0.034033895 -0.10131702 0.04045389 -0.18778573 -0.29351383 -0.07602803 0.5417976 0.081953846 -0.5428935 -0.008849985 0.079772584 0.09620628 -0.12881038 -0.14739282 0.37472686 0.27130494 -0.43960124 0.25112647 -0.27252248 -0.16899574 0.12596871 -0.5352129 -0.20613718 -0.06885683 -0.39016044 -0.5813026 0.0713288 -0.10401768 -0.4115266 0.50663126 0.5437289 0.3122692 0.24802947 -0.018533181 0.08441088 0.03462706 -0.43403953 0.33919963 -0.002727593 -0.00015404203 0.3197075 -0.29286748 0.31951156 0.06285457 0.03346953 0.18194169 -0.10468903
3785 0.27769798 -0.24836248 -0.0591499 0.36159134 0.23371589 0.21036762 -0.103650294 -0.32994044 0.29580098 0.06528249 0.16368414 -0.08422213 -0.1584373 -0.16411191 -0.3011357 -0.070309766 0.0500385 0.15522672 0.002686312 0.10081486 0.18782249 -0.19928567 0.17046426 -0.113632075 0.09022186 -0.49651417 -0.09077137 -0.03113125 -0.12940948 -0.3069845 0.5792471 0.084394835 0.15363473 -0.3021582 -0.026797224 0.644756 0.17944457 0.31306276 -0.004387629 0.14411226 -0.5160803 0.13490479 -0.16826981 -0.21797058 0.08659022 0.082520954 0.6424998 0.3544747 0.048190225 0.2127882 -0.16468702 0.4396865 0.13891654 -0.2435416 -0.18183595 -0.24000646 -0.11194811 0.09132379 0.06356122 0.15138704 -0.07662889 -0.04208055 0.34724388 -0.0106675485
3860 0.02771904 -0.41351146 -0.13009067 0.39314896 -0.10674415 0.2708179 -0.3242066 0.047731522 0.2803881 -0.21289144 -0.47607505 0.0013440076 0.21494867 0.2777412 -0.23732509 -0.5608746 -0.08091074 0.13412826 0.07576767 0.40289602 0.2774349 -0.13025863 0.20533086 -0.34285665 0.20848756 -0.20060372 0.25177452 -0.0979656 0.1327956 -0.32245088 0.40518513 0.16223323 -0.08309127 -0.011027347 0.25718322 0.14607902 0.20838858 -0.05788466 -0.3134846 0.095235616 -0.41555262 0.06844253 -0.27512693 0.101866715 0.08681139 -0.14593703 0.58547467 0.19525357 -0.08653018 0.108178034 -0.045095377 -0.052319717 -0.21617566 -0.51487815 0.03754126 -0.124969594 0.13925208 0.7737248 0.37560737 0.22935405 0.02441718 -0.22923413 0.18476303 0.18729988
2047 0.033294715 -0.02406996 0.10315144 0.1498164 0.5297773 0.06775204 -0.078318246 -0.6318123 0.2924244 0.12954451 0.20996642 -0.3315864 -0.52027535 -0.086032964 -0.4311244 -0.08706218 0.5629176 -0.14528196 -0.3882533 0.15010133 0.47475824 -0.07071845 0.5445545 0.2565899 0.4827583 -0.39365873 0.14383014 -0.2524991 0.036371216 0.26845413 0.66508377 0.66834813 0.35342064 -0.15098551 -0.050198328 -0.09480549 0.14130963 -0.012726647 0.7612309 0.088976145 -0.6212023 -0.09859283 0.03082424 0.52180004 0.2819637 -0.45148084 0.56391436 0.17992389 0.14429782 0.45941308 0.12162848 0.16389342 0.30468112 -0.56991893 -0.15368071 0.09056606 0.15401666 0.059245843 -0.34090182 0.39860845 -0.00022111653 -0.15801609 0.058431193 0.12431325
2368 0.02601709 -0.12218079 -0.25925478 0.18436559 -0.08384568 -0.1018121 -0.19480564 -0.17761089 0.16131234 -0.08160707 -0.49091655 0.48479316 0.17073227 -0.054852977 -0.42563882 -0.062678814 0.17589483 0.0021351813 0.2280896 -0.05385073 -0.28274456 -0.13641922 -0.15926088 -0.6270444 0.070473164 -0.18731473 0.3985078 -0.04031008 0.21676554 -0.3921876 0.6856108 0.37832323 0.1282664 -0.25822926 0.068666846 0.21462338 0.3562518 0.29299313 -0.094423205 -0.011700237 0.15300456 0.014331203 0.013811296 -0.25017413 -0.014851625 -0.13525288 0.3091879 -0.06026905 0.2521587 -0.27818242 0.1186067 0.19882263 0.18890226 -0.24002005 -0.08524853 0.22710949 0.39058697 0.8064397 0.29450318 0.24167843 -0.016344331 -0.22653683 0.1804574 0.152178
2329 0.18419595 -0.26136434 -0.45849776 0.63059765 -0.1410843 -0.09559924 -0.35259104 -0.25824612 -0.17980517 -0.052672736 -0.31906435 -0.15545234 0.24462377 0.06271257 -0.24877678 -0.16899012 0.19064671 0.28850287 0.053431988 -0.044282746 -0.12192568 -0.22878744 0.034386847 0.036505252 -0.009603216 -0.434424 -0.18065746 0.13603793 0.29957238 -0.16772577 0.47841138 0.5698157 0.23605897 -0.5071251 0.10202928 0.035064775 -0.040385775 0.5440398 0.057133228 0.07161491 -0.012779986 -0.2093912 -0.17810479 -0.42792764 -0.19195533 0.18349947 0.24299581 -0.052626256 -0.07365343 0.04686321 0.07786962 0.16113332 0.025768882 -0.20900455 0.19747941 -0.29886878 -0.10010838 0.1964054 0.20901439 0.13985828 0.08540313 0.08464403 0.2617173 0.2878248
2755 -0.47844756 0.26032954 -0.2536807 -0.13792937 -0.25311422 0.29058817 -0.5540354 0.065990485 0.13197617 0.5180412 -0.09077525 0.10241312 0.29889178 0.21938895 0.3660431 -0.102651656 -0.008594221 0.06441247 0.47763896 0.97872347 -0.35715336 -0.03523539 0.6937244 0.31529406 0.0014244352 -0.37443992 -0.059496786 0.17246267 0.46135867 -0.20799237 0.14415556 0.11665548 -0.4895448 0.070315324 0.15006281 0.16786277 -0.06376205 0.60108376 -0.1496968 -0.21489891 0.010440721 0.022598108 -0.12767445 -0.21001369 -0.017547837 -0.24339005 0.11283232 0.09979773 0.0221806 0.15885462 0.3647684 0.29032418 0.4956746 -0.3587351 0.10560614 -0.67440784 0.16853191 0.4121464 -0.039907414 -0.3267762 -0.53829086 -0.46735507 0.4193246 -0.4302433
4009 -0.026895056 -0.27048612 -0.77382106 0.33074608 -0.24152696 0.16895868 -0.10937182 -0.42122558 -0.17034395 -0.18807657 -0.14350787 0.06542025 0.08254696 -0.48878035 0.019330371 -0.6946119 -0.010094159 -0.1405711 0.12117115 0.24399623 -0.28999525 0.009307984 0.25068912 -0.10542515 0.26418725 -0.674908 0.33974284 0.10164152 0.1728866 -0.16338342 -0.14869143 0.2560633 -0.4657909 -0.0675507 0.3165812 -0.2792971 0.11841176 0.32883647 -0.096565835 0.19628195 -0.35857934 -0.45075688 -0.1056531 0.0747944 0.06373909 -0.29375076 0.4259194 -0.24364822 0.16953567 0.30728683 0.3711351 0.11477831 -0.031737536 -0.03180679 0.15393277 -0.015746396 -0.007877567 0.42483163 0.23565722 -0.29115954 0.4276235 0.2454357 -0.4436416 0.29074702
2095 0.47390094 0.0059753438 0.07423665 0.27872005 0.37091687 -0.1592656 0.0015680027 -0.34409255 -0.07938226 0.48061317 0.27463356 -0.1928977 -0.34049553 -0.20183589 -0.38264602 -0.3832902 0.28791285 -0.07894151 0.10543034 0.107933335 0.15423709 0.07488611 0.1949625 0.06469161 0.25249377 -0.4738005 -0.11865575 -0.16848883 0.62479 0.09948515 0.16767953 -0.09252345 -0.533714 -0.50805336 -0.19259194 -0.21494168 0.31581172 -0.014776584 -0.014734682 -0.08885628 0.16832677 0.24189615 -0.2982037 -0.276077 0.06017076 -0.30526528 0.27499396 0.3505711 -0.2967339 -0.005625896 -0.3852511 0.1260712 0.36844042 -0.66366243 0.45830223 -0.16592413 -0.43954092 0.08349789 -0.18078992 0.04340055 0.006245273 0.048742983 -0.14277734 0.30745706
412 0.06824966 -0.17331424 -0.2509338 0.41001672 -0.24597219 0.087152705 -0.043222994 -0.06363602 0.14311408 0.28811613 -0.080388844 0.04996163 0.5807036 -0.52428097 -0.5245513 -0.09295803 0.53485835 0.23705271 -0.5953351 -0.23971982 -0.06438754 -0.40374297 0.23086883 -0.3442702 0.6737134 -0.1578702 0.31482983 -0.24394388 -0.12661497 0.12505816 -0.3749332 -0.45360485 -0.27447218 -0.2802681 -0.1263145 -0.4587154 0.11166257 0.16817306 -0.50740373 0.07075669 0.031390946 0.19598153 0.021435425 -0.23311323 0.5893227 -0.19251338 0.293919 -0.29914552 0.03766312 0.29161558 0.20574607 -0.023017967 0.23228519 -0.40028995 0.4301026 -0.0003632847 -0.08228613 0.12623341 -0.26582307 0.4379306 -0.08785355 0.07279664 0.19891205 -0.3242637
1842 -0.53907764 0.49198595 -0.10640546 -0.88996637 -0.14833872 0.08656012 -0.54314 -0.2705387 0.5063905 0.16943343 0.11509782 -0.4320032 -0.48645908 -0.14791101 -0.51711726 -0.090795554 -0.15554392 0.39876908 -0.2342602 0.045872223 0.45113134 0.2978418 -0.3878297 -0.19479823 0.2661109 0.21670766 -0.16929759 0.15387715 0.28557864 0.29685092 -0.1568702 -0.101481825 -0.17832388 0.014483855 0.39539036 -0.2390411 -0.010193257 0.6865452 -0.23887573 0.21661748 -0.25565687 -0.040765367 0.46308202 -0.71983194 0.055518467 0.04322334 0.7963659 -0.16016702 -0.26263776 -0.03908218 0.119668834 0.050479423 0.32643807 0.25005776 0.22329424 0.25141484 -0.21748371 0.46876943 0.20073904 0.06516274 0.13253298 0.3591709 0.05500297 -0.064009644
3241 0.22963262 -0.32604152 -0.37858024 0.2858518 -0.54459816 0.105808 0.14689429 0.00046253542 0.34880775 -0.36318034 -0.26369697 0.22451991 0.35448346 -0.26664585 -0.3327395 -0.21219556 -0.13335936 0.09567873 0.097575426 0.2402957 0.5275686 0.044814676 0.085688494 0.016065676 0.0674458 -0.43457985 0.31502414 -0.118368156 0.26634747 -0.07869225 0.39388648 -0.035861157 -0.05325152 -0.07890048 0.32076532 -0.17053612 -0.12912709 0.22763923 0.0065408926 -0.02058157 0.080152825 -0.14203309 -0.07653605 0.16580483 -0.3991061 -0.032606084 0.34427294 0.20064412 0.1682752 -0.064505294 -0.004902596 0.22614898 0.2596692 -0.20063719 0.04263194 0.15960936 -0.6473517 0.94432 0.83007056 -0.071319856 -0.149329 0.05354356 -0.22454062 0.10015549
3471 0.13732138 0.044635657 0.044941638 0.19056423 0.14470583 0.5041822 0.2769373 0.26666972 0.47523645 -0.2264916 -0.15946247 -0.09442939 0.12479751 -0.23017913 -0.6583913 0.22387397 0.031456064 0.14600404 -0.29180318 -0.24079166 -0.30875066 -0.2618741 0.2284565 -0.3660265 0.4182462 -0.29566404 -0.12737434 -0.033161964 0.25467333 0.12063657 -0.51948607 0.14214063 -0.022451 -0.16991931 0.10571083 0.12508379 -0.12099219 0.6143793 -0.34075478 0.020333024 0.06587811 0.24080902 -0.13521111 -0.0014981413 -0.08175012 0.33229718 0.23987798 -0.28137898 0.63783985 0.3977272 0.27367812 0.005900914 0.2953132 -0.4670349 0.56442356 -0.100948505 -0.22826192 -0.11279699 -0.31579873 0.47354218 0.05935961 0.12648088 -0.32061267 -0.19771706
2272 -0.13227153 -0.35312417 0.11600857 -0.10910861 0.45725855 -0.25944552 -0.5029568 -0.10654979 -0.24265544 -0.029248273 0.19643664 0.039101966 0.23355202 -0.24539956 0.32313538 -0.026006795 -0.039332505 0.14622217 -0.08738865 0.09826531 -0.24019848 0.11923847 0.25513664 -0.20972294 0.4965596 0.6651261 -0.20369424 0.11179207 -0.007604408 0.018829275 0.3858617 0.19048972 0.51187754 0.4190475 0.36299103 0.11862073 0.2241757 0.77828604 -0.12843533 -0.029132685 0.36413258 0.0063634934 0.3712474 -0.053320747 0.21046016 -0.3192747 0.0024232985 0.4522027 0.038373195 0.54521763 0.5690754 0.27212185 -0.27379826 -0.46090555 0.5710047 -0.028141702 -0.26278967 -0.2048015 0.38839862 0.22790885 -0.1385651 -0.17902772 -0.5268623 -0.016271472
1903 0.048028607 -0.53176147 -0.41039053 -0.008553473 0.123367935 0.081292875 -0.47574833 0.043794032 -0.012230594 0.23900554 -0.2617832 0.183518 -0.09437609 -0.28947195 0.035509724 -0.08762713 0.10867328 -0.22502246 -0.48454222 -0.25638583 -0.015006528 0.19980752 0.01646375 -0.7472529 -0.6654844 -0.17493185 -0.39327613 -0.31891328 0.2863424 -0.15105513 0.89562106 -0.23552684 0.41843954 0.22741394 -0.62576914 -0.13295448 -0.4157374 0.52275413 -0.47305098 0.073607706 -0.10437999 -0.13856587 0.5535828 0.1268611 -0.044158746 -0.25687194 0.3869576 -0.2715673 0.3407267 0.096259356 0.36201042 0.73180866 0.05695943 0.02290311 0.5539542 0.124758914 -0.51958454 -0.29800746 -0.04472139 -0.20876876 -0.3560215 -0.18200147 -0.66875046 -0.071135044
10 0.07723308 0.28670415 -0.38426748 -0.20886897 0.006403183 -0.20244397 -0.042124033 -0.5252589 -0.23951869 -0.39147377 0.04806073 -0.08956021 0.058586795 -0.45077038 -1.100593 -0.09237277 -0.124183945 -0.22583017 -0.24540547 0.31084746 -0.0034877188 0.005265387 -0.06543035 0.46758607 -0.010187299 -0.24091174 -0.20260632 -0.044212643 0.23220389 -0.38861585 -0.16843411 -0.03366977 0.25974292 -0.54433566 0.23053427 -0.13932198 0.002348834 0.022054525 -0.15874599 -0.28189477 0.29804626 -0.35040954 -0.22584032 0.1610617 -0.43949255 -0.28430474 0.4394893 0.31353298 0.38849616 0.6257777 -0.05245503 -0.17151268 0.2620665 -0.3755442 0.38293803 -0.107004136 0.12039562 0.13627164 -0.40047336 0.40338498 0.2854442 0.16397335 -0.01814795 -0.2331223
4369 0.1951277 -0.28207967 -0.33650798 0.56442654 -0.14629012 0.025814544 -0.2592095 -0.41955477 0.18710966 -0.065061465 -0.2815864 -0.23337518 0.22992136 0.10947898 -0.09275145 -0.16116631 0.30593473 0.3288173 0.06882702 -0.17819987 -0.22551745 -0.33659837 0.09940521 -0.22023311 -0.0031662164 -0.19150661 -0.08998858 -0.060602907 0.35367063 -0.14998005 0.5469674 0.49716708 -0.03756228 -0.3635707 0.12485746 0.030502522 -0.054046314 0.2799778 -0.021873083 0.19993368 0.06804113 -0.050483476 -0.13173841 -0.28576306 -0.3902103 0.15074855 0.3141247 -0.07819366 -0.058915626 0.39524952 0.10283182 -0.12948565 -0.26478368 -0.34527588 -0.00083400216 -0.1674301 -0.03675657 0.3359179 0.33242092 0.24693093 0.12406403 0.27041832 0.210848 0.18109854
3947 0.027060125 0.2005958 -0.5721914 -0.16805848 0.110361464 -0.040254828 -0.3385631 -0.3694558 -0.033509966 -0.07575726 -0.44358325 0.36117867 0.13820073 0.7368759 0.026956743 -0.33034363 0.25268504 0.123480394 0.087065004 0.6316504 -0.48430365 -0.25877988 0.32130757 -0.013948524 -0.47356448 -0.4301797 -0.016441261 0.08645053 0.33102986 0.18571948 0.25089622 0.28468987 -0.36533016 -0.03387557 -0.15660833 0.22848634 0.041794837 0.7334166 -0.373354 0.21885867 0.1839517 0.018118009 -0.4582382 -0.41861475 0.03605301 -0.040317923 0.23136885 -0.040858082 -0.1829884 0.7330554 0.47197324 0.10057571 0.2664831 -0.18668151 0.35896558 -0.2810126 0.35176578 0.028468406 -0.17240216 -0.36481363 -0.20952728 -0.07068609 0.25490585 -0.43869716
2690 0.29220754 0.044886846 0.2246548 -0.14370964 0.38680053 0.33992243 -0.11992314 -0.58926994 0.16030985 -0.11871182 -0.1464834 0.18148369 -0.062523074 -0.078578494 -0.015341507 -0.3187972 0.23911986 0.009902663 -0.08989735 -0.41174504 -0.14502044 0.13627528 0.5046788 -0.05803192 0.2083297 -0.29882786 -0.37994456 -0.29203776 0.11874844 -0.16005734 0.04355183 0.1609292 -0.2191306 -0.8141557 -0.3185814 0.3781406 0.38611093 0.32675382 0.06753555 -0.011985757 -0.114143334 -0.36173522 -0.33797708 -0.029710691 0.37397268 0.018105218 0.55585796 0.47415134 -0.013281793 -0.10207747 -0.14727494 0.33033752 0.21221538 -0.20090735 0.15065058 0.30018845 -0.29608375 0.55200434 -0.07802926 0.29338586 0.0458545 0.08700405 -0.11201155 -0.3585141
1252 0.36513636 0.10218397 -0.24622932 0.36617503 0.20469405 0.25687274 -0.24767925 -0.31761 -0.26014045 -0.21621671 -0.010898997 -0.18615083 0.028840546 -0.28488237 -0.56428117 -0.2884291 -0.09407272 0.106106125 0.21700256 0.013995567 -0.22910191 -0.32400784 0.2836805 -0.14475721 -0.28624624 -0.12553202 0.23361167 0.055110414 0.3798938 -0.39706615 0.4204826 -0.04095726 -0.022413895 -0.07549606 -0.053953156 0.22596605 0.29629993 0.14480619 -0.31897643 -0.2848939 0.10450408 0.3582522 0.045749303 -0.09495266 0.29292047 0.014008536 0.20873217 0.2416413 -0.10946681 0.017836608 0.03372242 0.40525526 -0.121491805 -0.30028558 -0.123870134 0.029559376 0.10306126 0.8882112 -0.20407127 0.17207919 0.027042538 0.20523866 -0.0154367 -0.26828122
2108 -0.021188429 -0.28759944 -0.08390163 0.38873088 -0.25653225 -0.13488643 -0.3379556 -0.28811297 -0.14239466 0.25007144 -0.119995095 0.1597369 0.17892583 0.22710039 -0.42213544 -0.43098176 0.28309995 0.07628345 -0.026250482 0.10036534 -0.041210208 -0.668286 0.19200559 0.26283142 0.48781863 -0.07187681 0.17839916 0.40295058 0.27543995 0.1252769 0.57757205 0.22792837 -0.053097468 0.11291705 -0.06606905 0.27205098 -0.03360479 0.602846 0.27940187 -0.00063752395 0.271603 -0.47124493 -0.23710535 0.13542607 0.20535466 -0.3786009 0.1379142 -0.13240872 -0.14231333 -0.0076884916 -0.14885859 0.21618637 0.1632838 -0.40184355 -0.24412279 0.5860972 0.10253841 0.7067496 0.25710166 0.44202617 0.11843212 0.16508335 0.0067340853 -0.35412806
1222 0.2014252 0.0892453 -0.30527586 0.45098263 -0.1060396 0.21043134 -0.37138817 -0.14071909 -0.25974232 -0.10342668 0.32895932 -0.23789498 0.27357402 0.07615501 -0.3424625 -0.64768106 0.17375207 -0.13426849 0.09370594 0.045126848 -0.37488338 0.0073159263 0.27339312 -0.40632913 -0.2169865 -0.19437668 -0.31886548 0.30567047 0.22877729 -0.2021387 0.16048706 -0.1389772 -0.04189753 -0.10076532 0.47247118 -0.090148136 -0.10105476 0.32397112 -0.22465733 -0.21238714 0.27586564 -0.440513 -0.0940908 -0.5101499 0.49346232 -0.162925 0.045426134 -0.21738012 0.23695724 0.078459516 -0.28427422 -0.3871144 0.36134243 -0.05242875 0.24871495 -0.0028613748 0.031175286 0.6443594 0.2391564 0.20510496 -0.1632123 0.20682417 0.17840621 0.2179106
666 0.032516018 0.02359951 -0.064913176 0.09323924 0.18666294 -0.19099699 0.22666065 0.07014972 0.38832396 -0.44093397 0.4210407 -0.20120671 0.13186616 0.041796915 -0.4447148 -0.12610842 -0.08972462 0.095584825 0.056363817 -0.042121932 -0.0843602 0.0337318 0.27992538 -0.4596823 0.17248935 -0.30976275 0.15359484 0.21201073 0.45080543 -0.35864866 0.24233286 0.37138814 -0.13361073 -0.08983105 -0.14417922 0.5531064 -0.19635943 0.41774097 -0.435504 0.13741 0.1903216 -0.17400046 -0.32620877 0.057482872 -0.04375783 0.39521796 0.11838661 -0.12525462 0.08364758 -0.13900295 0.4177141 -0.13740447 0.6371065 -0.3042406 0.3686846 -0.35938105 -0.72629803 0.29012305 -0.3405915 0.38541096 0.36562333 -0.09017225 0.33141753 -0.16569844
3623 0.28724962 -0.0753306 -0.43748546 0.13195267 0.030122917 0.00579513 -0.06691508 -0.1188678 0.29910824 -0.13272782 -0.31670666 0.25435892 0.6176789 0.25731304 -0.16919991 -0.18003877 -0.0437089 0.3079199 0.19418511 -0.05442468 -0.0923743 -0.12775773 0.01371861 -0.06551047 0.5000455 -0.23043868 -0.1628492 0.41650814 0.5595491 -0.35366043 0.4265641 -0.1368511 -0.0496259 -0.32322726 -0.029777713 0.07699412 0.08242571 0.39954877 -0.22155416 0.17558582 -0.03347228 0.13531741 -0.18545522 -0.049588565 0.1626063 -0.14409542 0.2615239 0.031893276 0.20328398 -0.11490272 -0.06782924 0.19077013 0.18068543 -0.034639273 0.09336297 0.15214746 -0.0107253445 0.22200166 0.19753273 0.48400962 0.0083101 0.07324345 0.4401889 0.41220793
3903 0.40622944 -0.42768243 -0.3841128 0.7548682 -0.38255504 0.28654808 -0.16339707 -0.18777013 -0.0281812 0.20331302 -0.13007013 -0.24469137 0.16687 0.12481041 -0.26970938 0.10708381 0.26316693 0.39571953 -0.036015566 -0.12300238 -0.25669196 0.116525754 -0.38567543 -0.47299382 0.055178016 0.25844002 0.018922655 0.097036146 0.25512207 0.14859608 0.4936812 0.31167728 -0.19011284 -0.38080642 0.17008407 -0.20435472 0.2106729 0.36683056 -0.015361181 0.2942651 0.07892766 -0.07500416 0.02706132 -0.19119297 0.20988393 -0.006300233 0.09244834 0.1606582 0.3706264 0.20728786 0.16740645 -0.045780707 0.092193894 -0.45356694 0.17078556 0.03800217 0.078938305 0.24418563 -0.15851352 0.4231713 0.13083574 0.61177343 -0.017199105 0.19831
640 -0.33913478 0.5883864 -0.08470571 0.24736501 -0.33443934 0.3508929 -0.083366126 -0.09900282 0.06844616 -0.5389364 -0.096654564 0.31661493 0.2559775 -0.5101274 -0.6660328 0.16764037 0.4380592 -0.081787534 -0.26190776 0.24412133 0.040757116 -0.017473442 0.7289502 -0.11698925 -0.23353922 0.14575435 -0.34883296 0.22978836 0.5869066 0.25587335 0.44563183 -0.348094 -0.20441274 0.5412924 -0.010088657 -0.12096189 0.1292837 0.39281335 -0.14042045 0.11676138 -0.3671099 -0.29033422 -0.10337846 -0.052536026 -0.2060887 0.07498304 -0.17337519 0.35914662 0.31083786 0.20050968 -0.02598455 -0.19712535 0.30979532 -0.6331973 -0.2673009 -0.41394937 -0.2588116 0.34885573 0.48946464 0.08057362 -0.16187744 -0.2543353 -0.36187175 0.29942092
114 -0.31630808 0.324408 0.48005176 -0.46998647 0.055493362 -0.34075615 -0.22770487 -0.063271895 -0.00027156417 0.33021677 -0.37305462 -0.019306963 0.33036327 -1.1569381 0.075871676 0.03009152 -0.39684445 0.22339073 0.25659403 0.051265895 -0.062367775 0.69184524 0.30228448 -0.15959899 0.028770914 0.10242532 -0.29898852 0.031090958 0.8901276 0.028614635 0.37719238 -0.061946794 -0.22942616 -0.42230448 -0.44472122 -0.02180782 0.14797695 0.12924308 -0.5136116 0.05845794 0.42297304 -0.15280846 -0.15005662 -0.31157285 0.25806123 0.085563675 0.4287527 -0.5211562 -0.18389395 0.28229865 0.29463455 0.455113 -0.31259662 -1.0169221 -0.13637373 -0.0034006385 -0.5621935 -0.6402059 0.67903805 -0.04157492 -0.34289443 0.10558148 0.29243347 -0.54280406
518 0.32702854 0.009724265 0.3208996 0.2387962 0.31054842 0.0315922 -0.2861592 0.013860324 -0.004481793 -0.36974832 -0.014369746 -0.48662823 -0.15485927 0.03799039 -0.1400181 -0.45760834 0.08361968 -0.4481768 -0.14997566 0.32927248 0.13864096 -0.08929243 -0.20246617 -0.5592265 0.02014376 -0.7163574 -0.120981514 0.057648145 0.605199 -0.061055917 0.17352265 0.32672542 0.11078633 0.15789989 0.18543991 -0.22520539 0.10529366 0.64746165 0.041846246 0.418434 -0.15162915 -0.23411131 0.065829545 -0.13121481 0.015834562 0.14545329 0.29697475 -0.232354 -0.3295514 0.026488958 -0.3219648 -0.22090612 -0.18221532 -0.50076705 0.2805152 0.03113441 0.48615474 0.443634 0.4101154 -0.05904794 -0.058935672 -0.24178635 -0.026802255 0.18125312
1132 -0.19150297 0.2083457 0.042679057 -0.11854861 0.00081017206 0.11197913 0.07597379 -0.18604766 0.25792262 0.19111212 -0.03358994 0.17237988 0.19754927 -0.1705535 -0.26525548 -0.47172815 0.36723876 0.23064338 -0.37582442 0.19670016 -0.22485377 -0.051482286 0.51564085 0.10047068 -0.2764342 -0.32362327 0.14929225 0.3501482 0.4937507 -0.12962523 0.22875029 -0.36140633 0.16187808 0.087206766 0.19927803 0.7602457 0.6645709 0.08939768 0.07146679 0.16638169 -0.13681848 -0.2737933 0.06887976 -0.14652056 -0.44895324 0.18583058 0.5367584 0.2065966 -0.13190228 0.4887991 -0.30931157 -0.47080883 0.43295482 -0.07989929 0.06235922 0.22852464 0.044839043 -0.14828259 0.1410842 0.48471588 0.33374897 0.16599984 -0.0689943 0.03373914
4338 0.060017977 0.1628734 -0.24025767 -0.24354994 -0.13179924 -0.067350835 0.09368449 0.14691079 0.32370567 -0.2965172 -0.15950026 0.14073488 0.106474355 -0.17735778 -0.2798948 -0.45583758 0.004208709 0.15670015 -0.23129776 -0.050909095 -0.008719962 0.034148045 -0.014714991 -0.13087055 0.020895049 -0.009224114 0.44037154 -0.1642087 0.43949202 -0.40829903 0.48794982 0.19966795 0.31384796 -0.13644941 0.08738185 0.09888573 0.11792524 -0.08050438 -0.6317801 0.47794846 -0.34061804 -0.15014026 -0.2641686 -0.11417409 -0.34465832 0.09810771 0.43163726 0.20235687 -0.06007882 -0.060632396 -0.13960078 0.46389753 0.20272693 -0.08478815 0.3617817 -0.36445007 -0.1408405 0.17897034 0.39542827 0.15112828 0.2183941 0.13457811 0.08125962 0.3134393
4893 -0.052941337 0.08806243 -0.30638373 0.07770233 0.48446894 0.40453014 -0.7276416 -1.0519165 -0.11269388 0.072884515 -0.17626914 -0.28606567 0.07503895 -0.017371323 -0.527246 -0.101524495 -0.16631317 0.9005733 -0.048636664 -0.43794554 0.012165329 0.009857528 0.5406494 0.050087858 0.516193 -0.417907 0.29286894 0.46793228 0.45185226 0.3314166 0.072262295 -0.23065674 0.21283141 0.5721771 -0.5212723 -0.112243205 -0.11700133 0.40771157 0.23783982 -0.2724981 0.43139318 -0.044848848 -0.020205284 -0.108628705 -0.29888713 -0.57307196 -0.33341873 -0.0023310762 0.13202414 0.15006395 0.12703483 0.2673237 0.18934517 -0.22282694 -0.19530277 0.3916337 0.12712094 -0.12933612 0.2042198 -0.49446338 -0.3400282 0.03967382 -0.52128595 -0.5292362
2626 -0.016417563 0.40500134 -0.025890037 0.23096633 0.018457033 -0.05356023 -0.08283117 0.047293715 0.63085127 -0.31722608 -0.0052300543 0.43120697 0.28322417 -0.44269064 -0.07389301 -0.38430452 -0.2990431 0.12276141 -0.3540363 -0.065381534 -0.13047965 0.22467178 0.080887526 0.051569372 0.10404757 -0.45404643 0.4166209 -0.27954048 0.28949004 -0.29069224 0.51902163 0.20497434 -0.30867955 -0.15206692 0.41221473 0.38940716 0.17756104 -0.3287194 -0.46437943 -0.07831529 -0.078354016 -0.24929683 -0.10102742 0.121340364 -0.30861452 -0.21784888 0.60679394 0.21997385 0.111818396 0.35921022 0.09389405 -0.12197302 0.08360687 -0.19797139 0.20696673 -0.06645736 -0.20870034 0.47143775 -0.069968954 0.2205508 0.068018965 0.25343764 -0.24015336 0.046223093
4136 -0.28753638 0.26403895 -0.54072905 0.21360812 0.07852583 0.07425176 0.29020947 0.07734184 -0.121320814 0.16095634 -0.16808079 0.44775534 -0.14526759 0.07917284 -0.45989946 -0.47718358 0.03943076 -0.26589596 0.15507494 -0.05972322 -0.4559588 0.071685955 0.09986387 -0.04409406 0.42056605 0.099091604 0.10515123 0.05147393 0.6924462 -0.15534404 0.53115565 0.01722474 0.5935846 -0.4882193 0.36566508 0.08523944 0.38009474 0.03900714 -0.0735503 -0.42042083 0.27327007 -0.17831048 0.14434364 -0.45261928 -0.16048357 -0.17920282 0.2262312 -0.10019697 0.23561999 0.12973028 -0.13288379 0.11286885 -0.086389564 -0.14879106 -0.06170741 -0.054252826 -0.15057346 0.7279915 -0.122578226 0.03955856 -0.28892586 0.013678561 0.07219323 -0.32142615
4623 0.35632807 -0.2473177 -0.27332142 0.38303676 0.3476846 0.04365475 0.53754836 0.33964464 0.60655147 0.34665748 0.40240344 -0.28774947 -0.37619457 0.4243451 0.1302393 0.70352703 -0.15185879 -0.1587006 -0.42171717 1.0371712 -0.4689676 -0.22128591 -0.05190245 -0.201724 0.9895897 0.007005937 -0.052435156 0.083540484 0.56209445 0.110979885 0.7746971 -0.5380963 0.029286202 -0.06734524 0.10876525 -0.37252828 -0.08362727 0.627028 0.3461903 0.33818224 -0.025143404 -0.5137054 -0.068604715 0.18796965 0.19415459 -0.83576983 0.8714356 -0.16613792 0.3019864 0.18011934 0.69806415 0.15154953 -0.057857092 0.0974377 -0.27914554 0.2615279 0.11382721 0.14584467 0.7502965 0.025952075 -0.79842937 0.09567932 -0.27828434 -0.22180957
1064 0.074928105 -0.06930026 0.14458475 -0.24565561 0.091596186 -0.30276546 0.035365727 -0.15350308 0.18600003 -0.54081243 -0.19350852 0.2502281 -0.13274442 -0.7145694 0.013182258 -0.3023733 0.2600475 0.5000561 -0.34044638 0.20207998 -0.10802043 0.1227433 0.30917102 -0.04547577 0.0947419 -0.20289703 0.350382 -0.34025434 0.42623708 -0.1279896 0.23937331 0.1827397 0.14268795 -0.4894826 -0.27115843 0.113593124 0.38015094 -0.10205691 0.17770824 0.0434712 0.2688747 0.027046261 0.22779961 0.044453483 0.0014141748 -0.34194693 0.49123898 0.5721001 0.5156076 0.053560898 0.12202179 -0.38666716 0.68297464 -0.20604093 0.20218715 0.18759225 -0.18352857 0.62731904 -0.1534687 0.31232524 0.2806392 -0.05929721 -0.048616845 -0.040574912
637 0.28390747 0.54902184 0.30003422 0.2323926 0.43231684 -0.15930858 0.11323702 -0.31709695 -0.11760012 0.3556279 -0.3129087 0.44885036 -0.028022401 -0.16473673 -0.34886724 -0.52556133 0.32513732 0.282762 0.17297223 -0.065124154 -0.0032094407 -0.09168139 0.62820727 -0.17173496 -0.3096981 -0.022910945 0.18488081 -0.21482672 0.23657915 0.3578225 -0.4126347 0.11137818 -0.14113307 -0.07195209 0.23477337 0.17054717 -0.16566019 0.3409368 -0.3315077 0.18833837 0.16014753 0.2606766 -0.2599193 -0.032700427 -0.099067196 0.2689005 0.9114471 -0.072573 0.6858141 0.12759566 0.6996749 -0.078701735 -0.1953207 -0.6216374 0.047139898 0.5991579 -0.61669534 0.016635302 0.042328015 0.49827987 -0.31673276 0.40259147 0.43636525 0.12645636
4126 0.17223394 -0.2739115 -0.18624756 0.30179733 -0.0074278917 -0.42972663 -0.02970643 -0.29748777 -0.27136615 -0.47749916 -0.32811847 0.36292082 0.26676214 -0.20029688 -0.21197502 -0.37244672 -0.18854973 -0.24059924 0.0907667 -0.027335644 -0.35604596 -0.14272816 0.066428356 -0.20372377 0.5343091 0.12606663 -0.25669122 0.04123938 -0.12014749 -0.18930821 0.2444666 -0.10695147 -0.37137505 -0.07760143 -0.021780236 -0.17677075 0.45524022 0.42649987 -0.33139306 0.2583 -0.018399715 -0.19001368 0.015157928 -0.13242681 -0.30412105 -0.43402764 0.7093546 0.11746349 -0.07986296 0.39756572 0.18342616 -0.28169683 0.16654278 -0.038671117 0.33100182 -0.068290375 -0.44832158 0.3347429 0.21156897 -0.2058684 0.325406 -0.033548925 -0.54604197 0.090902016
4177 -0.7383657 0.29918423 -0.20829442 -0.9935995 -0.12301385 0.2346263 -0.49005398 -0.27174482 0.21570985 -0.06245277 -0.1545061 -0.5811826 -0.4675224 -0.17548245 -0.6281635 -0.024166724 -0.29382527 0.3870977 -0.22242734 -0.05335408 0.3846042 0.36244398 -0.63712794 -0.30024368 0.24093243 0.44406277 0.08965864 -0.01265507 0.42140695 0.24675012 -0.089456804 -0.0258408 -0.33744672 -0.027075714 0.54446 -0.3877516 -0.000112561385 0.65398324 -0.38300583 0.03141718 -0.0068561486 0.054465972 0.50548476 -0.7008686 0.16257454 -0.13613361 0.7215024 -0.20967807 -0.26364648 0.09109599 0.23180118 0.17982173 0.23625219 0.15967974 0.20017648 0.2815667 -0.1832012 0.5216798 0.11882338 0.011980754 0.031586688 0.29027137 -0.04062971 0.02818001
4273 0.20897007 0.1133199 0.12898032 -0.032039355 -0.42613342 0.27138764 0.19447328 -0.30992416 -0.059924874 0.2468664 0.42919457 0.22745104 -0.3181412 -0.12790178 -0.11988037 -0.20213571 0.15055925 0.16167107 -0.24938579 -0.08295698 -0.32023448 -0.2843832 0.5100904 -0.54787743 0.08057451 -0.24082598 0.21701533 0.17835495 0.616732 -0.17411602 -0.5565852 0.50768393 0.11150038 0.043922264 -0.028748289 0.011296015 -0.26846185 0.37138656 -0.52585775 0.24273336 -0.22711715 0.17194544 -0.35399622 0.0865254 0.18917339 0.38459924 0.2992146 0.0027571209 0.17226084 0.08925358 0.7795857 0.109798275 0.5335819 -0.38070127 0.31794542 0.13435161 -0.46034718 -0.11691542 -0.12193932 0.6591209 0.22626528 0.20313545 -0.1282348 -0.14096622
3271 0.15665984 -0.07472773 -0.07300605 0.027648212 -0.19076039 0.11498914 -0.23131804 -0.053937722 0.27232608 -0.213756 -0.03230939 0.55782807 -0.043655198 -0.3868343 0.22003794 -0.53463095 -0.2672968 -0.064207815 -0.10869806 0.020281859 -0.04772068 0.043091036 0.22258382 -0.18314058 0.31051916 -0.44272137 0.39362907 -0.30377853 0.32271403 -0.21173158 0.2274972 -0.019764401 -0.47146475 -0.27317685 0.17132142 0.37906545 0.10134901 -0.03340661 -0.21119742 0.20945863 -0.05074419 -0.57868916 0.09007076 -0.065870665 -0.08609568 -0.45021665 0.39983737 0.34747398 -0.15534106 0.2629724 -0.1443612 0.06362383 0.30278668 -0.17622095 0.13143873 -0.08516543 -0.26256472 0.3509608 0.14323631 0.5096599 0.30619034 0.10195837 -0.17649657 -0.07090063
409 0.34180403 -0.13602553 -0.26947838 0.28612664 0.15543273 0.008063349 -0.017439734 -0.3891308 0.1641746 -0.045635544 -0.20421515 0.06757122 0.31828043 0.030469298 -0.1856434 -0.38663846 0.22662154 0.028800284 0.08341978 -0.09055719 0.05764287 -0.4204802 0.2678556 0.14693764 -0.0009445707 -0.034806706 -0.12462765 0.23998077 0.49344537 -0.16149315 0.3360345 0.1346596 0.009042983 -0.2516914 0.23786578 0.35786468 0.23517057 0.16047135 -0.3442694 0.06659219 0.26916626 0.20235987 -0.25022963 -0.016510468 0.13670744 -0.24787483 0.5383531 0.21147783 0.34104338 -0.20226799 -0.2957208 -0.033781726 0.28271893 -0.3109104 -0.29439855 -0.22788484 -0.022357784 0.4134511 0.1756207 0.1915936 -0.26261097 0.18871784 0.06599001 -0.095336325
4098 0.20906913 0.24198394 0.08159568 -0.17247713 0.30419835 0.3074554 0.028609714 -0.054533873 0.009292697 0.53898704 0.068531744 0.16571331 0.0011833695 -0.3175277 -0.16025338 0.11064556 -0.3768564 0.17226358 -0.35001415 -0.20184623 -0.1308845 -0.43681082 0.29136485 -0.36735556 0.6068287 -0.5798871 0.0034548494 -0.037041146 0.79670405 -0.5715896 -0.36480278 0.30746204 0.26007462 0.370598 0.3303691 -0.13069683 0.13784268 -0.023909835 -0.37243366 -0.11101269 -0.015128149 0.32847074 -0.41324434 -0.3838804 -0.52833706 0.038030133 0.05596398 -0.20343415 0.100671984 -0.008827771 0.14505039 -0.05806941 0.50193554 -0.3461643 0.2749746 0.20686103 0.04428876 -0.094277576 -0.06723047 0.3236388 -0.026238574 -0.026525054 -0.32353088 -0.4295947
1415 -0.050735693 -0.07885562 -0.43814203 -0.017902788 0.21048328 0.30479476 -0.27090332 0.19686551 -0.09324039 -0.32476315 -0.046717167 0.019736413 -0.21100567 -0.17490382 -0.18649262 -0.30321467 0.3306032 0.116462074 0.06380103 -0.18871453 -0.33224013 -0.3366032 -0.19024812 0.027740924 0.22864921 -0.4063991 0.27266195 0.4405405 0.19922 -0.51474196 0.43252027 0.508075 0.20899458 -0.30998003 0.103731595 0.10417114 -0.106782824 0.18793702 -0.16613725 -0.10271019 -0.20528671 0.03350481 -0.2909376 -0.42478427 0.057443224 -0.21853822 0.5337317 0.10186355 0.13973038 -0.008873749 -0.05604568 0.37222686 0.13099 -0.36101282 -0.10498411 0.20118058 0.24424738 0.19568965 0.4085037 0.2669642 -0.009131282 0.14147715 -0.05268497 0.3246883
29 -0.3413921 0.46403474 0.06840594 -0.5343645 0.029144492 0.35229337 -0.6790408 -0.15795635 0.2650751 0.15754084 -0.088802606 -0.4301407 -0.5416572 0.23487745 -0.55087084 -0.014247768 0.030045887 0.4596442 -0.27460864 0.19342904 0.46277255 0.37654197 -0.25055397 -0.5594466 0.11480153 0.40404472 -0.3225921 0.18559939 0.24157517 0.28959686 -0.04356276 0.11292456 -0.31694135 -0.0182294 0.41761062 -0.4504234 0.06949771 0.64135194 -0.4629186 -0.11214877 0.07324691 -0.047558222 0.5474787 -0.3990042 -8.388878e-05 0.010568529 0.9811974 -0.26111516 -0.8259569 0.042613357 0.20189051 0.25040415 0.26902032 0.52252483 0.29736897 0.37307912 -0.3823698 0.295773 0.2750184 0.14604686 -0.13003023 0.18417612 -0.09836524 0.12792955
166 -0.2542849 0.43739834 -0.16992918 -0.6758295 -0.10046749 -0.34669295 -0.7643886 -0.42970815 0.538345 0.13807072 0.033413142 -0.55483454 -0.35320035 -0.08187161 -0.5161525 0.18726256 0.047381822 0.6334667 -0.23669326 0.15813012 0.44647908 0.10961191 -0.54323125 -0.30738875 -0.19319741 0.3996033 -0.28711268 0.17779948 0.4466037 0.24144271 -0.0068708854 0.23877445 -0.51891667 0.42173982 0.52322376 -0.22883081 -0.073856875 0.65279466 -0.18235211 0.31178325 -0.40344268 0.0061055305 0.14647755 -0.34162572 -0.21581602 -0.36111224 0.8610345 -0.06623129 -0.22534415 0.034594916 0.17906725 0.01836847 0.29913005 0.44008845 0.1375848 0.2155709 -0.39101678 0.3720867 0.021904532 0.09580548 -0.1673737 0.36877793 0.1282506 0.1397087
2291 -0.2860532 0.41682425 0.029700378 -0.52676934 -0.19923581 -0.0703972 -0.8599798 -0.19059221 0.16763316 0.20252562 0.032073267 -0.46920905 -0.66583663 0.06765339 -0.7605794 -0.23034483 -0.4938857 0.5243599 0.05070494 -0.13536812 0.40218088 0.17670105 -0.14615415 -0.33698943 0.09898619 0.48731574 -0.07941084 0.023841223 0.43725485 0.32916915 0.0357036 0.27052495 -0.25887197 0.048523027 0.5706267 -0.20042574 0.2006097 0.5525656 0.058030136 0.1510732 -0.05469591 0.018598706 0.24207287 -0.6170482 -0.0941638 -0.4233571 0.7548187 -0.5321538 -0.56029016 -0.0600114 0.520505 0.23919366 -0.09955947 0.55076456 0.3699118 0.33022708 -0.21172917 0.5306761 0.10266719 0.26807943 -0.38043433 0.11548203 -0.08285643 -0.52966136
3388 0.3506757 0.09088313 -0.27194116 0.5793033 0.18953894 -0.022692692 0.12441691 -0.34165326 -0.025655841 -0.17246512 0.06827228 -0.0710851 0.41407135 -0.018371748 -0.42746064 -0.241667 -0.1700018 0.15308806 0.4521073 0.26299924 0.22492878 0.17173809 -0.08956475 -0.017709643 0.23325503 -0.42966518 0.37283838 -0.16720025 0.47290802 -0.28346196 0.3425946 0.045023084 -0.17096384 0.092468716 -0.08893186 0.31726336 -0.1448342 0.41626772 -0.4573085 0.20118721 -0.15931894 -0.112605 0.13362044 -0.05337544 -0.12068516 0.14790115 0.32610053 0.18030345 0.18049662 0.13996612 -0.48126814 -0.23667958 0.09613738 0.15724774 -0.046635807 0.0041315053 -0.07363682 0.4098557 0.045100905 0.23811875 -0.051890768 0.150999 0.11082122 -0.13369676
2707 -0.3106374 0.10935793 -0.3953491 0.07446145 0.24910334 0.42016885 0.14343627 -0.48833486 -0.1698892 0.14992654 -0.08860981 0.098724514 0.047664873 -0.28269848 -0.29343855 0.36723518 0.06347395 0.24833386 -0.21567792 -0.6240895 -0.4691857 0.80770224 0.31774542 -0.5714449 0.60711473 -0.0070537166 -0.15492335 -0.08828293 0.3851308 -0.26441595 -0.34404963 0.2747796 0.295352 0.31762883 -0.4507219 -0.427594 0.04296273 0.17637326 0.21164319 -0.012388164 -0.12511319 0.22911435 -0.5128156 -0.36450163 0.13185486 -0.40620524 0.5447641 0.39072442 -0.45490253 0.30542663 -0.037046365 0.33630458 0.30810088 -0.23956643 0.07410714 0.030653728 -0.30077857 -0.08042597 0.10228391 -0.034703422 -0.080603376 -0.3476732 -0.18062967 0.21552312
594 -0.3926753 0.2668308 -0.1712988 -0.732703 -0.3533446 0.22409564 -0.4972988 -0.464604 0.43024367 0.08145272 0.04135079 -0.50895023 -0.45870134 -0.27105114 -0.62376845 -0.34772176 -0.03462022 0.41899613 -0.3219672 0.095959194 0.81467515 0.251662 -0.54268265 -0.109559864 0.27085498 -0.015650788 -0.04849804 0.041556478 0.14935173 0.1758915 0.109277554 -0.15775281 -0.1666501 0.11993965 0.20225869 -0.1505139 -0.35038552 0.76077384 -0.3009067 -0.08033088 -0.21502052 0.002488025 0.58699614 -0.46197578 0.1127104 -0.08036396 0.7324044 -0.09546793 -0.21129654 0.030358765 0.073447555 0.15208028 0.0908112 0.36402377 -0.016313072 0.20396127 -0.42402825 0.45551378 0.530376 0.023535281 0.13178378 0.23485659 0.0023035146 -0.03199108
2086 0.08986297 -0.017927013 -0.10238019 0.26330048 0.07847673 -0.08925229 -0.0284817 -0.174872 -0.07572314 -0.097453505 -0.2881214 -0.06134704 -0.083846636 0.32044536 -0.2793679 -0.26510617 0.12331826 0.55311245 0.119289845 -0.12444191 -0.16734459 -0.6269853 -0.027740005 -0.18950664 0.116366565 -0.11125498 0.21387914 -0.12682323 0.46342453 0.0018290427 0.5494838 0.33311486 0.093757965 -0.33550268 0.22388762 -0.30111408 0.22020721 0.059268262 -0.24096051 0.04389696 -0.25597385 0.13203025 -0.35829046 -0.017371288 0.2000008 -0.2115712 0.41826546 0.23090981 -0.005563117 -0.023562932 -0.23291665 0.38123488 -0.15920386 -0.2375422 0.10997032 -0.23087972 -0.15206142 0.5654664 0.110520184 -0.021719864 -0.16240004 0.11597234 -0.3263057 0.3243344
4345 -0.14156976 -0.13983078 -0.40833688 0.11559859 0.26706624 0.6181044 0.3311887 -0.45804808 -0.36836937 0.47878405 -0.30008072 -0.085618034 0.3662285 -0.42579088 0.024264166 -0.073503904 -0.029921543 -0.15942843 0.17741169 -0.11312208 -0.22575074 0.14875977 -0.03607665 -0.43453535 0.4233916 0.021521064 0.3866068 -0.23031177 -0.1563962 -0.20145798 -0.30657098 0.03888761 0.40418676 0.35910538 -0.2739971 -0.26793468 -0.113386594 0.35116196 -0.37503967 -0.13365044 0.21362115 0.22220789 0.08122157 -0.4694401 -0.06956432 -0.097077474 0.08089148 0.19014974 -0.5214632 0.054496847 0.13441557 -0.07712253 0.6954825 -0.66026497 0.01643235 0.63762647 -0.2684462 0.28573638 0.5194201 0.555158 -0.35582057 -0.223502 -0.15635297 -0.07190888
2182 -0.021919865 0.11344788 0.28738257 0.4560329 -0.080480866 -0.3648408 -0.19388115 0.07757025 0.095447645 0.3532966 0.3658584 0.07769566 0.07950854 0.24653816 -0.20787169 0.19064787 0.45636728 0.4852626 -0.5376911 0.20707338 0.30655035 -0.08972786 0.2528743 -0.46870846 0.13868202 -0.34966168 -0.015546024 -0.008234286 0.35597166 -0.17477974 0.030819839 0.23722237 0.20227662 0.27578992 -0.35127014 -0.066342056 0.3392203 0.3994532 -0.4767694 0.010868225 0.08974522 0.005694354 -0.73211116 0.016798573 0.5583407 0.049257457 -0.11171236 -0.26794514 -0.122777596 -0.006626407 0.4179536 0.24911627 0.84824944 -0.29838192 0.46420547 -0.31060112 -0.21184039 0.1405271 0.07569485 0.7986812 0.084875666 -0.14113022 0.07931188 -0.49320295
2977 -0.1863446 -0.077734955 -0.56383693 0.31229267 0.3279397 0.4239246 -0.0039587906 -0.29086822 0.12414351 0.21050525 0.42580563 -0.20883869 0.0029253718 0.00475655 -0.33344164 -0.35504946 0.013310104 0.29926106 0.20767449 0.33854654 -0.12969847 0.07889682 0.58900845 0.27441448 0.15075281 -0.23244344 0.10009503 -0.014710307 0.121820465 -0.041215256 0.05293554 0.5346486 0.20384526 -0.14418705 0.0832694 0.26179996 0.31002566 0.04477439 -0.2660555 0.055530988 0.16622739 -0.30827817 0.09155463 0.24778675 -0.25805378 0.07092983 0.27719986 0.06260601 -0.011409964 0.35971144 -0.345742 -0.061091017 0.089512184 -0.26769844 0.55249834 0.16555394 0.33666962 0.44884428 0.29130292 0.44335556 0.10631467 0.14323764 0.14164786 0.15085603
4221 0.5495352 -0.41624415 -0.052853372 0.22457758 0.6003098 0.14519092 -0.32594797 -0.56965095 -0.29602364 -0.10031157 -0.35520184 -0.007740721 0.1440129 0.1993146 -0.48879308 -0.01322894 0.41743505 0.33233204 0.15424287 -0.36270562 -0.24443978 0.2732158 0.12633547 -0.44647816 -0.0041970313 -0.26908463 0.1988683 0.26558885 0.28052342 -0.15575914 0.17560808 0.026029142 0.11623796 -0.08043599 0.2005698 0.085557126 0.3653185 0.49546182 0.1006717 0.08358064 0.24147984 0.116190806 -0.22017337 -0.39230114 -0.28335804 0.5275551 0.38025472 -0.059200007 0.3371788 -0.3258629 -0.34136793 0.027587287 0.11789955 -0.054749727 0.034175433 0.033436723 0.10854231 0.7433233 0.18418783 -0.08421745 -0.3386057 0.07131908 0.010114432 0.13779563
1801 -0.081406035 -0.3008187 -0.4346853 0.09124665 0.22901857 0.13576558 -0.07434784 0.11097401 -0.15106796 0.4083472 -0.48297366 -0.12800226 0.27141458 0.03392141 -0.11297016 -0.44056436 -0.07404189 0.06873442 -0.29622436 -0.115047194 0.06137934 -0.2780981 0.2865397 -0.26301777 -0.062280443 -0.23687245 0.32274118 -0.25406054 0.478532 0.13312179 0.0650365 0.20507388 0.53316104 -0.30312228 0.37283108 -0.2687266 0.28639492 0.04423019 -0.27142224 0.31162906 -0.14894775 0.07844565 -0.28639412 -0.29907835 -0.16209716 0.40972325 0.64576703 0.32534972 -0.11230651 0.12445972 -0.14842758 0.5815082 -0.33020806 -0.3528498 0.187059 -0.12533467 0.106900446 0.04217186 -0.23308645 0.6255885 -0.033230852 0.42224395 0.42899638 -0.24166034
309 -0.018443229 -0.12629464 -0.20955898 0.19641297 0.2824605 -0.0799874 0.28510332 0.29874447 0.31953922 -0.38473833 0.41004115 -0.180412 -0.24325737 -0.3461699 -0.06351675 -0.7830664 0.11283648 0.19254921 -0.018468458 0.302341 -0.2647379 0.23890187 0.47954077 0.06566708 0.44419354 -0.16746464 -0.3886824 -0.30241925 0.42467403 -0.10039705 0.35482088 0.13081089 -0.15217137 0.050454184 0.35757044 0.028191049 0.21781194 -0.28254282 -0.11454406 -0.23109378 0.18803261 -0.18205649 -0.21332721 -0.43237135 0.39762834 -0.5259606 0.5780746 0.21418206 -0.14525507 -0.27282384 -0.408753 -0.09670001 0.28150162 -0.60915065 0.14502577 -0.18680601 -0.051280517 0.35848162 -0.10711934 0.15346988 0.33997542 -0.14583187 -0.29158232 -0.41932666
3169 0.12990306 0.26646522 0.10442719 0.08621361 -0.026725968 -0.38022923 -0.19939914 -0.33990166 0.20515741 -0.059727043 0.022770891 0.41398373 0.1768877 0.10256915 0.3106323 -0.40617266 -0.09395984 -0.061567232 0.05393448 -0.13680659 -0.2516293 0.25293636 0.042731907 -0.3908974 0.038264733 -0.32729268 -0.22763744 -0.16773777 0.6393502 -0.27884448 0.35524356 0.015077847 0.17753159 -0.55949384 0.44998413 0.49727213 0.016610352 0.21715929 -0.14966087 -0.0019498932 -0.20345062 -0.01587828 -0.22232367 -0.14639911 0.48802784 -0.7145426 0.43917176 0.17373864 0.17431279 -0.10076864 -0.20610093 -0.22187316 0.15672755 -0.06786361 0.24326438 0.016838195 -0.38664445 0.54402846 0.24635671 0.09807779 0.018249644 0.11349216 -0.16145344 0.30599245
590 -0.17449096 0.026830442 -0.08115895 0.34824222 -0.09876382 0.030682238 0.15807527 0.10832577 0.19014032 -0.099705614 0.19322807 -0.42846546 -0.10289238 0.15948707 -0.43087304 -0.105339184 0.23677686 0.24242881 0.054635398 -0.057291083 0.144772 -0.2530756 0.26841232 -0.437453 0.16955687 -0.24974114 -0.13865553 0.39911944 0.41708475 -0.14939949 -0.093097694 0.5568927 0.25447562 -0.06563536 0.22466479 0.35997435 -0.0968988 0.5819703 -0.21389998 0.28787166 0.11499834 -0.25414723 -0.25611198 0.22684634 -0.056753103 0.30752367 -0.09709034 -0.5592014 0.41577157 -0.17625158 0.6040234 -0.12393906 0.7877443 -0.5093952 0.46142733 -0.39682162 -0.8870801 0.121712126 -0.051104613 0.58224463 0.051288392 0.10245325 0.10914828 0.13726911
4284 -0.06319212 0.11770427 -0.5577009 0.21288942 -0.014670428 0.17570996 0.09179022 -0.18794027 0.0694481 0.22429626 0.15453689 -0.11289712 0.14534348 0.17088239 -0.2715637 0.20444685 0.03161919 0.4555952 -0.23805898 0.16528405 -0.12156795 -0.17066783 0.53989875 -0.30684036 0.08689487 0.05610225 0.16187254 0.1967921 0.47060034 -0.5824526 -0.29983857 -0.2586536 0.4210503 -0.037890755 -0.004942023 0.28853673 0.32422552 0.52690923 0.03452617 -0.12981902 -0.15453744 0.008451485 -0.4223803 0.032585505 -0.15993105 0.12178306 0.34707463 -0.17675154 0.12877817 -0.10102312 0.31635186 0.364894 0.4560149 -0.4553354 0.4884048 0.263284 0.17541309 0.03577823 -0.23356383 0.3074422 0.0018997723 0.29819074 0.3211695 -0.04938608
2181 -0.18121766 0.19556552 -0.006969451 -0.01427874 0.111300424 -0.0016590469 0.19090958 -0.13018239 -0.014575928 -0.08820751 0.12599985 0.328294 0.105807155 -0.22111963 0.02013597 -0.62219024 0.03608621 -0.15382819 -0.25892404 -0.019443622 -0.56480706 0.0746312 0.09662092 -0.28984705 0.26900807 0.0041634007 0.36300075 -0.2550744 0.2788645 -0.1821831 0.4240011 -0.20809801 0.3905397 -0.34230745 0.47175658 0.16023341 0.36358207 -0.042254332 -0.110492736 -0.32700476 0.37178248 -0.42635104 0.06805578 -0.04242265 -0.31099105 -0.6175937 0.48719284 0.32919645 -0.0608099 -0.07772061 -0.21453379 -0.16721779 0.31266537 -0.13187262 0.31170624 -0.07721975 -0.36070228 0.5091309 -0.15085149 0.09773061 -0.10292759 0.17646696 0.26045302 -0.59886223
2066 0.20456098 -0.29485404 0.29756388 0.2797901 0.27616772 0.15846741 0.20674022 -0.45208198 -0.08347843 -0.14818381 0.0926915 -0.45069683 -0.0038909202 0.022087356 -0.68676907 -0.4898869 -0.20311157 0.20497248 -0.16733344 0.18163832 -0.28148887 -0.44811207 0.1551822 -0.005954884 -0.16558617 0.009227493 -0.11507008 -0.088768445 0.26619607 -0.09006869 0.511125 -0.06981565 -0.30138943 -0.26432154 0.056202866 -0.04918522 0.086313985 0.1004002 0.13967322 0.012772885 0.07970569 -0.41326928 -0.2899238 -0.64570576 0.04076136 -0.204371 0.13685101 0.41465685 -0.09082405 -0.11475612 0.020353498 0.4791808 0.18756683 -0.34828714 0.20167007 -0.24687666 -0.51118666 0.102099694 -0.16719693 0.16758555 -0.13688102 0.15761676 0.52970725 0.14807543
3421 -0.16696577 -0.48571435 -0.68460715 0.21869655 0.11384195 0.3961332 -0.5314221 0.14947751 0.112523265 0.48765188 0.140222 0.024627658 0.3948492 -0.39154953 -0.31370068 0.012572411 0.2631376 0.010675592 0.12404099 -0.33753046 -0.099734895 -0.5817953 0.08497634 -0.30518058 -0.06565545 0.25991768 0.045570467 -0.002184891 0.90332663 -0.06016626 0.51792645 0.1382167 0.31133744 0.49563104 0.33916226 -0.24014038 0.14823927 -0.034456316 -0.011656796 0.41065887 0.42679763 -0.4098561 0.2132243 0.32841825 -0.20464396 -0.07299554 0.8743555 0.079869874 -0.0114125395 -0.059374668 -0.20343405 0.14125796 -0.18662815 0.34697694 0.449021 -0.50573236 -0.49413043 0.07845508 -0.7234291 0.11441285 -0.3099824 -0.55407983 0.11141859 0.22112598
154 0.079059474 0.19061571 0.09738111 0.43835637 0.1464021 0.42092863 0.177421 -0.1803903 -0.2495618 -0.29524037 0.17368506 -0.40214726 0.0010338029 -0.65174824 -0.20873551 -0.014494383 0.15322126 -0.05363679 -0.059757933 0.3439756 -0.012800758 -0.22191831 0.100574024 -0.1709109 0.33763096 -0.14844425 0.10338372 -0.1362909 0.16898154 -0.54439306 0.15203281 0.6537492 0.22612475 -0.15645322 -0.49664044 0.17019199 -0.029154941 0.6715379 -0.13916054 -0.4229069 0.095546395 -0.17385118 -0.41648433 -0.39809668 0.2198899 0.089120336 0.081943534 0.19885916 -0.44354156 0.2767752 0.32124344 0.3960134 0.24250121 -0.2269138 0.2574854 0.08662417 -0.5360234 0.28544143 0.15761377 0.343812 0.119393796 -0.034815967 -0.5764371 0.17388141
1269 -0.10454345 -0.32592663 -0.19653752 0.56027406 -0.06573094 -0.22549893 -0.06857233 -0.34894687 -0.14754595 0.018512009 -0.45361733 -0.12509175 0.40134227 0.1634695 -0.41733557 -0.5872392 0.4675817 0.08492599 0.22322746 0.034052152 -0.12704533 -0.34112749 0.2764801 0.06887073 0.11316109 0.2064835 -0.6449066 -0.11779206 0.77885354 -0.2065117 0.4139347 0.37194926 0.6285565 -0.47632617 -0.08650659 0.18997318 -0.16878964 0.118202865 0.15136558 0.0962153 0.10600416 -0.19769716 0.41383755 0.24186543 -0.06937307 0.3605457 0.5320078 0.40645093 0.07782595 0.23603782 0.19689678 -0.21270902 0.006456265 0.10913129 0.18692644 -0.100555964 -0.12904572 0.2775696 0.24281259 0.15419112 -0.34573928 0.2729175 0.04604169 -0.64517605
4409 -0.17759614 0.10856979 -0.18474756 0.43437105 0.042840477 0.12703936 -0.49753788 -0.3545356 0.045230277 0.28648874 0.08503862 -0.07762318 0.17919505 -0.21292607 -0.28209382 -0.105908975 0.036462978 0.12663656 -0.13249718 -0.17452534 -0.13569085 -0.07955691 -0.13358258 -0.15387739 0.57619435 -0.37006313 0.06550617 0.084569216 0.30700144 -0.6967105 -0.2928835 0.16732317 0.06524318 0.30151886 -0.427797 -0.09382605 0.38939124 0.19234312 0.30425787 -0.13630033 0.31086183 0.049152877 0.048199657 -0.3379679 -0.5355192 -0.49268654 0.12531374 -0.04080313 -0.23142423 0.35020435 -0.079874374 0.16446699 0.04853247 -0.27535352 -0.009688659 0.3605334 -0.13972203 0.44360384 0.15824829 0.35774717 -0.29892159 0.17357422 0.16347474 0.20742926
2236 -0.29972374 0.37858683 -0.119573236 -0.64364135 -0.11781064 0.04173531 -0.65702957 -0.14045778 0.5344707 0.41129512 0.17227432 -0.6793096 -0.4603674 0.10733991 -0.5036516 -0.25792584 -0.14282511 0.5493702 -0.25271237 0.15389845 0.588679 0.06878124 -0.6569813 -0.019711254 0.2657938 0.50316036 -0.41305822 -0.06927559 0.23678288 0.36920902 0.5001307 0.38574222 -0.16565822 0.13438502 0.55369 -0.39238203 0.2031729 0.8044609 -0.41615954 0.18579294 -0.19459873 -0.072839916 0.116995536 -0.3112836 0.017591637 0.14554425 0.6924746 0.023765605 -0.114513926 -0.36855307 0.13065094 0.007285924 0.4336872 0.46735674 0.30827272 0.2617345 -0.079132475 0.50806147 0.21632294 0.010882955 -0.5135729 0.24217995 0.07229844 0.037163172
926 0.037623744 -0.5120488 -0.14171964 -0.1599858 0.10045545 0.13701548 -0.19729066 -0.32750875 0.11732616 -0.22456478 -0.50405204 0.20899025 0.07009777 0.087055475 -0.06472364 -0.028387053 0.36673293 0.15322831 0.26195306 0.06663581 -0.10750447 -0.34208012 -0.02930792 -0.41828927 0.12263218 -0.10540216 0.23325771 -0.2970536 0.5788126 -0.46024933 0.67002183 0.49241933 -0.05721615 -0.20089746 -0.0225753 0.0787638 0.11835238 0.40244168 -0.119714595 -0.100844234 0.14288817 0.058459364 0.12384756 -0.23279366 0.18535939 -0.039228205 0.35904416 -0.0046604136 0.19409792 -0.19157012 -0.2941705 -0.4642546 0.25262254 -0.37614682 -0.0763928 0.27118284 0.66204023 0.593455 0.12764485 0.29771504 -0.4385448 -0.026984686 0.03593963 0.3757237
602 0.04401479 0.059105966 -0.11321146 0.37150204 -0.037424684 -0.20179877 0.1678264 -0.27590498 -0.24988058 -0.42214948 -0.054245733 0.1427634 0.022011885 -0.069380544 -0.27367547 -0.2608915 0.049945988 0.36096242 0.40962192 0.059456542 -0.27663577 0.6051436 -0.21380302 -0.24900179 -0.09808378 -0.5532114 0.1896591 -0.030914176 0.24063888 0.14852268 0.6240758 0.26196194 -0.12303688 -0.1729939 0.09341068 0.5319569 0.04675219 0.2463433 -0.22742161 0.52756345 -0.10989648 -0.293417 -0.090123035 -0.0786849 -0.10318876 -0.5298599 0.034091078 -0.19009608 -0.096588224 0.11004101 -0.24630946 0.3142126 -0.17752138 -0.44024065 0.33284584 0.18533778 -0.28920624 0.52011925 -0.09256879 0.3604879 -0.25414333 0.17330872 0.36702317 -0.004047891
1184 -0.32265103 0.39773005 0.41729385 0.04833556 0.41477382 0.78095484 0.05511596 -0.39910543 -0.5618994 0.21897992 -0.37712514 0.15796728 -0.36624563 0.07020491 -0.5593446 0.6570534 -0.115796216 -0.29570904 -0.45929605 0.8501846 0.37663648 0.59996593 -0.16428383 -0.31624737 0.9762732 -0.05145801 0.6217947 0.47165525 0.47702003 0.021904327 0.53846014 -0.18448123 0.42393044 -1.0899063 0.90802217 0.2117902 0.20042637 0.29805464 -0.31706688 -0.6075347 -0.2411192 -0.54901445 0.4007279 0.14201714 0.9290366 -0.09828361 0.49960282 -0.39574432 -0.07737127 0.4676502 0.63072544 -0.15602976 0.7606838 -0.2704373 -0.14583652 -0.42493728 -0.26538333 -0.348968 0.08955353 -0.04861889 -0.72809035 -0.8963616 -0.28610796 0.33804563
4320 -0.23057702 0.8036957 0.11392506 -0.5936059 0.06341788 -0.1464116 -0.51416487 0.034519818 0.7266633 -0.034009002 -0.21541998 -0.590881 -0.08194797 0.020502664 -0.85423917 -0.043956667 -0.18167035 0.4638153 -0.254283 0.1641437 0.46429208 0.4257345 -0.37534866 -0.18327543 0.30375084 0.2773396 -0.23710373 -0.094621375 0.28415337 0.35226536 0.0043052747 0.093642004 -0.16116062 -0.028353633 0.4079973 -0.07073413 0.029840307 0.8868433 -0.541509 0.0060593886 0.026364239 0.0063515073 0.58321255 -0.39159232 0.06579113 0.04953737 0.70911 -0.29624528 -0.29896218 -0.02300462 0.2244157 -0.056627072 0.44709495 0.49653053 -0.22875905 0.10568962 -0.6117674 0.52268535 -0.2649319 -0.13591003 -0.34883326 0.20097725 -0.10721646 0.34204772
1213 0.30249107 0.05956826 -0.15710723 0.19177236 0.22244279 0.6350669 -0.12591016 -0.1833455 -0.053509586 -0.03447687 -0.1834849 -0.12286576 0.39308545 -0.07509402 -0.032716863 -0.088566795 0.16939291 0.05335628 0.28122982 0.052110136 -0.25915095 -0.27079624 0.07674035 -0.23146756 0.250128 -0.14232616 0.11204797 0.0642764 0.33792505 -0.044387728 0.22659194 0.088666044 -0.051027797 -0.109513104 -0.08976681 0.47670728 0.34090075 0.403724 -0.026512755 -0.5637952 0.12275765 0.09372926 -0.57587916 -0.5375905 0.027349243 -0.10880778 0.6388517 0.27069217 -0.03944845 0.1911411 0.21657872 0.32953364 0.09506322 -0.25870675 0.17138888 0.2623419 0.13589121 0.28715977 0.037110854 0.25156567 0.14622676 -0.15126708 0.07504789 -0.10969358
2839 0.014810498 0.44160578 0.5255604 0.3922381 0.40511107 0.36309737 -0.04962948 -0.00057426165 -0.26085943 0.07709275 -0.13186294 0.3318024 0.045513753 0.026148785 -0.32285684 -0.102118 0.15490226 0.52616876 0.024909116 0.025819376 -0.3912505 -0.16455746 0.4876259 -0.15438405 -0.5214177 0.112751275 0.43055233 -0.31922278 0.41920173 -0.05383969 -0.62000215 0.06294599 0.18205133 0.015935527 0.37760663 0.16644736 -0.29480413 0.22338226 -0.15767482 0.27116364 -0.01703504 0.37622824 -0.012743225 0.040290367 -0.3412948 0.037732057 0.7703154 -0.4431686 0.7537476 0.1663746 0.865032 0.34043115 0.5689324 -0.7686797 0.26606053 0.17928144 -0.52693313 -0.18501475 0.060969453 0.3538765 -0.4956259 0.39906225 0.047617994 0.067100525
949 -0.06228613 0.074169494 -0.59544265 -0.113360204 -0.15989749 -0.13985404 -0.062625974 -0.20368287 -0.019175394 -0.37914604 0.14343719 0.49534526 0.13455008 0.18917936 -0.25064015 -0.25849047 0.22889714 0.28524265 0.23269019 0.3389061 0.24162093 -0.0069671636 0.013002427 0.028826268 0.375317 -0.067650124 -0.05049005 0.024214247 0.54243207 -0.23515429 0.21281512 0.117636465 0.24687149 -0.055031795 0.32623854 -0.08761966 0.31495222 0.45396063 -0.056800667 -0.38364637 -0.40393868 0.115320176 0.19941013 0.25218967 -0.15694529 0.1508492 0.38895047 0.19269666 -0.04286799 0.47319412 -0.016593931 -0.30410272 0.052818708 -0.694941 -0.14022212 -0.15134983 0.28400308 0.77065504 -0.08444987 -0.1421064 0.38502693 1.0470269 -0.18084198 -0.17804998
1886 -0.44213998 0.51296836 -0.28230283 -0.75579935 -0.28565717 0.22752875 -0.721655 -0.3967874 0.44853672 0.14239636 -0.116265655 -0.555932 -0.6218475 -0.07335559 -0.7126797 -0.028009739 -0.17600456 0.3613349 -0.20865732 0.091092944 0.52239054 0.16931184 -0.5061354 -0.27650496 0.22762366 0.1614067 -0.056318145 0.09651022 0.04314639 0.19052877 -0.032854553 0.23197068 -0.45080855 0.13163224 0.37219414 -0.4263874 -0.016581468 0.76273745 -0.014131338 0.066535205 -0.30565178 0.011601801 0.65265006 -0.5827742 -0.020832568 -0.1204698 0.7759818 -0.26052603 -0.3615718 0.042890146 0.13742384 0.03955169 0.43394166 0.29102275 0.25565144 0.3368205 -0.56638396 0.41323623 0.26894608 0.068128474 0.08601531 0.29491067 0.044255137 -0.059221
4689 -0.03266272 -0.25579405 0.17577223 -0.06723014 -0.13976668 -0.14036615 0.1781157 -0.23406263 0.04594879 -0.2091675 0.383593 0.28972545 0.121115446 -0.25660875 0.02096961 -0.49127403 0.063350014 0.12945119 0.06148309 -0.10763367 -0.013510049 -0.13992308 0.47916818 -0.07194409 0.39119518 -0.2877741 0.12595949 -0.15465347 0.63403916 -0.22976533 -0.35172972 0.14357255 -0.11730161 -0.038268477 0.33263642 0.24114324 -0.28628033 -0.074413255 -0.3928463 0.0983862 0.44666392 0.27856237 -0.15857014 -0.07335088 -0.30706885 -0.27531326 0.72175103 0.14215146 0.53219604 -0.1905846 0.18782862 -0.2701849 0.46960345 -0.40789488 0.008613432 -0.11633278 -0.36957854 0.54510313 -0.49211517 0.07022868 -0.070838064 0.06732121 -0.113423325 -0.18051165
4441 -0.35497206 -0.071654126 0.4242896 0.14951958 0.19453025 -0.31376514 0.37363055 -0.037997767 -0.14765666 -0.29053 0.24259856 0.028992409 0.49427968 -0.19338274 -0.45096257 -0.15012166 -0.7065653 -0.26240158 0.20320153 -0.11393318 -0.04277965 0.09955327 -0.12348851 -0.14564013 -0.42754835 -0.1705087 -0.21233425 0.288465 0.7622008 -0.22067147 -0.09191482 -0.27263525 -0.20131987 0.36518347 -0.3874739 -0.1700572 0.2193267 0.48895085 -0.23356053 0.16201997 -0.4451392 -0.7671471 0.83181 -0.69514316 0.30406627 0.11455945 0.4808631 -0.32700914 -0.10605549 0.017568566 0.018179417 0.461299 0.22413431 -0.64738035 0.068470664 -0.036696833 0.31710514 0.025462214 0.4417374 0.5725931 -0.4707097 -0.84166193 -0.2519898 -0.6490393
1953 0.3452932 -0.049033422 0.014530395 0.0611349 -0.22762698 0.068176314 0.10852267 -0.09383227 -0.20171879 0.02242736 -0.16274899 0.42698854 -0.34733626 -0.365175 -0.2779349 -0.03226464 -0.2696466 0.29753014 -0.11404287 0.06480448 -0.28605855 -0.09365356 0.58061147 -0.12497596 0.10487899 -0.64526147 0.21696627 -0.06828724 0.4477718 -0.51340485 -0.31407213 0.2710607 -0.10094677 -0.5376934 -0.38770053 -0.03650157 0.25801113 0.6130438 -0.4203433 0.14284742 -0.38561726 0.12680642 -0.05596814 0.053775016 -0.48666334 0.11907624 0.12866594 0.16577373 -0.17261517 0.32342967 -0.16850929 0.47725517 0.5378527 0.13774747 0.18972404 0.033174574 -0.30237776 0.4029029 -0.21554741 0.13815255 -0.1230789 -0.096987784 -0.4678236 -0.104764916
130 -0.09394533 -0.007868787 0.20595585 0.29781497 0.50602055 0.3754519 -0.02934292 0.2504582 0.16111384 0.108114585 -0.47310147 0.14972815 0.10103718 0.029063728 -0.04449658 0.1703675 -0.74178433 0.29902518 -0.04711176 -0.41117397 -0.14464015 0.43591923 -0.079785906 -0.5937032 0.26582953 0.3580203 0.49565345 0.28427863 0.15836984 0.123361826 0.19862664 -0.18568945 -0.043497987 -0.26825562 0.6982109 0.17669949 -0.077010155 0.95412856 -0.237349 -0.5650079 -0.017299907 -0.7118364 0.51859826 0.3235679 0.81946987 0.23545232 0.7070046 0.4505283 -0.013566608 -0.430478 0.38548857 0.5552875 -0.4698875 -0.45257747 -0.053531516 -0.1249251 -0.59849113 -0.2401524 0.18549836 0.27727503 -0.34054682 -0.46530208 -1.1215231 0.028943723
992 0.40081978 0.54210377 0.2690136 0.495299 0.12826854 0.14579639 -0.15856619 -0.27761585 -0.19994353 0.20772013 0.26355982 0.26894993 0.23071148 -0.2722563 -0.058723964 -0.22692056 0.29429385 0.27257887 0.27775043 0.04148675 -0.015792912 -0.21431805 0.23699214 -0.054678902 -0.31173894 -0.17087772 -0.039998442 0.15063375 0.66165155 -0.06966747 -0.26189873 -0.013530678 -0.005823175 0.102393985 0.5863016 0.09220293 -0.28488323 0.44570783 -0.52178794 0.40791985 0.048873153 0.32591832 -0.2958502 0.007921614 -0.18761753 -0.04803709 0.37059292 -0.26411134 0.67974013 -0.07249774 0.37006652 -0.15057224 0.3465673 -0.4438715 0.1580563 0.56200606 -0.41538033 -0.19455394 0.2618138 0.6461608 -0.44194856 0.5566464 0.2561789 0.11539128
1418 0.14049609 -0.08064051 -0.33350158 0.14610024 0.15552685 0.1750249 0.063914135 0.048622232 -0.0064949594 -0.22756611 -0.073909156 0.31438684 0.4350372 -0.21293941 0.025141925 -0.5450539 -0.3049578 0.34859207 0.13675767 -0.19949344 -0.25567496 0.20967747 0.12135629 -0.06460253 0.4599928 -0.5391272 0.06294505 -0.2362266 0.1699534 -0.2242764 0.037897155 0.20530225 -0.2011941 -0.20134012 0.29278657 0.45984697 0.21282648 -0.015237692 -0.2690023 0.03640971 -0.6590423 -0.31097394 0.16378383 -0.021506075 -0.25960374 -0.6241448 0.25594532 0.34648103 -0.13867256 -0.023202486 -0.1538287 -0.1412887 0.53268963 -0.0804781 0.49346715 0.08117492 -0.47139573 0.44424 0.31926835 0.30241874 0.049308185 0.07105111 -0.21136822 -0.078468844
3912 0.5969262 -0.13299826 -0.40225667 0.27477527 0.09570592 -0.06563657 -0.4353611 -0.2409844 0.08156777 0.20213799 -0.20203547 -0.13273074 0.25584754 0.21965905 -0.42535862 -0.14418781 0.3859001 0.31389815 0.47491398 -0.16819473 -0.042780466 -0.34792408 0.10000142 -0.20088108 0.095337614 -0.32293192 -0.050051555 -0.03665832 0.68635637 0.02678254 0.34649092 0.29814187 -0.03224262 -0.5074412 0.115546234 0.16509394 0.46373147 -0.017924225 -0.08277524 0.040110093 -0.10473025 0.020728922 -0.076071605 -0.17179602 0.16408499 -0.014134867 0.3907625 -0.02548339 0.021716552 0.3453346 -0.28647077 0.21655846 0.16847464 -0.28579012 0.3646855 -0.12781174 0.37248474 0.12981765 -0.06475385 0.47903913 -0.2677427 0.3018098 0.17938776 0.010921059
4271 0.31105852 0.11470444 -0.42470407 0.018188283 0.036926925 0.18395197 -0.044849735 -0.24320617 -0.011461614 -0.14505912 -0.07354074 -0.34940907 0.10852566 -0.043041468 -0.30395633 -0.25847152 0.3675779 0.23426287 0.3230693 0.038065445 -0.364699 -0.5259679 0.02421403 -0.42772156 0.0959083 -0.20939082 0.008496229 0.28859076 0.5214029 -0.2449019 0.34773844 0.39077705 0.27874884 -0.31748515 -0.24180935 0.026691714 0.28126025 0.43987688 -0.3287393 0.10600871 0.12622844 -0.15729234 0.019863248 -0.25400364 0.05621486 -0.25155634 0.27689785 0.029529693 0.16233031 -0.049003497 -0.5704482 0.022227654 -0.15562405 -0.3516204 0.07401045 -0.17809345 0.26321918 0.10830513 0.12490047 -0.025378302 0.006918413 0.34094173 0.09964277 -0.19098014
1355 0.3249018 -0.3735392 0.13517113 0.35722935 0.26246837 -0.2074267 -0.13443653 -0.29341185 -0.5012805 0.10016098 0.045924064 -0.32717657 0.21708456 -0.058328923 -0.33368748 -0.36102793 0.08540744 -0.13521822 -0.3420206 -0.03912257 0.19725402 0.11393169 0.68331736 -0.3907978 -0.11563368 0.06712236 -0.031498738 0.31746444 0.1634391 -0.058626186 -0.20645331 0.16330473 -0.16302362 -0.4249385 0.2663369 0.26062045 0.3217676 0.2001289 0.3526347 0.12102631 0.27609965 -0.6113872 -0.2431699 -0.6873772 -0.033600632 0.019328045 0.3834667 -0.05322546 -0.09483793 0.2619963 -0.029804582 0.36391073 0.066072844 -0.4445835 0.29417974 -0.18389678 -0.19521816 0.50419265 0.14886677 0.46662793 -0.18201618 -0.086202875 0.1371306 0.12650213
383 0.09755154 -0.5218155 -0.5853365 0.13627084 0.11407554 -0.19077004 0.0022228851 -0.40215173 -0.093288906 0.10737615 -0.2175311 -0.05769195 0.2025831 0.2031317 -0.31333837 -0.29588905 -0.26568645 -0.027686635 0.085392326 0.018902948 -0.120207995 -0.12311804 0.4767809 -0.34150085 0.06373609 -0.33851603 -0.07007467 0.06236303 0.11628939 0.114619374 0.31020385 0.27999437 0.42336857 -0.6662761 0.31832984 0.18047522 0.0038112765 0.2700585 0.25164077 0.087974384 0.42347485 -0.2848759 0.31023213 -0.48638707 0.054186396 -0.045444895 0.2594008 0.051101983 0.0981825 0.13517737 -0.43184584 -0.16608728 0.11192323 -0.42885342 -0.004535717 0.09511769 0.10615856 0.5346699 -0.021508722 0.18581596 -0.12656808 0.15851876 -0.06833736 0.03329669
150 0.034695797 0.07075983 0.02937154 0.19396783 -0.3793881 -0.060697358 0.037852705 0.21635912 -0.09709133 0.043164916 -0.47779262 0.20178267 -0.3890254 -0.19344376 -0.29078293 -1.0089542 0.3658485 -0.076619945 -0.05450808 0.062053006 -0.420484 -0.08707259 -0.24788003 0.39655393 0.692013 -0.38501343 -0.297097 0.11938973 0.5652863 0.047776535 0.65714073 0.053936586 0.7394804 -0.6020063 0.12867492 0.06447497 -0.0138641475 0.49287102 0.14016275 0.16377902 0.4593734 -0.44264925 -0.19623575 0.32923147 0.27478272 0.085347556 0.31946838 0.24599572 -0.083302915 0.30679324 0.15326028 0.059665676 0.51477915 -0.14827012 -0.54318863 0.34875315 -0.3022779 0.5079893 0.04390406 0.053650405 0.31264514 0.12176159 0.036903106 -0.41820285
3558 0.41636127 -0.17457655 -0.31649676 -0.044585217 0.2707952 0.1250385 -0.0053911083 0.2294474 0.3878633 -0.10995972 -0.20218018 -0.3984033 0.20808642 0.2562928 0.037723836 0.3090186 -0.079280555 0.3286256 0.030026872 -0.13365869 -0.62592876 -0.28023115 0.540853 0.038641706 0.4246774 -0.15059635 -0.043721203 -0.0026199229 0.4666807 -0.39573124 0.85677695 0.1404752 0.27768356 -0.13590623 0.043069407 -0.38210282 0.1988161 0.31387615 0.115394115 0.0034069174 0.23898311 -0.030248057 -0.24971199 -0.13528244 0.22119603 -0.47218424 0.71562725 -0.31178358 0.14386445 0.03034389 -0.1627434 -0.28813604 -0.019543365 0.15006934 -0.12508355 0.16033913 0.4048935 0.3398521 0.39162052 0.19529754 -0.26171863 0.63906974 0.04612119 -0.109690174
3940 0.19626476 0.20300078 -0.25893646 0.23818536 0.050831832 0.49794334 -0.4505161 0.015439837 0.22645253 0.1185867 0.31307366 -0.32212082 0.1066503 -0.44874683 -0.44814885 -0.108984575 0.03355096 0.24198045 0.39854687 -0.2725825 0.2497465 -0.028142104 0.38875708 -0.183244 0.33195788 -0.44863808 -0.1550648 0.20709994 0.50173146 -0.28223342 -0.044881597 0.5930326 0.16593607 -0.3991489 0.032706343 -0.11059303 -0.049419563 0.37122366 -0.26046047 0.02668606 0.25980598 -0.50956535 -0.49551502 0.3707392 -0.09296528 -0.36220652 0.26484835 0.024430243 0.4382366 0.06311459 -0.2399796 0.39454955 -0.08500723 -0.16874132 0.049463555 0.09170136 0.6218378 -0.023446845 0.010088946 0.30546108 0.12963775 0.1443914 -0.11606845 -0.15464997
2758 0.22045748 -0.14891927 -0.3421665 0.28757778 -0.08458746 0.16418727 -0.40407538 -0.43913525 -0.16909601 -0.41335586 -0.027631665 -0.3429243 0.24050657 0.20042613 -0.1118151 -0.42228115 0.21787283 0.29345068 0.29089507 0.46491492 -0.13784927 -0.009058782 0.08644016 0.15594968 0.12006382 -0.33642736 0.22119646 -0.015845755 0.38863796 -0.30907485 -0.083034866 0.13831334 -0.31151626 -0.18873851 0.085688494 0.093050584 0.21473375 0.3522516 -0.28934327 -0.23454717 -0.090088114 0.062318232 -0.063756496 -0.37969124 -0.3207793 0.017635802 0.36305243 0.18847097 -0.19027439 0.1133354 0.041657194 0.1793185 -0.051570244 -0.25978088 0.35742876 -0.035881463 0.47189218 0.5675331 -0.03955905 0.18819773 -0.31331488 0.22558792 0.17499313 0.45993292
206 0.2671866 0.13274604 0.025922308 -0.0878282 -0.14600638 0.49303508 -0.08934657 -0.038822867 0.093086846 0.3722352 0.029732678 0.0003488152 0.21993154 -0.018154413 -0.13148007 -0.15170074 0.31480095 0.5915872 0.1429909 0.36705625 -0.029243682 -0.56438845 0.4601482 -0.3751049 0.078364275 -0.0675004 -0.12050879 0.5189968 0.7230606 -0.008043297 -0.12500207 0.18171817 0.061245132 -0.06156636 0.4074378 0.2060366 0.029863779 0.29357043 -0.5300611 0.14374904 -0.08639236 0.13433039 -0.6192449 0.040019307 -0.20975247 0.3614534 0.35515276 -0.17551963 0.06148824 0.2803476 0.18585952 -0.19312306 0.48553762 -0.37629494 0.3064563 -0.050079 0.33367464 -0.2646007 -0.13471337 0.09806849 0.085318744 0.17072856 0.11498203 -0.55929375
4625 -0.40369174 0.2969405 -0.13967058 -0.02934405 0.022085756 0.8619606 -0.56587917 -0.12692145 0.20054819 0.16817088 -0.3347045 0.164953 -0.24481249 0.2057399 -0.21101336 -0.7138016 -0.15435573 0.30031702 0.025020236 0.5919319 -0.47148842 -0.5173387 0.6453916 0.12410022 -0.11738103 -0.7861822 0.13216321 0.3187788 0.0010437496 0.49210176 0.1305871 0.38362676 -0.5020305 0.1758243 0.29821697 -0.2611848 -0.058375604 0.6173959 0.22794172 -0.09128722 0.012545763 -0.10953644 -0.19548973 -0.012770679 0.13398783 -0.61100525 0.24140437 -0.087326966 0.34373257 0.46092817 0.5572659 0.07364752 0.42151594 -0.17447683 -0.27928087 -0.65761423 0.46236733 -0.17901626 0.23867358 -0.48894358 0.20113811 0.2602451 -0.14420618 -0.32407126
621 0.28980538 -0.10153137 0.01931751 0.10212891 -0.23640579 -0.06956723 -0.020184344 -0.11970416 -0.29432443 -0.03734028 -0.42612782 0.50731266 0.42805153 0.0824884 -0.057936635 -0.34682456 -0.082880475 0.39905098 0.00401088 0.3478581 0.16124012 0.29189464 0.2627357 -0.050605763 0.19519645 -0.4305529 -0.36808842 0.25749853 0.49897748 -0.4875991 0.3661638 -0.014286358 -0.008978133 0.2158531 0.3377927 0.15835965 -0.27901027 0.3076851 -0.17073356 0.39093336 0.28555298 -0.06349855 -0.014874137 -0.19018877 0.0014218064 -0.5608523 0.15725234 -0.33259866 -0.20909715 -0.19229378 -0.29077667 0.10186016 0.009695184 -0.36419466 -0.14194098 0.012701226 -0.018712692 0.3233502 -0.50238997 0.67102337 -0.23671992 0.69938827 -0.77467513 1.0431048
3824 -0.023605559 0.057176862 -0.09027851 -0.1414224 0.73044986 0.5296567 0.12886609 -0.28920966 -0.035964377 0.5623758 -0.30311453 -0.33906254 0.528057 0.19694395 -0.026452076 0.22121388 -0.2816207 0.13936162 -0.17790462 -0.38222948 -0.3243994 0.119107276 0.21517944 -0.26267168 0.8151252 -0.30151042 0.1651478 -0.04407258 0.5108862 0.31014556 0.062174346 0.53236765 0.5035348 0.21459837 -0.053592395 -0.38843527 -0.01306169 0.23773783 -0.21252951 0.27281645 0.13008867 0.021269059 -0.049168855 -0.1830856 -0.0752835 -0.7642999 0.09458468 0.20477872 -0.35486805 0.024034068 0.16173883 -0.28458068 0.06325736 -0.46203715 0.1738654 0.42557985 -0.55710423 0.20088162 0.060465876 -0.6560324 0.58719045 -0.19262746 -0.35762465 -0.21521778
3475 -0.32138252 -0.106036365 0.14135283 -0.06231708 0.14397015 0.047261737 0.21993102 0.36365646 0.11892702 -0.23037338 0.40276384 -0.30514657 0.16444932 0.16690366 -0.22200301 -0.026257 0.40343744 0.5463563 0.06700151 0.15785716 -0.16274068 -0.2747796 0.36354256 -0.5187542 0.47912872 -0.14209911 0.09205232 0.35899046 0.5675674 -0.18797266 0.0778046 0.5709471 -0.07423504 -0.030411348 -0.6149352 0.27562925 -0.12845063 0.6413222 -0.22776987 -0.095180064 0.29997838 -0.26649907 -0.36410257 0.084265 0.15777084 0.16027847 -0.08256867 -0.51482266 0.08878828 0.21165971 0.84799856 -0.22980334 0.7492392 -0.3890264 0.40315115 -0.3507977 -0.78210425 0.3340025 -0.30536643 0.27640557 0.10831283 -0.14865881 0.10935749 -0.34845147
3250 0.36305788 -0.21642889 -0.078355625 -0.292185 -0.35377222 -0.026398566 0.018480431 -0.21080427 -0.040732432 0.118832916 0.042992212 -0.1057158 0.15733548 0.04416141 -0.15784176 -0.101357065 0.07303437 0.5341611 -0.01742354 0.10968683 -0.120545775 -0.32287785 -0.07446079 0.031269625 0.4838717 -0.07907032 -0.07645057 0.38561818 0.5582145 -0.32726988 0.20210591 -0.15714437 -0.035539262 -0.54214716 -0.07810884 -0.083126605 0.25453123 0.031041669 0.020756764 0.14353937 0.22116826 0.06346232 -0.26979503 -0.15776792 0.009657621 -0.14220417 0.2315877 0.57562125 -0.09141201 -0.23595811 -0.33100906 0.3964004 0.48896936 -0.36926523 0.3329644 0.17141728 -0.058149874 0.37415972 0.23386894 0.37161687 -0.18687703 0.07135403 0.06471494 0.11733578
3313 -0.0720363 0.16157585 -0.29254514 0.1400721 -0.5229701 0.03132181 -0.0071393875 0.19048163 -0.5558785 0.3879589 -1.0541674 0.10643854 -0.29533052 -0.004430469 -0.7562021 -0.88970864 0.12058183 0.09694209 -0.1451323 0.31960744 -0.17844553 0.045943715 -0.17781487 0.32502267 0.7021214 -0.4171594 -0.034350928 0.16213903 0.68009436 0.12438291 0.57682145 -0.1660492 0.43174845 -0.62131816 0.35739848 0.018490143 0.26404527 0.32873854 0.41226032 -0.056564286 0.34352213 -0.14111918 -0.21572912 0.48461658 0.741951 -0.18790683 0.30331558 -0.18243136 0.04268029 0.38648063 0.2877659 -0.07176243 0.33279115 -0.10834819 -0.55089116 0.4791212 -0.34939918 0.09406018 0.22086672 0.042225044 -0.042885512 -0.09785907 0.009475059 -0.1656207
4012 0.060976196 0.009231801 -0.48857367 -0.3488284 -0.34482232 0.6079016 0.5884204 0.17520729 0.039853055 -0.016593013 -0.1015554 -0.060151324 -0.033230178 -0.31087202 0.19379295 -0.25700533 -0.2391475 0.37567762 -0.07001726 -0.5028011 -0.37685016 0.52684385 0.1433907 0.61893225 0.17544791 -0.25038704 0.34383845 -0.0118729705 0.10023322 -0.4966908 0.69539654 -0.032102518 0.24971567 -0.04426629 0.14092521 -0.07376713 0.018962512 0.20465896 -0.13844302 -0.25955227 0.10130573 -0.40711135 0.03580924 0.17130966 -0.44529134 -0.032103244 0.5868069 0.49698743 -0.29922962 -0.057818 -0.3408723 -0.201745 0.43924448 -0.59158844 0.10580051 0.15877359 -0.2769964 0.7926587 -0.282057 0.25823584 -0.118056655 0.08517775 0.050321635 0.06007826
