4401 64
1292 0.32253376 0.11637338 -0.5173327 0.57922083 0.042853363 -0.5521721 -0.53350645 0.34401923 -0.63993275 -0.2476117 0.16697583 -0.5430937 -0.13078591 -0.22650762 0.0014388157 -0.25441256 -0.007161445 -0.17599207 -0.15152204 0.18487033 0.21687503 -0.28535753 -1.1770447 0.018528797 0.21983498 0.47251874 -0.54271334 -0.8475709 0.8182782 0.49412006 0.14169872 -0.048660994 0.51490897 -0.559266 -0.18278345 0.0112485485 -0.28445426 -0.7230302 -0.007803765 0.59370327 0.6174726 0.53575015 -0.048024975 -0.015502803 0.21368474 0.12140355 0.6395104 -0.5680217 -0.22564135 -0.18793856 -0.44256833 0.0570737 0.18985666 -0.35211566 0.23969959 0.38186532 -0.37529287 -0.37047768 -0.07803766 0.42507407 -0.28380382 0.21827413 -1.3778483 0.013263494
358 -0.22185874 -0.13045092 0.22410065 0.021370945 0.38188192 0.4874384 -0.39926293 0.5605902 0.09677378 -0.7460327 0.29276583 0.013992672 0.04540423 4.045631e-05 -0.16803706 -0.46304056 0.06833255 0.029204957 0.6711791 0.47775418 -0.38776073 0.025010044 0.6119678 -0.38073543 -0.28587422 -0.009866711 0.66583717 -0.1648613 -0.57763875 0.6018227 -0.2943698 -0.74410474 0.5862099 -0.032735832 -0.3134464 -0.0030374678 0.91419417 -0.98639655 -0.97586656 0.3836314 -0.01769596 0.63637 0.23434812 0.33550626 0.104529135 0.72337484 0.7663852 0.1722818 -0.56121 -0.0032888916 -0.5376899 -0.52485955 -0.00053380925 0.48370683 0.7750259 0.5099015 -0.4919841 -0.09541213 -0.89274734 0.10453047 0.4006342 -0.92501944 -1.0411295 -0.2333709
1836 -0.14848863 -0.2781568 0.20074417 0.7141588 1.259509 -1.3967068 0.6200304 0.02188758 0.056595463 -1.4289355 0.82306504 -0.26250058 -0.4570591 0.2546423 0.17828867 0.53490084 -0.07273146 0.27749965 -0.027651453 0.5488672 -0.6672068 -0.19203036 -0.029114198 -0.20656826 0.005724006 -0.6489413 -0.1549594 0.48809516 0.5894715 0.23830065 -0.30650148 0.73849076 0.70731056 -0.023065688 0.8110359 -0.51734763 -0.28811428 0.27688062 -0.92407167 0.08772576 0.5829716 0.4235979 0.33811662 0.29682714 0.11712834 0.6590313 0.7927022 0.15695561 -0.60120434 -0.14618754 0.27416697 -1.0931075 0.03951081 -0.20233187 0.32997945 1.1274931 0.42974025 0.52475566 0.7682629 0.09216408 0.16613115 0.3282119 0.15227775 0.08893841
2856 -0.021566043 0.42151174 0.5382369 -0.12107257 0.5211954 -0.16131918 -0.11088666 -0.7757327 -0.3476557 -0.41439563 -0.39387766 0.3263785 0.4387325 -0.23950678 -0.11383095 -0.8901869 -0.32336512 0.20007242 -1.0202717 1.018244 -0.4049022 -0.14337912 -0.35038307 -0.9984255 -0.15531209 0.33776334 -0.3975175 0.19641791 0.19349852 -0.085656166 1.300839 0.080941565 0.42071578 0.7880533 0.20832281 -0.5822607 0.7990626 -0.30138272 -0.04015301 -0.31255266 0.59735584 0.39875823 1.2729162 0.35848817 0.020953964 1.038206 0.32095116 -0.11264199 0.17786582 0.728682 -0.3196424 -0.6269589 0.1168025 -0.13085572 -0.28300834 0.9094532 -0.5724266 0.13596272 -0.58347195 -0.10251004 -0.78502065 0.027514119 0.061440628 0.25306985
3588 0.35131153 -0.042749494 -0.16886489 0.19467036 -0.7004828 -0.17901582 0.06270839 -0.580839 0.22478619 -0.43155974 0.5667314 -0.17227553 0.7588213 -0.34736434 -0.25455764 -0.3515209 0.20550482 0.3390152 -0.5901995 0.40233594 -0.8138016 -0.73386216 0.5531396 -0.6706244 0.19821858 0.13601835 -0.5579539 0.21625298 -0.04509298 0.17282097 -0.20725559 -0.6567447 0.6632403 0.7765996 -0.16362445 -0.97974473 0.09571058 -0.96658516 0.3657905 -0.28975984 0.47472492 1.4019347 -0.36625668 0.07526947 0.30796576 0.42457357 -0.10187386 -0.8370313 -0.9241895 -1.068645 0.34615776 0.14865667 -0.17098324 -0.78694874 -0.2781758 0.23174858 -0.59517837 0.7430698 0.50907165 -0.0903826 -0.4316112 -0.9246242 -0.88390636 -0.68981254
919 0.30841386 -0.281815 0.39732057 -0.346904 1.0230155 -1.2940948 1.0557034 0.64482975 -0.48664635 -0.99412405 0.5612861 -0.29435468 0.9201199 0.17467925 0.7392535 -0.1257121 0.49454224 -0.57740134 -0.054437194 1.3532401 -0.5276642 -0.020786617 -0.074595995 -0.096831456 0.0853549 -0.03209688 -0.39925244 0.020043887 0.22791146 0.33494654 0.30592528 -0.11817343 -0.05656099 0.5380657 -0.68592477 0.23809898 0.31982565 -0.57350534 -0.61849856 0.027380204 0.79103005 -0.034330606 -0.8861795 0.72622216 0.15311079 0.48205215 -0.91745263 -0.4044789 -0.6529888 -0.6694525 0.10514073 -0.45578656 -0.6074195 0.4698826 -0.009504078 -0.13491195 0.8440045 0.17111005 0.4363431 -0.22860855 -0.1318346 0.43328926 -1.1614265 -0.38473043
3437 -0.21116996 0.023163877 -1.0359877 0.4980134 0.23140937 -0.12471126 -0.04077395 0.12483459 0.0032164722 -0.6291886 0.40326056 -0.76856565 -0.19419268 -0.030706871 0.0044114185 0.6637684 0.31189016 -0.06926475 -0.21688819 0.37044153 -0.000487417 -0.053460024 -0.10534337 0.34665048 -0.21305643 -0.069839194 0.067649804 -0.34917763 0.24370247 -0.89272857 0.35343862 0.048794758 -0.1394532 0.4794215 0.6222805 -0.68314797 0.38999438 -1.3892527 -0.6865618 -0.33649215 -0.17242068 0.87395155 1.2731903 -0.62734365 0.6219908 1.3641249 -0.18773742 -0.7319124 -0.06231297 0.61029285 0.014331508 -0.12197262 -0.64094126 -0.19486478 0.35009387 0.1488444 0.3886022 -0.20865293 0.5085329 -0.13121985 -0.5393322 -0.423737 -0.1260863 -0.75511235
4292 -0.21085183 -0.0647444 -0.3381666 0.5751383 0.27399436 0.39493635 0.54419035 0.58863884 -0.92201245 -0.5164067 0.3046022 -0.62287724 0.5024732 0.24679494 -0.3281148 -0.8735353 0.5011899 -0.07017474 -0.07695079 0.25300032 -0.3692807 -0.29615283 0.18473962 -0.5066815 -0.095844865 0.07463741 -0.11687932 0.51693046 0.29117247 -1.5165635 -0.07254204 -0.12648576 -0.46288687 -0.5572983 -0.23187162 -0.6421328 0.8609761 -0.43632802 -0.12504737 0.7024897 1.0496364 -0.7960134 0.40445447 -0.1831263 -0.3115672 0.33420205 0.40780833 0.10111963 -0.47677737 -0.9487381 -0.88412 0.24023493 0.25674254 -0.39329663 0.90469205 -0.34819904 -0.15591894 0.5696394 0.056154486 0.3846736 -0.9863261 -0.15119684 -1.1858295 0.4272599
1109 0.04881789 0.23226982 -0.33236462 1.4799778 0.84248984 -0.14757957 0.91016424 0.10325267 -0.22686663 0.11983274 -0.060660295 0.17865756 -0.18539265 -0.51121503 0.46984947 0.14355496 -0.623424 0.45726728 -0.26274762 0.25938028 -0.071888015 0.21979964 -0.7404622 0.14060044 0.042017266 0.2038492 0.13516822 1.0932395 -0.0846427 0.08102736 -0.19316989 -0.72480863 0.628019 0.43244368 0.5288716 -0.023534367 -0.54210657 -1.2323517 -0.718977 -0.4561151 0.15518034 1.4510843 -0.07294947 0.8145277 -0.3802726 0.92375106 0.4660273 0.99987495 -0.17333865 -0.49094546 -0.7213801 0.32576102 -0.8266366 -0.43643752 0.18751301 -0.022451766 -0.3215622 0.49942136 -0.52748543 0.16945986 0.56672406 0.55176985 -0.88871235 -0.2947575
4341 0.6908613 0.5368111 0.35532376 0.16938081 0.45392618 -0.29258832 0.3233195 -0.39687204 -0.33114558 -0.035894558 0.43045372 0.017823886 -0.4138309 0.93530744 -0.08061968 -0.34445602 -0.06574726 0.2805183 -0.43468726 0.108622484 0.48277757 -0.4652852 0.55632573 -1.0038902 0.14653645 0.17835392 0.37003765 -0.04521855 0.92733955 -0.34421232 0.1627503 -0.44439346 0.4281579 0.5310683 -0.8785577 -0.1358287 -0.7787224 -1.343002 0.22501299 0.12925695 0.08123128 0.911367 0.8796345 0.30409467 -0.11232577 -0.115546666 1.0244969 0.20275523 -1.1212829 0.09024245 0.2837895 -0.9496187 0.041051455 -0.1966257 0.29739937 -0.72887117 -0.61459357 0.6482525 -0.013978872 -0.7803588 -0.48075312 0.73279876 -1.4124341 0.11499619
2850 0.2290232 0.20857924 -0.43455005 -0.7869677 0.8625286 -0.08927856 0.18276583 -0.87478495 -0.258925 -1.4100199 0.50177646 0.40814945 -0.46960643 -0.17226696 0.6086814 -0.83991283 -0.23738043 0.11936632 -0.19372316 -0.3831989 -0.2585144 0.27144614 -0.48376516 0.046573058 0.95479804 -0.7397035 -0.17542793 0.25560308 0.27485564 -0.78325254 0.3558885 -0.22000486 -0.18165882 0.07181212 0.7976222 0.15915419 0.8630525 -0.037941955 -0.7369218 0.15351446 0.3222711 1.1023281 -0.2214033 1.4133824 0.8202314 0.13218088 0.67299753 -0.9876928 0.36421865 -0.098757364 0.3890176 0.43605146 0.1658597 -0.39699802 1.1470256 -0.46554062 -0.33391806 0.0961716 -0.008379241 0.8689157 -0.023052868 -0.4481843 -0.82758516 0.15398343
757 0.03234276 -0.47940406 -0.9673526 0.5700443 1.1541756 -0.27667633 -0.1287064 0.30212256 0.78919995 -0.28042808 0.08916239 -0.2937977 0.5502022 -0.1254964 0.19304164 -1.0232809 1.24577 -0.52561456 0.062021855 0.33579278 -0.089524075 0.6210756 0.41855833 -0.5352332 -0.50344074 1.0110177 -0.07720538 -0.24072573 -1.077753 -0.03899322 0.055385865 0.91879916 0.98469406 -1.0050542 0.5931068 0.046396866 0.333461 -0.7728902 0.16116157 0.07049338 1.626248 0.3757339 0.41575122 1.0017167 -0.111231 0.5568367 0.79634345 -0.44657847 -0.3394841 1.3100822 -0.34433076 0.13970311 -0.34023324 -0.09902449 -0.78882515 0.009262991 0.20492567 0.404215 0.019216264 0.29872605 -0.64016575 0.97359395 0.5913808 -0.3140919
873 -0.05248904 -0.0888775 0.46131316 0.4319401 0.7964878 -0.8474389 0.099863134 -0.8745466 0.40943658 -0.062939465 -0.36880013 0.27251104 1.7909886 0.14004526 -0.00791798 -0.25986055 0.8918832 -0.30258372 0.59105754 0.17038906 -0.3486023 0.33393213 -0.5637127 -0.3557211 0.3738245 -0.38349617 0.04423534 0.7008303 0.588246 1.341011 0.69007236 0.25588694 -1.1628901 0.0052958033 0.70090324 0.053881805 0.25206086 -0.36573645 -0.9632913 0.4539991 0.09346813 0.471113 0.78051174 -0.33494186 0.57170755 0.015161065 0.23065202 -1.2838551 -0.07686305 -0.59926295 -0.5619397 -0.6579577 -0.21338522 -0.8064806 -0.13922617 -0.16454647 -0.55091643 0.7480614 0.4800712 0.3606808 -0.6895473 0.42688796 -0.79500526 0.07777806
1378 -0.038271807 0.6431715 0.12601477 0.19636478 0.67422646 -0.53480625 -0.6296499 0.51468015 -1.1412628 -1.2106535 -0.4951388 1.2262717 0.38674784 -0.43425703 -0.11244857 -0.10975661 0.41356584 0.43426722 -0.69943404 0.22007969 0.5573474 -0.65527415 -0.14273375 -1.4697107 0.36153632 0.51946545 -0.61379945 0.6640155 0.65154606 0.12340555 0.8071533 0.38111052 -0.1517728 0.76965725 -0.47223538 0.27403203 0.6013872 -0.7604762 0.07194176 0.14294668 0.72572166 0.428107 0.3974943 -0.046219915 0.65237147 0.587143 -0.3927312 0.25207028 0.22142215 0.63180965 -0.9237321 -0.80584335 -0.72537136 -0.8259101 0.5185829 0.20035076 -1.359007 0.75422865 0.13580993 -0.10858213 -0.26855135 0.20826387 -0.8687001 0.4632761
1881 0.5696182 -0.12758183 -0.31539962 -0.016814271 1.3044456 -0.065737076 0.11917146 -0.8403538 -0.30361322 -1.0841495 0.31384203 -0.4966209 0.6975632 -0.010963533 0.86281747 -1.36683 0.27471727 0.19914381 -0.52339983 1.1752657 0.8577165 0.27752948 -0.55852115 0.4474187 -0.7308072 1.2141759 0.7412135 -0.38822094 -0.69078594 0.1164571 -0.19988094 -0.13158011 0.5127406 -0.58860046 0.5862616 0.19314839 0.14358166 -0.92712337 -0.9879064 -0.16871503 0.780002 0.84612656 -0.11260479 -0.7828124 0.6372218 0.36616418 1.1850306 -0.14013892 0.067236945 -1.1625041 0.96042895 -0.8354869 0.4714281 -0.41537318 0.71011436 0.73171306 0.18747205 -0.26921833 0.47616506 0.50875765 0.31096572 0.014194474 0.22506282 -0.34890282
2542 0.39981684 0.9573838 -0.43913653 1.1244226 0.92638683 -0.11705501 0.792337 0.3855743 -0.20657353 -0.2874969 -0.85916436 -0.32133678 -0.100323305 0.28800976 -0.49111 -0.9423988 1.2924865 0.028553007 0.98417956 -0.03336657 -0.57273674 -0.0639819 -0.88236785 -0.74242955 -0.1489397 -0.20408708 0.5586907 -0.13806568 -0.3733605 -0.043383818 -0.40532172 -0.52799225 0.5420175 1.2783496 -0.023418773 -0.025320346 0.9876525 0.10735096 -0.5226934 0.52812254 0.34127018 1.1858935 0.30503586 -0.22124998 0.04086798 0.65390545 0.18988657 0.21733172 -0.64407873 1.2641096 -0.37410247 0.47994998 -0.370942 0.1022975 -0.6498566 -0.28509906 0.06314457 0.29981092 0.7638615 0.159397 -0.50863224 -0.38659787 -0.122823596 -0.090596996
2009 0.099076666 -0.44956806 -0.6022635 0.6947791 1.0489168 0.60016835 0.91048616 -0.94492966 0.6305317 -1.4686505 0.61667776 0.822239 0.6151428 0.4954348 -0.21745816 -0.84068084 0.25496522 -0.6515234 0.6626251 0.61615604 -0.26057455 -0.33633238 -0.46749657 -1.0067981 -0.7879559 0.9457812 -0.9902263 -0.36529613 -0.07857288 0.59382457 -0.1709643 -1.0275474 -0.60597223 0.3716031 -0.3271253 0.16590562 -0.36842206 -0.6956217 -1.2011849 -0.24583161 0.22536105 0.49380806 1.2899128 0.13933635 -0.34640962 1.0368971 0.56088895 0.13584478 -0.5805211 0.053428672 0.28120357 -0.14463337 -1.2752693 -0.70826864 0.026739255 0.07943416 -0.07202444 -0.39632857 1.0782931 0.48605764 0.19390172 -0.7021888 -0.55478793 0.5348202
4883 -0.8634563 0.13509297 -0.41576275 0.7145944 -0.0007118185 -1.309774 0.74633986 -0.22744834 -0.220107 -0.69208187 0.17360248 -0.24357611 -1.3589832 -0.1950553 0.664837 -0.5790044 0.19664197 -0.36412132 -0.4105795 0.099987574 -0.16985169 -0.21732454 -0.2176393 0.16062078 -0.02656075 0.296825 0.5106704 0.4581143 -0.44904438 0.58393294 -0.119361386 -0.35752037 1.335707 0.9067253 0.39988095 -0.07104113 0.004969033 -0.23586199 -0.33146167 0.6449246 -0.45332327 0.04182952 1.2293727 -0.029834203 0.7690704 0.88393646 0.21414593 -1.0335306 -0.30889767 -0.62601376 -0.6924644 -0.37650594 -0.1762881 0.007631893 -0.14720999 0.28239802 0.64838177 0.46854556 0.319362 2.0738409 0.0077905157 0.16150145 -1.313724 0.16842929
2708 0.4334815 0.19376941 -0.69827795 0.09071621 0.101615235 -0.093493864 0.28789395 0.4713457 -0.49137035 -0.5161698 0.25635394 -0.22134753 -0.24678834 0.231638 -0.2803369 -0.8569214 -0.047409642 -0.36281848 -0.18766536 0.06116242 -0.47627723 -0.015651781 -0.29046994 0.54365146 0.18703496 -0.8026629 -0.07303178 0.6626348 0.8344864 -0.6967204 -0.17050396 -0.20413417 0.12287779 0.19283567 1.3109674 -0.06973823 1.2241147 0.09887896 -0.86835796 0.3042776 0.27341178 0.46266186 0.3038635 2.273678 0.40291202 0.027734311 0.18157156 -0.39653617 -0.37271577 -0.13179485 0.7593549 -0.102482 -0.14365084 -0.36347768 1.2411757 0.002480763 0.5389744 0.21154791 0.22747433 0.8075609 -0.40903977 -0.30907932 -1.2580006 0.41058946
3287 0.7712871 -1.2620507 -0.049070947 -0.0640742 1.0290979 -0.30791408 0.41559267 -0.05383421 -0.046776153 -0.5499541 -1.0915654 -0.68237734 0.9640337 0.4211343 0.21720518 -0.6401295 -0.8150186 0.09589631 0.70106167 0.42901716 -0.58323646 -0.23100199 0.7190293 -0.573421 0.0719137 0.42231366 0.50155926 0.45657527 0.51185584 -0.47068974 -0.19840133 -0.80451345 0.52539736 0.10029848 0.18004388 -0.35400504 0.3507854 -0.86159045 -0.64901507 0.28559488 -0.80414444 0.64480346 0.813569 0.59814084 1.0412321 0.6923724 1.2190872 -0.5622227 0.70025265 -0.56752765 0.5284664 0.55777174 -0.26981184 -0.25090227 -0.82390404 0.21738917 0.9942581 0.13436764 0.07668361 -0.7271139 -0.5661527 0.77648675 -0.76095927 0.25185916
870 1.3592298 -0.00462401 0.40451568 1.0412998 0.552171 -1.0966759 1.4802675 -0.24146026 -0.23782495 -0.38628802 1.0668682 -0.26411664 -0.45974088 -0.10911449 0.44797516 0.28568605 0.55508924 0.19131288 -0.8018138 -0.20434606 0.65955335 -0.72554046 0.50750303 -1.5454284 -0.08788737 0.65621984 -0.28835413 -0.6159517 -0.9547632 0.57997364 -0.52916265 -0.5364615 0.66085744 0.46784908 0.53242904 -0.28859332 0.028283196 -0.1499812 0.19523033 -0.23194262 0.13079572 0.14160709 0.8980664 -0.37161323 0.011248155 0.8036788 0.26794755 -0.05509055 -0.1497029 -0.2628227 0.7062292 -0.88858867 -1.0688733 -0.18711631 -0.95083237 -0.2357908 -0.68863124 0.6004584 -0.5901503 0.21364339 -0.24312459 -0.3666578 -1.0527993 -0.29902488
1192 0.18001318 0.1612106 -0.7347354 0.5685058 -0.45343232 -0.23810443 -0.11013769 0.28470334 0.46166256 0.28831887 -0.9322846 -0.04351356 0.17044826 0.6819731 0.14510578 -0.6111963 -0.00015072129 0.598099 0.67788976 0.87154734 0.59081477 -0.9055013 -0.30279136 0.2882204 -1.1257153 -0.68681324 0.45299858 -0.30525672 0.73185116 -0.37552327 -0.4670078 -1.0581951 0.11397475 0.5900298 1.1176155 0.6071929 1.3467374 -0.8722525 0.26345932 -0.320776 0.8201316 0.88001966 0.17346731 0.23266964 0.16238968 0.6872199 0.986503 -0.43445623 -0.13439931 0.023987357 0.17133215 -0.64684314 -0.08750074 0.34907365 0.8978527 -0.3555373 -1.2583467 0.50563663 1.4482487 -0.056779083 -0.0241026 0.57680273 -0.7221322 -0.42619973
1276 0.8912404 -0.22184458 -0.39611098 0.9825592 1.312152 0.3241086 0.87772447 0.61220664 -0.2094546 0.5570106 -0.007877198 -0.06599043 -1.1232799 0.82760143 0.3665521 -0.01647262 0.3522967 0.3229605 -0.4729389 0.30409512 1.0352988 -0.49704012 1.0194939 -0.22068559 0.17512359 -0.7329674 -0.580577 -0.8243763 -0.10898132 0.36019576 -0.2668291 0.023722714 -0.28163067 0.490746 0.9451366 -1.096805 -0.9792292 -0.7815148 -1.3587773 -0.25831893 0.74774724 0.15352064 0.81162506 0.09812383 -0.27499276 -0.29578447 0.9313286 -0.6621697 0.83462775 0.3112564 -1.0540353 0.009841222 -0.3745917 -0.5771351 0.2793851 0.64831877 0.20458964 0.8579298 -0.7508721 -0.1393993 -0.4761305 0.20690429 -1.1323618 -0.47189468
2352 0.21531992 0.6444104 -0.29299495 1.1475897 0.15183508 -0.45927125 1.4068995 0.67033696 -0.20884064 -0.5276845 -0.73578906 -0.8799078 0.4515271 -0.36315912 0.18360823 -0.86773294 1.0750474 0.6653708 0.8925597 -0.1122455 -0.82580894 -1.0174019 -0.40816155 -0.61873263 0.1888927 -0.42524704 0.1963061 -0.7186643 -0.90139693 -0.23056458 -0.6553516 0.05786065 0.16457553 0.99517506 0.18517683 -0.2747358 1.031297 -0.1376223 -0.5039842 0.3300332 -0.19773856 1.0478228 -0.20186314 0.22822055 -0.09324466 -0.04146272 0.10185248 -0.06388102 -0.19904982 1.5395532 -0.1531056 0.59258485 -0.04670049 0.30605102 -0.3631198 -0.11229753 -0.35328344 0.6032262 -0.1324838 1.109556 -0.53583926 -0.031887013 -0.80045396 -0.10950325
4591 0.3665429 0.39079985 -0.626537 -0.5601481 0.48442838 -0.6803737 -0.836637 0.20502976 -0.5236926 -0.45975462 0.08317241 -0.7221422 0.38332808 0.29513088 0.4768987 -0.58744645 0.26046443 0.6106946 0.49766925 1.0840023 -0.53908724 -0.44367954 0.3810608 -0.12984732 -0.3003424 -0.12689872 -0.7169147 0.6896838 -0.019290313 -0.076266274 -0.7167834 -0.5308914 0.2982609 0.7729295 1.2631099 -0.8362865 -0.36030143 0.04178932 -0.9839317 -0.6395178 -0.29039595 0.25199485 -0.23395605 -0.446766 0.8889313 -0.53909 0.0805713 -0.39058506 -1.0185127 0.29373416 -1.4676856 -0.3099037 0.08781937 0.7983224 0.022465765 -0.71993554 -0.4679442 -0.45960477 0.3952969 0.27574956 0.2533909 0.11964184 -0.6354082 0.18650495
4852 0.75251657 -0.044823993 -0.47640198 0.40953094 -0.401141 -0.757247 0.16221468 0.27667847 -0.38405764 -0.6111152 -0.4881755 -0.52502626 0.38349476 -0.38833043 0.65852994 -1.6427436 0.30688938 1.5582587 0.4402521 0.4983661 0.2561723 -0.7674981 -0.36443493 0.06018711 0.5923379 -0.09640534 0.18038994 -0.16123544 -0.908045 0.1518499 0.71171945 -0.486968 0.6282263 -0.4143372 1.6571758 0.4442919 -0.15949185 0.49333 0.17010282 -0.21470435 0.48659036 0.8122739 0.5314743 0.25925753 -0.7865245 0.21811143 0.12070503 0.033193626 -0.33961147 -0.34355432 -0.3654376 -1.1128979 -1.080327 0.14818686 1.4219502 0.2103165 0.0034899465 1.5270934 -0.6785057 -0.4471421 0.7586009 0.005091481 -0.63161284 0.40584317
3464 0.65914124 -0.11984015 -0.62531906 0.13717371 0.3597708 -0.8473178 1.2317848 1.1449721 -0.71307683 -0.536454 -0.30444053 -0.15104805 -0.8313276 0.42802313 -1.178026 -0.020269802 0.36719456 0.06314214 0.31824946 0.30184406 -0.18207073 -0.25847536 -0.4222279 0.91561264 0.6129957 0.42056218 -1.5923765 -0.09175389 0.5469302 -0.57077074 -0.2858458 -0.60627884 0.33122987 -0.96595764 0.76009387 -0.66872543 0.40704808 -0.95738417 -0.6512635 -1.0397599 0.48561308 0.21559075 -0.33953008 -0.13170573 -0.20121431 0.6610813 0.06017397 0.15238044 -1.292998 0.5804688 -0.31200284 -0.72704196 0.30026186 1.0480293 0.46974212 -0.21429032 0.2550322 0.8052254 -0.7987714 -0.4498289 -0.2675238 0.4768192 -0.87948483 0.32569727
4749 -0.2227636 -0.54081446 -0.23279315 -0.001296584 0.40618157 -0.20411402 1.5697265 0.573635 -0.051559515 0.33150756 0.49717528 -0.20852704 -0.4196909 -0.7931743 0.84801054 -0.53401023 0.2330855 -0.5327997 0.28558436 0.073189445 0.069901146 -0.22846785 -0.122459345 -0.238311 -0.74056154 -0.8814008 -0.22111085 -0.7146461 0.51857525 -0.043453433 0.8187754 0.030552259 0.69317496 0.7357846 0.54578257 -0.13711901 -0.5107685 -0.26437604 -0.0196262 0.44991815 0.13590927 1.2487369 0.09133525 0.54597837 0.9380519 0.17391981 0.7481756 -1.1818382 -1.1231749 0.9671842 -0.087890975 -0.081740126 0.22953999 -0.5454928 -0.21226989 -0.153739 -0.5759918 1.0103931 0.49519968 -0.87396926 -0.6461735 -0.10625417 -0.12925239 -0.5782455
826 0.90623456 -0.5291212 -0.1715146 0.5649475 1.1343625 -0.5190156 0.35354266 0.3705089 -0.10560258 -0.061905317 -1.4853381 -0.84225714 1.4799532 -0.25569928 0.4539544 -1.1217366 -0.19296892 -0.07998408 0.6882036 -0.4833093 -0.67099696 0.3068796 1.2387767 0.08060972 0.2826106 0.24837945 0.26922482 0.61208946 0.4840734 0.25686854 -0.48054102 -0.80629694 -0.013872916 0.37916657 -0.13739167 -0.1189399 0.25453147 -1.0063334 -0.6628367 0.24900065 -0.38144645 0.35461318 1.6289074 0.8978072 0.38781223 1.2417891 1.072124 -1.2161654 0.67293304 -0.31335938 0.6502214 0.1106239 0.31806636 0.0760974 -0.2894887 -0.2783634 0.9852875 0.432297 0.36042085 -0.36531588 -0.037978362 1.158877 -0.31929323 0.44338283
2314 0.46665803 -0.26082024 -0.020834917 0.32192326 -0.2833417 -1.3333869 -0.7061904 1.1373445 0.17780668 -0.65640575 0.1753676 -0.7389263 -0.74753135 -0.3675562 -0.37286213 -0.20326896 0.14511211 -0.530651 -0.016131634 0.47958767 -0.31530195 -0.05186104 -0.68980896 -0.40629545 0.3037938 -1.0425947 -0.18966806 -1.6899934 0.09165922 0.36334404 -0.003886452 0.13765444 0.27090064 -0.6083625 -1.0123116 0.3151609 -0.38124105 -0.49925864 -0.24245791 0.30091813 0.1863459 0.88487047 0.7558517 -0.0029500495 1.0595372 0.44803238 0.568569 -1.5955814 0.10244609 -0.2286987 -0.6162661 -0.2860508 -0.5234395 -0.20982984 0.57500017 -0.14802511 0.63606375 0.6835594 -0.84469813 0.358114 -0.07703578 0.5726702 -1.0831717 0.40494916
1632 0.1450446 -0.34324068 -1.3459059 -0.85170317 -0.67521346 0.9168495 0.4692325 -1.045404 -1.1077875 -0.3654435 -0.3133418 -0.5915653 -0.6302529 -0.7684616 1.0785599 -0.19397199 1.1563061 -0.005620935 0.67642903 1.1922778 -0.18410335 0.06574049 1.1134526 -0.10364911 -0.7259922 0.08142972 0.2065512 0.8828857 0.26651964 -0.11933315 0.27535346 -0.15805076 0.5072933 -0.2400009 0.5968583 -0.22823437 0.57888436 0.04369292 -0.49115363 -0.479848 -0.4444752 0.5685318 1.0299213 0.9412604 0.71179986 1.1851681 0.28141898 -0.9726006 0.61621475 0.22212535 -0.3354087 -1.1266818 -0.46273357 0.09280874 -1.0308996 0.6249567 -0.6885618 -0.2066064 0.4354094 0.9491484 0.23136628 0.10532209 -2.2298043 -0.30714008
3536 0.09666066 0.48063457 0.1938541 0.2068662 0.8166938 -0.9508352 0.029986827 -0.17140043 -0.32422742 -0.71269846 -0.3354864 0.510451 -1.0681669 0.5179762 0.8893479 -0.67214054 0.22848006 0.35883874 -0.5786948 0.4320706 -0.74639404 -1.4226102 0.5882379 -0.58287376 -0.19654863 1.035664 -0.5407416 -0.23795627 -0.46879387 0.5148353 0.031970385 -0.22511125 -1.3356422 -0.31817952 -0.33031794 0.491217 0.02659816 -0.21934547 -0.6135306 -0.25584498 -0.40246716 0.75219786 0.25670713 1.110062 1.2100558 1.3655491 -0.16857313 -1.8313515 -0.14940315 0.0051419386 -0.95740104 -0.48961073 0.52021813 -0.44638154 -0.54566497 -0.4590778 -0.19535841 0.34372896 0.67529726 0.27670804 0.3050237 -0.6882983 -0.45747292 0.3092474
4679 0.47797012 1.0429744 -0.93226093 0.8504907 0.86922264 -0.051532216 -0.0034942336 -0.33999366 0.8216895 -0.22374257 -0.25132585 -0.82101417 -0.13658707 0.5461502 0.30827692 -0.1274525 0.874127 -0.7447313 -0.6855949 0.19576614 -0.33309892 -0.4252435 0.005424395 -0.45297855 0.83449113 -0.13064738 -0.16012226 -0.4088182 -0.9174434 -0.14398071 0.63022226 -0.00047285977 -0.5105919 0.22481246 -0.18844338 -0.60270685 0.071602926 0.3037315 -1.1761029 0.6199667 0.49448317 0.41544133 1.4122883 0.7490766 -0.16004479 1.4909267 -0.10762578 -0.060398564 0.6141791 -1.2053071 0.14714715 -0.22922298 0.6315816 0.30860344 0.8367327 0.009066385 -0.32568634 0.35453245 -0.37218127 0.6893382 -0.76564884 1.2891301 -1.3295829 0.53915066
3631 1.2823262 0.22086363 -0.53159827 1.3072414 -0.052828543 -0.2785688 0.5477042 -0.88375884 -0.04869205 -1.0719899 -0.0033037036 -0.6203432 -0.50757885 0.32582814 -0.12809134 -0.74937934 0.31228197 0.22739744 -0.17433323 0.15384054 -0.62475264 0.11709307 -0.20389646 0.12666391 -0.7590761 0.24866197 -0.30935758 -0.49614483 -0.38648155 -0.26975712 -0.3591706 0.021135643 0.41649315 0.2571064 0.9161949 -0.5553712 -0.48561075 -1.0349134 -0.7191188 1.7353747 -0.93635213 0.41766778 -0.73863655 -0.4460794 0.28350362 0.6413435 -0.18967512 -1.0787786 -0.6435615 0.15434495 -1.1582171 -0.9885767 1.1735969 -0.361043 0.12819842 -0.52543265 -1.3255252 0.15917692 -0.027878968 0.16282798 0.6130995 0.03749653 0.30032545 0.4149638
3445 1.3180902 -0.24785899 -0.31280825 0.74138373 -0.53710246 -0.33954906 0.5367153 -1.438205 -1.399478 -0.79203266 -0.015563781 -0.77780694 -0.7926252 -0.43142244 -0.06981599 -0.8324542 -0.16099386 -0.12078685 -0.40639696 0.71203315 -0.4215515 1.5295359 0.45703718 -1.3665227 -0.35583034 0.46002382 -0.17503104 0.19926248 -0.9948722 -0.43440494 -0.20244928 -0.2425287 -0.19913971 0.20071855 0.6333047 0.4760386 0.25294083 -1.0453429 -0.15106364 0.058818217 -0.09929961 0.8485659 -0.4805897 0.6086197 -0.29634863 1.2155252 1.3265212 -0.8409875 -0.6166437 -0.8230563 0.33387196 0.19381152 0.6120079 0.32593733 -0.5589146 0.027585385 0.39466977 -0.3776592 0.23293847 -0.4894036 -0.2406292 0.41723618 0.089630105 -0.42458993
3260 0.612649 0.41408327 -0.84671104 0.8268917 0.0751779 -0.05292247 -0.6496153 -0.42298806 -0.8808487 -0.11653646 0.55993515 -0.7019655 0.4453942 -0.13562831 0.09422591 0.32927287 0.18453845 -0.90282106 -0.09564626 -0.21783336 0.8171278 0.2952773 0.09103873 0.26307794 0.7984089 0.5857763 0.11606233 -0.36818695 -0.062088206 0.9322697 0.33956417 -0.8792214 0.4234336 0.2805075 0.9215429 -0.0465615 0.7182484 -1.1307211 -1.7008318 0.41006476 0.21503912 0.60535586 -0.1989683 -0.11610682 0.31034398 -0.045098655 0.9688378 -1.3430468 -0.52915347 -0.3855285 -0.6295765 -0.84813577 -0.321483 -0.08571813 -0.10645736 0.97038794 -0.7522186 0.39538014 0.87169635 -0.8844749 -0.61831546 -0.5350868 0.45518726 0.7666898
1009 -0.10985583 -0.44121405 -0.8130236 0.61957204 0.28260377 -0.95615727 -0.06858492 -0.9648568 -0.11755798 -0.22144252 -0.9506364 0.17712766 0.04529191 0.15342896 0.37263668 0.3970679 0.10820339 -1.2818588 -0.24014619 0.657161 0.21258618 0.34769022 0.3892557 -0.8029649 -0.23341265 0.39848572 -0.5710124 0.63163716 0.5707914 -0.7292083 0.45428213 -0.546345 -0.656625 0.28442806 0.08619896 0.3711106 0.5710744 -1.0177113 -0.9883423 0.17179012 1.1973199 0.7534738 1.0902888 0.45539597 -0.65255874 -0.13511138 0.19027585 -0.4190702 -0.8532699 -0.39641252 -0.99334395 0.4412032 0.105472736 0.79513615 0.47399095 -0.90062296 0.17865415 0.39170074 0.2536743 -0.64785534 0.62293684 -0.23954313 0.026032992 -0.17281044
1062 1.2425853 0.115696035 -0.2936455 0.38119295 0.8237389 -0.623625 -0.2787522 0.26471284 -0.87375647 -0.770937 -0.08188993 1.1694711 0.12677065 0.21528307 -0.7403592 -0.29683828 0.036679022 -0.9112985 -0.019627402 -0.010447742 0.18447146 -0.017564818 0.09466923 0.12329403 0.8391136 -0.4941627 0.016008658 -0.7756162 -0.67908335 -0.89239484 -0.8553815 -0.513365 0.26018614 1.1558046 0.47583228 -0.80200297 -0.05613086 -0.85468405 -0.4346753 0.6451181 0.880667 0.007925149 -0.15305258 0.63583034 0.877616 0.4868031 1.4386505 -0.42697954 0.12293605 -0.8197721 -0.612468 -0.031037927 -0.93868077 -0.14514083 0.078979544 -0.13916785 -0.46673247 0.031107789 0.2617271 -0.20913976 0.63755524 0.18057227 -0.109750025 1.2731549
2269 0.5955114 0.45943397 -0.28591123 1.1516926 0.3999147 -1.106177 -0.01076299 -1.155397 0.3917927 -0.4972404 0.22666338 -1.3652669 1.0099603 0.944085 -0.25749022 -1.0475461 -0.0007527165 0.41003 0.18881488 0.31731242 0.20865688 -0.63345236 -0.03182961 -0.6631118 -0.7087769 -0.28909746 0.4106924 -0.9418044 -0.12294596 0.06515277 1.6746051 -0.69484586 0.17828493 -0.65827847 0.08739101 1.0839965 -0.19005221 -0.15406337 -0.6032751 0.9946066 0.25974256 -0.23850349 0.12461531 0.4357913 0.4594089 0.55746996 0.8674746 0.2945861 0.12281819 1.0347267 -0.42747897 -0.38993922 -1.3472301 -0.5013274 -0.4589236 -0.33922648 -0.12916172 -0.06312147 0.3986428 0.034310453 0.23639739 0.35682896 -0.47570613 0.51646364
2044 0.36425984 1.0949336 0.4192228 0.031452265 1.0040475 -1.1203079 0.46699607 -0.18295969 -0.6265424 -0.3265464 0.9887139 -1.5387151 -1.0402395 -0.37747043 -0.66454554 -0.75139236 0.37711492 -0.0678646 -0.2240106 0.09754499 -0.72114205 0.54344517 -0.1420501 0.7725081 -0.8287943 0.08654301 0.14166299 -0.2428432 0.30050892 0.28067616 -0.25118673 -0.45162454 -0.016198734 -0.16622677 1.2680631 -0.009186811 0.39064518 -1.0185627 1.5352706 -0.3812014 0.41132164 0.70419145 -0.17587295 -0.32555798 0.539775 -0.4846373 0.4489323 -0.35773245 0.046764307 -0.21249448 -1.0563235 -0.6126405 -0.50999254 -0.18034676 0.031675525 -0.6233137 0.16524988 0.7626368 0.1337914 0.28926322 -1.3936194 -0.028439054 -0.6901382 0.14635704
3758 1.6824428 1.0509577 0.44063702 0.47941926 0.99681324 -1.4349986 0.5178105 0.23848185 -0.18883838 -0.24315178 -0.21865243 0.5406843 -0.05160423 0.2834717 0.19067414 -0.099152386 0.43235636 0.479812 0.738806 0.17559527 0.4685939 -0.37983963 -0.37430203 -0.55028117 -0.95195067 3.7129164e-05 -0.7064453 0.21365888 -0.6026583 -0.12804796 0.30408105 -0.42005166 0.38546678 -0.092329524 0.35466 -0.8110363 0.40113354 -0.54119045 0.40952176 0.2724851 1.4225086 0.20394275 -0.22157249 -0.02210698 -0.16581792 0.17851432 1.4989814 -1.0671198 0.72688895 0.44910967 -0.60287774 0.34376413 -0.17645052 -0.6690372 0.46045157 0.7216049 0.40073922 0.83737 -1.0209867 0.79567075 0.64426786 0.49365318 -0.105303325 0.7413201
428 0.7840644 -0.4353684 -0.13668515 -0.13332847 -0.16057976 -1.6354392 -0.33701742 -0.9021493 -0.709725 -0.37868547 -0.33697465 -0.64060456 0.33270222 -0.47948655 0.9885262 -0.7511007 -0.7447324 0.464184 0.14266565 -0.81723 0.5460297 -0.71628594 0.42078096 -0.41812342 -0.029731719 -1.6408408 -0.7715438 0.07894217 -0.99792033 -0.39436302 -0.4819853 -0.13454026 1.1172645 0.43279618 0.30150414 -0.719533 1.2048485 0.12672985 0.3960372 0.7584405 0.15642665 0.1446091 0.3156748 0.3086372 -0.02909299 1.2027974 0.37392232 -0.17738475 -0.65871835 -0.86380106 -0.88670033 -0.1958757 0.08522828 -0.6398626 0.9330479 0.06207152 -0.9682037 -0.22205845 0.27205846 0.29967523 -1.5350161 0.11577376 -1.0648324 -0.14523785
2296 0.54282296 0.44168532 -0.5506582 0.8342514 0.7842581 -0.34274828 0.29991096 -0.6526396 0.5630672 0.552579 0.51507646 -0.5723883 0.36780983 0.49262866 -0.3258906 -0.79381883 -0.2606097 0.6486676 1.2111586 1.0729975 -0.018292433 0.4272465 -0.25661328 -1.1343329 0.3932051 1.573909 -0.14245544 0.7826297 -0.27596185 0.6440406 -0.28534532 0.61125875 0.6543058 -0.54661345 0.5155411 0.20621146 -0.1678659 -0.5654421 -0.9063913 -0.17918459 0.5917102 0.55352676 0.37822613 0.16601235 -0.1850051 0.07021414 -0.6768916 -1.1675724 -0.44730842 0.7742078 -0.039751656 -0.382387 -0.3365625 0.0079317875 0.95167977 0.028345829 -0.060128797 0.6048856 0.17445026 -1.174841 -0.2592454 -0.9107483 -0.67141163 -0.6730781
2444 -0.57647073 -1.9540712 -1.6575823 0.65298325 1.1232731 -0.57236916 0.75874525 -1.33948 -0.76183546 -0.08637015 -0.3313907 -0.15720944 0.35434592 0.088020466 -0.25011358 -1.0372703 -0.18187311 0.7124328 0.44444004 0.857881 -0.13254589 0.5609865 0.20731212 -0.34423086 -0.18565327 0.22281636 -0.15573926 -0.071672715 0.36966214 0.6613915 -0.98096293 0.6196619 0.3815302 0.72325766 -0.0499396 -0.3290432 0.9642972 -0.717441 0.59830624 0.15537073 0.0662641 -0.3726814 0.23246564 0.43028036 -0.25073245 1.1780984 -0.00392879 -0.84027785 -0.17853807 0.06391278 -0.86039025 -0.021758543 -0.26740748 0.082366325 0.27115154 0.24515624 -0.03290179 -0.45487204 -0.2058225 -0.26918754 0.14833726 -0.19960384 -1.0277715 -1.0877626
1462 -0.15266454 0.4712009 -0.7843108 0.31159183 0.33315945 -0.5737442 -0.2947164 -0.24901712 0.80741465 -0.9711628 -0.38510665 0.45512274 0.8675069 -0.24189296 -0.013399813 -0.5895518 0.48449332 -0.010666284 -0.57915413 0.8391957 0.4145835 -0.24733014 0.23173401 -1.3382792 -0.2109128 0.81206775 -0.44932187 -0.460563 0.8667281 -0.05631921 -1.2634048 0.9429508 -0.526741 -0.30705535 0.7135277 -0.42338118 0.77079487 -0.529584 -1.0502023 0.9198316 -0.6898948 0.14745426 0.57884055 -0.38299534 0.69897115 0.3874343 0.8015913 -0.42722684 0.69663835 -0.14106531 0.18805452 -0.10565009 0.26872924 -0.60629255 0.8548324 -0.4145745 -0.76189345 1.6714773 -0.70593935 0.7892431 0.57515895 0.75365776 -0.14506201 0.28810623
2879 0.6062481 -0.0037672827 -0.12285462 0.6416349 -0.049256004 0.1917529 0.18585417 -1.2065531 -0.07379319 -0.5699821 0.64915323 0.1668973 0.5604248 0.0023855707 1.6316416 -0.25545317 0.073438175 0.7136518 1.3537624 0.92067754 0.43973795 0.24699417 0.014562358 -1.031219 -0.4913801 -0.40690792 -0.9253742 -0.5861561 0.41084522 -0.6693247 -0.6598282 0.17388001 1.3488159 -0.08380366 -0.39443806 0.14268814 -0.4629928 -0.05190684 -0.7634834 0.17281055 0.7969897 1.3296055 0.08159462 -0.3686806 0.23780191 0.17472218 -0.20750631 -1.0340548 0.6214696 -0.379452 -0.06563076 -0.23112366 -0.7865695 0.082535036 0.47466654 0.31522185 -0.7747795 0.29603082 -0.47407186 -0.16553304 -0.5016223 0.66321427 -0.21154357 1.232168
1538 0.27494898 0.5168571 1.0825567 0.3437513 -0.14285667 -0.765392 0.19679707 -0.2945268 0.30199143 -0.7251477 0.53461725 -0.89096075 -0.48497665 -0.36647674 0.40203393 -0.3267212 0.14605431 -0.74423474 -0.30744788 1.2594293 1.0318191 1.2233143 0.17421578 -1.4158553 -0.7881943 -0.2605993 0.42688107 0.5605738 -0.28504568 0.055169184 0.5193109 -1.4777985 0.76553136 -0.36834905 0.42858198 0.00984193 0.3967274 -1.3019001 1.3103181 0.5611188 0.6222693 1.5212466 0.26664117 0.061335046 0.27839094 -0.040354062 0.58849597 -0.25744545 -0.159537 -0.7968299 -0.99564 0.03920897 0.33400536 -0.24993658 0.20837094 0.52533305 0.5929101 1.2742804 0.58495474 -0.06687801 -0.8159848 0.2577747 -0.62977916 -0.81922835
596 1.1972537 0.041938297 0.2953464 0.2947348 0.98017013 -1.0565826 0.6679428 -0.38536024 -0.1594499 -0.91254485 -0.3032585 -0.2653085 0.53803676 1.3239826 0.25288713 0.17365538 -0.27880675 -0.71989405 -0.92391753 0.6459939 0.005601517 -0.24440867 0.23871988 0.3409634 -0.9672686 -0.30927166 0.077389166 -0.38395724 -0.10817974 0.87965524 -0.028785367 -0.6240398 0.809914 0.5781649 -0.2447416 -0.5626956 0.38107225 -0.027887711 -0.4456999 0.24717864 1.1572096 0.21894746 -1.2072138 1.1094348 0.622775 0.8235774 0.42461157 -0.20960715 -0.5914383 -0.47917348 -0.42869326 -0.84244037 -0.5147602 0.4508177 0.20863387 -0.49654648 0.738455 0.4346958 0.2751766 0.120919555 0.012658091 -0.08699139 -0.26999214 -1.3786099
2067 0.12110404 -0.2819848 -0.5762421 0.6455068 0.48747787 -1.2740088 0.15838315 -0.8635158 -0.7421136 -0.94993126 0.44906542 -0.3335597 0.10457415 0.4463371 0.50974256 -1.548551 0.04788836 -1.2261977 0.60278255 -0.3350451 -0.15641013 1.0838209 -0.099938385 -0.99119 -0.4708617 -0.10069001 -0.87001914 0.8852188 0.02599314 1.1282991 0.29847166 -0.5556496 1.0809238 -0.075567394 0.52635384 -0.9223874 0.45660877 0.10011456 0.26783285 -0.35076088 1.0513381 0.9697321 -0.10264366 -0.2545975 -0.21294525 -0.871265 2.1538937 0.33017483 0.25474665 -0.03518407 0.53433317 -0.65596694 -0.36773962 -0.9003003 0.3002941 -0.029275337 -0.9004378 -0.0059430716 -0.6990298 -0.04959084 -0.018392762 -0.074030675 0.14576754 -0.58165675
499 2.4662385 0.85713524 -0.081797004 0.6009108 0.16348222 0.025020538 0.5634041 -0.13022949 -1.3097227 -0.673404 -0.46525246 -0.6354156 -0.4322684 -0.11193424 0.55437326 -0.5309273 0.5134874 0.16757965 0.26119283 -0.10877427 -0.83199495 -0.14675096 0.47201565 -1.0787088 0.45217687 -0.8003777 -1.2124616 -0.047761768 0.92820907 0.07173444 0.43962944 -0.37498814 0.27860892 -0.11786063 -0.17369539 0.12701797 0.037523873 0.71929765 -0.14800487 0.7839307 0.65228486 0.99190885 0.5828289 0.27512646 0.2788464 0.7519401 -0.06913862 -0.2635223 0.20863035 0.15709633 -0.25116292 -0.5730773 -0.5484549 0.22988313 0.26682606 0.093994215 0.86427855 -0.6671896 0.06870652 0.6170737 -0.37715265 -0.66815907 -0.6084632 -0.7842575
1599 0.45772907 -1.0471032 0.78928345 0.7614049 0.029003182 -0.56242716 -0.65048355 -0.27980086 0.882007 -1.7915123 0.123309426 0.27309206 0.16160607 -0.4149086 0.319258 -0.79491323 0.5769806 0.5158099 0.058091335 0.06091632 -0.4081839 -0.46961483 -0.8510697 -0.12012701 0.10846288 1.4026262 0.13617864 0.3033062 0.55949134 0.36598766 0.2340452 0.5764146 0.6612864 0.04253182 -0.25405326 0.23569903 0.5626083 -0.6605564 -0.2096935 -0.21795945 0.9926545 0.87656695 0.5412742 0.116829574 1.2040222 0.52507466 0.33917725 -0.29729974 0.3086694 -0.52892447 -1.1102778 -0.80255955 0.10012886 -0.20045857 0.75761354 -1.5640265 1.2082785 0.35669267 0.41984504 0.3714982 -0.23315041 -0.098965615 -0.8327705 -0.9782606
10 0.10854786 -0.2622765 -0.062646836 0.06482738 0.72892946 -0.86265254 -0.1604029 -0.07996666 -0.62105364 -1.2262673 -0.52760035 0.09234223 0.44050807 -0.6757514 0.11236729 -1.9603466 0.4314934 -0.1782091 -0.7233879 -0.18297534 0.7990196 0.47743955 -0.73233765 0.16880898 -0.6713687 -0.0072728703 0.28064957 -0.1927761 -0.22886631 -0.46240202 0.49927175 -0.10287275 0.6842242 -0.25242737 0.9181719 -0.48759454 -0.97483605 -1.229391 -1.1416239 0.03244713 0.13366973 1.0552593 -0.85172766 -1.2444144 0.66490465 1.0326874 0.40377557 0.590014 0.06266026 -1.0967274 0.33930403 -1.4086353 0.13287008 0.19337398 0.06226203 -0.0035205875 0.8531223 -0.0069928574 0.05606564 0.21750474 0.2390816 -0.7764766 -0.39614353 -0.5706527
3799 0.310686 0.4149575 0.09183162 -0.2039347 0.021041755 -1.2110232 0.055709727 0.30398536 0.037577115 -2.0914123 1.17743 -0.21138182 1.7777492 -0.11164919 0.12323598 0.21509808 -0.57763267 0.35985735 0.33501592 0.57167274 0.030407226 -0.60651404 0.7085295 -0.9455647 0.37423146 -0.10998562 -0.63566136 -0.8477241 -0.082415015 0.94805473 1.0822804 -0.58050656 0.48767436 -0.18692137 1.2951348 -0.58966684 0.7726251 0.11268057 0.31699744 0.021073284 0.39513588 0.8029921 1.0551939 -0.38502333 0.1822579 0.54832715 0.5132119 0.53735846 1.068429 -0.29661623 -0.98370844 -0.7422192 0.60284364 -0.018425558 0.3443596 -0.82984024 -0.13522373 0.20036241 -0.24572895 0.8305122 -0.28995484 0.37614083 -0.35024416 0.24699007
983 0.30278346 0.6984189 -0.16636631 -0.14696546 0.84788036 -0.12889071 0.40559822 0.4967272 -0.282574 -1.1963949 -0.3490378 -0.20255998 -0.3607454 -0.22904208 0.20360245 -0.5855193 0.51070553 0.16775513 1.0701451 0.12367457 0.7253321 0.71050954 -0.97126734 -0.81805074 0.0961465 0.09249025 -1.2207326 -0.11043932 -0.09052514 0.54599595 -0.38118723 -0.18341942 0.7390382 1.5255153 -0.6426366 -0.97906584 0.4052581 -0.0817754 -0.7558811 -0.20935448 0.35455757 0.11462823 1.1981672 -0.59444034 -0.628324 1.8974601 0.34234825 0.26421052 -0.108038954 0.2978346 0.32770988 0.020554919 0.9241646 0.058259122 0.65498674 -0.42921844 0.16562974 0.6004004 0.25385207 -0.6397726 -0.17081028 0.47779292 -0.8771069 -0.25349754
3976 -0.18478176 -0.08387052 -0.25583944 0.5572552 0.91336286 0.5086292 0.4328351 -0.7072781 -0.42309156 0.1726614 0.9780696 0.76282007 0.1748002 0.25145355 0.18003882 -0.6897925 0.9121575 0.025234368 -0.2390831 0.7624761 -0.67427045 -0.5614441 0.40715232 0.44149628 -0.21342434 -0.97632736 -0.8057607 0.31862625 0.01788345 0.7009912 0.4321116 0.9833057 -0.10089971 0.61553085 1.0371026 0.07773527 -0.001518749 -0.8606243 0.21666704 -0.9250153 0.41487896 0.87066245 -0.61406094 0.12946884 -0.34602 1.0658768 0.9531125 -0.17258477 0.082716554 0.043816067 -0.6380391 -0.21465857 0.2687947 -0.5627926 0.17740649 -0.32205063 0.78420746 -0.404527 0.29935583 -0.86761683 -0.62102354 -0.20440772 -1.2414832 0.85918325
4321 0.1552455 0.7437837 0.16251527 0.4476723 0.70143574 -0.71181387 -0.3948079 -0.7155533 -0.9986857 -0.46296313 -0.26274073 0.358112 0.37152615 -0.09525289 -0.09214852 -1.378248 0.56267864 -0.08518222 -0.33501792 1.2627702 -0.66618764 -0.24454749 -0.5318761 -0.86207956 -0.40032315 0.99337304 0.031480756 -0.11795969 -0.049460553 -0.40569428 0.86649513 0.91151917 0.74650687 0.6199784 0.4170272 -0.5420119 1.085339 -1.1339724 0.7414258 -1.7836798 0.5868395 0.698949 0.2690551 0.46878278 -0.47209302 0.798241 -0.16541259 -0.079014584 -0.007459024 0.83879894 0.053210527 0.366402 -0.014470335 0.16181931 0.09816956 1.1238277 -0.20960274 -0.011559929 -0.6740333 0.13723981 -0.5399057 -0.088486984 0.08005809 0.5491345
968 0.59406364 -0.6129785 0.1519684 0.75736594 0.15339527 0.06252687 -0.35502365 -0.028068183 -0.19600388 -1.0754387 0.6787942 -1.2295426 0.5306897 -0.14453153 -0.2526253 -0.6271257 0.65467876 0.08024377 0.55855817 0.7316607 -0.35173035 -0.3080013 0.031424638 0.41387922 -0.27693698 0.47469366 0.39201787 -0.26486814 -0.06616175 -0.56919503 -0.1990227 -0.1833142 -1.1330148 -0.17635818 0.3415376 -1.5280684 0.6825258 -0.059036274 0.19456401 -0.0054554325 0.47785112 -0.42462125 0.8244441 0.73032504 -0.10722114 0.6496662 0.15671787 0.11226419 -0.77000237 0.20596431 -0.037916098 -0.43797246 0.13488394 -0.9060596 0.77805483 0.22996686 -0.08664944 1.2438617 -0.66046643 0.5026913 -0.25542375 1.0272714 -0.9547513 -0.28763297
3191 0.33429983 -0.6047929 -0.4465155 0.48681426 1.4073466 -0.3953999 0.21063036 -0.5933829 1.0419421 -0.54769224 1.0086104 -0.475725 0.19247757 0.06499744 -0.44042367 -1.2714093 1.1831129 -0.45835376 0.13071851 1.180916 -0.6116139 0.3135723 0.6041411 0.74715513 -0.4744169 0.01590804 0.15087707 -0.2638656 1.9597161 0.2113655 0.03656403 -0.23324108 -0.44310793 0.96298426 1.0807605 -1.906687 -0.2073795 0.45981178 0.13257919 0.06539941 0.7282393 0.5451019 0.8049323 0.55655104 -0.11803145 0.6618684 0.8459003 0.34835514 -0.046713833 1.1537693 0.12337254 -0.32992622 -0.00710942 -0.2756828 0.83308953 0.21100318 -0.24907468 0.3102537 -0.54058385 1.2489274 0.3458855 0.3117508 -0.71590614 0.28434896
1390 0.7027035 0.02285649 0.011072108 0.6737846 -0.17836119 -0.0454513 -0.022575358 0.015316465 -0.30513042 -0.994398 0.07844993 -0.7496441 0.548281 0.22104512 0.03028547 -0.66569495 0.18763791 0.3047365 0.1377211 0.51155907 0.54559696 -0.49725747 -1.7335212 0.3821523 0.6186881 0.8682181 -0.072324544 -0.42260966 -0.08559126 0.8382457 -0.7832039 -0.09831249 0.35058597 -0.60911477 -0.21914726 -0.17554808 0.14164774 -1.2722248 -0.12003485 -0.13043782 1.3735172 0.85812116 -0.24179313 0.95656633 0.00882051 0.351953 0.68633157 -0.87812126 1.1216938 0.4396982 -1.1918255 -0.6526238 0.25051656 -0.1482132 0.2432472 0.36410138 -0.3773468 -0.07294994 0.62548167 0.5625415 -0.34514022 1.0394235 -1.0711563 -0.35162777
3128 0.5576502 -0.10491937 -0.41071352 0.77986884 0.8346025 -0.5063295 -0.36657155 -0.5183214 0.014214167 -0.827425 -0.01774732 -1.026319 -0.3905542 -0.8232761 1.1362355 -0.45305073 -0.76918894 -0.14220509 -0.10148785 1.303559 -0.0056656995 -1.120707 -0.08336116 -0.37533578 0.760944 0.27113432 -0.5195303 0.64273196 -0.4517722 -0.109213844 -0.24346338 -0.42378536 -0.15049551 -0.31525865 -0.29706296 0.6845482 0.1589407 -1.1770117 -0.5163003 -0.50277925 0.8790432 0.6153321 1.4381441 -0.68060356 -0.13763581 -0.64791214 1.4583068 0.6003612 1.0219167 0.24093613 -0.33647987 -0.91382384 -0.2859819 0.030211883 1.6299481 1.0862045 -0.98241985 0.8571792 0.3751553 0.90621084 -0.05607789 0.4423385 0.08803933 -0.2150215
2052 1.2705336 -0.28911912 0.41019863 1.5385488 1.3683096 -1.0920037 0.50631624 -0.056392644 -0.25576645 -1.0098554 0.030038947 -0.7511912 -0.76102537 1.2188858 -0.8398156 -1.063105 -0.35441026 -0.03975607 -0.67238474 0.19350965 -1.2709335 0.4132641 1.0721835 -0.30084053 0.22007814 0.684297 -1.1607774 0.7750665 -0.410381 0.33244023 0.41992116 -0.17953229 1.337794 -0.13636674 0.9867852 0.68241996 0.727553 -0.36979738 -0.93593603 0.4182695 0.37446073 0.14552091 0.1461376 -0.63615173 -0.33431777 -0.033941004 0.46086678 -0.7141318 0.40190744 -0.6521864 -0.16018693 0.26869014 -0.17329444 -0.14053638 0.7882275 -0.73327965 1.4349964 0.17970873 0.1413208 -0.2960112 0.41717303 -0.6891935 -0.24068013 -0.34365252
2234 1.2397505 -0.81943715 -0.29839793 -0.26724064 0.4663817 -0.60057384 0.02102667 -0.30363932 0.06354876 -1.4100535 -0.18470617 -1.1930342 0.10805631 -0.20190547 -0.6703354 -1.5073893 0.38840967 0.21059194 0.51697105 0.8641608 -0.48071903 0.94457024 -0.56807244 -1.143918 0.31726518 -0.36618155 0.1475495 -0.12696104 -0.7696158 0.35547546 0.40503147 1.2859201 0.9680195 -0.46521115 0.006711751 0.49442407 -0.37152046 -0.009876796 0.29640168 -0.12659997 0.49903363 -0.08175035 1.612277 0.25180605 -0.74255157 0.061522607 -0.22464569 -1.1369153 -0.84220445 -0.67930156 -0.03740535 -0.67955065 -0.5311767 -0.2546316 0.4799431 0.783807 0.08577518 -0.58365977 0.772361 0.14211702 -0.7060914 0.6411066 -1.2006568 -0.10506367
2673 -0.3868093 -0.8241683 -1.06659 -0.17480788 0.60135686 0.004231668 -0.2195555 0.31868026 1.0427575 -0.013853398 0.036478918 -0.87398005 0.27051726 -1.0730176 -0.13007054 -1.2014666 0.86876696 -0.3274691 -0.3767476 0.44021142 0.4255032 0.6546255 1.0012429 -0.8358093 0.66072315 -0.22106464 0.1120355 -0.059253074 0.036029637 -0.069239266 0.30023748 0.54391307 0.9601484 -0.12431429 1.0517808 0.078779586 0.27711946 -0.23699565 -0.47755814 -0.24663365 1.4051628 0.30000484 0.43192238 0.31204948 0.36051774 0.9679378 -0.01050461 -0.4783957 -0.87307256 0.49252814 0.15791787 0.02902896 -0.6300776 -0.046123903 -0.64836234 0.101120405 0.35860145 -0.33037323 -0.3273879 -0.09715876 -0.9011532 0.9882262 -0.41232058 0.35733536
711 1.115289 -0.11615207 -0.97490525 -0.54622877 0.47125438 -1.0920347 0.0792037 -0.4707001 0.57101357 -1.4559714 0.4461268 -1.1546991 1.2831217 -0.02223398 0.25834766 -0.74352336 0.6341001 0.543174 0.28341278 0.5106988 -0.6004949 0.5873889 0.7356384 1.2631489 -0.06616978 0.36714596 0.45062637 0.349271 0.53645724 0.2077209 0.2950196 1.2086418 1.0178277 0.33590126 -0.11557039 0.5884793 -0.41678816 -0.55949897 -0.2755072 0.2934206 0.17563023 0.94285166 0.4535679 0.28110376 -0.23539975 -0.02221028 0.40090704 0.5908233 0.7794292 0.19288439 -0.11581103 -0.34982246 -0.7931285 -1.4809028 -0.39948785 -0.052027877 -1.0456574 1.0630462 0.31682968 -0.2083916 0.09794588 -0.32280034 -1.6071181 -0.26140335
2746 0.8663867 0.02884767 -0.19043033 -0.465055 0.14643775 -0.27391592 1.3837466 -0.020095306 -0.39046952 -0.43615344 0.8716951 0.6527457 0.6539473 1.1697403 -0.46387002 -1.3299367 -0.38985384 1.0121645 0.18816504 0.17577492 1.1462309 -0.070770286 0.36941734 0.37762704 1.0479239 0.2572317 0.649556 -0.0039071706 0.018769557 0.27412856 0.14554243 -0.21980417 0.42854786 0.30600977 0.26048633 -1.0423626 -0.43386957 0.25945362 0.4608382 -0.4415963 0.57328016 1.9725839 0.49220446 0.41288805 0.07626494 0.48983344 0.9055083 -0.0503237 -0.3615016 0.8748212 -0.83917785 -0.6214358 -0.31471974 0.5107328 0.2649586 -0.007811539 -1.1568549 1.0481611 0.71372736 -0.8289615 -1.041173 -0.20137936 -1.2153375 0.58747405
3847 0.006976606 -0.27476126 -0.22930814 0.12700033 0.092768624 0.12349645 0.9721702 -0.85084176 -1.1600409 -0.26508614 0.23765096 0.8533071 0.4683083 0.5025239 -0.22861205 0.0940949 0.6003763 1.0342176 0.668061 0.45355555 -0.96756214 -0.7046126 0.89178956 0.14487623 -0.5547642 -0.094838634 -0.15542282 -0.6528301 -0.1141768 0.33247998 1.3088759 0.39538768 -0.034662195 -0.026056714 0.48460108 0.024216093 -0.4139672 -0.84265596 -0.72655773 -0.58620614 0.9507412 1.2662526 0.30626938 -0.027670566 0.08241731 0.9159511 0.6258847 -0.11664601 0.12538195 0.014385635 -0.15028441 0.28519106 0.61246103 -0.40342098 0.108651906 -0.42833272 0.7035341 -0.17733347 0.43994248 -0.59279025 0.07739808 -0.60355395 -2.0655181 1.1109545
4616 0.7850432 0.3260362 -0.23551026 0.13719721 -0.6057561 0.87819666 -0.19701593 -1.0446845 0.20628038 -0.08417976 0.3859876 -0.00844342 0.15182388 -0.8821008 -0.18006241 -0.6080098 -0.2858031 -0.28174335 0.30367485 1.3759671 0.25719696 -1.4512275 -0.24363382 -0.7296543 1.2239317 -0.41677982 0.77187246 -0.09164795 0.24282572 -0.7201855 0.19357888 -0.541186 -0.6779753 -0.4144458 1.338408 -0.15952262 0.20817776 -1.0769302 -0.1166964 0.0029338188 0.6922802 0.4281885 -0.19221637 0.08865103 0.30597568 1.6121883 0.8860621 -1.1404461 -0.056028016 -0.96729875 -0.7497959 -0.4856429 -1.3020993 0.36308664 0.002189664 0.31508943 0.16032623 0.47457576 0.3310828 0.23045114 0.5099037 -0.09113975 -0.28850514 0.86018056
3021 0.91084254 -0.9401134 -0.047397215 0.70766866 0.46610963 -0.06586857 -0.4539967 -1.0395916 -0.14430699 0.20441304 0.3049486 -0.11340551 -0.20321088 -0.33279583 2.0090456 -0.75628996 0.79105055 -0.50265235 0.6484663 -0.30648333 -0.77620685 -0.5325144 -0.40189353 0.17177689 -0.1119772 0.05803563 -0.75425 -0.39197534 0.05625577 0.17243065 -0.87429136 -0.962073 0.03239967 -0.5726143 0.50714904 -0.40665475 1.0084467 -1.0094049 0.15906607 0.18779123 0.4360813 0.6295537 0.6477448 -0.67195827 0.9455359 0.54031765 0.52380836 0.89396983 -0.29074228 -0.6584815 -1.3235316 -0.03341756 0.24672686 -0.20098387 0.0734831 -1.0271605 0.34940988 0.92601246 -0.21639164 0.22056368 -0.56409794 -0.26518178 -0.09534897 1.2439644
4467 0.82356507 0.24755219 -0.78021497 1.0366831 0.7581172 -0.42106497 0.11694547 -0.96709234 0.22958316 0.16562638 0.38516343 -0.9550711 -0.7242429 -0.93047297 -1.0235221 0.060199797 0.6888244 -0.9213452 0.48700577 -0.26374424 -0.122058846 -0.2143319 0.19865209 -0.47885734 0.12568523 0.033498388 -0.3837113 0.3051613 -0.13564286 0.89219177 -0.42004704 0.19387715 1.5358244 -0.07073022 -0.14364542 0.051598307 1.410597 -0.37774774 0.87869173 -0.65247416 0.3023131 0.58478326 -0.1871653 1.4498272 -0.6222999 0.8880016 1.2976984 0.13117893 -0.9695289 -0.34485078 -0.57902026 -1.3060689 0.49240074 0.37423182 -0.15696669 0.47455567 0.04911023 0.90390605 0.24448161 0.676912 0.5694568 0.09077364 -0.23907715 1.3433789
1282 0.8301149 -0.554968 -1.3896958 -0.8232694 0.02320275 -0.13298365 0.5990687 -0.40942043 -0.42929947 0.16720095 0.5568205 0.1274944 -0.06988873 0.8261332 0.14967892 -0.5140862 0.82092535 -0.37105954 -0.24908774 -0.39398757 -0.37417594 -0.7196949 0.22725642 -0.2604345 0.35535535 0.75659513 -0.7159669 -0.7186489 0.12969 0.21473354 0.28266415 -0.21210524 0.47281557 -0.021413153 0.45476127 -0.1909448 -0.3021634 -0.55751306 -0.45926148 -0.29214036 0.6397633 0.39883545 0.5461659 -0.013964613 0.47261018 0.7687633 0.13131385 -0.27595323 -0.4908325 -0.41602227 -1.2203102 -1.1965059 -0.2379084 -0.7028412 1.2339501 -0.6560852 -0.50861 0.87332374 0.41383246 0.5310188 0.7687432 0.08799201 0.66746676 0.26051858
2278 0.30499783 -0.07006565 -0.91558415 0.5247313 -0.15219483 -0.57681423 -0.73160815 -0.017990895 0.47979945 -0.88537747 -0.18563247 -1.1445798 0.2590104 -1.1961315 0.440523 0.61022204 0.16924994 0.36212677 1.3000982 1.0813472 -0.13292006 -1.293593 -0.37378928 -0.91021967 -0.10416999 0.14750208 -0.3731694 0.25692615 -0.91774786 0.2114327 0.0052649956 0.21905883 -0.43737403 0.08538074 0.056910716 0.6704298 0.7144428 -0.2653476 -1.4790559 -0.69624364 -0.17187409 0.5667335 0.9947598 1.1252896 -0.14794585 0.36215064 0.25546765 -0.2333736 -0.42363107 -0.91736 -0.025636356 -0.17337814 0.078618094 -0.29295015 0.032387946 -0.21271141 -0.0035469607 0.69576544 -0.9351815 -0.98708594 -0.6116 -0.25747302 -0.30289313 0.7730401
324 0.6007418 -0.44495818 -0.4941388 0.3951437 0.14815073 0.49761102 0.25463587 -0.106919274 0.6985833 -0.24588314 0.86021674 -0.36071426 0.75748795 -0.58760977 -0.45460665 -1.2944213 0.118893705 1.2165966 0.9106824 0.4769843 0.02810161 0.07266036 0.1968056 -1.0169274 -0.64252716 0.505551 -1.327672 -0.64974385 -0.733428 0.59175956 -0.20572467 -0.61812764 0.10561844 0.7240153 -0.119360246 -0.7338084 1.1091838 0.023455784 -1.2639784 0.041092183 -0.007662156 1.3124559 -0.36506164 0.3381573 0.12047832 0.091803886 -0.053541683 -0.8596589 0.15969889 -0.4148652 -1.1558993 0.43505117 0.1603734 -0.16760853 0.5977536 -0.871271 -0.21663913 -0.024846343 1.5392442 0.8770612 -0.41379747 0.11159735 -0.049538143 0.026342118
1023 0.18534052 0.45566258 -1.0941641 0.75232416 -0.26478806 -0.38539976 -0.7281412 0.17097597 -0.89525753 -0.44190636 0.62263393 -0.51334774 -0.14323437 -0.43930548 0.84394354 0.3573841 0.009534734 -0.14976753 -0.5250018 -0.1582785 0.5426589 0.34661034 -0.11501202 -0.33268747 0.7228947 0.21788912 -0.08521618 -0.40412894 -0.04000478 0.24937828 0.20377862 -0.98699313 -0.1737987 0.10477663 0.9954676 0.033044674 1.2132326 -0.49018577 -1.558359 0.13422824 0.3344623 1.3464622 -0.4225229 -0.046465747 0.027372789 0.50958 0.7536728 -0.55596924 -0.33637595 0.3187057 -0.5629653 -0.46345055 0.43594673 -0.20748898 -0.6196144 0.9201374 -0.41312626 0.7837951 0.894023 -0.8145548 -0.3918602 -0.17005602 0.06543862 1.0381722
1959 0.25334355 0.1776953 0.43446994 0.1311381 -0.3405415 -0.33444843 1.3026068 0.7631792 0.88698024 -0.039860934 -0.013874239 -0.95706725 -0.07328925 0.2935215 0.25629127 -1.1738007 -0.13618366 0.13390003 -0.20170122 0.4020802 -0.21290743 -0.94599664 -0.40513673 -0.6683401 -0.37391794 -0.045865193 -1.0406865 0.07014674 0.95261604 -0.032716814 0.5747265 -0.8892666 -0.37067807 -0.050975237 -0.6211047 -0.3422624 0.6873353 -0.69096255 -1.687701 -0.11041849 -0.5741928 0.8822042 -0.57002276 -0.9686316 -0.12196421 0.7792921 0.6899058 -1.2401158 -0.6168169 -0.30792063 -0.27086565 -0.18648474 -0.9975967 -0.5428138 0.7324032 0.06516677 -0.26611337 0.91524154 -0.18793358 -0.21629007 -0.26386264 -0.14840344 0.44231853 0.7585209
293 0.7328377 -0.13348843 -1.1391528 -0.25646877 0.06369774 -0.09730501 0.50146526 -0.52387524 -0.2160074 -0.9294433 0.34244126 0.07613937 -0.21465823 0.35300443 0.5962917 -0.69154215 0.3318876 0.58071977 -0.24915612 0.25917226 0.3975707 0.31591573 -0.23435825 -1.1377767 -1.3726175 0.5046495 -0.0050313645 0.5273796 0.48809215 1.0809668 0.033780225 0.8787217 -0.3219227 0.33242348 -0.6638227 -0.30464765 0.9168681 0.28967687 -0.9578893 0.1838328 0.36438856 1.3509593 0.07507412 0.04971047 -0.573438 0.9577466 2.5183647 -0.4912514 -0.6454031 -0.7520096 0.91416895 0.10223466 0.16981041 0.25858647 -0.61814326 0.4872588 -0.5459458 0.5038963 -0.48974162 0.08655235 -0.8655119 1.0152946 0.026694063 0.2115847
1532 1.1313127 -1.2113956 -1.173648 0.5168113 -0.10348121 -1.1378986 0.61069256 -0.9667602 -0.46110493 0.31265485 0.38315934 0.68937916 0.5232469 0.12788893 -0.39409584 -1.4986078 0.45085245 -0.8091885 0.5770936 0.5103728 -0.0055990736 -0.44901353 -0.3996656 -0.009676474 -0.92512035 1.4959929 -0.7535029 1.3508 0.2757821 -0.60327524 -0.762168 -1.2559383 0.46125484 0.82972133 0.7058564 -0.35162762 0.037279706 0.0058951634 -0.054412927 -0.0443044 0.48681763 1.0982996 0.22072981 0.7003216 1.178232 0.73084366 0.16417658 -0.75443834 0.49349293 0.65000504 0.005620822 -0.37547427 -0.70459443 0.09995096 -0.374108 0.24062657 -0.08933883 -0.8227928 -0.4594743 0.9292987 -0.9985326 0.28571403 -0.05804338 -0.2795528
593 0.48701048 0.38163587 -0.08300669 0.6240444 0.42413995 -0.35070345 -0.15752093 0.011528005 -0.12082113 0.21291554 0.23568884 0.8433019 -0.33119985 -1.3179673 -1.0042433 -0.765466 -0.34435228 -0.4629856 -0.14845835 0.900073 -0.4029106 -0.86646867 -0.30447656 -0.20123823 0.4547318 0.68767375 0.948176 -0.9026703 -0.26465794 -0.9405484 -1.0989877 -0.5117225 -0.17597848 0.6781869 0.8951554 -0.14874424 0.4047357 -0.8249017 -0.25725028 -0.2421532 0.84134156 0.5226209 0.24281235 -0.047368996 0.5822439 0.9084369 0.40540123 -0.55595535 0.52573323 -0.43909737 -0.57981265 0.102744006 -0.50713986 0.32927316 0.39775926 0.19490758 -0.28980038 0.9056696 0.8216778 -0.14363526 0.74675035 -0.23661532 -0.27344033 0.8161643
146 -0.5698596 0.13471077 -0.32309368 -0.0004848011 0.60648715 -0.3828975 -1.1122975 0.3568616 0.10290869 -0.88461787 0.7394868 -0.19906205 0.2898769 0.56452703 0.5251029 -0.32561767 0.7896825 0.14059474 0.70041454 0.2637984 -0.30643067 1.0818228 0.61737317 -0.8210764 -1.1703243 0.63387877 -1.2163312 0.4524816 0.5634265 -1.039155 -0.66539085 -0.95064294 0.35168105 0.8063915 0.71691185 0.7183443 -0.34064215 -0.91152835 -0.5109494 -0.3662544 0.7407824 0.5999759 0.07221076 0.39600256 1.7605076 0.68444383 0.22689153 -0.91374743 -1.532602 -0.94530386 -0.038667273 -0.66963553 -1.3283169 -0.121873565 -0.7850853 0.26428512 0.58299524 -0.16086352 -0.39038956 0.089461446 -0.16416104 -0.92504025 -0.72754794 0.50912577
2596 1.395254 0.3764184 -0.47427145 0.9052341 0.32303652 -0.27163655 -0.72658485 -0.045019012 0.36866054 0.04988049 0.033123855 -0.020835899 0.943826 0.13081263 0.6772552 0.38297522 0.28755385 -0.83583933 0.36733383 0.23236491 0.16256396 0.47700894 -0.20016234 0.14993466 1.277267 1.0656432 -0.20349719 0.5024299 0.4912937 0.12043073 0.1295423 -0.4992608 0.84102356 -0.5262945 0.3302017 -0.21013294 0.92005754 -1.0159026 -1.8498961 0.62251616 0.2889823 1.0401565 0.38866383 0.20136636 0.91722244 -0.020229388 0.6805974 -0.7848619 0.40758368 -0.6764715 0.397907 -1.2350062 -0.62910885 0.35124347 -0.1391283 1.4926301 -0.61504436 0.85831237 0.572431 -0.4591598 -0.894551 -0.61867934 -0.071332306 0.22037134
3119 0.21301372 0.16041708 0.57317364 1.4548069 -0.28908867 -0.0026853543 -0.57032055 -0.642858 -0.22920232 -0.44660404 0.3504005 -0.38042566 1.2070601 0.7036514 0.46712452 -1.6945994 -0.587774 -0.1909908 0.38818875 0.9808838 -0.4998963 -0.92702144 0.44430876 0.25598952 0.81512266 0.41426042 -0.4527819 -0.61578774 1.1998876 0.110197164 -0.596479 0.14071557 0.7651251 -0.37368426 0.52948135 0.27246577 0.30064818 -0.7347278 -0.5435564 -0.18490995 1.0867916 1.4128304 0.08830084 -0.3855236 0.54353136 0.28427356 0.35880652 0.6833287 -0.122874536 1.2014575 0.08271009 0.41241476 0.49066836 -0.78367925 0.5511559 0.46888503 1.0677242 0.3137055 -0.7406536 0.123585984 -0.36330473 0.57551044 -1.2776794 -0.81170815
4455 0.37741765 0.5319137 -0.23299505 0.25662532 0.43534896 -0.6842882 -0.047635287 -0.02387288 0.41732192 -0.62943375 0.51685935 0.110585794 -0.43334296 0.5140271 0.033075202 -0.8437223 -0.23496369 1.0589057 0.33867678 0.4891487 -1.4089985 0.891478 1.0671253 0.19717099 -0.23377877 -0.20298225 0.62676996 -0.28035286 0.9074803 0.12349239 -0.67886555 -0.02967693 -0.4354035 0.8847947 0.22493386 0.08087383 0.44132045 -1.6452316 -0.90568364 0.48052996 0.74460995 1.0981221 -0.12839784 0.61279297 0.0630587 0.22006547 -0.1693299 0.22918227 0.76101 -0.5486672 -1.4133903 -0.96202743 -0.09257379 0.4787784 0.41106257 -0.050695352 1.1016394 0.55356485 -0.3500587 -0.92506665 -2.0021617 -1.0220306 -0.22320542 0.49605265
215 0.16666678 -0.80625796 0.07169511 1.0244255 0.16792858 -0.046148445 0.96305597 -0.38958034 -0.67404324 -0.58053297 0.67199767 -1.492498 0.9463926 -0.11205807 -1.3202202 -0.31459633 1.2186661 -0.1899627 -0.0030086346 0.26181886 1.190694 0.83936554 -0.4780324 -0.51151663 -0.37409878 0.29604423 -0.8810978 -0.54506326 2.0435774 -0.10047718 -0.8185016 -0.22108749 -0.2823254 0.050380882 0.7530344 -0.13669346 0.061944127 -0.2988245 -0.829247 -0.060003024 0.14335428 1.2571195 1.0258418 0.71662813 -0.370229 0.52977955 -0.002195363 -0.32264602 0.4223362 -0.17820905 -0.9054745 -0.20620057 -0.13142958 -0.14362073 0.1126368 -0.2377895 -0.64682335 0.2695683 -0.1794642 -0.28258315 0.8617337 -0.64543724 -0.19032648 -0.6629855
1573 0.89810675 -0.99763083 -0.50833905 -0.206212 -0.05577163 -1.0767616 1.449627 -1.1151888 -0.09815771 0.20631193 1.093371 -0.16260777 -0.33872792 -0.40682232 -0.5341421 -0.68221873 0.44393048 0.12971985 -0.005768397 -0.71195495 -0.10416871 0.3246715 0.17907423 -0.6144571 0.20022647 -0.15985183 -0.95263404 0.17752784 0.32029095 -0.23693241 0.27759525 0.48636097 0.7514466 -0.57919604 0.09851392 0.8916417 0.20519745 -1.0721803 -1.3360938 -0.82483417 -0.1573256 0.27561522 0.012995795 -0.5860368 0.23987933 1.447097 -0.14158155 0.48592803 0.1898997 0.29938692 -0.8229735 -0.06085119 0.24836525 -0.10825433 0.74435616 0.26716888 -0.8435444 1.4676826 0.999854 -0.014875812 -0.22048786 1.0071507 -0.394951 -0.21868667
4601 0.07559473 0.39286274 0.048263434 0.94436646 0.55206615 0.0017531106 0.030220732 0.13784681 0.35086423 0.43653554 1.1127263 0.018304443 0.3865674 0.5770877 -0.2633441 -0.8095315 -0.6462169 0.038641058 0.6216099 0.734117 0.9741059 0.82553566 -0.19972558 -1.2162995 0.08059915 0.6700262 -0.63020396 0.32859558 0.32026434 -0.15881465 -0.2239485 0.78219485 0.68054056 0.5486668 0.943796 0.80147916 0.23479386 -0.083808884 -0.6281821 0.17320539 -0.031718172 0.7903303 0.7984547 -0.07730644 0.007184836 0.7645237 -0.08057897 -1.3882109 -0.57370615 -0.28462103 -0.0202942 -0.9424431 -0.3525547 0.7889391 1.1283294 0.20085232 0.5821197 0.13457826 0.099103875 -0.5972046 -0.25220412 -0.72652805 -1.2118548 -1.0282476
4353 -0.701734 -1.8551309 -1.6478294 0.5635619 0.88968825 -0.91414076 0.8764333 -0.8330453 -1.1731644 -0.123074554 -0.37943214 -0.6342493 0.07600937 -0.022159752 0.37143323 -0.58406454 -0.35277438 0.2573192 -0.0781595 0.7148093 0.43254703 0.10540597 0.3611981 -0.1197605 -0.29204503 -0.11912406 0.06881781 -0.44438797 0.58728486 0.99612325 -0.60440344 1.0436858 -0.12868913 0.5816058 0.076241285 -0.2764333 1.3247546 -0.51744664 0.1298749 -0.25820342 0.101144314 0.0065551535 0.45076203 0.17456356 0.053261675 0.74123514 0.38230696 0.0131997755 0.09056071 -0.01933379 -0.8250533 0.1437334 -0.068225265 -0.20805687 0.38902012 0.061763197 -0.09233003 -0.40116996 0.08041104 -0.5149216 0.57193935 -1.0541222 -1.2835168 -0.5628033
1247 0.16716163 0.7083044 -0.62484 0.781088 -0.0015041375 -0.79465383 0.17859837 -0.32393324 -1.0273211 -0.18956716 1.1183407 -0.17391056 0.51098347 0.46324834 -0.39273655 -0.43416968 -0.638464 1.245944 -0.38018653 1.0164975 -0.24401884 0.20910275 -0.8957808 -0.31025225 -0.834308 -0.54066664 -0.6977934 -0.24910522 -1.1212279 -1.2204945 -0.63546777 -0.23836552 1.1351447 0.19828355 0.1604115 0.21421266 0.2572511 -0.8416991 -1.3499397 -0.15666077 0.5549833 0.22083084 -0.2794182 0.29916924 0.503806 0.3364949 -0.108625785 0.53696626 0.101337925 0.4947905 -1.4759223 -0.10352576 0.3123854 0.70472825 -0.008281686 1.0086403 -1.1330485 1.0483226 -0.657594 -0.051037684 0.3962223 -0.17398481 -0.2241042 -0.2390007
1667 -0.039328717 0.6806587 0.47287259 -0.39218876 0.52728206 0.3940915 0.98914444 0.70407516 0.2575726 -0.84865135 0.2187714 0.96887064 0.25875685 -0.08280454 0.13269408 -1.1072985 0.6506316 0.8275836 -0.53540707 0.44939306 -1.2132595 -1.0999581 0.5188829 -1.1333425 -0.2997577 -0.7652838 -0.28056872 -0.65536076 0.44159868 -0.65075105 1.0530604 -1.2008543 0.33453175 0.11188674 0.86888814 0.39319077 0.5385651 -0.52283555 -0.9808837 0.021183478 0.8162497 0.81094384 1.8544041 -0.56573486 0.5399199 0.0741842 0.85706687 -0.3423606 -0.23187926 -1.3903465 -0.16593316 -0.12338179 -0.11467915 -0.640046 -0.28666654 0.07262135 0.09147189 -0.03781177 -1.397435 -0.22350635 -0.56423444 -0.06722099 -0.21877308 -0.81642795
1005 -0.7432748 -0.62298435 -0.16436489 0.11320519 0.3542136 0.11509193 0.30841196 -0.19504984 0.35967103 -0.5022724 0.92002 -0.36347556 0.85022694 -0.62460846 -0.12271131 -0.031009257 0.90231603 0.7492313 0.059443273 0.67370975 -0.4552336 -0.4846082 0.736887 -0.63339496 0.9647522 0.16999815 -0.013480307 -0.66273874 -0.006899043 0.6021477 -0.12533908 -0.5699226 0.5153723 -0.8982309 -0.041885518 -0.43873325 1.2234533 -0.8946737 -1.1181552 0.4993874 0.46985936 0.097529516 -0.4937278 -0.21177332 0.53508157 0.7311696 1.0432374 -0.13493152 -1.2422798 -0.0033923113 0.18920822 0.04015545 -0.6252797 0.38109344 1.1536857 -0.1860202 -0.58074236 -0.7896195 -1.2724679 0.27102062 0.4094376 -0.09076468 -0.83210224 -0.3097778
1102 -0.45444223 -0.05231765 -0.32816273 1.0031648 0.6606869 -0.6972433 0.85988444 0.14582969 -0.28594127 -0.7872584 -0.63622814 1.0495398 -0.7191393 0.30771 -0.21748996 0.15764345 -0.022582399 1.3450363 0.16264676 0.81395686 0.19880135 -0.5511339 0.81170905 -1.0393156 0.6966199 0.25003377 -0.17986701 -0.41239396 -2.0639644 -1.007785 1.2897829 -0.14847814 0.5300388 -0.23020335 -0.08616247 0.98935694 0.2854997 -0.10943215 -1.2536896 0.13973011 1.1078345 0.38124606 -0.11664283 0.09937136 -0.66174567 0.6038021 0.32368582 0.52721614 -0.82816225 -0.47478324 -1.0150869 -0.02606369 -1.2592406 0.42939293 0.46735632 0.12122862 0.01270925 1.1432908 -0.2173939 0.18937841 -0.61994666 0.22586662 -1.3802773 0.636172
723 0.68424386 0.31984133 0.601684 0.7144821 0.73307437 0.22701943 0.18121734 -0.275582 -0.0801346 -1.9406478 0.41047642 1.0333222 -0.082945846 0.006654012 -0.17216696 -0.53175557 0.12027029 0.40743026 -0.05650517 0.28889605 -0.22480628 1.4968002 0.8823912 0.64844775 0.9877678 -0.17256124 -1.4024409 -0.32164347 0.06223278 -0.41000876 0.19291148 -0.0915613 0.6072737 0.61596996 -0.5030447 0.066850275 -0.10702594 -1.1139075 -0.13549027 0.22760291 1.1164045 -0.18376096 -0.4831492 -0.33324423 1.2243309 0.6102716 1.6037468 0.02073673 -0.980195 -1.2027361 -1.0177108 0.7043291 -0.77318007 0.0039274194 0.08062285 0.21119612 -0.894912 0.6093182 -0.6358779 0.016329968 -0.76665884 -0.18543378 -0.41095626 0.27196515
1736 0.22771151 -1.5150259 -0.7170614 1.2276046 0.4514024 -0.42214826 0.53269047 -1.1876583 0.24811862 0.17499232 0.28002456 0.9909234 -0.89423954 0.63002515 -0.44848523 -0.8381817 0.086300306 -0.11938631 0.5228813 -0.032109983 0.17627297 0.1700905 -0.049700644 -0.6294248 -0.37784535 0.15298507 -0.29389402 0.4846437 -0.20918484 -1.3659463 -0.53967094 0.7807723 0.65129876 0.5324992 0.033595823 -0.28858736 0.9624334 -0.6743796 -1.3681074 0.10475791 0.46013835 0.59949577 0.17432371 -0.6493691 -0.021521825 -0.86625767 0.9977769 -0.7816319 -0.6724515 -0.14356439 0.577419 -0.24316746 -0.6867652 0.8990083 0.37055886 -0.2558079 -0.6414007 0.32578638 -0.5620473 0.86551034 -0.9906596 0.48937675 -1.5404371 -0.91509503
1112 0.20103638 0.15548766 -1.104679 0.8219673 1.416011 -1.2673134 0.34130162 -1.2894355 0.74887407 -0.13780132 -0.98972434 0.031660423 0.16702428 -0.027809327 0.6163208 -0.21576765 0.22336724 0.5788322 0.39465046 0.9147235 0.6417149 -0.09501393 0.5964095 0.36859092 0.5570666 0.38077456 -0.7735147 -0.059617177 0.4452713 -1.4654415 -0.48033574 0.023473531 0.030715447 0.9148232 0.47561988 0.3780923 0.41692892 -0.73091644 -0.6009972 0.40466598 1.1423367 0.121659145 0.7704513 0.24887727 -0.01879727 -0.18658476 0.2196059 0.39027962 -1.0320394 -0.051080916 -0.2583546 0.3602882 -0.48163563 0.3147223 1.1228616 0.9297347 -0.51114625 0.9010723 -1.1199633 -0.3725516 0.005925932 -0.46564114 0.5292235 -1.047236
279 -0.028429516 -0.6780959 0.25587133 0.2553617 0.052636262 0.81057763 -0.6175313 -0.16034392 -0.20456879 -1.3388332 0.030957308 0.15318541 -0.54955256 -0.11649313 0.6188349 -1.1541151 0.9093919 -0.7857827 -0.07113134 1.3532058 -0.49756315 -0.7707771 1.3214722 -1.274195 -0.40191308 -0.88648856 -0.3915207 -0.020508133 0.45992783 -1.0948268 -0.5975448 -0.029562587 0.27271163 0.0022592302 -0.28267717 0.46046823 -0.97275996 -0.12151213 0.027128275 0.4317534 -0.57395464 1.8551676 0.17905924 -0.08919614 -0.26792318 1.2566103 0.400897 -0.74456733 -0.17405966 -0.120878614 -0.48183715 -0.20426808 -0.69720244 0.7646151 -0.23269092 -0.14563815 -0.052201174 0.6510494 0.17715192 -0.4498347 0.6498931 0.91241616 -1.118748 -0.016277015
78 0.18315712 0.7072029 -0.39070946 0.61109823 0.60335463 0.56306225 0.22918662 0.6962505 0.0027766419 -1.5173665 -0.7579753 -0.40705803 -0.46023875 0.18721433 -0.26869497 -0.7124149 0.8881854 0.2613462 0.7815036 0.1755841 0.181679 -0.1618476 -1.356648 -1.2266464 -0.032865714 -0.13957705 -0.11697247 -0.088697754 -0.15992147 0.16614474 -0.8871612 -0.39648923 0.44604632 1.4518234 -0.43928176 -0.37832522 0.7246767 0.24178013 -0.37309486 -0.07705285 0.6394796 0.70907265 0.74024147 -0.70197475 0.105761215 1.4200184 0.631576 0.51059246 -0.03496822 0.5223372 -0.5276235 0.2761721 -0.0066120885 -0.08560775 -0.04795104 -0.55678916 0.88771623 0.4724231 0.6249744 -0.6626131 -0.5484374 0.2543308 -0.8273632 -0.18674015
1186 0.7751276 -0.5095651 0.21116118 -0.11097125 0.79780865 0.13585699 0.1402559 -0.53576595 -0.04354644 -0.77271974 0.2435383 0.86565745 0.9221844 -1.814182 0.56815094 -0.5271315 0.8138535 1.3990374 0.16580607 0.19202876 0.23456773 -0.062014654 -0.2679941 -0.2973888 -1.0963298 -0.6562248 -0.71619254 0.48350683 0.23187548 0.17873894 0.021820856 -0.38018423 0.5676389 1.543711 -0.7340997 0.29013112 0.4395465 -1.0772362 -0.40443778 -0.26839003 0.722013 0.08622834 0.036302462 -0.38582242 -0.40239546 1.2480966 1.3935888 -0.76773626 0.45435748 0.42844754 -0.34494796 0.40487158 0.1262478 0.94109213 0.017695837 0.88325644 -0.097683586 0.98773324 0.33845747 -0.75661767 -0.21075463 1.0216876 -0.9360514 0.57686037
4774 0.885945 -0.6415846 -0.48792768 1.3824939 0.80089414 0.21399495 0.8646137 0.24916257 -1.4486343 0.29500046 -0.10182316 0.370478 -0.5794827 -0.3959647 0.27613038 -0.14709218 -0.00165888 0.53658986 0.2294404 0.17086765 -0.39377552 0.53143924 -0.6560877 -0.069168 0.36065415 -1.0108609 -1.0222276 1.3776112 0.5259584 0.38982478 -0.6160691 -0.7181833 0.24861218 -0.6918737 -0.04443648 0.47049883 0.2270151 -1.4403507 -0.5475852 0.76171494 -0.1486688 1.349141 0.0338138 -0.09798617 0.1445158 0.8350507 0.7944588 0.01700687 0.20869152 0.037851535 -0.16219367 -0.31230602 -0.6494574 -0.56477606 -0.45825368 -0.3302213 -0.19422676 0.73472345 0.12200548 -0.2614028 1.037963 0.6329753 -0.5616932 0.08642936
2091 0.72128296 0.87137234 -1.1391106 1.0022559 0.5930284 -0.107541956 0.5633754 0.031187937 0.18007323 -2.0888388 -0.29066014 1.33634 -0.4022344 -1.0322098 0.050898205 -0.758298 -0.5216728 0.510096 0.66366 1.4726622 0.0008396952 0.24862385 -0.2641352 0.28853303 -0.47870046 -0.261648 -0.30851153 0.9349123 0.8910105 -0.5656772 -0.39044076 -0.985595 -0.77783245 -0.075014256 -0.015328402 -0.14552121 0.18531086 -1.3199515 0.52431923 -0.3205307 -0.33268937 0.7534123 0.1898359 0.46155193 0.42143652 -0.1328743 -0.17824033 -0.3027238 -0.16472822 0.6573574 -0.5320078 -0.59600717 -0.14469106 -0.3950166 -0.37815166 1.023721 0.0075441496 -0.28822234 -0.10762996 0.47473738 -1.5566852 0.86384904 -0.5861426 -0.057333685
3070 0.45945737 -0.58587873 -0.34294805 1.4268341 0.56685275 -0.34090108 -0.026883477 -0.22908302 0.10224488 -0.8385771 0.5923889 -1.1257747 -0.07224938 -0.8032232 0.90598035 -0.87050545 -1.0240252 0.099293165 -0.70081204 0.854194 0.27594873 -1.052571 0.19339964 0.06663675 0.4645141 0.14021863 -0.5004107 0.3967645 -0.6738546 -0.00996804 -0.42669135 -0.99652576 -0.16842557 0.24797395 -0.12863462 0.8784561 0.11517352 -0.9022659 -0.20503166 -0.23019706 0.7903808 0.7948393 1.5956128 -0.3576938 0.06105349 -0.5987866 1.4585326 0.6749767 0.72015214 -0.2465986 -0.08556222 -0.6385434 -0.5497494 0.45473066 1.699864 1.1368793 -0.20415683 0.6893093 0.8421682 0.71216935 -0.19374415 -0.08815743 -0.0064596143 0.34172335
2122 -1.0274734 0.60628635 -0.5881799 0.37383807 0.22447444 -0.7920392 0.5720372 0.50593716 -0.36570174 -0.042990934 0.95120054 0.24940751 0.2797993 -1.1795006 0.09065246 0.0952747 -0.6456978 0.22424231 1.194479 0.35265577 0.2214968 -0.031579763 1.0509604 -0.04155309 -0.108224034 0.04993404 0.23521116 -1.0073149 0.14851938 -0.13680883 -0.42656997 0.55929095 -0.082984604 0.51817995 -0.22560152 -0.7961196 0.12548724 -0.8860995 -1.680418 0.09792141 0.8292189 0.66814905 0.5505116 -0.37410155 0.035846405 0.1951106 -0.46002162 -0.4396985 0.42016646 -0.7248863 -1.488994 -1.3030514 0.5387544 0.01602622 -0.29812986 -0.82757694 -0.72794676 0.6679163 -0.40777546 1.1225928 -0.26212877 0.27380005 -1.0605034 0.6037647
2821 1.0222224 -0.98191655 0.66813225 0.32962698 1.0131395 -0.93442684 -0.39705408 -0.4778758 -0.45288816 -0.24635574 0.9033302 -0.104116745 -0.107531525 -1.7717615 -0.15295456 0.33271092 0.05520194 -0.59349835 1.50404 0.8973312 0.57279253 -0.5923747 0.9569582 -0.014557369 -0.22402325 -0.86380434 -0.854443 0.57486856 0.747888 -0.584303 0.46433383 -1.105222 0.6474735 -0.6100579 0.36937258 -0.36728847 -0.236477 -0.89038527 -0.3595646 -0.0014931761 -0.069959156 0.47151694 -0.0462367 0.06271185 -0.8513983 0.2101777 0.21833548 -0.72046125 -0.4224465 0.37709588 0.02252164 -0.68822736 -1.0743393 0.9120391 0.85701966 -0.18323928 -0.7939161 0.8756125 0.81902075 0.32373667 -0.5952672 0.8582788 -0.7258478 -0.9082865
4210 0.31718385 0.5962765 -1.4276891 0.39970532 -0.4039378 -0.46858296 -0.89393234 0.6340027 -0.619736 -0.6813557 0.4853528 -0.36770943 -0.55410063 0.29630187 0.9475436 -0.43031535 -0.61758935 -0.38589528 0.16078083 0.29328555 0.66043884 -0.16108054 -0.8147747 -0.72035956 0.34722728 0.23279199 -0.18421678 -0.72059745 1.2821515 -0.006385297 0.36705604 -0.8310093 -0.7094933 0.48831457 0.36660233 0.48047876 0.6490942 -0.81238294 -0.6287494 0.5424827 0.7713859 0.30575332 -0.067369424 -0.2797733 -0.33987468 1.3010862 0.54339737 0.032517165 -0.017351482 -0.1567178 0.011326675 0.15455155 0.53001374 0.041852176 -1.2161815 0.4623459 -0.18153575 0.45798403 -0.30619472 0.26028937 -0.4869978 -0.25158647 -0.86413515 -0.02221581
979 0.19218616 -0.32858783 0.4439316 1.2673621 0.7171455 -1.0139081 0.14465584 -0.37552226 -0.89047104 -0.21747316 -0.5738413 -0.9431077 -0.5974439 -1.2911782 -0.11622738 -0.5013382 0.07591209 -1.0540222 0.8077069 1.184384 0.21723218 0.55525404 -0.6485235 -0.6631724 0.55485606 -0.54251504 -0.42372864 2.0933452 -0.6453091 0.38811547 -0.7437692 0.106927834 0.037632335 1.605178 0.53837866 -0.22065839 0.4189216 -0.8393792 -0.26026192 -0.6076 0.7668812 -0.094448864 0.3288875 -0.60805464 -0.2285695 -0.19098105 1.1615931 -0.03428205 -0.51313287 0.18556133 0.4918486 -0.14968358 -0.0071989777 -0.46335143 -0.71895105 -0.4957727 -0.6453651 0.26590797 0.1433014 0.19396111 0.13806868 0.32651138 -1.7452601 -0.9114429
1548 -1.0420245 0.39315006 -0.6767742 0.36049247 -0.08533045 -0.3948193 0.805429 0.50456417 -0.49967012 0.2188894 0.553356 0.86961746 0.47235677 -1.5890666 -0.23237517 -0.46206832 -0.67012745 -0.069985636 0.704589 1.4769398 -0.35740492 -0.21216828 0.6866773 -0.5912839 0.8026315 0.19558407 0.7627733 -1.3211956 0.3595252 -0.20427634 -0.7294425 0.1255273 0.06748941 0.7678675 0.4638659 -0.66707224 0.42197296 -0.5694681 -0.19026022 -0.03649937 0.65954417 0.8699468 0.20601338 -0.40475267 0.16239554 0.47437108 0.26184088 -0.029638417 0.44714254 -0.8161755 -1.2180008 -1.1821718 -0.91550326 -0.1846975 -0.11700299 -0.8230271 0.15938069 0.85352385 0.30559376 0.48553675 -0.3187454 -0.0019909488 -0.8931256 0.3401469
1818 0.18351257 0.09468334 0.15891337 1.1064049 -0.17729765 -1.0060048 0.9634797 -0.127412 0.43549335 -1.89748 0.18926445 -1.0744847 -0.095174246 -0.7407201 0.7682414 -0.37894553 0.56576985 0.34420535 0.148112 0.3810559 -0.35229492 -0.3164954 -0.010680548 0.5550804 0.11959696 -0.7067065 1.005545 1.1127986 1.1868862 -0.0821098 -0.04934369 -1.2519112 0.04943636 1.1871862 0.6792875 -0.23222134 -0.05854581 -0.74116945 -0.5398175 0.17349082 0.5488121 -0.19853649 0.9602125 -0.07576182 0.28392598 -0.053735886 -0.38309944 -0.5881579 0.4323671 -0.19676784 -0.32134643 -0.73865205 0.7713267 0.58730406 0.36169443 -0.14136174 -0.1007761 0.37847975 -0.49734843 -1.0756606 -2.3333223 -0.5546781 -0.9470809 0.2850731
819 1.1940056 0.10394298 -0.80213386 2.087382 0.69454026 -0.83378 0.6388911 0.24419573 -0.73341215 0.34305677 -0.35099572 0.1087168 0.73406345 0.30329257 -0.3717362 -0.82327884 -0.23536132 -0.5497876 0.54067385 0.597673 -0.024931015 -0.39442083 0.59017503 -0.16430718 -0.30637133 -0.031836923 0.6073094 0.9162727 0.79029566 -0.9241435 -0.577783 -0.7565558 0.5349906 0.32505426 -0.1875769 -1.5242939 0.6808165 0.19133356 0.3562936 -0.7935685 -0.18565468 1.4175489 0.020556133 0.91800106 -0.86732435 0.13136631 1.468845 0.10127456 -0.06975832 0.33084732 -0.5612403 0.5290494 0.3316351 1.1488032 0.16629134 -0.8731085 -0.23659104 0.028055796 -0.5806088 -0.00777389 -0.87912184 -0.114176385 -0.32250002 -0.8573374
1093 -0.17171395 -0.59013647 0.061317552 0.9005834 0.723112 -0.49110118 1.1416066 0.085515395 0.48196352 0.37088543 0.7071895 -0.07333042 -0.8051326 -0.72407717 1.4000299 -0.91444623 -0.15954071 -0.5885958 -0.47139958 0.20248331 -0.4029449 -0.274516 -0.47316834 -0.7538167 -0.61629033 -1.1181891 -0.0494252 -0.37636617 0.09358728 -0.21161044 1.3226949 -0.07280022 0.7975351 0.34599966 0.51151 0.09216331 -0.9659674 -0.5265457 -0.13646337 0.7148087 0.009490535 1.1061604 0.14664504 0.5232543 0.57477003 -0.18679836 0.6941991 -1.0486062 -0.9829667 0.7567724 -0.97290653 -0.40730456 0.19523181 -0.2600357 -0.11374278 -0.60095626 -0.18239409 0.64141506 0.63711405 -1.4356539 -0.24787486 -0.29429364 -0.3929646 -0.56931525
1646 0.08673476 -0.15857509 -0.36303914 1.0425632 -0.17890985 -1.5959004 0.1814656 -0.12250138 0.6891325 -0.02950407 0.6759734 -0.10746124 0.9312219 -0.5211829 0.28577682 -0.7399194 0.29983696 0.46934783 -0.68211734 0.30070826 0.07648234 -0.13869146 0.57482123 -1.119041 0.91489154 -0.3725836 0.43868524 -0.48433155 -0.93789667 -0.32643116 0.05174332 -0.07656277 -0.45469138 0.8911409 -0.18005785 -0.46051624 0.8636436 -1.0389304 0.7296946 -0.026802037 0.14029686 1.3852371 0.716897 0.1922465 0.20752023 -0.7117106 -0.2577696 -0.43460116 -1.5892874 -0.48406428 -0.5885773 0.16940297 -0.2794695 -0.018852627 -0.75103724 0.31164458 -0.8055801 0.4674805 -0.35827056 0.33316776 0.06633198 -0.64839345 -0.7706856 -0.75652885
781 -0.12784627 0.17341143 -0.27016377 0.5086216 0.6210028 -0.86455536 -0.88148874 -0.3701802 -0.8229243 0.61303246 0.12815526 -0.4079454 -0.3740409 -0.03247228 -0.15554486 -0.5257633 0.3306308 -0.4029893 -0.34118807 1.1546161 -0.44989702 0.3129664 0.3988442 0.25608522 0.22452638 -0.43629935 -0.49389386 -0.03327533 -1.2451333 -0.5314322 0.108312085 -0.42354614 0.12065995 0.19712229 0.40580228 -0.6718786 0.16096912 0.45746833 -1.2706326 1.3939345 0.36848724 0.45949852 1.0636926 0.20487441 0.22633798 0.452894 0.50896883 0.27701494 0.47639164 -0.42399514 0.40831983 -0.2615967 0.51539516 0.5368487 1.3940532 -0.50567853 -1.1380507 0.31796637 0.43727204 0.7755873 -0.6988865 -0.010817057 -0.67003447 -0.48798728
2658 -0.17226249 0.17483924 -0.6171234 0.20264149 0.20728055 0.38665396 0.13405389 -0.73936 -0.24954148 -1.8995742 0.17121217 -0.37131366 1.1326671 0.46384427 1.2173755 -0.29963458 -0.022959096 -0.36509076 0.77212816 1.6131107 1.1453125 0.5894274 1.1229767 -0.76371205 0.10601787 -0.5871319 -0.15051432 -0.51604897 -0.10626057 0.0054084947 -0.7698552 1.2510058 0.43843305 0.023867477 0.26145655 -0.08108109 -0.89383894 0.046524342 -0.2794206 -0.6929247 1.3264539 1.3542557 0.19358855 0.4838785 0.31626686 -0.14743502 0.03454093 -0.7483741 0.20772974 -0.5450134 -0.03396824 0.84144175 0.0731912 -1.1694335 0.4627591 -0.30374268 -0.82679033 0.2640719 -0.49812227 -0.109345235 0.17498502 0.28815004 -1.3707839 0.6740814
4838 1.0857152 0.3081907 -0.8271368 -0.1526929 -0.32597148 -2.0824769 0.18122819 -0.9705735 -0.85028124 0.06158953 -0.67510325 -0.34820032 1.180861 -0.2202946 -0.36105394 -0.4950138 0.90081275 0.28071532 0.06539822 1.3925979 0.15176153 -0.14920689 0.26832488 0.124461345 0.15207534 -0.19216885 -0.44624063 0.043372385 -0.17515065 0.64059407 0.0010178543 0.7485896 0.36620498 0.60286367 0.37181482 -1.2900504 0.8017838 1.2730397 0.11175872 0.5450782 0.8588647 0.49639767 -0.4862893 0.11527814 0.6137453 -0.13087803 0.11950671 -0.11744046 -0.6839564 -0.4860332 -0.32689202 -0.0059703 -0.8234557 -1.1684011 0.5393183 -0.024040956 -0.5635826 0.88262445 -1.3298677 0.11542071 1.0003252 -0.4847392 -1.4853452 0.4025435
1297 1.0958688 0.16121274 -0.24975193 -0.40892437 -0.33298153 -0.13840383 1.2047695 0.07701682 -0.2631635 -0.5824058 0.31431478 0.9063924 0.89600056 0.7284221 0.05982563 -1.3254613 -0.31212664 1.0530568 0.19537652 0.12896083 1.2471156 0.030027105 0.2714158 -0.20356381 0.75418293 0.24061556 0.8625788 -0.16847032 -0.6189157 0.47315544 0.16599986 0.40478793 -0.06508752 0.029724017 0.69745654 -1.582936 0.26586404 0.23173806 0.19717993 -0.49747148 1.0674063 1.9560497 -0.08161228 0.65996087 0.042115837 -0.009096403 0.6480578 -0.06283619 -0.4768845 0.89215803 -0.8161556 -0.5568398 -0.70880824 0.12337403 0.24252376 -0.015149743 -0.6662389 0.8074686 0.3586075 -0.36465847 -0.9889041 -0.13364087 -1.532293 0.9840834
2777 -0.6562474 0.37307742 -0.9008058 1.3209634 0.5823763 0.012940124 -0.018298587 0.014521119 -0.3753893 -1.2068466 -0.2145049 0.33318967 0.9651899 0.0055099637 -0.5088837 -1.135081 0.06637716 -0.3983589 -0.864125 0.68723047 -0.5070959 -0.32706264 0.29498127 -0.77310234 -1.1507132 0.5883542 -0.5445595 -0.48005754 0.65622014 0.78323615 -1.2709732 0.21693419 -0.4492089 0.62711215 1.330372 0.25767404 0.023667615 0.12870324 -0.17032672 0.36444703 0.12601058 -0.3194408 0.8146602 -0.41625547 1.2284467 0.8183473 0.8254675 -0.91627264 0.22251959 0.08192329 -1.0294325 0.4678927 -0.22961213 -1.8226566 1.2343049 -0.7536388 -0.91371757 0.7087389 -0.91900086 0.24424675 0.6602186 0.0018381269 0.060380932 -0.13461389
4850 -0.57905155 -0.4821076 0.014216411 0.22158983 0.53099924 -0.29204926 1.1804665 -0.8247152 -0.72848535 -0.45239514 0.67113984 0.34690273 0.5852137 0.32104552 -0.6414554 -0.7737338 0.921533 0.04719353 1.0343621 0.40063295 -0.65116066 -1.3948278 0.6789097 0.3473993 0.06919016 -0.22752224 -0.39874068 -0.0080056535 -0.1438005 0.2014105 0.03878166 0.08869464 -0.09394657 -0.3312337 0.59891856 -0.07421474 -0.31853527 -1.2921867 -0.39114043 -0.689171 1.3647988 0.73183864 -0.66199225 0.95433646 0.119982176 0.8479007 0.87116647 0.4923059 0.8553501 1.1809345 -0.9894648 -0.037363645 -0.01650312 -0.8762552 -0.45044908 -0.4414971 0.14946875 -0.7023922 0.60622174 -0.16086918 -0.10860948 -0.18093665 -1.3021729 0.3462679
4483 -1.0408665 0.40715212 -0.4154102 0.64533585 -0.035787098 -0.6049256 1.0045723 0.18527594 -1.1268551 -0.006817809 0.7430662 0.6598387 0.78087807 -0.98770964 -0.10185362 -1.071622 -0.6775767 -0.27240655 0.55684847 1.6297567 -0.37064996 0.7232012 0.84457564 -0.7614336 0.89222306 -0.43148834 0.95543134 -0.6833969 0.0066387365 0.22029144 -0.6384767 0.19096974 0.007857016 0.99580646 0.50034046 -0.9825584 0.4720913 -0.38002595 -0.2314156 -0.51942915 0.28492457 1.1586462 -0.0997893 -0.21090078 0.21630116 -0.23703411 0.051566184 -0.22943549 0.25506422 -0.3786497 -1.3543999 -0.87939876 -1.0852343 -0.29808798 0.3129189 -0.9191149 -0.1416972 0.54772025 0.95704937 0.711463 -0.5853525 0.24704377 -0.36931816 0.07258772
4235 -0.55142355 -1.7697425 -1.4979818 -0.18996738 1.046647 -1.2715521 1.0246711 0.74660873 0.7473901 -0.5179918 0.73122585 0.18423954 0.2494687 0.42587912 0.058059502 -0.13459598 -0.6660923 0.13249822 0.005148545 0.8246031 -0.24680509 0.042506516 -0.37064818 -0.4549288 0.12994133 -0.2574279 0.1976075 -0.3101754 -0.30670637 0.7574992 -0.18861897 0.23260494 -0.4285381 0.40594083 -0.36736077 -1.688823 0.21505068 -0.8564047 -0.23326977 0.42907205 0.35845822 0.82171625 0.013016989 0.45409366 -0.12506168 0.5379724 0.27318487 0.58796257 -0.72149473 0.56522 -1.7071067 -1.6509022 -0.8409682 0.40937096 1.2931762 0.15568033 0.13369782 0.49201137 0.20405813 -0.6842198 -0.5302331 -0.23396932 0.094236605 0.9521865
4842 0.99357677 0.062052507 -1.0174634 -0.71901166 -0.22965652 -0.8785912 0.016467 0.22760545 -0.18554132 -1.9502627 0.627132 0.45430273 0.20444769 0.41803175 -0.32129163 -0.25662598 0.43788913 -0.21324223 -0.6684347 0.35688284 -0.71438247 0.9734797 0.61921245 -1.1479225 -0.13614757 0.15572125 -0.49597338 0.077519484 -0.6787698 0.23272961 0.735253 1.1777002 0.2661582 0.22582339 0.80787295 0.2652417 0.4192318 0.15150988 0.12642074 1.2544214 -0.37880993 1.0716827 0.67609024 0.27877268 0.67366576 0.5224353 -0.19521426 1.0393221 -0.36979106 0.6736998 -1.372901 -0.72446287 -0.9760193 0.114078745 0.17406558 -1.6568573 -0.014433655 1.1222339 -0.7072382 1.2450043 -0.26167497 0.16230308 -0.7423416 -0.08144211
1716 0.3816844 -0.54861844 -1.2226405 0.14084068 0.15622625 -1.6637744 -0.14592859 0.67142636 -0.6899517 0.054459196 0.26038176 -0.06404061 0.0899853 0.8607917 0.4189257 -1.3084822 0.8063391 -1.2447935 -0.22427918 -0.31735194 -0.15640076 0.25993437 0.3327583 -0.06682663 -1.5059974 0.95136946 -0.0392253 -0.3600742 -0.7448328 0.48837516 -0.6164771 0.13128628 0.36546075 0.70230883 -0.09517578 0.5320599 -0.7555186 -0.51044333 -0.26816446 0.26270518 0.81125605 1.1263534 0.109084085 -0.3358302 -0.31961498 0.81298774 0.7736874 -1.4270992 0.8844767 -0.09889976 -0.7501379 -1.2477663 -0.6990931 0.1625669 0.51568276 0.86646813 0.29099765 1.0545757 0.3081849 0.7049181 -0.1416222 0.23463662 0.76412886 0.783489
1126 0.28648546 -0.28858167 0.1516146 0.8258949 -0.07117419 0.040127628 -0.07430711 0.7656103 -1.0251786 -0.8812049 0.22129783 -0.8841075 1.0216998 0.087477386 -0.015922103 -0.9820437 0.5775114 0.15123138 0.07313734 0.29718986 -0.15364562 -0.35880572 -0.27729028 -0.37859777 -0.44377744 0.10240545 0.28358468 -0.14771798 0.2211081 -1.5567029 -0.24203993 0.3921467 -0.80353516 -0.29737824 0.084805146 -1.025593 0.947182 -0.2351715 -0.040541135 0.027328357 0.64983916 -0.84798086 0.73885983 0.24948059 -0.35996616 0.37116748 0.42620444 0.3508218 -0.8366929 -0.4415386 -0.5723934 -0.21916182 0.2129818 -1.1280277 0.9967988 0.06746867 -0.0024010418 1.2024256 -0.20792672 0.15658787 -0.40917823 0.31345442 -1.2055238 -0.37305468
2033 1.1210766 -0.49152526 -1.3501085 0.2687284 1.5287093 -0.42698202 0.17912315 0.8748655 -0.28767657 -0.64787704 0.43382502 -0.48430964 -0.14214352 1.0119859 -0.22834569 -0.46848893 0.38835782 -1.3202498 -0.5133512 -0.08157742 -0.9881682 0.70119846 -0.6453184 -0.9493134 1.2085452 0.5712641 0.90853333 0.5961125 -0.2753369 0.52151203 -0.07472792 0.46380544 0.32911766 0.32860556 -0.74441266 -1.0517579 0.373789 -0.5897063 -0.65454847 -1.0012326 0.057372335 -0.40321335 0.6017863 0.57289994 1.1494269 -0.11888157 -0.5070318 -0.9487986 -0.15128693 0.45456034 -0.84067523 -0.05417799 0.34204647 -0.3992489 0.04762922 0.1400201 -0.22627373 1.249955 0.013143936 0.050671857 -0.25383323 -0.16018619 -1.4726787 0.6725546
2202 -0.14669763 0.2401549 -0.92763215 0.023900053 -0.22454901 -0.27100703 -0.11565922 -0.3737529 -0.3562837 -0.6812884 0.0370876 -0.80314076 -0.5022702 0.060685292 -0.27674836 0.3049946 -0.61101174 1.1038474 -0.11083618 1.2152423 -0.7707554 0.7215184 0.37749106 0.29714653 -0.49931297 -0.5051652 0.38435632 -0.65880775 -1.0658965 -0.49322152 -0.14070323 -0.30826893 0.73813754 0.34657666 -0.7593341 0.045930196 0.40161896 -0.8043049 -1.2229713 0.5268562 0.85244167 0.7482252 -0.198687 0.09183584 0.4173105 -0.12941265 0.8248821 -0.007992858 -0.7576999 0.48668998 -0.78751314 -0.7978709 0.019396124 0.06811105 -0.05883389 0.50113845 -0.6309151 0.96023524 -0.9946085 0.28258833 0.9094794 -0.6328249 -0.7929148 0.6164556
2637 0.080100134 0.17138416 -0.3681087 0.2731503 -0.11839507 -0.51432747 -0.20280866 0.34190327 -1.0473976 -0.5922809 0.11431404 -0.87574035 0.66257596 -0.03485149 0.97675675 0.017640265 -0.12275603 -0.33350873 -0.8548988 -0.13380024 0.5201999 -0.18739216 0.3199839 -0.8625411 0.55478215 0.15233718 -0.118439056 -0.310393 -0.5332907 0.22066292 -0.36206067 -0.22881927 -0.12798761 -0.14614941 1.0355839 -0.29506996 0.9767757 0.082260385 -1.4994484 -0.16692494 0.2022287 1.3748497 0.27036086 -0.1718314 0.30821154 0.29205278 1.0757928 -0.19511563 -0.6158883 0.30546552 -0.50733066 0.07828404 0.36768606 -0.9638628 -0.9861658 1.2769755 -0.12734672 0.5109602 0.7389025 -0.7687931 0.43692145 -0.0044689737 -0.40229464 1.0403769
1563 0.11341376 -0.21047454 -0.65758574 0.72206414 0.52308923 -0.73821276 -0.11217589 -0.40849626 -1.0194927 -0.47103652 -0.33518738 -1.4646188 0.55778736 -1.0696777 0.22369012 -0.10143226 -0.27022457 -0.8624611 0.74342144 1.2760773 0.36962107 -0.7231112 -0.009202279 -0.36789262 0.45435873 0.17489092 -0.46310404 -0.19404595 0.24921748 1.1941489 0.7127502 0.22907998 0.23626228 -0.6210615 0.6055639 -0.5511251 -0.19341542 -0.35916075 -1.3504992 -0.489178 0.36127952 -0.5413768 -0.64368165 1.1271405 0.10380335 1.1182817 0.7337253 0.8047786 -0.015431376 -0.8337159 -0.45859227 0.63829255 0.5962005 0.2912932 -0.05681469 0.25516397 -0.8854108 1.6232882 -0.2999607 1.0993186 -0.8814148 -0.28948352 0.25345346 -1.0365285
2517 0.7748027 -0.11196258 -0.6976853 1.0629979 0.5239799 -0.5458322 -0.7843143 0.13588098 -0.41018754 -0.56825715 -0.387946 -0.78334904 0.1849828 0.114762016 0.6937714 -0.7130044 0.93223643 0.29610413 -0.39704716 0.48397905 -0.31339696 0.011990562 0.5732988 -0.11228053 -0.34761667 0.9903395 -0.39759302 -0.03858105 -0.18056886 0.39400455 -0.15135372 0.4938628 0.7425378 1.1195998 0.50398046 -0.47865355 0.4870197 0.03351426 -0.88636667 0.28538486 -1.1280966 -0.1263578 -0.15799958 -0.49556708 0.5957246 -0.44638112 -0.4645584 -0.5120681 -1.2905507 0.6925525 -0.88291323 -0.51798695 -0.2801032 1.2573928 0.90145165 -0.5339988 -0.24133705 -0.027183112 0.2553077 -0.09138198 0.53625154 0.5465025 -0.5349848 0.58777905
497 0.598457 0.44415197 -0.1681739 0.43888575 0.523242 -0.9827079 -0.12796701 -0.14683166 -0.045703694 -0.7619304 0.17166412 0.43875965 -0.52145725 -0.4273226 -0.05570424 -0.57423836 -0.23470803 0.391217 0.2254175 0.037981648 -0.945444 0.45546106 0.83012974 0.5505267 -0.60773826 -0.43971342 -0.07086826 -0.3450093 0.68657124 0.48914662 -0.015182167 0.30324298 -0.84785813 0.65611345 0.4762788 0.057181876 0.28444636 -1.6141009 -0.2747803 -0.4378385 0.978757 0.8694705 0.14890724 0.20820183 0.50488645 -0.761071 0.08567932 0.050703164 0.023042977 -0.5385294 -0.8364288 -1.2025694 -0.21969207 0.15910749 -0.2820024 0.3385967 0.38588932 -0.07834961 -0.26199126 -0.62611216 -1.6602713 -0.8538199 -0.0617871 0.9004248
1478 -0.25585017 -0.19468527 -1.2787457 -0.084690034 0.52545744 -0.6092799 0.15469956 0.08172296 -0.70073175 -0.23869573 0.21564238 -0.5008781 0.17069975 0.028381735 0.2129069 -0.4622369 0.3445279 0.69034904 0.5806409 1.2449288 0.3464069 -0.44389984 -0.66821826 1.0318799 -0.96344006 -1.1113665 -1.3596065 -1.1141448 0.1708998 0.591923 -0.36910015 0.61733717 0.6198958 -0.024353191 0.5628429 0.028490439 0.24697514 -0.26127353 -0.74002934 0.5973995 0.5574089 0.5609046 -0.33955887 0.9406265 0.610373 1.3404973 0.34838212 0.012066007 -1.1267757 0.16281985 0.6229507 -1.8619499 -0.6920528 1.4137572 0.4528458 0.3729816 0.3955822 0.34073773 -0.120946884 -1.0541096 0.64001703 -0.6824431 0.17958133 0.43969628
117 1.3836293 -0.6979796 0.10769109 0.512169 0.29698923 0.4188362 -0.94857764 -0.44463208 -0.5564304 -1.4424249 0.3946031 -0.72658515 0.21536584 -0.2833857 0.4340487 -0.33501878 0.83506477 -0.19994679 0.27098438 1.2860293 0.016429206 -0.43244407 0.101513624 0.20891325 -0.2222201 0.34570625 0.9148241 -0.245411 -0.544842 -0.11364066 0.16699307 0.27596742 -0.6287393 0.38856772 0.9312224 -0.9991931 0.37470624 -0.15929961 -0.26675445 -0.48917922 0.8241395 -0.7721479 0.55864775 0.08927786 -0.13053727 0.7111802 0.20499004 0.69553715 -1.2580968 0.07984684 0.056589868 -0.6867804 -0.23880224 -0.4092536 0.74660695 0.3304483 -0.09374634 1.3213227 -0.8926195 0.22534792 -0.25151217 1.1338255 -1.2985075 -0.55146706
2404 0.75904405 1.028722 -0.79845434 -0.42423913 0.7202715 -1.6005752 0.8716553 0.92383504 0.69426614 -0.4929452 -0.31625116 -0.32471436 -0.43680668 0.2798787 0.15628475 -0.7737489 0.39445603 -0.37337345 -0.20924602 0.65695465 -0.06604878 -0.084829174 0.70945907 0.54435194 -1.173421 -0.53171337 -0.19742574 -0.19380756 0.95785755 0.062989466 -0.04800651 -0.3375125 -0.097441584 0.025692167 0.17267184 -0.31852594 0.41352484 -0.6092415 -0.35058072 0.326808 1.2553229 0.31902125 -0.77242243 -0.15360606 0.61406213 0.7254038 0.329792 0.066241 0.70842713 1.1990855 -0.17763807 -1.0190984 -0.26284915 0.46257693 1.0576384 0.20851684 -0.7464915 0.285577 2.2645795 0.28991765 -0.18257578 1.4993081 -0.41928384 0.74829257
1858 0.9941739 1.0376627 -1.8230951 0.6387002 0.64301986 -1.0102894 1.0784645 -0.06306434 -0.7236529 -0.13479452 0.86660755 -0.25713006 1.0654696 -0.59793293 0.40500665 -0.23882209 -0.2264561 0.21649083 -1.1208259 0.21420062 0.40658435 0.12547266 -0.13638656 -1.579688 -0.16614197 -1.0236181 0.6419148 0.06997603 0.49191916 -0.4587228 -0.7573341 -0.41807312 0.29533356 -0.29966995 0.3588104 -0.52455235 -0.070291534 -0.44751358 0.6651526 0.18534307 0.3299503 0.3985939 0.44384858 1.0919894 1.2546802 0.7451026 -0.56913745 -0.89145654 -1.1553495 0.53550327 0.29292974 -0.74275964 -0.14335011 -0.92603576 -0.5785769 0.24596964 0.8181047 0.015210027 -0.90999156 -1.07622 -0.0028566988 -0.3218669 -0.077369325 0.74273175
1929 1.459206 -0.6401595 -1.1753415 0.097314775 1.3561908 -0.3318623 -0.059161436 0.61596936 -0.82598275 -0.61625326 0.6433786 -0.30211818 0.033648174 0.9907061 -0.2868046 -0.05456941 0.39509383 -1.3810309 -0.8353394 0.28531617 -1.2754018 0.5302946 -0.5313502 -0.54129237 0.5116791 0.43942225 0.45811015 0.8967536 -0.33650917 0.37956643 -0.48499492 0.85464716 0.10459251 0.6623821 -0.88696307 -1.1958745 0.60646373 -0.6984017 -0.9337124 -0.8998917 -0.31079286 -0.4690415 0.17987858 0.41525894 1.034817 0.3567293 -0.20270649 -0.8085725 0.078931615 0.50210994 -0.47990736 0.20086952 0.06791477 -0.24444336 -0.2660168 0.15104239 -0.07758657 1.4211464 -0.32972515 -0.09809124 -0.5460832 -0.08474633 -1.8126215 0.6784941
2689 0.1889546 -0.24544911 0.1743528 0.33796632 1.751716 -0.18560416 0.20626923 0.3318085 -0.6098332 -1.0962659 0.2901257 -0.18621993 -0.46565264 -0.56277186 0.75121886 -0.9379406 1.6912767 -0.23012483 0.035200972 0.30047068 -0.52527994 -0.25615454 0.22153877 -0.5244897 0.18610896 -1.128848 0.7354151 -0.076826245 0.84088373 0.2663648 0.7595126 0.27615884 -0.94179744 0.05104444 -0.771167 0.037223816 -0.42352694 -1.0122074 -0.28189555 -1.4956439 0.10947937 1.0674914 0.25052086 0.31220865 0.5431951 1.0783845 0.7677758 -0.58508503 -0.6949726 0.3209093 -0.14735706 -0.104932584 -1.5662823 0.5935598 0.061721038 0.030458467 -0.29212043 0.65302426 -0.38134015 0.9083817 0.76767886 -0.38115007 0.97175646 0.72443944
1000 0.9431576 0.030830916 -1.3447032 -0.8068999 -0.037840683 -0.4445302 1.1971595 -0.24829173 -0.3022266 0.10949422 0.6684589 0.63292974 -0.037613653 0.6711929 -0.17076325 -0.5925258 0.92024493 -0.4373025 -0.17609568 0.029834071 -0.3678117 -0.82473123 0.35574254 0.04132969 -0.06673459 0.7100921 -1.1196089 -0.45337248 0.17274804 0.021083739 0.2947656 0.099348634 0.4733693 -0.47953346 0.44244534 -0.12731366 -0.1219408 0.04952906 -0.77924216 -0.01316293 0.7741691 -0.20920257 0.37035376 0.23118791 1.4458178 1.2657844 -0.037765224 -0.052725844 -1.1454918 -0.2416795 -0.8644395 -1.1270276 -0.69096696 -0.2020193 0.40763474 -0.5045458 -0.24406461 0.9750896 0.18713701 1.1990243 0.15114817 0.30325586 0.24484076 0.009374846
2140 -0.58412385 0.4538382 -0.34342116 0.21458237 0.9167904 -0.12645261 -0.080159135 1.0179929 -0.64176303 -0.5713242 0.16766131 0.094899565 -0.4755046 -0.39256877 -0.23046897 -0.4692685 -1.0649976 -0.13928513 1.0910869 0.316801 0.08968356 0.085111864 1.107498 -0.36238202 -0.10548894 -0.07582759 -0.556241 -0.010956515 -0.09120264 -0.02872653 0.7285436 -0.23056738 -0.2885088 -0.30057284 0.3344709 -0.21255861 0.08059233 -0.5198211 -1.5977576 -0.3987109 1.6050272 0.97650856 1.5535793 0.45157093 0.47289908 0.3515758 -0.56565636 0.13591874 0.11067226 -0.39428508 -1.2898817 -1.2043111 1.4035976 -0.5298674 -0.57730633 -0.9100228 -0.6152774 0.49993598 -0.20103307 1.1964457 0.40580824 0.106228225 0.03933339 -0.57165986
4548 0.47255298 -0.5525318 -1.29851 -1.325141 0.7941349 -0.60349494 0.08753565 -0.038505543 -0.52222097 0.67145646 -0.3673984 -0.0006340537 -0.42757764 -0.16157387 0.21529393 -0.47874025 0.35390112 -1.1040277 -0.120289266 0.5003233 -1.0700846 -0.99602205 0.13288191 -0.57338405 0.54455346 -0.34405473 -1.1454028 -0.55133903 -0.64053696 -0.6368661 0.665962 0.76004195 -0.15583463 -0.94879776 1.0210024 0.12090818 -0.5276893 -0.9577438 -0.58560985 0.25029334 -0.07573594 1.069032 0.7718481 0.7393505 0.85151994 0.77802664 -0.09126872 0.46983412 -0.59735507 -0.88682425 -1.3944656 -0.6956121 -0.48499855 -1.522265 0.080126874 0.08218706 -0.31492907 0.08228563 0.16381745 -0.3027654 0.2947446 0.13515002 -0.73631865 0.529041
230 -0.25603244 0.0819416 0.18909615 -1.068778 0.9843855 -1.1951456 0.32872775 0.19402826 -0.11789148 -1.0175037 -0.3987332 -1.098853 -0.16626874 0.0058787693 -0.52715033 -0.2441688 0.61552846 -0.3153043 -0.6366682 0.29771507 0.5021558 -0.8843663 -1.1727883 0.20014282 -0.8294012 -0.5570723 -0.1703169 0.48129782 -0.20840466 -1.1808115 -0.76204515 0.49656186 0.11722337 0.63525903 0.40668714 -0.78380835 0.1832548 -1.2326638 0.1714923 -0.5664774 0.04560221 1.2190014 -0.32977626 0.4602433 0.69590455 -0.2804599 0.7218663 -0.5067144 0.6646139 0.13712338 -0.68956316 0.2841168 -0.7576087 -1.0066895 -0.4890796 -1.2558396 0.2904696 1.3131549 -0.58371204 0.2595907 -0.42980897 1.1433038 -1.5689834 -0.18692099
4656 0.004849649 0.39434144 0.16094449 0.7023554 0.37855262 -0.4924371 1.0315399 0.51101094 -0.3040206 -0.86396354 0.32145214 -0.8835765 -0.03153209 -0.18131876 0.46186182 -1.0221947 -0.22178729 0.15191446 0.029170949 0.41281343 0.37008536 -0.7740454 0.030328231 -1.2615287 -0.93161964 -0.18954954 -0.9243759 0.037334822 0.26751295 0.09274368 0.18448643 -1.0852895 -0.07376364 0.33765417 -1.3781472 -0.3350902 0.47075585 -0.30804828 -1.9575388 -0.91001683 0.12505564 0.57049483 -0.48011678 -0.6487324 -0.40326792 0.9681009 0.080300964 -1.1951082 -0.43540874 -0.7800216 0.24336758 0.8994633 0.13398962 -0.48534065 0.46422198 -0.045853082 -0.7050174 0.43987256 -0.8452774 -1.1908692 -0.5144673 0.21433794 0.2505193 0.57827765
3410 -0.08358887 -0.87527585 -0.7601418 -0.14879712 0.63228303 -0.61317426 0.3481747 0.65440243 0.19836222 0.39191014 0.5305836 -0.1981022 0.3365151 -1.8253887 -0.081146084 -1.7437606 0.9395367 0.3069801 -0.6355185 -0.18523413 -0.36543536 0.22954321 -0.3394798 -1.4992809 0.35485184 0.28745994 -0.29113564 0.9464924 0.0016902423 0.3488397 0.7376073 0.47725073 0.07488197 -0.76377094 0.70201635 -1.3784745 0.48105797 -0.7724841 -0.6021885 -0.4512125 0.7765778 0.5764342 0.15337025 -0.081979595 0.7309584 1.0979941 -0.28057253 -0.31696054 -0.123764575 -0.13128765 0.8190009 0.3926545 0.9192215 0.15544325 0.10200631 -0.039187104 -0.2717931 0.12755847 0.051470865 -0.63116646 -1.2156514 0.47379965 -0.41229653 0.23574588
2400 -0.005034967 0.05199421 -0.5332952 0.38088605 0.5077526 -0.85758996 -0.07320894 -0.27346638 -1.2505324 -0.286449 -0.08787225 -1.6814215 0.07244013 -0.8567655 -0.58280516 -0.4323446 -0.12303405 -0.7494521 -0.22294584 0.18792023 -0.009463018 -1.020448 -0.39527607 -0.26689684 -0.23218088 0.2871157 -0.5549668 -1.1950912 1.1550626 1.306559 -0.030769581 -0.1643887 0.2155173 -0.5381569 0.2914835 -0.24542086 -0.9266489 -0.84491235 -0.98439854 -0.18150005 0.22365177 -0.21196501 -0.25629562 0.9406797 0.30011007 1.2238028 -0.31743994 -0.061746694 0.018091688 -1.0215151 0.076909274 0.40976256 -0.1853905 0.12722176 0.25074214 0.43556932 -0.76490843 0.8446036 -0.5261584 0.46247536 -1.0634853 -0.7518796 -0.36774462 -0.22730798
343 0.37043923 0.39498666 -0.40633598 0.63989836 -0.3786563 -0.40037453 1.0896597 -0.04926861 0.13064378 -1.3850398 -0.24502209 -0.86707884 0.0717783 -1.1487037 0.8998191 -0.4467419 0.6496755 0.20454499 0.38912278 0.40705907 -0.21256515 -0.17190854 0.41266134 0.62782466 -0.4488641 -0.74154127 0.64815694 1.0764196 0.71923214 0.4058124 0.3667181 -0.5299566 -0.20843725 1.2423398 0.5725516 -0.09537861 0.1814941 -1.4964875 -0.25294024 -0.3433966 0.31681043 0.08391377 0.58881605 0.33153865 0.64591086 -0.7634909 0.163686 -0.25194943 0.26898995 -0.63153875 -0.12970786 -1.1150599 0.0023290995 0.52283597 0.41836914 0.38778841 0.06729123 0.011178498 -0.41407612 -0.67578894 -2.291186 -0.060023762 -0.61504143 0.8540112
4473 0.20031074 -0.5196486 -1.0596588 -0.07895788 0.23997787 -1.2406254 -0.0013346632 0.22474818 -0.22516821 0.2907455 0.049042344 0.3750931 0.37656575 -1.3746512 0.18067859 -1.722177 0.77930105 -0.43472195 0.36081186 -0.7276187 -0.54631054 -0.009004795 -0.5530491 -1.4880146 -0.18072058 0.39148208 -0.44239184 1.3505872 -0.31300494 0.6390192 0.927068 0.6826565 -0.21055141 -1.0378416 0.42992222 -1.6633298 0.32021198 -0.20515096 -0.55755085 -1.2964075 0.8255437 0.7838447 -0.030319251 0.09881164 0.41761386 0.18533903 0.13119835 0.17186815 -0.40279293 -0.28192714 0.097732194 -0.17199686 0.7512127 0.04599805 0.027152149 0.3484839 -0.06953979 0.3059885 -0.009943583 -0.24931815 -1.2222128 0.09991504 -1.199547 0.088900834
