4401 64
2704 -0.0074936673 -0.3223349 0.45848602 -0.24152058 -0.20083265 0.17172028 -0.041744664 0.54036033 -0.38200185 -0.31718275 0.46740857 -0.12428012 0.52908915 0.23130627 -0.39802098 0.019996122 -0.20291445 -0.09968078 0.070474856 -0.97878146 -0.24629702 0.20437364 0.77145654 0.3183851 0.9446134 0.17718601 -0.05470246 0.14682406 0.01641722 -1.274 -0.16010876 -0.7257769 0.3503359 0.13625914 0.20524782 -0.106649026 -0.08843928 0.61339235 -0.29119912 -0.38760373 0.6921022 0.3041073 -1.0055978 0.04376862 0.11950275 0.50376564 -0.62934726 0.094057456 0.40174013 -0.085507035 0.081441455 0.046541743 -0.18794562 0.56754583 0.17482585 -0.103545345 0.15727413 -0.84400964 1.1083943 0.15435289 0.57159406 -0.12550594 0.021082344 0.42841423
2049 0.058770236 0.68089914 0.067516804 0.034105893 0.45312312 -0.95085776 0.25493193 0.24640197 -0.014707708 0.3751723 0.3682255 -0.08308611 0.24326727 -0.20559439 -0.083982624 -0.06099097 0.5033667 0.20909926 -0.29486835 -0.49758622 0.937142 0.280003 -0.9879657 -0.049957607 0.14425378 0.29477414 0.13891679 -0.74061257 0.039025016 -1.0234704 0.939658 -0.017341971 0.19181612 -0.0075151753 1.4805764 -0.22179076 -0.051027726 0.22990325 -0.2213254 -0.07355514 -0.10803807 -0.011407301 -0.42671257 0.5658988 -0.48777798 0.22138208 0.090866044 0.15868829 0.30559352 -0.60661364 0.2587592 -0.23739493 0.08434672 0.5521927 -0.1901195 0.79685134 1.2677181 -0.6813704 -0.19909284 -0.027039979 0.0033172017 -0.7286756 -0.43842992 -0.17342831
2135 -0.73254895 0.07835551 -0.40874207 0.54527986 -0.38479933 -0.4394813 0.6670173 0.3656007 0.41422728 -0.33977166 0.25161865 -0.19897993 0.3137144 -0.049400866 -0.42921853 -0.23600669 -0.5174959 0.13929102 -0.33504826 -0.8266265 -0.10510742 -0.635894 -0.42918676 -0.02553672 -0.26319885 0.47939903 -0.82679576 0.06053437 -0.09759205 -0.7080568 -0.2733292 -0.38479203 -0.13126017 0.85196775 -0.65463287 0.35216212 -0.3368961 -0.14221108 -0.11726076 -1.5281271 -0.53628945 0.33013594 -0.104841515 -0.27238208 0.56911325 0.057270486 -0.19656862 -0.35379505 0.27331734 0.03539679 0.48915398 -1.3440748 -0.39893836 -0.325962 -1.3064603 -0.4137622 0.74149317 -0.8746522 0.07057524 1.1180943 -0.0062898044 -0.5852128 0.59701294 -0.4168661
1626 -0.38395637 0.4319303 1.1845131 -0.3751613 -0.5839137 -0.26554036 0.18741398 0.29712173 0.7811673 -0.2991397 -0.15448312 -0.85628384 0.16948755 -0.52515286 0.31580007 -0.22552656 -0.23891066 -0.14557736 -0.30285805 -0.41981566 0.45179978 -0.15207319 0.30220672 0.2082613 1.0070125 0.6982208 -0.75033474 0.039646823 0.9563181 -1.3384881 0.43611693 0.82269883 -0.5520516 -0.64012235 0.56486195 0.30612445 0.5388803 -0.2948472 0.42135546 -1.3342543 -0.19082937 0.44689074 -0.24557984 -1.0626645 -0.33097002 0.3730792 -0.21061258 -0.33374292 -0.58247 0.31614432 0.5640577 0.70238674 -0.13880947 0.25349152 -0.89068747 0.5745139 -0.083611704 -0.59738153 -0.04898311 0.4044569 -0.22407721 -0.21741508 0.402398 0.106611796
2339 -0.33796397 -0.3844806 0.10517575 0.17623843 -0.8636059 -1.3422681 0.013376019 0.07806914 0.35627845 -0.13440123 -0.18596034 -0.29697645 0.5413601 0.544841 0.48505932 -0.07085024 -0.34598655 -0.27621728 -0.47719198 -0.13510665 -0.75818014 -0.111994706 -0.5994668 -0.10560882 -0.62802154 1.2433667 0.54736936 0.5625881 0.02622029 -1.3860013 0.5706731 0.10609781 -0.7714228 0.35626662 -0.46144176 0.58001524 0.008133439 0.36070275 -0.19020604 -0.4464776 0.3017919 0.2493856 -0.6403961 -0.6359305 -0.22060053 0.8960122 -0.36913303 -0.5442008 -0.670738 0.095974855 -0.47307652 -0.53345776 0.078455515 -0.29642957 -0.3842568 0.03293448 0.35672814 -0.16452724 0.2068812 -0.21579309 -0.09250198 -0.47807273 -1.3269415 0.33227387
1031 -0.4701649 -0.35478124 -0.01884082 -0.51774806 -0.09266479 -0.42576134 0.8209951 0.7909915 0.6533991 0.21380217 0.6329969 -1.195925 0.807541 -0.1997299 0.56278956 -0.7932142 -0.45424432 0.6443235 0.18793398 -0.6385559 0.37378016 0.37639487 0.6869866 -1.0672654 0.56714046 0.17610452 0.48410937 -0.02886761 1.4087403 -0.25506744 0.5825108 -0.44428968 -0.7431564 0.20206738 -0.49599698 -0.36078018 0.03823918 -0.15858372 0.7638234 0.2417313 0.006826945 -0.11849445 -0.6557868 -0.7223202 0.31142622 0.72331643 -0.9257224 0.38261005 0.2288152 0.13065961 0.00026260357 -0.33415994 0.81207895 -0.30685082 -0.23481704 0.4471289 0.6113685 -0.55039597 -0.17006999 -0.12640509 -0.040121242 0.18436174 -0.71638834 0.7076713
1111 -0.35894182 0.2515875 0.40448186 0.52864087 -0.25092787 0.091034696 0.047787804 0.7798761 0.37885678 -0.08000262 0.4777454 0.009314711 -0.9096518 -0.13738963 -0.17746815 -0.43738168 0.17016375 -0.36546877 -0.32400528 -0.5174112 -0.4428052 0.1675025 0.37695506 -1.5227993 -0.36474288 0.465042 -0.1448691 0.4843542 0.7487038 -0.39827758 0.7354473 0.12540163 0.8116405 -0.24776594 0.32382303 -0.54966724 -0.9381777 -0.396937 0.47122562 -0.2726551 0.21173343 -0.41548023 0.0053184745 0.058224313 -0.5988408 0.45518732 0.16092382 0.1875231 -0.94737077 0.49328142 0.11863907 -0.88823426 -0.059796333 0.67702466 0.5335257 -0.05119862 1.3651057 -0.8608267 -0.10806588 0.312764 -0.21780957 -0.033469025 -0.48281416 0.51533955
1938 0.12788045 -0.026415853 -0.7825095 0.6918652 -0.25168478 -0.4726656 0.64100885 0.39787182 0.72074306 -0.32909325 0.72934395 -0.32496652 -0.71241224 -0.27100715 1.0795913 -0.13199323 0.4135001 0.49965942 -0.90389866 -0.48918295 0.18460652 0.68286955 -0.3042043 -0.34710935 -0.17573202 1.0638862 -0.107053325 -0.32045287 -0.08303195 -0.5811358 0.7795013 0.0024935692 -0.107745975 -0.42859071 0.36420405 0.04918754 0.12608126 0.011258754 -0.02287807 -0.13811614 0.8019581 1.0496845 -0.57907397 0.16851597 0.6941521 0.8441196 0.14115863 -0.059204746 0.14413783 0.86221695 -0.1102833 -0.38694745 -0.38814935 -0.3835701 1.3491373 0.38922405 0.07649739 -0.22422792 1.2246153 0.31813675 0.41055483 0.3488847 0.42842755 0.27869248
1239 0.47671214 -0.2619522 -0.07484633 0.63383716 0.103575826 0.6456604 0.48815393 0.6894622 0.10246134 -0.72669643 0.94275415 -1.0209105 0.5324065 0.8061638 1.1520556 -0.22475228 -0.10436922 0.32778335 -0.42890722 -1.305649 -0.84035146 0.43800455 -0.4898514 -0.9216636 -0.0070376447 -0.10681418 -0.2793729 -0.8291279 0.0025044726 -0.6918803 0.5084146 0.2531249 0.14955924 -0.12146784 0.39860013 -0.1271824 0.23513754 -0.006219926 -0.3388102 -1.053325 0.49281612 0.07312509 0.60255927 0.49205524 -0.8042957 0.64908946 -0.45840576 0.45180282 -0.6388584 -0.7106379 -0.12177334 -0.02359516 -0.52303445 -0.48048264 -0.91775674 0.18483771 0.19603452 -0.2716206 0.8564899 0.20640232 0.18059775 -0.2201378 0.02123104 -0.17637089
2852 -0.2919772 0.28379473 0.34482372 0.05953234 -0.62112534 0.4377692 0.56269383 0.42902645 -0.43070394 -0.7614077 -0.01419751 -0.31657735 -0.23241174 -0.43819115 0.1478197 -0.4540276 -0.40839374 0.09357894 -0.291648 0.35870844 -0.5222912 0.70142263 0.64432484 -0.68985957 0.97314274 0.5121757 0.113975815 -0.076018006 0.1860464 -0.36013275 1.2923702 0.55808455 -0.7873433 -0.20890066 0.0044489885 -0.40045574 0.44285047 0.81214285 -0.67867255 -0.30183345 -1.3889601 -0.109113805 0.22658524 0.8708346 0.3001336 0.38408014 0.08801843 -0.5690907 -0.28160703 0.7966401 -0.25878438 -1.1237856 0.0072901715 -0.036333013 -0.019817667 0.15012152 0.27708456 -0.8739606 1.5662365 0.7429345 -0.4121303 -0.6829304 0.17122109 -0.09550067
3082 0.47590452 0.13617481 -0.6094332 0.5760198 -0.49044824 -0.93429774 1.0681944 -0.030452656 0.27215663 0.38967276 0.3415451 -0.32814163 0.29020134 -0.32276937 -0.1282668 0.27822357 0.020438237 0.53074306 0.6092749 -1.9779284 0.043421324 -0.23614107 0.12946965 -1.0017543 0.3974414 1.3267097 0.39202178 0.7994006 0.052175496 -0.55539525 0.40973103 -0.30028367 -0.18549609 -0.09250573 0.6094321 -0.78714406 0.32542682 -0.054874215 0.30035654 -0.6553304 0.85748625 -0.42532295 -0.024440058 -0.111507855 -0.48548612 0.29205838 -0.9465307 0.18685132 0.4876598 0.23630086 0.6071684 -0.8817513 0.15326934 -0.32895482 0.6396019 -0.58821166 -0.24170761 0.20491122 -0.0026239094 0.22309095 -0.3916929 -0.44846088 -0.042356875 0.59697306
2011 -1.2829984 0.30076548 0.21525289 0.4645399 0.40104055 0.7280321 0.16318847 0.17341743 0.70039535 -0.124763966 -0.49494544 -0.13455105 -0.002570036 0.1665709 -0.25779864 0.28444642 0.7924197 -0.39589807 -0.21926492 -0.046851084 0.5933246 0.4856048 -0.31594595 -1.2012072 1.5077125 0.6790128 -0.013625644 -0.8809255 -0.44652396 -0.49640316 0.73201716 1.3517721 -0.017722504 0.08025913 -0.20951447 -0.317702 0.62225115 0.97844136 -0.3429469 0.033609845 -0.10566929 0.7540024 -0.16586407 -0.42352986 -0.61511993 0.9312881 -0.2662423 0.10625533 0.21060696 0.44716167 -0.19696087 -0.100098096 -0.21778822 0.28389153 -0.029289326 -1.3235127 1.3329649 -0.35284632 0.54808754 0.041765716 -0.3473238 0.535365 0.08416186 -0.45023307
4798 -0.37562346 -0.16331075 -0.82096446 0.117474265 -1.0143259 -0.46284872 0.44734865 0.03623512 0.15259531 -0.5497167 0.3852821 -1.0076538 0.13868862 0.8719203 -0.11810419 -0.36330324 1.037267 -0.38546276 0.5233938 0.036015194 0.806165 -0.19276336 0.25379282 -1.2311187 0.89176697 0.15968062 -1.2486553 0.23901814 -0.84488946 -0.9031591 0.38762137 0.066578604 -0.54499745 0.45550305 -0.022643711 -0.9485755 0.18611579 1.0048778 0.2531069 0.27780196 0.7684517 -0.88895774 -0.5755451 0.38771638 -0.31433886 0.44522882 -0.19778071 -0.3160582 -0.08871809 -0.5392488 -0.24922054 -0.82058877 -0.08464395 0.7240802 -0.683518 -0.7605299 0.8197222 -0.80801976 -0.6045926 1.0332196 -0.06780702 0.31142262 0.86861455 0.31802946
3245 0.32057035 -0.298002 0.09768172 0.22981445 0.041952617 -1.1885196 0.66330814 0.68906146 0.13854007 0.11798814 -0.7218361 -0.5124136 -0.49714926 0.97061664 0.6394095 0.05345516 0.10519613 0.0035019151 -0.20687553 0.4375125 -1.1179737 0.026855651 0.49115944 0.11769073 -0.16081859 0.85382336 -0.08665087 -0.27479234 0.08198437 -1.2444366 0.97925663 0.09210494 -0.70291835 -0.87922066 0.41737306 0.20465398 0.6260179 0.25962302 0.70174056 -0.6579097 -0.2437538 0.0018852822 -0.47056925 -0.0062789978 -0.2554351 0.10765535 0.3992233 -1.2682736 -0.42242196 -1.0486697 -0.067649685 -1.5049422 -0.6812349 0.21150284 -0.5767876 -0.41098583 -0.0028179837 -0.4575404 0.09334992 0.013789192 0.20757137 -0.123078495 -1.5023764 1.1700429
3724 0.32991102 -0.2637324 0.10000667 0.050166998 0.65610313 -0.6613648 1.3083184 -0.43327975 -0.18271706 -0.4831314 0.5634731 -1.2989963 0.8698986 0.17155704 -0.16541444 -1.1302531 0.27260572 -0.27465102 0.47709176 -1.5686754 0.6017729 -0.16030043 0.15597445 -0.24781598 0.17076394 -0.05981686 -1.085225 0.12809733 -0.0046293973 -0.5910304 0.5397694 0.32611558 -0.4867464 0.19172476 -0.11783252 -0.6220872 0.34938732 0.44950378 -0.696249 -0.089331105 -0.3005402 1.1655477 -0.97431004 -0.31288052 -0.42665115 0.86226046 1.0167482 -1.4306917 -0.38022423 -1.0777538 -0.008211098 -0.45348525 -0.7673639 -0.4843718 0.124523796 -0.46058112 0.9771815 -0.7907347 -0.115713365 -0.8755194 -0.23387873 -0.4607639 0.27133185 0.83152616
601 -0.5345281 -0.16575612 -0.5467568 -1.1302806 -0.45669207 -0.4152526 0.05634953 0.21287332 0.24499457 -0.28660417 0.51025987 -0.20713627 -0.33575928 -0.9474449 0.87952065 0.59087116 0.06743578 0.58337504 0.16411777 0.49694547 0.45494613 0.22532195 -0.16256242 -0.30392388 1.1311892 0.89559865 -0.20916335 0.42651904 0.9072797 -0.83677083 1.3786725 -1.0855403 -0.98625755 0.31544507 -0.8875333 -0.41108692 0.49565223 0.13853174 -0.57603323 0.5465829 0.11854036 0.33103278 -0.8743537 0.23606138 -0.40459836 0.6251539 -0.036722377 0.71766895 -0.011910839 0.42255685 1.2438688 0.4711557 -0.16374868 0.64700603 -0.8180162 -0.67468387 1.1361731 -1.3942158 0.28145364 -0.5185752 0.2036796 -0.3382023 0.8563425 0.031401243
4032 -0.832151 -0.47300652 -0.69106495 -0.15809786 -0.98241705 -0.9055073 1.1696897 0.3956009 0.96247196 -0.5740173 0.14319463 -0.5216683 -0.0005708417 -0.8623375 0.48371294 0.14802386 0.36671585 0.4581887 0.20605952 -0.8777152 -0.023799282 0.68850976 -0.38020006 0.76691777 0.3957966 0.5972081 0.49101743 -1.0155429 -0.63818806 -0.12716646 -0.025809335 0.011524954 -1.0455192 0.025278296 0.048496153 -0.39928797 -0.7663301 0.87323767 -0.32209575 0.94349927 0.35859698 0.33176336 -0.82436234 0.54000914 -0.5003949 -0.20319565 -0.36550754 0.0074873017 -0.8767393 -0.33527476 0.24016401 -0.7500076 -0.827335 0.8400482 0.2538812 -0.3558706 0.26988634 -1.3104018 -0.10168654 -0.586553 -1.3481941 0.53904825 -0.13823782 0.8981998
1250 -0.10128654 -0.8840762 1.1874275 -0.5330874 -0.2413987 0.48279914 0.25795874 1.3606343 -0.64454955 0.78059924 0.55998415 -0.98931646 -0.5758611 -0.19580823 -0.81592333 -0.46091098 0.18265848 0.20187913 -0.9269114 -0.68971455 0.060651418 0.35292625 -0.361407 -0.6936167 0.19606131 0.71061635 0.737948 -0.6837203 -0.3348425 -0.38331884 0.4265142 0.41087884 -0.16453871 -0.30191365 -0.9761882 0.20082052 0.742165 0.118213855 0.2621438 -0.8635385 -0.028046228 0.2948452 -0.8341815 -0.23538783 -0.24661912 0.52495086 0.2351484 0.35228306 -0.4779197 -0.33031964 0.23860197 -0.58164835 0.7812375 0.9528254 -0.21170266 -0.08577551 0.28662747 -0.49368724 -0.26078343 0.14779925 -0.011228314 -0.80967873 -1.1337937 0.08477678
3286 0.6013277 -0.5315463 -0.17657605 0.2552867 -0.6604641 -1.0912051 1.445696 -0.26942664 0.081703454 -0.30081016 0.47803378 -0.24763861 0.23884301 0.3930226 -0.15247774 -0.42166978 0.63456726 0.0813065 -0.6700782 -1.8565177 0.12472754 0.05870494 -0.26865703 -0.5942745 0.49888152 1.092104 0.38074294 0.36653668 -0.05151867 0.06372754 0.95108724 -0.14877737 0.1343971 -0.50606406 0.31158647 -0.31842566 -0.32215747 -0.61422324 0.30099413 -0.092883624 1.3966075 -0.37627184 -0.08738727 -0.04964351 -0.5775036 0.9488578 0.05039756 0.26080215 0.5224938 0.026961993 0.48953718 -1.5052353 0.11659687 0.28056565 0.5126635 -0.40732044 -0.3029242 0.030413892 0.25705656 0.0921554 -0.069604054 -0.31705526 0.47505486 0.3693402
4069 -0.16286977 -0.46763575 1.0431701 -0.095597 -0.46336433 -0.10436554 0.80818665 0.24093233 -0.78620034 0.6083474 -0.48095194 -0.49387738 -0.7587174 -0.010627581 -0.3964281 -0.05372949 -0.05807497 0.33396354 -0.8727643 -0.3745506 0.33712572 0.8453754 -0.36936602 -0.41816902 0.892512 1.3510327 0.53740865 -1.4969938 -0.89951473 -0.02843408 0.5310559 0.55558085 0.34295106 -0.43266225 -0.7017879 -0.5544299 0.6504711 -0.54163426 0.5817218 -0.76719064 0.023235837 -0.24633141 -0.6623484 -0.5152568 -0.123708144 0.7375535 -0.2790383 0.08066045 -0.82699955 -0.00288648 0.0073629357 -0.032760028 0.56118757 0.47131237 -0.76499015 0.4802264 1.1002533 -0.7571478 0.6342785 0.56535345 -0.2956861 -0.59842074 -1.2023596 -0.028400991
4178 -0.67034817 0.35901466 -0.37006482 -0.47532076 0.12636416 -0.5404847 0.27081576 0.48552352 0.6163914 -0.10048359 -0.7345195 -1.1074923 0.5183272 -0.024020148 0.3279952 0.26182288 1.0126194 0.11911596 -0.79229736 -1.0643035 0.40553567 0.41195852 0.24672651 0.18577996 0.09726569 1.5746017 0.053866085 0.29048553 -0.7565753 0.42017856 0.23136735 0.3896295 0.44332236 -0.16650128 0.8446375 0.5916325 -1.254493 0.059574682 -0.40883115 -0.45780098 0.43926147 0.6680728 0.577977 -1.0509335 -0.06101398 0.2656779 0.22285712 0.18481684 -0.11172393 0.11995912 0.7168725 0.15368277 -0.878708 -0.18141486 -0.83810985 -0.3107031 1.3666685 0.4020143 0.8188649 0.7198812 -0.012980802 -0.5770503 0.0056628045 0.88082004
868 -1.1809547 -0.27075034 0.24521232 -0.3213873 -0.037686277 0.29312477 -0.012432707 0.24643604 0.052547053 0.1689753 0.3401989 -1.027703 -0.8455267 0.24442415 0.7498228 0.28623682 -0.25365365 -0.34134778 -0.17944032 -0.8333643 0.038065232 0.049414214 0.5293771 -0.34203687 -0.39610815 0.632422 -1.3958505 0.3317298 -0.45436314 0.26949233 0.4781825 1.2945365 0.28572568 0.5622591 -0.099366136 -0.34595415 1.2909193 0.85406303 0.44823062 -0.38899437 -1.0385777 0.3601214 -0.08672469 0.4707934 0.11713644 0.6798839 -1.3642384 0.035960227 0.29835868 0.032448836 1.2948751 -1.330548 0.17681701 -0.4267868 -0.03851572 -0.12080406 -0.027770186 -0.2899371 0.094521135 -0.044475045 0.44337943 -0.7368555 0.13893697 0.66363454
3888 -0.58506036 -0.17938974 -0.09120989 0.59515095 -1.1677697 -0.1644977 0.61918694 0.5008884 0.64639854 -0.31295702 1.2308474 -0.22288714 0.38128814 0.51311296 -0.7323034 -0.046879813 -1.2010312 -0.31779987 -0.39635587 -0.5221297 -0.31658298 1.9433753 0.60239536 -0.51681554 0.13412732 0.1430646 -0.46176058 0.74439573 0.51758426 0.3832017 0.5397992 0.42436987 0.4776704 0.50278634 -0.09090042 0.5927658 0.45663318 0.14270286 0.30823573 0.19946223 -0.5452715 0.77451825 -1.3051593 1.6116477 0.3627335 0.6286685 0.22215031 0.5785758 0.56946385 -0.4159007 0.97446024 0.14786749 -0.70638025 -0.104771145 0.44721645 -0.8554746 0.17149282 -0.5080609 0.03665488 0.9014034 -0.54788417 0.07685605 0.103108555 0.47258598
987 -0.8670473 0.893716 -0.39048937 1.1405095 -0.50533235 0.6275601 0.18140468 0.55919313 0.90659606 -1.1430489 0.10049165 0.8008814 0.36831445 0.67411935 -0.45807683 -0.7238564 -0.2824687 -0.029292248 0.615305 -0.2918725 0.27001473 1.1228188 0.72259 -0.0203875 0.21938367 0.8468818 -0.19624312 -0.29407394 -0.8482932 -0.36840814 0.5716178 0.37136093 0.1312124 -0.011141777 0.8654004 -0.6218963 0.5677353 0.35245597 0.55814046 -0.34353343 -0.30716428 0.89507633 0.26434043 -0.118367344 0.0044693807 0.90247273 -0.37544367 0.48081884 -0.078095146 -2.1681561 0.13287435 -0.9657894 0.38063756 -0.0050133136 0.16921131 0.07375876 0.42103377 -0.7809634 0.3804505 0.19786344 -0.5631937 -0.385097 0.052098583 -0.5001288
4567 0.6512835 -0.24528116 -0.4174518 0.44473475 -0.21247339 -0.11276938 0.02491272 1.1892785 0.0024834832 0.5317732 0.5264124 -0.19617772 0.146892 0.7716141 0.5275509 0.042430144 0.9343267 0.5233105 -1.0785943 0.11124002 -0.31736493 1.0819579 0.9430884 -0.048367336 0.12789486 0.89342856 -0.7495644 0.20487373 0.4139844 -0.322647 0.19609118 -0.06550949 -0.41526222 -0.3449931 0.7777874 -0.8366278 0.19800474 1.4628327 0.16906822 0.08167788 -1.2801076 0.67780125 -0.21442601 0.36647967 -0.9313864 -0.35542846 -0.73395497 -0.5210492 0.35586768 -0.28369603 0.54395556 -0.010183206 -0.21137357 -0.09961759 -0.84850746 0.38168323 0.9673822 -0.41570422 -0.37048993 -0.55405414 -0.34860837 -1.0649291 0.26080072 0.09279408
2163 0.64665973 -0.03666272 0.520414 0.5888146 -0.6179875 -0.6426458 0.37094983 0.27276805 -1.2063811 0.46070275 -0.36326027 -1.1402848 0.6317249 -1.4844242 0.021049276 -1.033231 0.7630247 -0.14541894 -0.0940683 -1.4877344 -0.16601233 -0.37543514 -0.18164527 -0.77640784 -0.3142745 0.22487502 0.81470454 -0.5685169 0.54247373 -0.64134943 0.253711 0.4452526 0.35525078 -0.6455666 0.49257734 -0.38078916 -0.21628125 0.67071956 -0.12231029 -0.53354084 -0.35346222 1.0486157 0.6027063 -0.3850893 0.2256314 0.7751669 -0.8547821 -1.3935487 0.32353696 -1.0596503 -0.14663528 -1.2284119 -0.1357479 1.0153008 -0.7640579 0.17469631 0.5254643 -0.9535889 0.6426182 0.46141347 -0.012218629 -0.2659925 0.092406586 0.04991855
1167 0.5835142 0.46192855 0.20061256 0.05567247 0.26106545 -0.6094786 1.107839 0.048209105 0.77420825 0.5784356 -0.29910827 -0.8006971 -0.20823711 0.24196397 0.8532638 0.07669848 0.36281815 -0.53178775 -0.31802526 -1.266158 -0.3150714 0.3098245 0.22992234 0.029227305 -0.039066084 0.019081008 0.29984298 -0.6634916 0.3163308 0.41337177 -0.912907 -0.51221746 -0.26883957 -0.73388654 0.1862921 0.1454551 0.90736336 0.3697888 0.25079852 -0.31957215 -0.27133146 0.53669405 -0.025524527 -0.2922237 0.9591108 1.8234463 -0.025250366 0.4510564 -0.8912014 -0.17695168 0.62112784 -0.757303 -0.47911248 -0.21318614 -0.7043894 -0.22062847 0.10295305 -0.25347996 0.11318938 1.1120689 0.043789126 -0.4812339 0.108269766 0.15669166
1686 0.19756465 -0.52300835 0.30735606 -0.51635534 -0.072437204 -1.3683048 0.7070287 0.1355555 -0.41333055 -0.54204756 -1.2341866 -0.35255364 0.117910415 0.7565725 0.8290699 -0.15791762 0.42313796 -0.28003663 -0.884971 -0.4028512 -0.6075613 -0.76294863 -1.025441 -0.58874524 0.022995956 0.00042473327 -0.44439256 -0.2341123 -0.4274682 -0.7572694 1.1259009 0.12211539 0.56760633 -0.46997544 -0.6229103 0.5807918 -0.39048234 -0.016663875 -0.01575582 -0.3749783 -1.1041026 0.112000324 -0.9197005 0.43568406 0.35663697 -0.18311189 -0.3608102 1.0282903 0.5532217 -1.0890036 0.44503167 0.15714711 0.419485 0.15830265 0.016064603 0.3179187 1.6825974 -1.1325233 0.5792282 -0.36011449 -1.3401316 -0.8220536 0.66972816 1.0644277
1143 -0.6671026 0.5986051 -0.52197933 -0.38190484 1.1225181 -0.8035129 -0.0993879 0.4677696 0.994649 0.049082413 -0.30157313 -1.01739 -0.2741648 -0.23521318 0.13239446 0.4058405 1.0788083 0.06878472 -1.5473789 -1.2427448 -0.0063180253 -0.31353554 0.056459483 0.013024414 0.33359617 1.6230222 -0.31582937 0.27410924 -0.035400048 0.75211865 0.60585576 -0.21367906 0.6808949 0.7330107 0.49723577 0.4280505 -1.4080629 0.29988223 -0.6199575 -0.13215713 0.47592473 0.77653444 0.13079314 -0.8380367 -0.6737285 0.27528894 -0.25830692 1.0418019 0.21478455 -0.31252244 0.3941541 -0.19094867 -1.0853276 0.019527115 -0.71804196 -0.49406043 0.7128264 0.34780565 0.13514236 0.9298298 -0.5813679 -0.16857849 0.30859077 0.69644576
362 -0.6854313 -0.04391363 1.1508142 -0.25709802 0.8566552 -1.134224 0.5577622 0.19812998 0.48932552 0.016239889 -0.39054886 -1.4149119 -0.92212754 0.8121729 -0.5206278 0.6718123 0.30654088 -0.079741664 -0.20162529 -0.86046 0.15942238 -0.16239567 0.8660407 -0.38436612 -0.60813385 0.26616824 -0.9151939 0.17268981 0.080860145 0.27579203 0.28761905 -1.6906891 -0.2956792 -0.21469216 -0.018087912 0.32857066 0.1340279 0.7536226 -0.48141134 -0.5105818 -0.40280396 -0.19741143 -0.64085597 -0.25752905 -0.59845793 0.23996796 0.39715132 0.32417378 -0.4697308 0.1915346 -0.64559644 -0.69220644 -0.20911813 -0.4515395 -0.062083997 -0.7906518 1.4847229 -1.131764 1.0978484 0.9074926 -1.2853886 -0.69462097 -0.46979108 -0.47418725
2607 -0.52320844 -0.9713285 0.345747 -0.76520044 0.57263964 -0.6118989 0.13708158 0.7711682 0.35987794 -0.04393468 0.28502333 0.60078496 0.16814324 -0.51623577 -0.09164694 -0.50628257 0.3856287 0.45001572 -1.3212059 -0.37003118 0.8168581 0.37616003 0.38942382 -0.3983913 0.2191072 0.7366593 -0.34891233 -0.5283855 0.9358159 0.089590825 1.1512731 -1.0705158 -0.6814319 0.6064555 -0.091922104 0.12773404 0.105677634 -0.29891998 -0.09832953 -0.96978855 -0.18745357 0.3937527 0.2707126 0.8078528 -1.1293051 1.5578289 0.21371822 0.4402921 -1.3236606 1.1343294 -0.09405351 0.2658972 -1.4381758 0.49029168 -0.3270963 -0.22692801 0.438144 -0.37653708 0.17226842 0.65287983 -0.95424455 -0.8225684 0.83717126 0.82915074
3608 -0.1637233 0.17896445 -0.028904678 -1.3132907 -0.8144024 -0.7130776 0.19864535 -0.63489735 -0.8693367 -0.39981458 0.14726599 -0.8837973 -1.3851851 0.5061974 0.07352266 0.84885716 -0.35990167 -0.17980577 -1.084483 -0.9998349 0.8953005 0.5663698 0.51502186 -0.11768969 0.5210536 0.8747609 -0.7727853 -1.1678523 0.7697045 -0.4268089 -0.07122669 -0.43691605 -0.56894654 -0.21169895 0.62319684 0.97878546 -0.74121606 0.090348125 -0.2587187 0.2778134 -0.44296652 0.30321163 0.064972445 -0.6795904 -0.32821214 0.124836385 0.6354243 0.35305628 -0.8100979 0.43698066 -0.6515337 -0.8884833 -0.21158072 0.473806 -0.15434802 0.043236442 1.1489007 -2.159522 0.5367221 0.34542322 -0.28554246 0.28441918 0.115612574 0.74775636
4494 0.13274452 0.07144617 0.8720997 -0.05264936 0.44939205 -0.4688363 0.031662006 0.48583898 0.9798554 -0.32109508 -0.82530695 -0.26267844 -1.2407533 0.69460416 -0.87239534 0.4577466 -0.58241314 0.2272763 -0.78702956 -0.9022944 -0.78005624 -0.7578582 0.26937273 -0.46194494 1.4089301 0.22115465 -0.027275408 -0.7582645 0.84042186 -0.5475446 0.65200984 -0.7247072 0.24983664 -0.010896545 0.48721108 -1.2205552 0.033329807 0.83672416 -0.61380917 -0.22869977 -0.81021434 1.1196256 -0.8358464 0.23919338 -0.61591166 0.47099638 0.3373148 1.0026218 -0.96598864 -1.2109852 0.18411613 0.10587921 0.623499 -0.16065091 -0.28107193 0.41968048 0.56836665 -0.012765829 0.182324 0.17961264 0.5629774 -0.3514516 -0.5173284 0.091276854
984 -0.43835095 -0.48791793 0.24362981 0.2508163 -0.06250296 -0.2328835 1.3511815 0.4297241 -0.896827 -0.28185618 -0.44794846 -0.4838838 -0.09709547 0.29102376 -0.33319324 0.5019766 -0.36981836 -0.8779386 0.47223857 0.70198 0.11332998 -0.23020591 -0.3386762 -0.13286832 0.5671606 0.6068438 -0.6582443 -0.1634985 0.54249966 -1.4218484 0.66739 -1.7817641 -0.964155 0.30416247 0.5590697 -0.6203063 -0.7423647 -0.586869 0.1609051 -1.3556856 0.6082623 0.8936209 -0.7626803 0.36392075 -0.029735588 0.2292809 0.47326744 1.6944194 0.05642887 -0.8478907 0.14830288 -0.06647853 -0.5414241 -0.79138213 -0.93270165 0.15964963 1.1517042 -0.9307489 -0.14396334 0.4047995 -0.9021678 0.9588684 -0.30848813 0.7420509
3192 -0.6065089 -0.45306292 0.40059245 -0.5035078 0.085879795 0.5790831 -0.020048754 1.3876551 0.55601454 -0.0768336 0.3520386 0.08569533 -0.07021013 -0.24003604 -0.35931325 0.015560074 -0.810659 -0.0989706 0.4109537 -0.65065336 -0.017686818 0.35897815 0.8851637 1.1485872 1.0745914 -0.3780731 -0.8403797 0.046787787 -0.25368562 -0.7715272 0.16118051 -0.37479854 -0.3117142 -0.46136585 0.57982653 0.185551 -0.6145558 0.8123116 -0.14378367 -0.3567936 0.42575964 0.14613727 -0.8392748 0.6781515 0.45363325 1.2152036 -0.60454434 0.5498792 -0.9926045 -0.44619027 0.38143063 -0.6663007 -0.6388254 -0.12209915 0.61943775 0.015123981 1.2593592 -1.3074576 0.5572105 0.10951472 -0.2053326 1.1023724 0.19698371 0.9876063
2059 -0.3041393 -0.7172356 -0.07657118 0.23756117 -0.26063165 -0.10237744 -0.5760873 -0.20713039 0.42116758 0.04614019 -0.5678356 -0.52452457 0.53908455 -1.0709342 0.13436037 0.5390201 -0.018313922 0.29530314 -0.41321072 -0.50619227 -0.5886367 0.17673592 0.5390896 -0.6986063 0.57947135 0.85684985 -1.1506106 -0.059059516 -0.37555537 -0.19020088 1.4153157 -1.0963671 0.33673966 -1.0186617 0.0017221218 0.14328068 0.37763512 0.24378225 -0.6867353 0.021726739 -0.9170357 0.3566296 -0.35122642 -0.011970751 -0.31179437 0.0026475776 0.68775463 0.6059141 -0.59123224 -0.80230224 0.25681254 0.32595727 -0.9074985 0.22055456 0.58704215 0.9088223 0.75149715 -1.229641 -0.81989795 1.0177196 -0.1046707 -0.36478978 -0.328746 0.48216903
4330 -0.7851824 0.04656372 -0.0026443307 -1.3298186 0.03490446 -0.4734788 -0.3231243 -0.09141187 0.6257201 -0.34509528 -0.46340972 -0.24665277 -0.23511828 -1.0044748 0.10494133 0.51005244 -0.023727503 -0.6958202 0.046056043 0.42843938 0.4168316 0.72958434 0.44158348 -0.5128596 0.40910503 0.76435333 -0.29208997 -0.10308057 -0.63037056 -0.5541766 0.7801057 -0.759119 -0.05365377 -0.22520435 0.9365276 0.041518442 -0.6945228 0.058082193 0.0808898 -1.5631192 0.39629263 0.785524 -0.6750916 1.0459268 -0.14903156 1.3857403 -0.40499195 0.41232455 0.4127144 -0.16435766 0.93036 -0.7364499 0.5415188 0.2238289 -0.4265003 -0.6587815 -0.3185813 -0.111482576 -0.8805431 0.4746732 0.47626868 -0.08642741 0.21225868 -0.48938954
735 0.24679242 0.40105098 -0.074723035 -0.65742767 0.8592261 0.06055389 0.74437094 1.0482304 1.065315 -0.74848837 0.45616361 -0.0458625 -0.49972764 -0.5444783 0.34853202 0.23827617 0.55089676 -0.16483626 -0.27255166 -0.120306075 0.58082014 -0.7404463 0.14595306 0.7877161 -0.3629896 1.4764067 0.4480571 0.12153859 0.33784238 -0.4685576 0.51169413 -1.2816522 -0.73212624 0.24473755 0.19476499 -0.83648735 0.5152221 -0.33748305 1.4245508 0.06204322 -0.15668082 0.9243056 -0.46916276 0.77073383 0.72595894 0.48395255 0.36904567 -0.015073129 -0.21096332 -0.79038143 0.034524564 -0.74628997 -0.8542069 0.8496153 -0.6891173 -0.23252325 0.5398907 -0.35241422 0.7758248 1.0195221 0.3615605 -0.14210775 0.5392174 -0.13150999
2998 0.061311293 -0.029543044 -0.028975587 -0.30098638 -0.15387161 0.46645963 0.5188295 0.5591931 -0.33819574 -0.607613 -0.70201015 -0.9654497 -0.20829804 0.6420932 0.7654255 -0.33311218 0.44323596 -0.042647097 -0.36328197 0.19717753 0.98926115 -0.365377 0.1826979 -0.15239638 -0.08282629 0.7639545 0.43599442 0.39792296 0.20289192 -1.5424831 0.7779956 0.46663213 0.83749896 -0.9413348 0.7580182 -0.0074742837 -0.1143122 0.40770492 0.27059934 1.277099 -0.33420056 0.8270684 -1.2239792 0.6561098 -0.3060323 1.0563334 -0.49984366 0.76212406 -0.857393 -0.3135336 -0.5380177 -0.90275776 0.045794025 -0.17106092 -0.496951 -0.74385613 -0.4058857 -0.45736927 -0.16125731 1.0962932 0.27249956 -0.27721807 0.70561016 0.8602322
828 0.17191245 -0.1685227 0.08209679 -1.1805652 -1.0943987 0.36884108 0.7694909 -0.9355346 0.2910529 -1.1703188 0.6342736 -0.58201456 0.033095334 0.6765284 0.1365678 0.26991972 -0.28531826 -0.20011088 -0.08607223 0.25551498 -0.47753036 -0.20948054 -1.6578431 0.17559488 0.39664006 -0.3907779 -0.20158704 0.2874628 -0.30508962 -0.5463593 0.066799454 -1.2638823 0.22712728 0.04910654 0.89327884 0.3501472 0.6148371 0.20810871 -0.024123712 -0.19623671 -0.58099926 1.0247974 -0.97744566 -0.8434837 -0.37881202 0.61448634 -0.49984184 0.45700312 0.12881432 0.27244517 0.8517433 -0.67144525 -0.5640427 1.0121297 0.31342024 -0.8037624 0.7414403 -0.4819652 -0.13868569 0.2712348 -0.2870081 -0.920269 0.030837037 0.7546294
4841 -0.023933366 -0.2792117 -0.5410562 -0.4308499 -0.2309631 -1.0141158 0.9043983 0.17188036 0.6185749 0.6119024 0.87250555 0.028439663 -0.6502757 1.1421489 -0.8800197 0.102114774 0.44258264 -0.23535508 0.77086866 -0.17137165 -0.3162588 0.58439136 -0.97808856 -0.63970554 0.8969963 0.8179881 0.28760096 -0.6177484 0.11612712 -0.50662726 0.85211384 -0.19851446 0.29992694 0.18468624 -0.26420847 0.25162792 0.18348491 0.29233074 0.0022726 -1.0072052 -0.24113372 0.83337605 -0.01768471 0.1453769 0.57507867 0.38486144 -0.03378746 -0.040026203 1.7198558 -0.9472015 0.28516716 -0.22182515 0.32621214 -0.7369266 -0.2231799 -1.1292832 -0.032237045 -1.4604579 0.78391236 0.5899195 0.3690869 -0.2908845 0.104323246 0.18581781
369 0.12865724 1.6934384 -0.72758293 0.4318321 -0.7271522 -0.0977023 0.17124575 0.44579408 -0.21201052 -0.051857818 0.34095594 -1.2939651 -0.79800016 0.06201925 0.37738892 -0.20159768 0.73359025 1.2349079 0.5122912 -0.1461258 -0.4533414 0.31921965 0.05569786 -0.839686 1.3659217 0.97371536 -0.34408852 -0.123135716 0.69232625 -0.49713784 -0.8600099 0.75085974 -0.5599372 0.13126346 -0.01789781 0.30629843 0.018497685 0.89820105 0.8702087 -0.92970777 0.38191256 0.8803833 -0.4865506 0.57622313 0.04355388 -0.24285403 -0.9339063 -0.48259452 0.6635636 -0.0047511337 0.4718856 -0.5758222 0.31701672 -0.6294264 -0.52928585 -0.27426305 0.45307088 -0.5106569 0.6525 0.47593847 -0.32005876 0.17189021 -0.99197406 0.8965619
2467 0.70227915 0.3624105 -0.14586538 -0.21558987 0.123569444 0.7819926 1.1433465 -0.053789932 0.62943745 -1.0347215 0.8302899 -0.40466076 -0.7217823 0.10056455 0.56358737 0.7912227 0.41538253 -0.7354284 -1.1633997 -0.24088416 -0.16935658 -0.1120201 1.0217912 -0.48714247 1.451132 0.64950454 -0.31565914 -0.28191683 -0.014962187 -1.3796514 0.8458678 -0.5572013 -0.53288275 0.12047677 -0.27057928 -0.20166193 -0.387663 0.61153 0.4539638 0.27864024 0.4599099 -0.08499006 0.24062143 -0.26847595 0.97175205 -0.565834 -0.9321286 1.289964 0.50608265 -0.44366395 0.72791624 0.23454593 -1.2912438 0.22729766 -0.16439377 0.89504904 0.6010064 -0.8450447 -0.5188303 0.46185657 0.38002047 -1.5401981 -0.87087125 -0.29599738
3934 -0.9916027 -1.2245555 -0.6919579 -1.4115534 -0.5574956 -0.3475247 0.734938 0.6295867 -0.112696886 0.2196067 0.5683608 1.167933 -0.16130494 -0.35577184 0.18820733 -0.53288215 -0.15706189 -0.54915315 -0.5601328 -0.46206594 -0.35801512 0.08906247 -0.4955298 -0.32988134 0.053991225 0.6084315 -0.076097764 0.9171979 -0.970406 -1.184571 -0.02591793 0.14740452 -0.6580341 0.8693168 0.748443 0.091495074 -0.578876 -0.01925226 0.5427474 -0.5295877 -1.0552218 -0.41028154 -0.015825864 -0.03262251 -0.866391 1.1101971 0.31068033 0.8112522 -0.33828855 -0.07293161 0.31466287 -0.0994354 -0.3818548 0.04888718 -0.17566174 0.11950811 1.3707124 -0.67290604 0.9615155 0.63041097 -0.7246396 0.9075418 -0.71610284 0.23429053
3802 -0.23108669 0.41940486 1.2183774 -0.2759536 -0.15510698 0.35809553 0.60128486 0.07714647 0.17852722 0.5384948 0.7359075 0.5018684 0.1417875 -0.8616591 1.7548174 -0.13164489 -0.6359137 0.24818838 -0.27246636 -1.1517557 -0.138576 0.079879425 -0.6793006 -0.5180684 -0.042126186 0.40463373 -0.1002257 -0.1987992 -0.9344894 -0.5882168 -0.18574072 -0.3842163 -0.06092064 -1.0399894 -0.06852586 -0.8464141 -0.12667598 -0.8215895 0.21937743 -0.9278133 -0.9010761 -0.083507136 -0.81305295 0.1731716 0.42375588 -0.35496587 -0.26612955 0.0039254264 -0.49416676 -1.1482451 1.1431556 -1.2490926 0.40878528 -0.16615637 -0.27947283 -0.15914537 1.284228 -0.39435783 0.84475213 0.044402026 -0.82982236 -0.52711606 -0.9233992 0.24506348
769 -0.41480896 0.73319757 0.1833665 -0.52543277 -0.60563886 -0.5152834 1.1490655 0.51567835 -0.2566186 -0.892651 -0.6141295 -2.1114845 0.7257214 -0.330613 0.40440923 -0.2762251 0.13369709 -1.395261 -1.0465745 -0.82665646 0.06401032 0.66610724 0.7058753 -0.4959907 0.37974918 0.30350515 -0.8933778 -0.6570607 1.0956657 -0.11982569 0.64472944 -0.23030062 0.2942272 0.8973039 0.47157153 -0.47592783 -0.3859652 1.2986212 -1.0152478 -0.31267327 -0.46949643 0.09231814 -0.14270867 0.3651245 -1.2503132 -0.14661235 0.6082489 0.4883516 -0.24091916 -1.0614971 0.480521 -0.00037636535 -0.4192868 0.6497103 0.15036286 -0.48576096 0.8476556 0.30412504 0.15148327 -0.9381881 -0.6157492 0.8102881 -0.44865748 0.022713263
2126 -0.40526232 0.13294889 0.26997247 -0.102629505 -0.16554824 -0.3670045 0.45357335 1.1564606 0.017723117 -0.88967204 -0.092326105 -0.806773 0.39024094 -0.19051813 0.28848064 0.12484452 0.13239083 -0.4895667 0.19795412 -0.45056376 0.3560075 1.2427423 -1.3967156 -0.66218704 0.26950496 1.0835772 -0.23078117 0.46396995 -0.435447 0.83292073 0.9358305 -0.1698412 0.8591118 1.0629171 0.5319726 0.42522714 0.4155061 0.65415657 0.5074058 -1.0544101 -0.9838836 -0.30070606 -0.50848377 0.2455957 -0.99809307 0.2597848 -1.238737 -0.32498085 0.10757712 0.37981442 -0.7121657 0.05382206 0.20032912 0.77172333 -1.2900566 0.76529926 0.8760692 -0.002676155 1.150152 0.20442523 -0.29130742 -0.14160694 -1.1895236 1.4329568
1769 -0.75314695 -0.25013483 -0.23464116 -0.11944202 0.41582417 -0.14933287 0.79853284 1.3054261 0.6021753 -0.01706119 1.0060735 -0.7351377 1.0927825 -0.32793078 0.6416351 -0.5264003 -0.7028371 0.3492102 0.8669017 -0.47976744 0.45245495 -0.08904298 0.610583 -0.6884095 0.68464315 0.117671065 -0.06844617 0.74557924 0.040817052 -0.12861602 1.1234903 0.026672361 -0.9351423 -0.11101501 -0.65825486 -0.3853444 0.7132802 -0.14074774 0.0865484 -0.60365 -0.21100292 1.1051713 -1.1776642 -0.18713774 -0.39526668 1.3559724 -0.28936648 0.62217396 0.4075114 0.13187073 -0.038513076 0.2726733 0.011158947 -0.54340357 0.58482677 0.4005642 0.7228017 -0.45053008 0.26792252 -0.99469805 -1.0658636 -0.9220617 -0.8293007 -0.34702322
4694 0.120796554 0.35425243 -0.35336792 -0.8226887 -1.0193036 0.6229426 0.2686898 -0.10009272 -0.601486 -0.7705568 0.94240624 -0.1838822 0.4835399 -0.0475217 0.5318466 -0.56398594 0.24961154 0.031923052 0.5093854 -0.13640617 0.19831756 -0.9801763 0.34012055 -0.7711502 -0.5224531 0.971332 -0.011735614 1.4534786 0.32704234 -1.1935904 0.8989347 0.44883606 -0.2686865 0.34849405 1.0391663 -0.09596799 0.9890266 0.05570423 -1.0022688 -1.0339452 0.48950756 1.0615997 -0.8833725 1.1403618 0.46997994 0.5242636 -0.053472035 0.52625364 0.19560115 0.28439227 1.5283145 0.09102986 0.19594835 -0.27108464 -0.7914151 0.09619905 1.1885022 -0.26039597 1.1354437 -0.048100203 0.024537312 1.118425 -0.79298997 0.06036671
991 -0.2487353 0.0142063685 0.31269857 0.1436041 0.4332636 0.6026078 0.7099862 0.8284942 -0.17525208 0.883501 0.9502255 -1.0503277 -0.6960844 0.08453446 -0.9802058 0.020192746 0.13436055 0.90248024 -1.1628298 -0.629963 0.04817959 1.5678104 -0.452788 -0.9177289 0.012628779 -0.008483957 0.042415366 0.017369721 0.21871184 -0.51464534 0.77758425 0.3359258 -0.32405192 1.1188208 0.7904362 0.22240922 0.030029597 0.6636136 -0.41537103 -1.2917578 -0.29145274 -0.27162376 -0.7962155 -0.3993192 -0.4743659 0.12337392 0.86221313 0.905234 -0.5502294 -0.5780858 0.24222168 0.28157452 -0.25004375 0.33118486 -0.59953684 -0.4538088 -0.083705254 0.14588793 -0.31000695 0.58461595 -0.50020266 0.44593996 -0.408351 1.06066
1521 -0.52548933 -0.048324075 -0.06228882 0.23549038 0.02113092 -0.152778 0.8054307 0.7436557 -0.010440949 0.1702319 -0.34171405 -0.5874781 0.48233065 -0.5808219 0.36689013 0.17782307 0.1279822 -1.1591281 -0.6647535 -0.28191367 0.29107973 0.78116435 0.922646 -1.0686835 0.042932004 0.18264177 0.16573581 -0.35646045 0.48487952 -0.83898526 0.8098401 0.6065954 -0.07360205 0.4329144 0.04698728 0.37739742 -0.6998681 0.5715654 -1.0185212 -0.8210701 0.3924473 0.9375109 -1.2972168 -0.54507184 0.5099957 -0.09286633 -0.82673824 0.53869855 -0.7973294 -0.6698326 1.4032366 -1.1027011 -0.34209624 0.111418195 0.53006774 0.21400768 -0.45679143 0.7728744 -0.37062 -0.57440394 -0.2999555 0.18568031 -0.43972662 0.042463012
2502 -0.3590245 1.2132444 0.3233024 -0.04774301 -1.1111022 -1.3125223 -0.22584684 0.5908482 -0.8569039 -0.4881665 -0.027127465 -0.5156931 -0.27372605 -0.81673616 -0.16603336 0.28681 -0.35924 0.013971096 -0.7275972 0.5703839 -0.051880907 0.0042559165 0.16288327 -0.88795054 0.3297606 1.3516749 0.5709237 -0.57658684 -0.33844462 -0.98956764 0.1637003 0.90394837 -0.80626 0.9306421 -0.21942957 -0.12399708 0.045802172 0.823107 -0.21787018 -0.80472314 -0.2097676 0.6044822 -0.54515886 0.3370755 -0.17988214 0.13749862 0.44185147 0.49782673 1.4912847 -0.1168194 1.059362 0.16340373 -1.0303987 1.0126528 -0.07500757 0.24899343 0.36601552 -1.322703 -0.52834904 0.47002098 0.6149708 0.30166247 -0.5502485 0.32123634
2215 -0.802474 -0.2258358 -0.33220047 -0.023726093 1.149641 -0.38037488 0.99237007 -0.0014380132 0.9026945 -0.717176 0.7070208 0.1604572 0.027547823 -0.12634827 0.23081808 -0.052465875 -1.2047992 0.70443094 -0.3972842 -0.45803437 -0.078438535 0.7333417 -0.27282003 -0.07400793 0.5893593 0.46929273 -0.43985415 0.38186285 0.23914136 -0.7151272 0.14900875 0.90566766 0.06652016 -0.37892133 0.10656161 -0.5977826 -0.05196437 1.7806263 0.37586376 0.62007993 -0.07149378 0.62971115 -0.23551379 -1.6535455 -0.14465635 0.40465495 0.78913814 0.4899046 0.9059089 -0.95280904 0.675478 -0.19589642 0.22422142 0.97028214 0.22507493 0.33038792 0.8690308 -0.4490329 0.82855934 0.8588979 0.0156206945 -0.0006092541 -0.45673063 0.14832447
3483 0.76176757 0.57812506 0.2605689 0.16812831 0.47761676 0.88643 0.4063014 -0.8975931 1.1496737 -0.56049323 0.14223021 -0.23390673 0.15470758 0.5268313 -0.68360925 -0.5961503 -0.5542396 -0.34898692 -1.0845588 0.011864088 -0.92492115 -0.8608514 0.61679876 -0.3969988 0.58714974 1.3113542 -1.2672241 -0.14039285 -0.50773567 -0.55467945 0.017796595 1.3627772 -0.58887947 0.11246615 -0.30109397 -0.07065238 0.478608 0.29260853 -0.4517955 -0.72503006 0.76876205 1.4627528 -0.30340132 -0.6396582 -0.8779115 0.84880096 0.7120457 -1.1898925 0.39288118 -0.31380317 2.0800905 -0.8048047 0.19703172 0.3797671 -0.41100553 -0.43334353 0.40242058 -1.8111414 0.10579251 0.018639237 -0.34597796 -0.52013826 0.0699917 0.5030936
4907 -0.14025258 0.29400864 -0.49297062 -0.2013541 -1.1028494 0.19275655 1.0760642 0.50328207 -0.69244826 -0.4792086 0.45068944 -0.05997668 0.32002848 -0.39837942 -0.47918898 0.5400907 -0.9333403 0.012781692 0.6103877 -0.2851283 0.48681608 0.092054196 1.0422567 0.20995753 0.5345428 0.3648686 1.1454581 0.5630987 0.33600086 -1.2363875 0.50045794 -0.32456228 -0.03386549 -0.35960522 0.33338556 -0.58329797 -0.1141751 1.1985325 -0.3380231 -1.0939792 1.4726312 0.36557606 -0.6612628 0.54786855 0.1744142 0.2725303 -0.96748227 -0.23550062 -0.43056315 -0.70687515 0.67117447 0.16397803 -0.08850711 0.9288448 0.05937628 -0.7150451 -0.08094899 -1.1814792 1.0451076 0.45445204 -0.085684285 -0.93496585 0.26995683 0.9265165
454 0.18479292 -0.6783186 -0.21445945 -0.64098084 0.20204185 0.5388317 -0.20853432 0.57468003 1.3800945 0.43409592 1.1114066 -0.27182668 0.39245892 0.0061928183 0.9345886 1.0743098 0.64760244 -0.34094685 -0.46879473 0.06620747 -0.059556793 -0.036396675 0.06978487 -0.30877697 0.7959827 1.2055146 -0.39693022 0.46152377 -1.0675609 -0.2614441 0.26406243 0.118922435 -0.44508955 -0.20074014 0.5550005 -0.39102438 -0.19457865 0.83148295 -0.69791585 -1.2125304 0.17150508 -0.5570166 -0.4710795 -0.1541484 -0.17314969 1.0992843 0.48397583 -0.19097596 -0.91367215 -0.010958045 0.22167109 -1.0099095 0.17578396 0.24126121 -0.26908284 0.103111126 0.2821714 0.751284 0.5682107 -0.43557534 -1.0208503 -0.62764215 0.49430573 0.60321563
1930 0.70591795 -0.120278195 -0.045786966 0.27021414 0.22563443 -0.083608106 1.327871 0.11003321 0.47526067 -0.7134958 0.2544539 -1.3361931 0.5904137 0.23589712 -0.26123977 -0.90748686 -0.26842016 0.0981413 0.02907617 -1.0339545 -0.018486692 0.8230545 0.6831609 0.64669454 0.27879524 -0.6075128 -0.055728506 0.29481718 0.35800987 -1.1935811 0.81564516 0.78198403 -0.33270422 -0.11578492 -0.537879 -0.055888202 0.616818 -0.16681401 -0.28134528 -0.3280676 -1.0318884 0.70409304 -0.14998274 -0.12976788 0.24926175 0.8893447 0.89214146 -0.26166418 -0.73736304 -1.3520064 0.40271577 -0.21051586 -1.3934072 -0.48712888 -0.17640854 0.81839424 1.0675393 -0.43619862 -0.7343931 -0.2064629 -1.097646 -0.93779504 0.30323258 0.9304585
1049 0.5446121 -0.2579967 0.24780278 -0.5869308 -0.7968912 -0.24995677 -0.24413985 -0.15686543 0.4686125 0.42372945 0.5366532 -0.64978427 -0.50523466 1.4377124 1.211843 -0.12758885 0.5060209 0.4770921 -0.13008264 -0.30987775 -0.542691 0.09724262 0.099621296 -0.43346852 0.9219113 0.9257545 0.41505104 0.066271156 -0.22455107 -0.20871602 -0.024088908 0.13984635 -0.29908252 0.21249294 -0.32580337 -0.94256634 1.4629502 -0.8085292 -0.2042147 -0.657452 -0.4334569 0.5935247 -0.7573441 0.3556138 -1.1618631 0.7445685 0.748251 0.76685154 0.96123147 1.0066973 0.40969926 -0.26784986 -0.6867629 -0.72052807 0.46917927 -0.69080114 1.0858953 -1.7976092 0.9245747 0.21212749 0.19637197 0.7064992 -0.755978 1.1157866
3242 0.861004 -0.40757996 -0.5750781 -0.7361706 -0.25918433 -0.08500094 -0.008874861 0.9773959 1.257786 -0.36977175 0.73496586 -0.016996339 0.94156057 0.4009105 1.1781282 0.6808563 1.5615886 -0.5320419 -0.36275092 -0.32270506 -0.061029606 0.3457193 -0.04581578 -0.73584193 0.37912598 0.91817355 -0.42684975 0.1308365 -0.75396717 -0.27620885 0.68031484 0.6886177 0.5600199 -0.497681 -0.24275415 -0.53105044 0.15133655 0.060863968 -0.5010853 -0.82059497 -0.034233946 0.703493 -0.038669918 0.21050724 0.25166565 0.8338305 -0.011927694 0.46787554 -0.24173741 -0.6714697 -0.5405872 -0.54425454 0.55200934 0.6473954 0.6139902 -0.03974833 0.8551579 0.89174074 -0.06835875 0.687849 -1.6744872 -0.59134495 0.93609804 0.9860779
2756 -0.05543025 -0.78840816 -0.2853309 -0.38394865 -0.5510533 -1.0206972 -1.0196173 0.75032896 -0.28561547 -0.026418177 -0.60176396 -0.72600085 0.5275212 0.31660786 0.32435206 -0.48595178 -0.46059227 -0.53037524 -0.7416823 -0.45761967 -0.88288033 0.096952274 -1.1159987 -0.12811767 -0.5787054 1.6010791 0.6431739 0.29177517 0.8069662 -1.2381678 0.35988835 0.13709946 -0.5121402 -0.093143106 -0.4064826 0.86951363 -0.0104155 0.80067146 0.039523847 -0.86977047 -0.24961226 0.3188934 -0.44368544 -0.76717293 -0.5236857 0.91536534 -0.4279933 -0.47504273 -0.26331255 0.32406837 -0.018802352 -0.91582537 -0.4731005 -0.4851664 -0.57441854 0.24557102 0.45841295 -0.48184648 -0.1535288 -0.5425586 -0.28653806 -0.58162314 -0.69068885 0.61564785
2816 0.13361046 -0.45022333 -1.247819 0.12951727 0.3770122 -0.043918382 0.7549896 0.624023 -0.3848832 -0.37670505 -0.3906741 -0.5231406 -0.48190105 -0.4023022 0.61831367 0.49348792 -0.10472697 0.53097737 -0.9091597 -0.67838264 -0.25573254 0.6690825 -0.48193035 0.3451423 0.60106486 1.3477765 -0.40073076 -0.112982474 0.7466391 -0.757975 -0.01865693 -0.21920201 0.5529185 -0.4317981 0.09108375 -0.057493348 -0.69612235 0.34340593 0.61306375 -0.22850287 -0.29463348 0.18028916 -1.374045 0.45068303 0.56297356 0.050989933 -0.2105426 0.6366376 -0.81251687 1.3191048 0.64087605 -0.4790949 -0.012045302 -0.07549917 0.84945244 0.047016155 0.44231287 -0.5761206 0.5867153 0.6684262 -0.852325 0.21526341 0.3354811 -0.3914329
3282 -0.867767 -0.33165407 0.1383356 0.25803825 0.44045922 -0.4574841 1.7029436 1.1127149 0.76054513 -0.16391937 0.28706318 -1.2478265 -0.59666806 -0.4075216 -0.23458916 -0.48386014 0.5893827 -0.27583382 -0.119334556 0.25686514 -0.83698046 0.1061177 0.23882145 -0.1885993 -0.7649556 0.7161971 -0.23678435 0.826453 0.27985093 -1.8512386 -0.24717832 -0.67231965 -0.64811844 0.11243075 0.53021955 -0.27732545 0.6615585 -0.94238895 -0.6262729 -0.81923676 0.3611474 -0.4820561 -0.7851425 0.70047104 0.049928486 0.14944422 -0.8251413 -1.0958607 0.35236079 0.32824773 0.16225275 0.3328103 0.54002726 1.125685 0.13242505 -0.8652666 1.7361735 -0.5578878 0.9599156 0.61986595 -0.04669915 -0.09657216 -0.173274 -0.5914958
866 0.53944844 0.25736776 -0.30039144 0.32861236 -0.43706706 -0.60283446 0.27167282 0.5295914 1.136338 0.30718735 0.9675244 -0.10863754 0.92547095 0.1127158 -0.9192318 0.3218171 -0.39907607 0.26779705 0.2920893 0.71545523 0.17160921 0.15449844 0.8675594 -0.37785164 -0.026891408 0.481043 -0.09996673 0.19634463 -0.1521656 -0.7870825 1.3110645 0.8524283 0.13350381 0.20258835 0.1764788 -0.12620437 -0.6307214 0.4073257 0.39803585 0.34072614 -0.5140524 0.85321724 -0.6493662 -0.56404376 -0.5599621 0.4159536 -0.22685103 0.51222414 -0.95742905 -0.29625133 2.3604445 -0.79933107 -0.35383815 0.3767326 0.37473112 0.5977994 -0.4287565 -0.4032888 1.936646 -0.7183177 -0.9170498 -0.17640279 -0.5634292 0.061273877
2331 -0.118984446 -0.053284314 0.36671475 0.8403679 0.04511599 -0.86619824 -0.17776771 0.47183222 0.34841356 -0.9046336 -0.7015416 -0.3050157 -1.048508 0.6642087 -0.4059075 0.35496682 0.12276826 -0.49837482 -0.21757916 -0.7335176 -1.012622 -0.6679609 0.11337772 -0.44073883 1.4942293 0.16575693 -0.6905102 -0.6411903 0.6378069 -0.24750437 0.7638723 -0.6973361 0.65912473 -0.6726768 -0.030061254 -1.0766903 0.1974711 0.79918325 -0.20114358 -0.15265553 -0.66878366 0.63951254 -1.1024437 0.103188924 -0.46719506 -0.040629026 0.61194986 0.9016318 0.03457123 -0.795084 0.5575094 0.006826366 0.4524209 -0.14039385 -0.16732448 0.1237676 0.8801826 0.1438686 0.65786374 0.70541835 0.44012907 -0.2599942 -0.078833506 0.693764
4845 0.49826807 -0.27156314 -1.0069348 0.0869755 0.4951764 0.40668067 -0.17990847 0.7885193 0.82889986 -0.8396073 -1.1786329 -1.0937073 -0.43260857 -1.1574559 0.11116785 0.9000519 -0.50090104 0.78423107 -1.0751722 0.034670725 -0.13796745 0.6988473 0.10127442 -0.28779826 0.52472264 1.0841178 -0.8417471 -0.011933984 0.42723295 -0.21991459 0.10567555 0.38900316 -1.0623394 -0.37932605 -0.4471095 1.042391 -0.84759164 0.20059149 0.5136563 -0.11541637 0.38925937 -0.27013785 -0.4688688 0.18350229 -0.3855612 0.91120046 -0.25570226 1.3666754 -1.0101532 -0.6987022 1.3441594 -0.5334725 0.21203017 0.19246459 0.33159995 -0.22460636 1.2249813 -1.4733775 0.5971305 -0.18696335 0.7548106 0.57105124 0.11747306 0.31735668
2537 0.7556752 0.5566358 0.43616098 -0.24931143 -1.0067618 -0.8921438 -0.18232578 -0.32050732 0.20693974 -0.5742295 0.64238083 -0.42899454 0.3147703 0.2642173 -0.03347514 0.25160033 -0.36134484 -0.43011898 -0.58415174 0.020674348 -0.4071965 1.1486735 -0.92387563 -0.20985611 0.064587906 -0.8806361 -1.2367486 -1.0001376 -0.32544413 -0.65574855 0.40828693 -0.7193991 -1.2594415 0.34870416 0.5361385 -0.01884585 0.6369563 0.33713418 -0.24327856 -0.2790172 -0.639219 0.5958247 -0.5113957 -0.80007887 0.61499065 0.09374966 -0.40806252 0.45616144 -0.4242795 -0.2076938 0.22506955 -0.42718077 -0.074511796 1.0399501 0.4810029 -1.7309648 0.87295705 -0.2603469 -0.27203092 0.8353816 0.16648898 -0.96970856 -0.29760683 0.6826199
284 1.2387587 0.26213923 -0.29971102 -0.35111648 -0.08697964 -0.18560164 0.6272128 1.0944663 1.536146 -1.0376489 0.18460654 -1.0477126 0.0068279556 0.1334523 0.07153046 -0.1663295 0.8505824 0.20494333 0.5636251 -0.8516203 -0.85568655 -0.016889678 -0.23729216 -0.64590436 -0.19319716 -0.40038547 -0.04198631 -0.38064873 -0.010118464 -0.41003358 0.8248607 0.48756033 -0.48962054 -0.9371833 -0.08925981 -0.9699008 -0.74642503 0.56737864 -0.4229444 -1.0241596 -0.3552554 0.01599779 0.37062827 0.02934332 -1.4346626 0.95910376 -0.14217229 1.1999938 -0.32726955 -0.6694681 -0.9664436 0.40779316 -1.3319032 0.8720366 -0.7555289 0.043135293 0.27290317 -0.33586827 0.7892318 0.5294206 0.51680374 0.08347997 -0.3803827 0.65679127
2374 -0.53388166 -0.41761357 -1.4789623 0.061831556 -0.13371317 -0.61088216 0.60852176 -0.32173055 0.10213514 -0.47653836 0.38558662 -1.3616183 -0.039133858 0.67010105 -0.82066095 -0.041646272 0.9098613 -0.066341735 0.04637987 -0.11711653 0.60824364 0.010857392 -0.14053151 -0.9408392 -0.14893125 0.53905374 -0.96164364 0.21776538 -0.7718468 -1.5008508 0.49183154 0.069855325 -1.4329157 -0.02897656 0.01445005 -0.91452104 -0.11757153 0.49763718 0.3351445 -0.7647219 -0.01648922 -0.58741415 0.28394622 0.33983934 0.20730568 0.21318147 -0.72642577 0.13151869 -0.76424396 -0.6523463 0.077875756 0.18581125 -0.13078257 -0.12629214 0.7129598 -0.26091254 0.7725411 -0.35222426 -0.024147885 0.12429804 0.22418633 -0.55183804 0.20524903 0.09625187
938 0.24262503 0.081055984 0.0841601 -1.3159021 -0.31789646 -0.19062103 0.10966112 1.034511 0.68123716 -0.89450705 0.22835127 0.26256353 0.35089108 -0.18005784 -0.06262466 0.7484641 0.335228 -0.78346455 -1.708362 -0.22613063 -0.5349359 0.16427617 0.16539861 -0.7217253 0.22713906 0.73622924 0.14571926 0.43990904 0.8445284 0.078741856 1.1969304 -0.7442323 0.7568876 -0.14236774 0.6898986 -0.39552164 -0.2123336 0.29877716 -0.48512903 0.017749676 -0.5259983 0.0017360509 0.65694195 0.07482146 0.6270606 0.34640008 0.15111747 -0.40103334 0.5759318 -1.1201125 0.22554258 -0.42266703 0.29798368 -0.16200145 -0.36758837 -0.002649297 0.5915565 -0.918851 -0.046659213 0.46419072 1.2405294 -0.50463253 0.028712213 2.1827836
661 -0.39690968 0.22567566 0.1913625 -0.58574235 0.19648625 0.07504422 0.2937891 0.36209577 0.33219555 0.70117193 0.4808081 -0.25601867 0.8706459 -0.24848096 0.36002773 -1.1831132 0.22766541 0.31876525 -1.7489369 0.051083084 -0.05614514 0.5458759 -0.7400956 0.20286149 0.09773403 0.79685044 -0.045734424 0.012763256 0.0098433355 -0.975632 0.8842139 -0.012682651 -0.3525079 -0.0755786 1.0929474 0.6922268 0.32178283 1.4066242 -0.116406605 -0.58866066 -0.80958766 -0.74789214 -0.8206181 -0.04221106 -0.2796976 1.3710243 -0.24978253 -0.28797874 -0.3546824 -0.2897044 -0.020109894 -0.7217743 -0.1457786 0.10154913 0.69902194 -0.3701021 -0.5951723 -0.960246 0.863819 0.2025859 -0.22619852 1.7175548 0.68440163 -0.17161505
1464 -0.5125023 -0.8043029 -0.50826997 -1.1410959 -1.0937666 -0.4921338 -0.58978933 0.5843347 0.977663 0.25889844 0.14533155 -0.2995234 0.5608957 -0.9308704 -0.29365227 -0.29586965 -0.20856977 0.4031955 -0.57097507 -0.5962958 -0.76455903 0.27086344 0.16316772 -1.3690727 0.82890093 1.0120201 -0.71993285 -0.3935917 -0.109573394 -1.1126436 1.0844916 -0.9159143 1.2973677 -0.3887007 0.47394678 -0.7298452 -0.3581457 0.07567285 -0.23140682 -0.6942297 0.38797617 0.60038084 1.3855116 -0.93418974 0.0519793 0.443205 0.50862116 -0.25580305 -0.6375223 -1.3564842 -0.20782453 -0.060208388 0.22269525 0.41839048 0.1716219 -0.5567301 -0.05508958 -0.57837355 -0.16788986 0.18889025 -0.6866593 0.035704434 0.54480964 0.82806695
3455 -0.38780728 -0.1581835 -0.41407797 -0.414458 0.36426997 -0.7283365 0.7334608 0.4987156 0.33041355 -0.5093942 0.66660583 -0.65097785 1.460757 -0.18215682 0.9589381 -0.631854 1.2414372 -0.9584944 -0.3381848 -0.7688582 -1.0845616 0.9061335 0.055019587 0.44567236 0.642608 -0.1193746 -0.24437703 -0.3088877 -0.54521877 -1.5289325 -0.5258939 -0.40036106 -0.6646819 -0.8468399 0.2676617 0.3445178 0.22378577 -0.1288188 0.44765043 0.1448454 -0.34197524 0.5434083 0.0202215 -0.36218372 -0.67934847 0.38693017 0.048659578 0.6432265 0.01675563 -0.7292129 0.044342007 -1.7376529 0.6930635 1.4455228 -0.49978918 -0.60455585 -0.21091142 -0.5260998 0.1086861 0.68749696 0.09681211 -0.25991547 0.8845544 0.24025233
4715 -1.1888477 -0.02265478 -0.5796184 -0.37083316 -1.073639 -0.5912557 0.37392235 -0.03140684 0.19483711 0.23684265 0.54635644 -0.91579026 0.016565332 0.30809182 0.09545853 0.7215191 0.37960318 0.12074891 0.054700986 0.37887642 -0.7630203 0.049185134 -0.032163844 -0.8583399 -1.1385382 -0.43990272 0.22983456 -0.28473553 -0.043082647 0.0065655014 1.0745449 -0.21130672 0.5547592 0.009957506 0.43232346 0.42350322 0.23650575 0.29087538 0.21918975 -0.25206625 -0.5565751 0.45155412 -0.9712425 -0.19962664 0.30424938 1.7336156 -0.36742222 0.96269304 -0.2571253 -0.766864 0.45287642 -0.5706211 0.31693995 1.6139039 0.19369635 -0.19567335 1.0983201 -0.44170696 0.31951755 -0.14586914 -1.0092119 1.2340643 0.24986899 -0.9557185
1826 0.20567356 -0.2945312 0.7470396 -0.282073 -1.2193207 0.23845123 0.29914996 -0.33089888 1.6520914 -0.2054168 0.83555394 -1.7050487 -0.2897716 0.16639005 -0.4703635 0.02230373 -0.05021998 -0.022758976 0.3945197 -0.28850755 1.65234 0.14689785 0.100026265 -0.35196424 1.1627318 0.29795828 -0.4047162 0.040502783 -0.5277571 -0.14212842 1.0842999 -1.260113 0.26986176 -0.04141433 0.64871866 -1.6216612 -0.044921715 0.43597856 -0.64470464 -1.1444663 -0.6659591 0.18323986 -1.0407702 -0.75729007 1.1651179 0.64600503 0.83178806 0.7696 -0.68171 0.5927411 -0.18098736 -1.1624409 -0.04941836 -1.0067129 0.13256729 -1.0641836 0.69324595 -1.1234894 0.634621 0.25345066 0.23727894 0.9554833 0.038094528 0.2859393
199 -0.19928548 -0.2635793 0.10289753 -0.7306556 -0.5693246 -0.12501107 0.7509335 0.61804104 0.38318795 0.46910378 1.1107658 -0.74551415 0.50248134 1.375129 0.5399884 1.1769806 0.2103601 -0.2626263 0.015101537 -1.366728 -0.729358 -0.09322615 -0.023489881 0.6087335 -0.3946694 -0.2273473 0.22223845 0.02677319 0.035366163 0.99041736 1.1056772 -0.2469448 -0.23608643 -0.24606977 1.0208514 -0.9263242 -0.105867155 -0.6254811 -0.50701857 -0.5815632 -0.68767184 0.08766144 -0.78197783 0.03304744 -0.8438792 0.95990586 -0.3636262 1.0061922 -1.6030178 -0.09745161 0.2937138 -1.3191899 -0.26757136 -0.39105275 -0.98529804 -1.2056054 0.69929785 -0.5930719 1.496675 0.5252945 0.1819294 0.13648178 -0.27375564 -0.7471248
1756 0.6156576 0.027391233 0.16168883 0.24192159 -0.34026217 -0.20705673 -0.012985144 -0.39799196 1.1867182 -0.4850745 0.86067617 -1.6931417 0.36563653 0.123154216 0.0065483986 -0.6694702 0.44918063 0.7239415 -0.2970456 -1.5254223 0.45608628 -0.36830407 0.08302711 -0.13380817 -0.8014273 0.90762156 -0.17130086 -0.8559284 0.23831785 -1.3395406 -0.040541302 -0.23261267 -0.42809474 1.2873691 -0.09142068 -0.63899755 -0.2678122 0.44081333 0.41442248 -1.1336954 -0.50997543 0.18093939 -1.3583158 0.15649863 -0.3670783 0.45921838 -0.3893619 -0.48300913 -0.40188414 0.66341186 0.25280583 -0.12414091 0.75225294 -0.5487293 -0.10504615 -0.3019328 -0.65564024 -0.897921 1.0192347 -0.4907374 -0.564793 -0.31314832 -2.1049938 -0.35210535
4391 -0.24069476 0.9356755 -0.5739097 0.089211136 -0.2555841 -0.45098892 0.18578373 -0.09213149 1.2182838 -0.045873493 0.7059854 -1.5636975 0.45919782 0.050749477 -0.096237294 0.80426246 -0.9095283 1.0966598 -0.111314066 0.42709085 0.19894068 -0.49204373 0.32928407 -0.7298771 0.13514778 0.3263482 0.60421973 -0.6416143 0.12407636 -1.456101 0.56887805 -0.39126742 0.32589537 -0.16989902 0.25276792 0.15251604 -1.180081 1.4360746 -0.7303191 0.73466104 -1.4514431 0.88016194 0.61061245 -0.76049346 0.03758721 0.7746444 0.29129386 0.735912 0.53459597 -0.17179532 1.0442564 -0.730574 0.23667608 0.46809235 -1.3341153 -0.012951914 0.5796445 -0.8750908 0.40980238 -0.41295487 -0.3310662 -1.0218675 -0.2925627 -0.7620178
2539 -0.5016942 0.09533562 1.8653198 -0.6127498 -1.0056361 0.02727929 1.2522695 0.01712117 -0.16412258 0.69273424 0.58921194 -1.7639105 0.11270089 0.5599035 -0.0024323277 -0.06467122 -0.5984275 -0.5559198 -0.34721562 -0.28650817 0.28286904 0.7767007 0.5643853 -1.4300908 -0.259498 0.7697601 -0.03507073 -0.31048548 0.6185462 -1.0094093 0.010653549 0.050894354 -0.6936426 0.7697059 0.6199237 -0.5680426 -0.80852205 -0.6469051 0.33499664 -0.61943096 0.04551469 1.568212 -0.7768425 0.22805233 -0.44541457 0.67674387 0.1306797 -0.2911586 -0.8451695 0.20658207 -0.57531756 -0.78234154 -0.182758 0.4870909 0.3441865 0.5465537 -0.50799066 0.2587294 0.39724112 0.42500824 0.3511134 0.2951212 0.59015507 -0.23527767
4473 -0.077924766 1.1412805 0.21602312 -1.502907 -0.019483827 0.62146723 -0.036070347 0.59729064 0.91160786 0.62833136 -0.39337307 -1.4376148 0.35795507 0.69478947 0.07185775 0.24712802 -0.18648268 -0.24181204 0.02108649 0.1556345 0.15176351 1.2694756 0.17709886 -0.9834821 0.18503205 1.3343816 -1.347805 0.027076019 0.000728705 -0.7096397 0.19698688 -0.33590123 0.52089447 -0.15603316 0.48287892 -1.006596 -0.65182966 0.8730823 -0.15866412 -0.39668298 0.3645292 0.8817529 -0.26724294 0.9511333 -0.46156242 0.17519324 -0.06129508 -1.1620839 1.1412663 0.4288972 0.41509864 -0.51184356 -0.040375367 0.44296116 -0.45443955 -0.07697985 0.09732664 -0.16638017 0.18440206 0.9428602 -0.163177 -0.3197993 -1.2781658 -0.8895529
61 -0.0031734665 0.76923627 -0.74302906 -1.219934 -0.30356103 0.47035673 0.69406635 1.1657983 0.13711974 -0.5691361 -0.33389038 -0.16121496 0.95524657 -0.29878482 -0.59868896 0.4981509 0.42900327 0.4252655 -1.574268 0.48674253 0.4227631 0.14568296 -0.2512579 -0.4899534 0.06610605 0.6644849 -0.7793897 -0.27616882 0.56570107 -1.0047988 0.6554952 0.46634126 0.28117582 -0.77519226 0.1805241 0.012485188 0.2195831 -0.3555698 -1.1046427 -0.590258 -0.34577963 0.60760486 0.4157119 -0.5464844 -0.1893319 0.45962405 -0.9775693 -0.13589458 0.17192973 -0.01582526 -0.119429395 -0.28553733 -0.48219773 0.41985372 0.18362667 -0.8381887 0.7996729 -0.11975091 -0.2098854 0.3390891 0.6771054 0.25912142 0.43984735 0.5147735
524 -0.7969138 -0.15615454 0.012649222 -0.76948196 -0.72795683 -0.28560755 0.2316664 1.3540118 0.11312881 -0.20646283 1.4926438 -1.077919 -0.025399163 0.49051395 -0.2025328 -0.35950145 0.6465321 -0.123594984 0.85249 -0.99451566 0.14790006 -2.042528 -0.19853722 -1.4893024 0.7683041 0.68933624 0.070540056 0.8301782 0.46528527 -0.9327308 -0.88218534 0.576537 0.06390598 0.5854459 0.64005524 -0.53959143 -0.87677455 0.4165715 -0.6920696 0.5538059 -1.115039 1.4117739 -0.007890097 0.095114805 0.83332646 0.7632031 -0.08250569 -0.35463253 -1.0353229 0.29845423 0.6684025 -0.30055133 -0.4951168 -0.76204354 -0.1293756 0.17459004 1.1867176 -1.0355183 0.7466415 0.5109795 0.4087781 -1.1908875 -0.38838366 -0.86010784
4765 -0.3063704 -0.9381323 -0.051488258 0.041395623 -1.1143698 0.16193792 -0.31998438 -0.3455749 1.2867033 -0.40908873 0.31273344 -0.41627586 0.58383864 -0.68190414 0.9168385 0.029051164 -0.37297973 1.1198227 -0.20774266 -0.3488898 -0.318921 -0.7212599 0.5538517 -1.1262507 0.33143252 1.1480476 -0.50101155 -0.35049403 -0.10290884 -0.84443206 1.0133206 -0.9811175 0.50334746 -0.7860535 1.0266969 0.036381245 0.14703651 0.74694955 -0.3563589 -0.14861481 -0.28615022 -0.19805044 -0.22861454 -0.56588393 -0.11521498 -0.3141286 0.1618752 -0.28878 -0.40382752 -0.8840022 -0.73314345 -0.091769725 -0.5368108 0.5186136 -0.02898281 -0.34296963 0.5924617 -0.5152292 -0.29581216 0.48437288 0.26920924 0.6636874 0.3427744 0.20728378
92 -0.037294403 -0.50377554 0.24756971 0.19878376 0.23397145 -0.16630027 0.70699626 0.90410495 1.1331506 -0.608727 1.1663594 -0.39969286 0.16046438 -0.29710126 -0.76467216 0.61962223 -0.2077087 -0.21025664 -0.69918007 0.12880701 -1.5846208 0.24286331 0.6775774 -1.1224749 0.08803538 -0.2263142 -0.5535217 -0.31894308 0.2509343 -0.6534667 1.8818047 0.3896066 -1.714314 0.2453401 0.00017458774 -0.028333507 0.42678884 0.4092197 0.6129899 -0.594325 0.93467563 -0.16705748 0.30326054 0.20911168 -0.06923662 0.9164028 -0.36266074 -0.86193895 -0.891643 0.3630405 0.4010177 0.100896165 -0.7789058 1.2305814 -1.0030311 0.53809595 0.89123416 -1.133439 -0.87552094 0.47553384 -0.8684503 -0.3983916 0.9232305 0.38394243
675 -0.61283344 -0.13220896 0.06504688 -0.23095992 0.31801036 -0.29592454 1.2323618 1.2309963 0.7507426 -0.42662126 -0.076217405 -1.2132126 -0.28824785 -0.439933 -0.55523616 -1.1743472 0.52943635 -0.5764514 -0.60521054 0.119782366 -0.81297725 0.3328471 0.7709976 -0.05936754 -0.9605337 0.35525045 -0.36920825 0.43211478 0.2586886 -1.1543454 0.10559411 -0.28793052 -1.0082843 0.4500758 0.8794199 -0.37283954 1.1734172 -0.3106395 -0.9229687 -0.6882565 0.97164595 -0.73918205 -0.96173424 0.48573202 -0.29324403 0.5827999 0.042960573 -1.1902411 0.591221 0.039422978 0.10867544 0.122654185 0.6181698 1.4468349 -0.18585591 -0.69884354 1.5094984 -1.0726645 0.6274487 0.2835021 -0.64451635 0.10728417 -0.73300844 -0.21972488
4627 0.11427107 -0.4452034 0.5650111 -0.25623468 -0.0030487974 0.41501322 0.77704704 1.7063701 -0.09646154 0.91880596 0.7645457 -1.096449 -0.83644754 0.24144833 -1.1751612 -0.13028456 0.2991007 0.5663171 -1.0008655 -0.80484664 -0.21379195 0.76061726 -0.6547237 -0.781126 -0.13717933 0.21781886 -0.12012922 -0.098754175 0.15830967 -0.5114448 0.5179498 0.81530476 -0.6092431 0.76505375 0.16141202 0.015069701 0.39093125 0.7676788 0.03796971 -1.1270274 0.29544058 -0.2134022 -0.9629366 -0.55972725 -0.52028006 0.33435628 0.5821906 0.37317297 -0.6225549 -0.5074947 0.16474336 -0.0700377 0.6631745 0.87884206 -0.64119667 0.010076377 0.26543948 -0.04473044 -0.37381706 0.10040432 0.03203632 -0.048445858 -0.48518556 0.4073248
1159 -1.1495593 0.61785704 1.0800717 0.343415 -0.25133896 -0.30566603 1.5215832 1.1982344 0.9116732 -0.5744275 -0.68855035 -1.2666391 0.8530568 1.0274785 0.09178996 1.4053271 0.05593945 0.6469021 0.09048294 0.004550087 0.19464077 0.14424822 -0.35582325 -0.7050902 0.21575548 0.36143777 -0.31880647 -0.8612522 -0.2159213 -0.36981094 0.54962176 -1.0128976 -0.56303847 -0.1998327 0.7051286 -0.6946928 -0.38012365 0.7791391 0.4014211 -0.23928039 -0.4984566 -0.84374905 0.31480268 -0.09500873 0.29830134 0.4236921 -0.24113047 -0.042198807 -0.11761712 0.78310126 0.6002696 -0.24570814 -1.4905787 0.21304145 -0.6945756 0.11128944 0.42006776 -0.74901444 -0.32005176 0.43184808 0.4233334 -0.009344965 -0.55529433 0.2941585
4815 0.56459516 -0.285121 0.9572384 1.0280831 -0.39450598 -0.5897231 -0.4495308 0.6027397 0.4868697 -0.5313921 -0.4776605 -0.056348372 -0.45027027 0.40679216 -0.18667768 0.022138543 -0.36940327 -0.93411374 -0.56320304 -1.159626 -1.3955294 -0.11497297 1.2965966 -0.08670448 1.0660199 -0.2542927 -0.40475518 0.85709614 -0.38820148 -0.51288766 0.44792533 0.04750315 -0.37531474 -0.66996205 0.41709247 -0.6613155 -0.031328704 0.61687344 -0.27015537 -0.42129236 -0.21189609 -0.10708549 -1.400765 0.4165119 0.036132075 0.5971223 -0.6084269 0.35117605 0.47065726 -0.20239642 0.4098283 -0.08307139 -0.18148492 0.3531836 -0.5878315 0.35145614 0.54419416 -0.44819155 0.6345287 -0.19312078 0.40198034 0.6681152 0.021510601 0.54185027
3744 -0.72625554 1.0899147 0.14176878 0.5568015 -0.16823615 0.8083021 -0.31260294 -0.60823506 1.4267867 -1.4340734 0.96856445 -0.6694722 -0.24710211 -0.67523956 -1.4950414 -0.72488904 0.75073856 -0.5758259 -0.54471207 -1.4449595 0.4066423 -0.51186794 0.5840426 -0.14086181 -0.44480067 0.4464433 0.18325481 0.1184352 -0.10848158 -0.52624464 -0.04743914 0.6407062 0.4342629 0.17646478 -0.08361879 0.063106105 0.29329762 -0.26643327 -0.68823874 -0.80562097 -0.43470687 0.12585871 -0.49955547 -0.15693831 -0.22618037 0.2497354 -0.54164857 0.2310459 0.17764845 -0.62437904 -0.0665321 -1.0207347 0.6831248 0.5076941 -0.5592568 0.28451344 1.2424846 -0.60848755 -0.14770178 0.96973157 -0.6638049 -0.042018384 -1.804683 0.21222445
3760 -0.9912219 -0.18339887 0.88998437 -0.23881464 0.9073396 -0.042217538 0.8492856 0.3495308 0.44624448 -0.11546861 -0.4820115 -0.5689183 -1.3192673 -0.035840932 -0.25344923 0.5129041 -0.19629051 -0.32747018 -1.2735807 -0.75897354 -0.5674991 -1.0492274 0.77888805 -0.25300705 0.9221143 0.49561659 -0.01842498 0.06186581 -0.344727 -1.4962295 1.0516379 -0.7351358 -0.28827387 -0.24962002 0.87786144 -1.3048567 0.8810508 0.796659 -0.16461001 0.24792178 0.2774024 1.2128116 -0.4347034 -0.66576827 -0.580902 0.7295067 0.71219486 -0.100105435 -1.0405594 -1.8191891 0.68235517 -0.35295328 0.028240196 -0.42725042 -0.39882934 -0.7579858 0.2417045 0.1782619 0.10685272 -0.3726225 0.72733593 -0.58102417 -0.6006389 -0.45896998
4501 -0.23426075 1.1636393 1.4001591 -0.08468761 -0.52053887 0.25679743 0.18527904 0.29610696 0.05974155 0.22176509 0.90537983 0.9436662 0.0051426976 -1.582591 0.87890965 -0.25252104 -0.7749438 0.7430219 -0.6570999 -1.1775193 0.05540777 0.51831627 -0.4625917 -0.15972762 -0.7833059 0.34273666 -0.4832083 -0.1535628 -0.5116462 -0.68516773 0.9099335 0.047334593 -0.3444078 -1.0791825 -0.070660405 -0.46405137 -0.02945274 -0.42668468 0.47480756 -0.26285055 -0.36764503 -0.11258078 -1.1586976 -0.14025672 -0.08203699 0.16711454 0.09759261 0.18691123 -0.9657505 -1.1461469 0.86447 -1.3990262 0.13846506 -0.39545536 -0.48966092 -0.1508094 0.6244157 -0.34788352 0.43414935 0.22470015 -1.1577078 -0.19951828 -0.629012 0.55231595
3872 -0.1529939 -0.53353673 -0.26380527 -0.034865312 -0.79525757 -0.5494958 -0.22327365 -0.08006274 1.4382336 0.73423886 -0.2423234 0.56136745 -0.32966 -0.41629282 0.015244236 0.970278 -0.31704143 0.25636965 -0.53791094 -0.935753 -0.07451304 1.2785199 -0.4711432 -1.3324878 1.1553211 0.24159116 -0.39607388 0.051369928 -1.0358706 -0.19386959 0.6699929 0.22806828 0.031748254 -0.30339363 -0.69108164 -0.046041667 0.51449245 -0.001202743 -0.2258146 -0.96840733 0.3850895 0.24447724 -1.4332995 0.11412161 -0.3337957 0.39994106 1.2896601 0.3612194 -0.89072025 -0.57512546 -0.17539635 0.32151535 -1.0711551 1.1785556 -0.36401844 0.633287 1.2794231 -0.20783189 -0.0033088282 0.053115204 0.29021513 -0.906094 -1.1134255 1.2184868
2174 -0.8262407 0.22438267 0.48800474 -0.7548066 0.6281076 0.0024535533 1.195082 0.4024904 0.24781854 0.18271498 -0.19123709 -1.8273486 0.6411493 -0.008912528 0.20501663 0.36677966 0.76848555 -0.13944666 -0.9189377 -0.4578126 -0.22591642 0.9901227 -0.8458658 -0.5301422 0.29249454 0.29532087 0.16354914 -0.12159068 -0.31995025 0.0035017598 0.59871185 0.17046975 -0.2863387 0.47035718 1.3466218 -0.2906774 0.0711763 -1.0116943 0.19828998 -1.5585364 -0.23606803 0.6756706 -0.96402556 -0.25171438 0.20546295 0.09682725 -0.34850058 -0.81995183 0.23793913 0.76389533 -0.13875233 -1.4237756 0.3534391 -0.8119501 -0.26112133 -1.7185907 0.90395737 0.49718618 0.6634327 -0.48090652 -0.22182854 -1.1565366 -0.35480365 0.5773575
74 -0.50278205 -0.6288817 1.3911134 -0.23766331 -0.78303146 -0.35147348 0.8631491 -0.24261646 0.17073943 0.28311905 -0.043163266 0.21794982 0.014016976 0.2662211 0.8090167 0.5022795 -0.97954535 0.15701428 -2.4272714 -0.42197797 0.7957578 0.890534 0.76955074 -0.6032675 0.43108246 0.52656794 -0.5907637 -0.1271501 -0.6263817 -0.8091264 0.7300961 1.0248042 0.18854308 0.28604925 0.14411889 -0.06655721 0.40657964 0.34772322 0.6267794 0.7216162 -0.085598916 0.2359312 -1.7448273 -0.07844735 0.1700539 1.0372486 -0.40215388 0.884329 0.42066133 0.45190656 -0.7518583 -1.15238 0.53417 0.46648896 -0.684235 -1.8306167 0.72904116 0.03678132 0.3858191 0.49441627 0.6330985 0.3608561 -1.5648572 -0.47625256
709 -0.14172025 -0.12985784 0.6262671 0.47620788 -0.6805067 -0.91762394 -0.082795404 0.4651872 0.5150438 0.00039203357 0.6328494 -0.43351457 0.72253776 -0.49129754 -1.2814583 0.099645644 1.2040251 -0.034559056 -0.71359336 -0.77583414 0.13317294 0.6468679 0.7532109 0.033520978 0.7105296 0.8566697 1.2841997 0.02650584 0.84334713 -0.8801025 0.328896 0.122922584 -0.45775786 0.77232397 0.23847216 1.4286116 -0.3534901 0.6472033 -0.28182778 -0.15282595 -0.37969628 0.5564147 0.6091004 1.5567174 0.078153804 0.46832561 0.24788237 0.8627437 -0.31063914 -0.5577942 -0.08203976 -0.41243634 -0.18956558 0.6415613 0.7469602 -0.79840815 0.5724889 0.25340518 0.034475863 0.5777128 -0.15198201 -1.8729619 0.36389455 0.693565
3634 -0.126166 -0.5101003 1.4887648 0.39596343 -0.92811745 0.08324562 0.53754115 0.64833236 0.1330781 -1.0153681 -0.024529057 0.009249147 0.82149756 0.43813142 1.2033936 0.14168978 -0.21754164 -0.05801688 0.35449642 -1.3072954 0.6037215 0.6673834 -0.015742304 -0.47704375 0.41605636 1.3196158 0.14331722 0.4055527 0.31240296 -2.0090024 1.1429423 0.5212867 0.12985854 1.5398936 -0.53343755 1.229751 0.16263156 0.20590983 0.07904152 -0.56963015 0.4755892 -0.15904641 -0.1708681 -0.18768896 0.16928002 -0.5059219 0.79897094 0.53172666 -0.54902124 -0.1900775 0.573639 -0.30166492 -0.38842928 0.26462895 0.15697676 -0.008191097 0.32294902 -0.5364311 0.84856844 0.18227026 -0.57261527 -0.36274162 0.7911909 0.19051482
2884 -0.11323115 0.015260907 -0.54960036 -0.6024135 -0.07012366 -0.4964102 0.31288072 0.066504136 1.19932 -0.6739268 -0.53911006 0.51849854 -0.12741476 -0.24976127 0.21755461 0.03989353 0.047165573 -0.6922407 -0.5610076 -0.43403915 -0.4662945 -0.24373227 -0.20090064 -0.018080646 0.48112446 1.5145756 0.16224746 -0.2711549 1.0604537 0.27934214 0.7316805 -1.0886681 -0.3729309 -0.036396172 -0.1142405 -0.3633931 0.77463675 -0.21503305 0.1782988 0.27928054 1.3181118 0.5288447 0.16924962 0.7932497 -0.2528122 0.7983316 -0.41615152 -0.22150798 0.099679485 -0.80100167 0.38548434 -1.609814 -1.3189063 0.2710087 -0.48422083 0.34886646 -0.075287804 -0.25875127 1.0216011 -0.23039173 0.74506813 0.056960512 -0.4939 -0.24733981
4453 -1.3767922 1.0151854 0.5188716 0.19084412 0.9759159 0.33434257 0.19984686 -0.16240372 0.94548047 0.91292244 1.4242042 -0.73075163 0.56729156 0.2947433 -0.27378634 0.8465478 0.099821776 0.5441185 -0.8747227 0.055747207 -0.40083632 1.2401826 0.3263677 -0.90907353 0.2672862 0.73635477 -0.4815055 -0.081083775 1.0555203 0.14529587 1.3209655 -0.049911104 -0.30640316 0.27788416 -0.22324808 0.13498175 0.6055536 -0.39042374 0.008119994 0.137217 0.27513456 0.85554415 -1.1979322 0.45597467 -1.1985121 -0.0155023085 -0.53792757 -0.16132641 -0.2604722 0.10180771 1.1622517 -0.93980014 0.37622967 0.12987727 -0.5025238 0.16211928 -0.5800701 -0.11467086 0.28480607 1.1333733 -0.095723964 -0.3343741 -0.15213977 -0.17155497
2926 -0.34759593 0.14138743 -0.17579962 0.056647323 -0.07273782 -0.056224167 -0.10028385 0.32430202 0.43472815 0.68011546 -0.50657195 -0.28943932 0.56188875 -0.88052315 0.48317206 -0.6207642 -0.500635 0.61706513 -0.83599156 -0.08401227 -0.12248057 0.46182114 0.2508753 -1.3013535 0.238345 0.7505826 -0.016926218 0.013758403 0.23246963 -0.77369916 0.9945396 -0.8024219 -0.19916381 0.03780357 1.6239288 0.5595841 0.4302647 1.1935478 0.20983805 -0.86250234 -1.34206 -0.740953 -0.6887186 -0.64253485 0.45392686 1.2081398 -0.41741005 -0.37845662 -0.36498776 -0.5990525 -0.8631325 -0.40072 -0.42118168 0.59710765 0.86450493 -0.35329318 -0.24187453 -0.1695667 0.7723191 0.95620877 0.078607515 1.2304947 0.15164123 -0.77617794
4871 -1.414463 -0.049400423 0.95138496 -0.117868885 -0.52030855 -0.08835823 1.8129245 0.81963307 0.55345947 -1.0018365 -0.97158813 -1.3515469 -0.037977036 0.49655762 0.48267072 1.058004 -0.17587277 0.24569994 0.24849477 0.070361674 -0.24877816 0.77187175 -0.13731687 0.2331665 -0.4201194 0.30427766 -1.3256459 0.054057214 -0.32071933 -0.21823773 0.9840648 -0.030918252 -0.3073527 -0.22230643 0.8543798 -0.33764392 0.51282537 0.5601086 0.7797778 -0.21428448 0.5682016 -0.46661118 0.20833749 0.27346182 0.20576607 1.1971316 -0.38509306 -1.0324546 -0.016633028 0.0889353 0.73826057 -0.08859106 -1.8663883 -0.12805808 -0.32131857 -0.048716582 0.6096583 -0.8765788 -0.45269996 0.9417722 0.14132504 0.0685982 -0.67286384 -0.17239799
3930 -0.74790007 0.419821 -0.37297428 -0.23170283 -0.42150605 -0.5802984 0.7264345 -0.08726858 1.0287881 0.081379764 0.6844224 -0.85490394 0.32814258 0.2310277 0.8578979 -0.09098949 0.43440917 -0.5263883 0.39663324 -0.48549128 0.24124624 -0.09224984 -0.0020718204 -0.7739362 -0.5321358 -0.09383564 -1.1142948 0.7784963 0.22792803 -0.7792856 0.77717125 1.4324883 -0.9306178 -1.172261 1.2279395 -0.3177953 -0.2306763 -0.26696295 -0.090967074 0.8599088 0.19495592 1.2685566 -1.283983 1.606977 0.4994705 0.63104266 0.03614512 -0.19224018 -0.25312546 0.583864 1.0612572 -0.3148394 -0.32875764 1.0847101 -1.1852615 0.32271814 0.92726624 0.5870082 -0.39837468 0.8297949 0.029649893 -0.20363542 -1.5919079 -0.29538944
1048 -1.1952715 0.67683375 0.6408457 0.22543822 0.34067693 -0.001002479 0.3440813 -0.29136053 0.84721243 1.0120717 1.2993191 -0.14337467 0.5584486 -0.053000443 -0.2989196 1.0186272 -0.20590562 0.34022 -1.0102588 0.535239 -0.5277884 1.0691996 0.6208918 -0.17309545 0.14876638 0.54445857 -0.74663556 0.062473405 0.6898395 0.23325124 1.6641784 0.035799548 0.061841797 0.3017393 -0.17521049 -0.068101116 0.33476 0.2300099 -0.17304939 0.15148635 0.24803923 1.3024037 -0.9194027 0.16472788 -1.0022926 -0.026070751 -0.73742896 0.33289978 -0.09380762 -0.09579999 1.4583503 -1.0126878 -0.33931953 0.368597 -0.53600997 0.14008522 -0.65979964 -0.101213545 0.85291594 0.5609676 -0.41278416 -0.24765338 -0.48723146 -0.35805067
2411 0.47547403 0.7048882 -0.021747842 0.20803317 0.83256453 -0.6610316 0.27100167 -0.0220455 -0.5391074 0.31404465 0.8923424 -0.64987624 0.1877189 -0.07675477 -1.1996878 -0.47341827 0.9834808 0.170308 -0.46836942 -0.42547458 0.055615995 -0.0447433 -0.5953868 -0.03287248 -0.1394675 0.7226144 -0.78326344 -0.8740221 -0.37703848 -0.79477817 1.313462 -0.103448085 -0.6746226 -0.4628403 0.6998619 0.4568299 0.1850028 -0.1359703 0.18048967 -0.044885125 -0.43627566 0.035247356 -0.11238306 0.62179697 0.46439725 0.8872103 -0.9979657 0.142009 -0.1649136 -0.5136235 0.5706377 -0.5229687 -0.23767664 0.6322375 0.8784994 1.0469472 0.34371412 -0.496413 -0.64883167 0.90305614 -0.347868 -0.4291324 -0.9685357 -0.63197285
933 -0.24879071 -0.94314957 -1.2197641 -0.03479364 -0.1939541 -0.4073007 -0.44936696 0.96879643 0.24783273 -0.67061055 1.4296062 -0.82486665 -0.24806619 0.8345847 -0.40193892 -0.11356781 -0.1874385 0.007501273 -0.20838757 -0.52766734 -1.6248342 0.20608991 0.25054166 0.57153654 0.87993616 0.8722579 0.31085774 -0.69582206 -0.18983038 -1.2328306 1.4245594 -0.28400582 0.10932123 -0.9174283 0.8671034 0.22149184 0.23419392 -0.13964783 -0.7685275 -0.07560313 0.5260807 0.6555238 0.83518034 0.9861331 0.27044785 0.9524813 0.4882846 -0.33444795 0.01174675 -0.11689574 0.79429555 -1.0190396 -0.058131784 -0.44771853 -0.7059394 -1.4006381 0.10341335 -0.46896407 1.1650424 0.23490246 -0.18144241 -0.075659946 -0.54397464 -0.64132386
3538 0.033810217 -0.81203884 0.44104794 -0.48733053 0.6771103 -0.025035607 0.3356903 1.2413563 1.3814373 1.7908102 0.38566762 -0.45262685 -0.09430141 -0.08661471 0.45540053 -0.30206248 -1.2333177 -0.024754528 0.71841526 -0.23463532 0.55257326 1.8081224 -0.22182325 0.14539787 0.068532035 0.35154864 -0.25535995 0.018337144 -0.09745874 -0.71903837 1.4701847 -0.117488995 0.9483868 0.019838415 -0.5073026 -0.34766713 0.6780974 0.41497964 0.036976513 -0.90681255 -0.076041035 0.9383963 -1.0372084 -0.17670973 1.2156956 -0.01599632 -0.9491404 -0.69067746 -0.46821076 -0.08049265 -0.27643374 -0.9173598 -0.80383116 -0.22454078 -0.14459753 -0.2923877 0.9052208 -0.6989952 -0.79820454 1.105554 -0.6868972 -0.26454544 -0.61814857 -0.16453402
4759 -0.90477526 0.36698115 0.42580602 -0.56742203 -0.5755422 -0.31466338 0.088948034 0.14632934 0.69930404 1.0175747 0.11359099 -0.28606558 0.4799943 -0.26928198 0.11454454 -0.2280482 -0.91666377 -0.39451694 -0.6633512 -1.4129748 0.94034845 -0.5874831 0.51621616 0.12799685 0.90205467 0.39833307 -1.737013 -1.0854899 0.867343 -0.576571 0.48894343 0.22993706 -0.0042268336 -0.17330655 0.28911945 0.31750178 0.39671463 0.012007431 0.88241434 -0.20120908 -0.9752314 0.5774949 -0.32274696 0.3546549 -0.055281043 0.88595974 -0.18614094 -1.1201786 -0.41334897 -0.19680688 0.65848273 0.8873606 -0.61909914 0.06809937 -0.7721867 0.3007393 0.23682627 -0.61355996 0.09897812 0.16153423 -0.24136624 0.2709376 -0.2353555 -0.0033730662
3771 -1.0529329 0.81935906 -0.7176756 -0.45588952 -0.5551495 0.49160108 0.6742502 -0.11168537 -1.2184896 -0.23809665 -0.25677055 -0.96875346 -0.49714753 -0.668907 0.8640417 0.8530318 -0.17570212 -0.05246299 -0.8191241 -1.1391042 0.839285 0.4345373 -0.7731249 -0.71656996 -0.39053684 0.35968235 -0.19469105 0.16566814 0.32423827 -0.2780706 0.46739426 0.0073308772 -1.4481049 -0.3651083 0.43557864 -0.046004955 0.7665402 -0.15812498 -0.3530317 0.24653165 -0.22718328 0.5932283 -0.69835466 0.43291208 -1.0292618 1.0181541 -0.19337092 -0.3322603 0.0867944 -0.36985254 0.6984581 0.8205669 -1.7746158 -0.7906333 -0.15419546 -0.11953824 0.17092447 -0.46575445 0.2458967 0.5223156 -1.2850622 -0.4869099 -1.173242 1.2139928
511 -0.6870597 -0.33845437 0.77920276 -0.010654846 -0.42004526 -0.26224217 0.4940511 0.13725314 0.45605373 -0.9907163 -0.1770162 0.44284028 0.060220033 -0.8386588 0.36307225 -0.3673588 -0.47422662 0.90551597 0.056602128 0.41131002 -0.3978016 0.6915881 -0.9784568 -1.0744963 0.11456804 0.62354296 -0.3797149 0.8924897 0.31111968 -1.3156306 0.34019855 0.9410628 -0.50278234 -0.83667505 -0.08214126 -0.37042516 0.7437667 0.5490965 -0.5081846 -0.28939837 -1.1150101 0.7819894 0.7050947 1.5085356 0.08426199 0.08753703 -0.4126896 -0.16019611 -0.19015029 0.27537358 0.97638184 -0.61015385 -0.61515003 0.66719306 0.1773943 0.014503833 0.01958049 -0.8152898 1.0088973 0.08014498 -0.78378785 -0.4328063 0.11229622 -0.019250497
2201 -0.26039097 -0.23980743 -0.16810705 1.4812642 -0.57667893 -0.12668818 0.09598099 0.3465823 0.37012675 -0.69053435 -0.4012976 0.179951 0.50807744 -0.16998109 1.2321988 -0.56146395 0.33923578 0.15648562 -0.56281316 -0.33636206 -0.05727127 0.55232185 -0.16711123 -0.4698469 1.6498938 -0.09172271 0.37477663 0.63182056 0.7212991 -0.23157775 0.46058992 -0.3725576 0.43346694 -0.3983748 -0.22613415 0.6201336 0.4847499 0.32712546 -0.77231723 -0.591444 -0.4075047 0.037389614 -0.32935694 0.5095819 -0.5056226 1.0735525 -0.2850086 -0.6472531 0.014787136 -0.4791031 1.8987211 -1.0805547 0.44793501 0.88120854 -0.38807833 -0.08535083 -0.017690966 -0.041448455 0.180526 1.2539257 -1.0526747 0.8220296 -1.0852603 -0.57285154
2542 -0.7891577 1.4489796 -0.2834185 -0.08958792 0.50191605 0.21713702 0.8435174 -0.1058854 -0.23695105 0.32350954 -0.61196727 0.7104691 0.0710534 0.8719638 0.51752186 -0.28314877 1.2508436 -0.2753174 -0.85885364 -0.9215334 -0.019778967 -0.066261925 -0.36021283 -1.0698941 -0.30214936 1.8617927 -0.40980324 0.6384657 0.2213811 -0.33388215 0.9292023 0.4163257 0.23006743 1.099753 0.2733629 0.95869625 -0.8800401 1.1871367 -0.5413568 -0.45357645 -0.888181 0.43964788 -0.43061203 1.3924578 -0.5561074 0.57732797 0.30252632 -0.1769905 0.04746272 -0.42028016 0.63647324 -0.2918854 0.15653522 1.0076425 -0.1736478 -0.20919977 -0.025795734 -0.9913272 1.2627561 -0.6138221 0.7380674 -0.19057055 -0.21846151 -0.2278841
1805 -0.3755448 -0.015973857 -1.387183 0.14120808 0.044633683 -1.0037073 0.48575166 0.96859115 -0.71655196 -0.26698273 -0.9078757 -0.095646694 -0.2165022 -0.17142682 0.95896196 0.78183573 -0.46562645 0.059529226 -0.5377068 -0.53637993 -0.20587398 0.64139885 -0.23338713 0.79339 -0.11985918 1.1628833 -0.5433681 0.14659055 1.536147 -1.010884 -0.01664766 -0.09452154 0.051006127 -0.2490413 0.05644271 -0.24615794 -0.5136915 0.47771034 0.4460387 0.049858168 -0.5544071 0.4361195 -1.6168908 0.26879108 -0.06946317 0.48290744 -0.39785698 0.49748912 -1.3690544 0.9596977 0.82787704 -0.71524924 0.2711786 -0.25731593 0.7366105 -0.20694745 1.1120683 -0.16977076 0.93976724 0.40707153 -1.1110868 0.19066815 0.27956614 -0.40452307
3405 -0.24630958 -0.06838604 0.31756756 0.09906857 -0.12225989 -0.44857678 0.051085833 -0.08035009 0.9371008 0.53622043 0.42567784 0.17608604 0.7349733 0.2602536 -0.6953203 0.47083542 -0.19020261 0.1590437 -0.39753586 0.5620076 -0.060837034 0.10992413 0.6046406 -0.017660975 -0.18931499 0.790205 -0.75192153 -0.05524251 0.21218082 -0.23694934 0.9420986 0.7942907 0.16507423 0.11809276 0.040242042 -0.05899179 -0.5390868 0.20493905 0.012277028 -0.5687204 -0.26409942 0.87011766 -0.8189513 -0.45898095 -0.73672503 -0.115826994 -0.65313244 0.8950918 -0.55097777 0.23710983 1.7134901 -1.3027052 -0.58799285 0.5427095 0.25312987 0.73923856 -0.42750233 -0.050750032 1.520874 -0.7390197 -0.8326209 -0.33345845 -0.12872246 -0.049386136
3877 0.44959784 1.8294609 -0.38686925 -0.35421553 -0.25549054 0.22549756 -0.26082766 -0.22009271 1.1763924 0.57824904 0.21332505 0.19067934 -0.716645 0.31118658 -0.08678581 -0.015430329 0.054232072 -0.4657389 -0.39459294 -1.2925555 1.3341897 0.26364836 0.19032256 -0.88095355 0.83908206 0.78850424 0.40668496 0.40455198 0.8733848 -0.8938423 0.6359909 0.4784462 -0.43031418 1.126176 -0.3169137 -0.4489648 -0.3633209 0.9070406 -1.2652681 -0.38686204 -0.49629408 1.5692189 -1.6188475 0.3860094 -0.73707145 0.20657365 -0.6168726 -0.34636575 0.34257475 -0.36790368 1.4050596 0.14809412 0.09457238 0.21174292 0.5586243 0.40385926 0.5800138 0.013968632 -1.2179524 -0.020231357 -1.2134597 0.09286838 -0.5761713 0.7002853
1026 -0.43968296 1.8971602 -0.58672106 -0.78315043 -0.3385842 0.7068352 -0.6562877 0.4447635 0.8061056 0.006898174 -0.4599979 -0.18624821 0.10810035 1.1846302 0.13513651 0.029938005 -0.25666228 0.26952717 -1.3354751 0.22213258 -0.25179338 0.44483292 -0.107413 -0.3991265 0.5406635 0.85090953 0.27300274 0.23190619 1.0190346 -1.1910636 1.5484476 0.09802123 -0.15775545 -0.5023358 0.85104614 -0.13086256 -0.5627192 -0.11681334 0.31153077 -1.5499915 -0.40694615 0.4349944 0.005512339 1.3665348 -0.40824354 0.71987915 -0.2742592 -0.072540484 0.6427542 -0.2232883 -1.2587974 0.40851274 -1.1156497 -0.16393586 0.35034534 0.051985037 0.28624442 -0.787558 0.17118981 0.18904386 -0.6086031 -0.22970034 -0.08721122 0.51963747
756 -0.076601036 0.40580177 -0.20417349 0.048045892 0.020517876 -0.2034676 0.78405875 -0.23234127 0.2722552 0.65281266 1.2743137 -0.2619808 0.7620326 -0.6014375 -0.117754616 -0.82924443 0.4290977 -0.7377802 -1.6053672 -0.025314866 -0.28320703 -0.24277858 -1.381113 0.2441106 0.5472142 1.4686604 0.55053365 -0.095986106 -0.08339977 -0.7600212 0.1118267 -0.87342 -0.41382724 0.7629295 0.115601435 0.60534304 -0.45010868 1.3180821 0.13421413 -0.16405296 -0.48438695 0.19853713 -0.45539024 0.3675665 -0.5415298 1.0346127 0.2816396 0.14533442 -0.43333596 -0.8008466 0.5319743 -0.06159905 -0.4719154 -0.66283226 0.3034202 -0.04879058 0.07812003 0.20270172 1.4031374 0.23270321 -0.8213128 1.2298653 0.26054654 0.5168604
700 -0.060917225 -0.0007448786 -0.22581212 1.346853 -0.10915404 0.089797206 0.37744305 -0.45597333 2.1534047 -0.8314389 0.44685936 -0.40285683 0.15499285 -0.50557435 -1.1510848 0.47948983 0.3863959 -0.9677027 -1.3350881 -0.26733026 0.17804328 0.2254839 -0.13651271 -0.10694911 0.6749174 0.064661235 0.24157289 -0.6466578 1.2376626 -1.4125111 1.2207718 0.14360943 0.4217472 -0.34778282 -0.91962886 0.4656007 -0.20297009 0.3677742 0.6402701 -1.0486761 0.03919813 -0.50570124 -0.004761352 -0.40687484 0.09475451 1.4160087 -0.59541804 0.44943506 -0.39959872 0.043182142 -1.2024964 -0.8428645 0.0045818104 0.18699232 0.12771472 0.7173537 0.6544074 -0.26781395 0.7581491 0.38490656 -1.1719395 -0.70596164 -1.1168637 -0.57746
3629 0.79766744 0.23000212 0.0066308677 0.1214132 -0.84013563 -0.60523343 -0.3456972 -0.23096089 1.0605072 -0.33392787 0.29529285 -1.1071362 0.26557443 0.13028766 -0.11631686 -0.7199481 -0.0134156495 0.6892682 -0.122607745 -0.99502814 0.18924282 -0.24830432 -0.268767 0.1782524 -0.98920256 1.4608983 -0.11924015 -0.66193134 0.1223932 -1.5248171 0.09205357 -0.62721413 -0.6363488 0.8958664 -0.25333613 0.08697292 -0.27333024 0.5994885 0.51890224 -1.1271726 -0.52481496 -0.41030875 -1.1216904 -0.047092028 -0.2600057 0.6712996 -0.95485544 -0.3200686 -0.5963886 0.24252474 0.14542313 -0.11099494 0.5647914 -0.39203027 -0.34166887 -0.23440307 -0.51365834 -1.0765668 0.8479326 -0.72336686 -0.71133375 -0.10952176 -1.9665287 -0.112052724
4197 -0.6897845 -0.10840204 -0.3142076 0.1801456 -0.9239789 -0.19300376 -0.23545475 0.35746452 -0.31771645 0.6951767 0.78238285 -0.9829075 -0.019900702 1.1549928 1.2012464 0.35856706 0.44561982 0.1809197 -0.86496574 -0.36112288 0.5570736 0.50788707 -0.3542209 0.0677309 0.98419154 0.6091444 0.73602676 0.19476381 0.41797772 -0.7246659 -0.005276734 0.42911768 -0.7134849 -0.52672297 -0.9080074 -0.48248613 0.8476366 0.68631315 1.3890443 0.054238614 -0.9459854 0.6168766 0.14609206 -0.08920755 -0.88820183 0.86332065 -0.5515943 -0.09026169 1.3571163 0.19985533 0.20899308 -0.08589327 -0.8242591 0.45513794 0.80496657 0.28424394 -0.14713389 -0.61926293 1.3978012 1.7569294 0.8224624 -0.51032114 -1.0094905 0.9528315
1480 0.2612271 -0.2558549 0.07746001 -0.42431986 0.6394601 -0.39432275 -0.7910726 0.19592 0.74713075 1.6856726 0.62604725 -0.5349044 0.57122815 -1.4167715 0.42957687 -0.32784578 0.25804156 -0.56501377 -0.026859555 -1.434071 0.07776827 0.99951565 -0.028105795 0.20024341 -0.13615459 0.5993646 0.81996894 -0.9368788 1.0940099 -1.0451467 0.49431074 -0.7338049 -0.83855355 0.30065954 -0.20003231 0.15003988 0.22177427 0.48138204 -0.06841775 -0.2055427 0.19010317 1.1062272 -0.3101888 -0.61236674 0.7408383 0.59434825 -0.26629695 -1.3077141 0.015317098 -0.3567883 0.8729122 -1.013891 -0.28038093 0.39998794 -0.12793022 -0.29675564 0.012223772 -1.1176358 0.1972909 0.06284612 -0.78578794 -0.6894804 0.0112572005 0.39991447
4124 0.107254125 -0.14919916 -0.7217361 0.24262111 -0.13697302 0.041433245 0.899891 -0.18705446 1.2344623 0.38804534 -0.026173176 -0.44728753 -0.5925014 -0.46837804 1.3323574 -0.7217983 0.967627 0.02151329 -0.56466466 -0.042736877 -0.17705554 1.0388917 -0.63313884 -0.13426124 -0.07253628 1.0620697 -0.031545606 -0.9229211 0.46933234 -1.086952 0.47261187 -0.01844534 0.3697036 -0.33998385 0.044843607 0.11488321 0.12569343 0.13203749 -0.3018706 -0.42538717 0.3904924 0.56780124 -0.32702303 0.582847 0.78033566 1.0959878 0.31103867 0.31929144 0.3778376 0.89260846 0.50816375 -0.16630505 -0.107616976 -0.12638083 1.1749924 0.027863046 -0.20473611 -0.33312854 1.166136 0.78559124 0.7230586 0.37710354 0.16588104 0.8542619
3275 -0.8789868 -1.406425 -0.7100852 -0.5107243 -0.2483624 -0.31034353 0.25078157 -0.34093583 -0.21459149 -0.07449641 -0.61029667 -0.93933696 0.1980468 0.0786145 0.7355985 -1.837135 0.4244971 -0.5542072 -0.42530623 -1.0850737 0.49619612 0.21862024 -1.0816752 -0.5955099 -0.86788344 0.63888437 -0.5838835 -0.115479596 0.6718453 -1.0073007 0.10966922 -0.19224747 0.18203874 -0.79887825 0.15932281 -0.12058264 0.39186662 2.136248 1.297897 -0.8632894 -0.11923617 -0.42009023 -0.5211085 0.38317445 -0.05796443 0.25804946 -0.37449107 -0.42877203 0.06312521 -0.7525781 0.8340629 0.418853 -0.47622672 -0.37798586 0.35806695 0.3346809 0.035066865 -1.18806 0.34952164 0.6458516 -0.30849144 -0.969677 0.51601696 -0.1147385
508 -0.050948437 0.48097572 0.0030711703 1.1762457 -0.65911585 0.34830797 0.23758653 -0.12775104 2.075751 -0.9500948 0.10307356 -0.22193561 0.0020297633 -0.85011554 -1.4678582 -0.32408994 0.21063991 -1.4017087 -1.2267929 -0.6727687 0.38018352 -0.0013926344 0.08435208 0.3821308 -0.5087923 -0.2100673 -0.1750993 -0.69977736 0.0014973688 -0.8006851 0.15521328 0.37874076 0.11171349 -0.33534318 -0.5821293 0.15267065 -0.43706602 0.2177255 -0.33852667 -0.78269815 -0.24859697 -0.16543785 -0.29568183 -0.2823053 -0.55180496 1.7288849 -0.9817934 0.74164706 -0.19840635 -0.51866114 -0.5084698 -0.11685804 0.2912283 0.27168724 -0.4146498 0.5537618 1.2220773 -1.0620966 0.21273959 0.16264112 -0.90815777 -0.5811966 -1.0833726 -0.63541514
1953 0.6263016 0.2460757 -0.17212422 0.41772598 0.09811987 -0.16246584 0.28483406 0.8657891 0.70471615 0.22178163 -1.0915213 -0.80123305 -0.458967 -0.06896384 -0.22313552 0.30182466 1.4686985 -0.07945382 -0.1377055 -0.8346933 0.101493016 1.0313033 0.41864017 0.41334048 0.004823703 0.26119924 1.056628 -0.6694965 0.43440583 -1.1469643 0.13251679 0.31620806 -1.1007537 -0.7133443 -0.46328118 0.35459712 0.1814855 0.22670498 -0.28361738 -0.9750816 -1.0675049 0.2874781 -0.03382918 -1.4501396 -1.1128473 0.84539443 -0.83930737 -0.86403817 -0.24849445 -0.3151853 -0.8419228 -1.5865874 0.63936657 0.16100295 0.9693497 -0.29601207 1.4820843 -1.5359737 0.54512936 0.7788677 -0.1941466 0.4220378 0.21667011 0.016053662
1124 0.15868092 -0.52134705 0.22793446 1.3816448 -0.37953115 -0.8215444 0.43495902 0.65402746 0.37227717 -0.83122087 -0.37729985 0.1921999 -0.41015032 0.21441582 0.92792356 -0.89059746 0.34254417 -0.25855634 -0.24507917 -0.19870956 -0.4317003 0.39423588 -0.029348258 -0.5010222 1.3635832 0.045657482 -0.21278091 0.83260155 0.32539594 -0.45763123 0.18848535 -0.1939079 0.17222592 0.270749 -0.7489395 0.60964286 0.3760062 0.34109887 -0.727069 -0.7987052 -0.45908138 0.21537623 -0.61695874 0.14272253 -0.3903829 0.7913249 -0.39817828 -0.68936944 0.60952985 -0.67493516 1.6934775 -0.15307918 0.29334506 1.062157 -0.14827307 -0.36875427 0.018178662 -0.42783767 0.40278465 0.8380133 -1.2776412 0.78110635 -1.032754 -0.6679404
948 0.19796 -0.42163354 -0.19447713 -0.4072298 -0.3382592 0.047696434 1.0159974 0.43956152 0.68360126 0.6282713 -0.966604 -1.2077073 0.069773875 -0.07118484 0.33729124 -0.029163163 0.25296393 -0.17379254 -0.23155676 -0.5845977 -0.13490716 0.102701545 -0.409904 -0.07766012 0.40740395 -0.42302692 -0.71769434 0.7199502 -0.02225876 -0.18842843 -0.9098908 0.1416006 -0.7975388 0.36409342 -0.74034995 0.49564537 -0.8032578 0.45050225 0.58880085 -1.85471 -0.35441118 0.121002324 -0.6511952 0.10233015 -0.54011893 0.13670783 0.72129184 0.55070233 0.041903637 -1.0405136 0.8134851 -2.1356843 -1.1132208 0.8621579 0.13937142 0.2619311 0.1703503 -0.7918402 0.3856067 0.6494487 0.3303083 -0.27090502 0.08934183 -0.4804625
4361 -0.05728515 0.4830275 -0.04866662 -0.118602514 0.26703584 -0.2770721 0.3667234 0.45009395 0.43976533 0.7965795 -0.5876947 -0.54355454 0.58638275 -0.7974916 0.30113915 -0.65604836 -0.28119546 -0.13032599 -0.8907915 -0.766485 0.0020245959 0.3343729 -0.1298551 -0.92557204 0.26795745 0.44091392 -0.40084997 0.18025634 0.094499245 -0.76658326 1.2249818 -1.311667 -0.4148714 0.4318384 1.3697557 0.1706089 0.28009075 0.9459018 0.3031675 -1.141166 -0.9861637 -0.68722886 -0.071374774 -0.72795254 0.42716348 0.6735086 -0.44277143 -0.1435232 -0.508901 -0.80076885 -1.3746582 -0.7649648 -0.08686855 0.6380532 0.86705786 -0.39507028 -0.4190656 -0.53555894 0.982496 1.3085794 -0.60468066 1.1880951 -0.5598512 -0.72192854
1246 -0.60353637 -0.10892395 -0.5413286 -0.06306473 -0.89260656 0.34211624 0.71562797 -0.14870425 -0.78069973 0.19972712 0.2527345 -0.052116666 0.52467227 1.345222 0.5675628 -0.07774637 0.7110006 -0.9173748 0.2987039 -0.2665337 -0.30423287 0.59081376 0.5614541 -0.05306397 -0.39552066 1.1552 -0.464064 0.104250334 1.2062515 -0.08581675 1.7406152 0.39012623 0.7192757 -0.439685 -0.34420183 0.79852206 1.3849202 0.57264876 0.44142222 0.3347859 -1.1518228 0.047783326 0.13108711 -0.22306813 0.5612979 1.460214 -0.045846976 1.1289037 0.050904278 -0.43560085 0.15617941 -0.7356351 -0.5648472 0.054147374 0.11389634 -0.29336318 1.1321838 -0.8014262 1.1071578 0.29813513 0.5634552 0.03288282 2.292792 1.1697406
4751 0.23394395 0.23864341 -1.617682 -0.67181396 -0.004400353 0.082089156 0.6608988 1.1745453 -0.24303946 0.07425716 -0.8797388 -0.51536614 0.8501893 -0.109486155 -0.38118646 0.07794127 0.7554333 0.2087391 -1.2645575 0.71611804 0.36954406 0.23592831 -0.21117371 -0.9807211 0.34195876 0.9347583 -0.86516476 -0.3905809 0.91876996 -0.8775107 0.8147493 0.407222 0.0028444098 -0.7591963 -0.17107126 0.027671752 0.76347494 -0.65195245 -1.3955243 -0.39609504 0.04941244 0.73137206 0.33870363 -0.37785655 -0.21261932 0.08726861 -0.9510748 -0.46342656 -0.49602923 -0.17671846 0.21445431 -0.03408425 -0.56272614 0.5254679 -0.070267856 -0.7206844 1.0630889 -0.75610757 -0.39709866 0.7555267 0.6731457 0.566026 0.0035429066 0.8265308
4556 0.5552538 0.40526116 -0.2904241 0.6725543 0.09653054 0.24995598 0.46938017 1.1676964 -0.08719196 0.47446445 0.3239018 -0.55114585 0.3988714 0.8961403 0.541787 -0.18572396 0.8208066 0.58652407 -0.9799179 0.17687373 0.27252623 0.65263075 1.126378 0.078491315 -0.31343848 1.2169939 -0.60473496 0.936581 0.23962703 -0.23541735 0.08210068 0.12081426 -0.116289854 -1.1550134 0.5937467 -1.0806718 0.3386743 1.869788 0.15146504 -0.5162674 -1.523102 -0.035971623 -0.59054947 0.05300039 -0.65467995 -0.23687018 -0.5900917 0.024827901 -0.19972688 -0.15443967 0.13945265 0.076480344 0.0070557003 0.51422197 -0.89453584 0.7175786 1.514406 -0.49009293 -0.20345794 0.25053245 0.41327003 -0.6567817 0.6021053 0.31735724
1533 0.37509653 -0.7347251 -1.3817506 0.6038281 0.2591053 -0.47276425 0.749426 0.8236019 -0.39432555 -0.4350643 0.32875752 -0.52911824 -0.41953087 -0.5209118 0.6930968 0.22559033 0.52311736 0.55199444 -1.1112224 -1.0029958 -0.28142715 0.6580915 -0.3830841 -0.2913649 0.29886702 1.2483289 -0.7333987 -0.70977175 0.62024236 -0.13418809 0.7860912 0.15508693 0.36938018 -0.5116958 0.379955 -0.07001123 -0.06075086 0.2855455 0.19675076 -0.19576673 0.22565141 0.67921436 -1.3725629 0.45289078 0.37753308 0.1927713 0.12711503 0.6306046 0.050323144 1.3613594 -0.13548876 -0.22455864 -0.5580094 0.13535592 0.99228704 0.7775197 -0.024336062 -0.7007058 0.61481136 0.46566483 -0.08683383 0.60207874 0.40912372 -0.2190721
4072 0.2028918 -0.8416122 -0.33323142 1.3216166 0.3721052 -1.0192295 -0.6756376 0.59890306 0.5270908 0.14023034 -0.31289837 -0.27284867 0.6505237 0.14904746 0.4631859 -0.84861344 -0.5245318 0.105514385 -0.7651641 -0.6566693 -0.4257742 0.16796368 0.9540356 -0.52072346 -0.08118037 0.63576496 -0.6907671 -1.4530236 1.2323265 -1.0348628 0.071875 0.28384545 -0.13269 0.7464071 -0.75096 -1.3821099 -0.19048078 -0.21757704 0.73032814 -0.083163634 -0.21467488 0.22358795 0.33827823 -0.02896607 0.06538222 0.9369594 0.22972721 0.7485214 0.36786032 -0.6548678 0.020322833 -0.37030274 -1.0636739 0.768082 -0.7809867 0.011527942 0.8808047 -0.87490475 1.4514643 -0.08044016 0.4862173 -0.057278275 0.6856564 0.67503583
1901 -1.0172042 -0.22832996 0.34046963 0.750482 -1.1304883 -0.9394359 0.17130832 0.9350537 -1.2146585 -0.20021123 -0.6778418 -0.76626164 -0.14980973 -0.27567336 0.4639661 0.68180275 0.7218944 -1.3960366 -0.18087435 -0.8968718 0.1071617 0.55017895 0.6877728 -1.4688832 0.5000753 0.65818876 -0.5578747 -0.68687254 -0.0031486852 -0.89299244 -0.36731845 0.10099153 -0.0765824 -0.95776445 0.011566781 0.92576146 -0.5640868 0.22491738 -1.0061845 -0.7913178 -0.029426765 0.08679341 -0.8576443 -1.0234739 0.6326266 0.09843185 -0.9756656 1.2854936 -0.57170564 -0.48954135 0.5991007 -0.95909154 -0.5245435 -0.35474083 0.22056182 0.11938403 -0.2101991 -0.4879374 -0.84188807 -0.4077889 -0.1736197 -0.20922917 -0.20161249 -0.08331062
4730 0.8547999 -0.56154406 -0.100246586 0.15229058 -1.4298524 0.09448159 1.165508 -0.98407537 -0.27534685 0.89146024 -0.9857374 -0.08808445 -0.3490309 0.10562806 0.9052175 0.5396586 0.9409171 -0.46000746 0.3003485 -0.42121804 0.2551776 0.28077984 0.026581686 0.0338312 -0.49758416 0.794987 -0.7455601 -0.44866133 1.2855827 -0.45378172 1.1935953 0.8128449 0.48488972 0.95962757 0.5877825 -0.39439833 -0.11652861 -0.11823904 -0.8786263 -1.1021167 -1.2568506 1.1405054 -0.0080935 -0.038939297 0.19387549 0.8275731 -0.019232474 0.6342551 -0.09849616 0.24376968 0.100560896 -0.78722763 -0.92790246 -0.4590381 -0.5115497 -0.4105772 0.69562364 -1.0773848 1.2652874 0.17619959 0.65184367 0.55859023 0.7312643 0.7216729
3648 0.9381442 0.34070817 -0.44350168 -0.25639623 -0.5786631 -0.029936735 0.75389284 0.78961706 1.0213971 -1.254752 -0.45505834 -0.8858709 -0.4732086 0.06253095 -0.13541996 -0.4352716 0.9009767 0.03726105 0.7219601 -0.6401438 -0.3595666 0.21228814 0.3422383 -0.52585334 -0.20242845 -0.077438585 0.2044513 -0.9599575 0.18809186 -0.33425495 0.7438867 0.39123547 -0.45309964 -0.8309968 -0.16840613 -0.9363609 -0.26003292 0.5818081 -0.298293 -0.8639539 -0.32064837 -0.20040417 0.53403854 0.14273944 -1.2002943 0.932851 0.13263 1.3783171 0.12024236 -0.30766785 -1.3533703 0.15203567 -1.4714735 1.6121219 -1.0705265 0.08456624 1.0399922 -0.08630535 0.77885246 0.7239785 0.25641197 -0.16026543 -0.4734005 1.1665534
4544 0.02723446 -0.8175024 0.22958651 0.7190123 0.2365836 -0.35229856 -0.27208224 0.52548903 0.2605352 0.031589855 -0.37255403 -0.18127684 0.6403471 0.07253994 -0.8187573 -1.5613999 0.21255958 0.045868445 -0.5130765 -1.1285962 -0.21429081 -0.010513123 0.97722745 -0.3607123 0.17446105 0.046666853 -0.5423558 -1.02856 0.65265226 -1.5714186 -0.08965036 -0.9593578 -0.0058251834 -0.47857583 -0.60103154 -1.3272868 0.012555429 0.34085453 -0.14841895 -0.10754886 0.07904965 0.121133715 0.46104023 0.37373856 0.06697264 1.2025067 -0.8562495 0.8810258 0.6224744 -0.13451146 0.3842254 -0.05288626 -0.3794384 0.7032536 -0.15305583 0.5803033 0.6251654 -1.1708722 1.0849003 -0.049604945 0.8873317 0.004792665 0.31539178 0.6903358
1873 -0.300888 0.5749547 -0.12697253 0.14260751 -0.8865299 -0.021552123 0.121420875 0.90974665 -0.39034456 -0.6301172 -0.85106283 -0.06306868 -0.6701683 0.6343015 -0.91120535 0.21775237 0.98179245 -0.12630753 0.023179794 -0.7432122 -0.75059336 -0.7663281 0.39549646 -0.8262609 1.0401998 0.7246535 -0.6312856 -0.21916759 0.35877737 -0.9381668 0.8882238 -0.47536424 0.46414003 -0.4120187 -0.40163633 -0.5300178 0.0025298914 0.9364802 0.24698965 -0.119099446 -0.55907047 0.72212255 -0.6440158 0.10219032 -0.5689761 -0.015184967 1.0391539 0.58192647 -0.09033819 -0.4993169 1.0569164 0.20381019 0.8038193 -0.5091092 -0.18258074 0.36396974 1.3481467 0.21013251 0.9062131 0.26189074 0.6246641 -0.5413373 0.36570662 0.12997155
2130 -0.14697494 0.14298818 -0.18889903 -0.6425856 0.104947895 1.468948 0.37669566 1.2139099 1.0980371 -0.67499256 -0.18485215 -0.77979624 0.9058925 0.040724356 -0.09403661 0.09024235 0.50235564 0.5040143 -1.0804487 0.1014876 -0.0015424325 -0.030945338 0.17983754 -0.58096075 -0.28538832 0.34725097 -0.6393599 -1.6459179 0.27931938 -1.3382617 1.2079474 -0.31557688 1.0048041 -0.12982225 0.023630427 0.38595024 -0.36167422 0.5978722 -1.1768442 -0.99605596 -0.5959489 -0.00014210372 0.98655254 -0.03655561 -0.5010085 1.7393326 -0.027897315 0.7064126 0.59842074 0.74681294 1.3718948 0.26120114 0.4496752 0.15080166 -1.1226497 -0.2415469 0.48870197 -1.0539101 0.04441627 0.018307533 -0.31451342 1.277315 0.45665288 0.33836666
139 -1.4602739 -0.18650506 -0.9362285 0.08274116 0.57549274 -0.61409855 0.33546874 -0.49999052 -0.5947191 -0.64803493 -1.0436019 0.09419092 -0.3346437 1.2076533 0.045165487 -0.2650875 0.4487358 0.33915618 -0.24369183 -0.5883761 0.8779303 0.3797842 -0.0074375058 -0.24033125 -0.3394726 1.2319977 -0.30338347 -0.43289372 -0.94320744 -1.7376455 0.6397273 0.34989884 -1.3179309 0.42768165 -0.04149833 -0.44118416 0.39329803 0.6424138 0.18810013 -1.2599211 0.12270182 0.6505739 0.017415822 0.3329853 -0.14545545 0.5394825 -0.99904263 0.058677547 -1.169118 -0.62459844 0.71023977 -0.33815616 0.20727667 -0.355708 -0.23841283 -0.3852752 -0.015956644 0.44754046 0.31138965 0.055095483 0.2717949 -0.50960785 -0.15021141 0.34630498
890 0.09942527 0.51889783 -0.41539162 -0.24200107 0.2941085 -0.4168634 0.45794013 0.26571187 0.51796484 0.02896872 -0.54119575 -0.9873142 -0.4715795 0.97378147 -0.44353914 -0.89442927 0.5878173 0.12938596 -0.51825225 -0.29412577 0.44029078 0.07788305 -0.23414013 0.2378391 -0.58522207 0.73011756 0.47699684 0.30436015 -0.23902446 -0.8935045 0.6049498 0.32547364 1.1307378 -1.0447474 0.22113253 0.047983177 0.17598514 1.0069318 -0.45879105 0.8220455 -0.82171035 1.0375857 -1.5213734 0.502206 -1.0135005 1.1348604 -1.4507371 1.3745325 -0.79261523 0.39254853 -0.28709528 -0.9456905 1.0839065 0.6621138 -0.46396413 -0.85770774 -0.80264497 -0.8487338 -0.18445125 0.78280777 -0.004991485 -0.093430266 0.46847495 0.53958553
2703 0.3176992 1.3793572 0.118429944 0.19953597 -0.31280816 -1.229172 0.19910346 0.5965968 -1.0739251 -1.027855 -0.299756 -0.600092 -0.60163397 0.3422297 -0.25624037 0.30706838 0.120959684 0.41267666 -1.0565944 0.13788614 0.47150236 0.5996397 1.0219451 -0.2679547 0.6075128 1.772844 -0.068335444 -1.171876 -0.5807427 -1.0183117 0.49268967 -0.28282702 0.033869952 1.0994136 -0.85245603 0.3732115 -0.1745481 0.8190843 -0.03821158 -0.37286723 -0.8881749 0.7539838 -0.47217092 0.23148976 -0.20897515 0.80644417 0.24420752 0.5110093 1.0965017 0.20489721 1.1161588 -0.12966904 -0.41903237 0.10406041 -0.19413587 -0.37370706 -0.18771447 -0.7091389 -0.8046191 0.31498027 0.25616395 0.2214164 -0.021848377 0.22619729
